#ifndef _MODEL_H_
#define _MODEL_H_

#define IN_SHAPE 13

#define SHAPE_L_1 32
#define SHAPE_L_2 32
#define SHAPE_L_3 16
#define SHAPE_L_4 8
#define SHAPE_L_5 4
#define SHAPE_L_6 2

const float weights_l1[SHAPE_L_1][IN_SHAPE]{
    {0.11943946778774261, -0.1268107146024704, -0.379280149936676, -0.08105751127004623, -0.10148616880178452, -0.10934941470623016, 0.2943725287914276, 0.35225507616996765, 0.13677111268043518, -0.3487851321697235, 0.22823026776313782, 0.2477351427078247, 0.21796230971813202},
    {-0.18741574883460999, 0.08971542865037918, 0.5035462975502014, -0.02728430926799774, 0.431491494178772, 0.30297765135765076, -0.009448977187275887, 0.5274481177330017, -0.06150779500603676, -0.06324116140604019, 0.08651310205459595, 0.004924667999148369, -0.5194286108016968},
    {0.2434413731098175, 0.21781203150749207, 0.5277629494667053, 0.14603625237941742, 0.18263991177082062, -0.25417640805244446, 0.4222642481327057, 0.43627142906188965, 0.249150350689888, -0.011373760178685188, -0.2785438597202301, -0.11083612591028214, -0.42091524600982666},
    {-0.3282233476638794, -0.3532792031764984, -0.2870503067970276, -0.2165272980928421, 0.06537675857543945, -0.18844781816005707, -0.1240805983543396, -0.22401151061058044, -0.33467748761177063, -0.30038294196128845, -0.35391175746917725, -0.1515020877122879, -0.3015885055065155},
    {0.08880923688411713, 0.15181231498718262, 0.0011648772051557899, 0.2763333022594452, -0.30065926909446716, 0.0993308275938034, -0.23859092593193054, 0.36556336283683777, -0.017114415764808655, 0.0539480522274971, 0.29157716035842896, 0.12155459076166153, 0.5321927070617676},
    {-0.2972767651081085, 0.4104074239730835, -0.4359759986400604, -0.29038044810295105, -0.0958893895149231, -0.11355389654636383, -0.3191722631454468, -0.45665180683135986, -0.17173653841018677, 0.27633196115493774, 0.37836650013923645, 0.39244648814201355, 0.2770513892173767},
    {0.15109512209892273, -0.23564328253269196, -0.05471210181713104, 0.17027364671230316, -0.45257875323295593, 0.1717560589313507, -0.06638476997613907, 0.05352470651268959, -0.3464798033237457, 0.3118603229522705, 0.11505787074565887, 0.285179078578949, 0.3127247095108032},
    {-0.3979741036891937, -0.2838858664035797, 0.4164743423461914, -0.4132133722305298, 0.20872659981250763, -0.04716240614652634, 0.15359364449977875, 0.08166129142045975, 0.32136502861976624, 0.2586430609226227, 0.23073293268680573, -0.09372593462467194, 0.4062063992023468},
    {-0.23847365379333496, -0.04856168106198311, -0.45469847321510315, -0.141217440366745, -0.24835579097270966, -0.21322748064994812, -0.2778252363204956, -0.2564757466316223, 0.08684951812028885, 0.5077286958694458, -0.15085910260677338, -0.10915665328502655, 0.35055360198020935},
    {0.15635599195957184, -0.11821068078279495, 0.09085345268249512, -0.25355595350265503, 0.265194296836853, -0.4985116720199585, 0.12672923505306244, -0.32797491550445557, -0.3037547767162323, -0.33162856101989746, 0.2878097593784332, -0.0552385039627552, -0.21896740794181824},
    {0.36357858777046204, -0.29334673285484314, 0.482126921415329, -0.336117148399353, 0.16455402970314026, -0.26471763849258423, 0.20618782937526703, -0.16431830823421478, 0.4691352844238281, 0.297468900680542, -0.10888516157865524, 0.030428355559706688, -0.3589189946651459},
    {-0.059313174337148666, -0.47020673751831055, -0.044519223272800446, -0.010707749985158443, 0.23279473185539246, -0.112086221575737, -0.25806060433387756, 0.2008543759584427, -0.3747389316558838, -0.05952874943614006, 0.27818840742111206, 0.19313465058803558, -0.6636640429496765},
    {-0.05485153570771217, 0.3082055449485779, -0.2498258501291275, 0.1366877406835556, -0.13433778285980225, -0.3728715777397156, -0.12445340305566788, 0.33026665449142456, -0.3167765140533447, 0.14924797415733337, -0.13684676587581635, -0.052738990634679794, -0.32415851950645447},
    {0.10593453049659729, -0.32480430603027344, -0.3488815426826477, 0.3463166058063507, 0.45233577489852905, 0.24867574870586395, -0.3593367338180542, -0.11617149412631989, -0.3398091495037079, -0.3547540009021759, -0.2467113435268402, 0.05631639435887337, 0.05824442580342293},
    {-0.1705261617898941, -0.07260338217020035, 0.03777892142534256, 0.49907389283180237, -0.2703416645526886, -0.12459268420934677, 0.34710025787353516, -0.014621601440012455, -0.1883431375026703, -0.2061764895915985, -0.05670924857258797, -0.2426917999982834, 0.11375688016414642},
    {-0.22933515906333923, 0.1435656100511551, 0.2093188315629959, 0.4333423376083374, -0.09653906524181366, 0.2586425542831421, 0.5396469831466675, -0.04150843992829323, -0.18646278977394104, 0.1457664519548416, -0.29390984773635864, 0.412030965089798, 0.515587329864502},
    {0.09425562620162964, -0.35449662804603577, -0.1023896336555481, 0.27234947681427, -0.006403233855962753, 0.1304021179676056, 0.17461536824703217, 0.4520198702812195, -0.10628163814544678, 0.17824633419513702, 0.23927424848079681, -0.10967876762151718, -0.14608506858348846},
    {-0.0926305502653122, 0.14775684475898743, 0.29329681396484375, 0.5227984189987183, -0.06633154302835464, 0.05977819487452507, 0.07578365504741669, 0.0687597244977951, -0.14229033887386322, -0.02597246877849102, -0.3451436460018158, 0.36586785316467285, 0.011022084392607212},
    {0.24634714424610138, -0.3488800823688507, -0.4367046654224396, -0.4451149106025696, 0.41285765171051025, 0.06678494065999985, -0.5309451222419739, -0.13683949410915375, -0.0356018990278244, 0.035688288509845734, 0.11101008951663971, 0.4969790279865265, -0.0674847662448883},
    {-0.21188487112522125, -0.41177868843078613, -0.01789148524403572, 0.02322724647819996, 0.19036532938480377, 0.13880567252635956, 0.3826695680618286, 0.06947667896747589, -0.2541767656803131, 0.017126930877566338, 0.12091846764087677, -0.11893147230148315, -0.7247307896614075},
    {-0.2432391196489334, 0.11625081300735474, 0.1431223452091217, 0.308662474155426, 0.19114941358566284, -0.041087016463279724, 0.29811131954193115, 0.11857807636260986, 0.09049997478723526, -0.1520313024520874, 0.08937820792198181, 0.4041295349597931, 0.3729725182056427},
    {-0.08795594424009323, -0.07003137469291687, -0.01494893990457058, -0.2075110822916031, -0.43849948048591614, 0.07444998621940613, 0.49636709690093994, 0.1649933159351349, 0.11808906495571136, -0.07305930554866791, -0.5235540866851807, 0.5275915265083313, 0.327016681432724},
    {0.2015768587589264, 0.14066456258296967, 0.4044131934642792, 0.007401634939014912, -0.050241850316524506, -0.010565156117081642, -0.08833890408277512, 0.4403798282146454, -0.059661995619535446, 0.17022451758384705, 0.1322549432516098, 0.20449243485927582, -0.16479608416557312},
    {0.2629183232784271, 0.07204973697662354, -0.00800273660570383, -0.09654419124126434, -0.5251173973083496, 0.08748826384544373, -0.018155165016651154, 0.2927428185939789, 0.2869362533092499, 0.03710577264428139, -0.23933164775371552, 0.17817606031894684, -0.23558107018470764},
    {0.07737033069133759, 0.36682888865470886, -0.036556586623191833, -0.05801014229655266, -0.21203888952732086, 0.3996139466762543, -0.17291122674942017, -0.05458889156579971, 0.08641402423381805, -0.27100303769111633, 0.1763773262500763, -0.22197195887565613, 0.01141676027327776},
    {-0.2763858735561371, -0.12514421343803406, -0.499725878238678, 0.32744747400283813, 0.2059941440820694, 0.18297424912452698, -0.37857064604759216, 0.17389601469039917, -0.040471505373716354, -0.003246721811592579, 0.17255567014217377, -0.13623209297657013, 0.33609524369239807},
    {0.40978139638900757, -0.3899517357349396, -0.33171454071998596, -0.2973589599132538, -0.3258967697620392, 0.3039205074310303, 0.29676398634910583, -0.07827175408601761, -0.17866279184818268, 0.26157912611961365, -0.31028658151626587, -0.5409665703773499, 0.19437745213508606},
    {0.3172372579574585, 0.42349743843078613, -0.05312609672546387, 0.18772448599338531, -0.022112496197223663, 0.2882560193538666, 0.5288819670677185, -0.14243297278881073, -0.417803555727005, 0.28154727816581726, 0.045408062636852264, -0.35916265845298767, -0.1455092430114746},
    {0.20001812279224396, -0.1796598732471466, -0.3536446988582611, 0.22846102714538574, 0.36397066712379456, 0.04320446774363518, 0.09206949919462204, -0.16583982110023499, -0.17420780658721924, 0.2176075130701065, 0.3815416097640991, 0.17559880018234253, 0.36254388093948364},
    {-0.2945861220359802, 0.10851400345563889, -0.3883620798587799, 0.2228928953409195, -0.18201248347759247, 0.1950201690196991, 0.19969919323921204, 0.3190787434577942, 0.4743901193141937, -0.4470858573913574, -0.10419551283121109, 0.33575767278671265, -0.5539219975471497},
    {-0.2235376238822937, 0.2852773666381836, -0.246524378657341, 0.032152384519577026, -0.04144738242030144, 0.1568123996257782, 0.07484031468629837, 0.02086624875664711, 0.3418465256690979, 0.36742299795150757, 0.15930229425430298, 0.3984459638595581, 0.009743399918079376},
    {-0.13404397666454315, 0.2531071603298187, 0.36005011200904846, 0.3160732686519623, -0.3485495448112488, -0.09040314704179764, -0.1413617730140686, -0.22704103589057922, 0.2693256735801697, -0.3548574447631836, -0.2653646171092987, 0.35824382305145264, 0.0030083537567406893},
};

const float bias_l1[SHAPE_L_1] = {0.02201312966644764,   0.03459780290722847,   0.03178414702415466,   0.0,
                                  0.02546803094446659,   -0.013432014733552933, -0.017714543268084526, -0.006291139405220747,
                                  0.10934437811374664,   0.027192896232008934,  0.051285114139318466,  0.008510750718414783,
                                  -0.022837409749627113, 0.05715141072869301,   -0.025160474702715874, -0.010203933343291283,
                                  0.04708141088485718,   0.08063413947820663,   0.10067763179540634,   0.08233289420604706,
                                  -0.014172724448144436, 0.04932151734828949,   0.04224085062742233,   0.098625548183918,
                                  0.09716446697711945,   0.013338091783225536,  0.0951581671833992,    0.06862496584653854,
                                  0.009945200756192207,  -0.07938767224550247,  -0.02505849115550518,  0.10014943778514862};

const float weights_l2[SHAPE_L_2][SHAPE_L_1] = {
    {-0.0010674893856048584, -0.1001879870891571,  -0.21616196632385254,  0.2883114516735077,    -0.29705387353897095, 0.09605315327644348,  0.019275188446044922, -0.260966956615448,   0.14322024583816528, -0.144157275557518,   -0.09193207323551178,  0.09853297472000122,   0.22360172867774963,  -0.2661786675453186, 0.016386717557907104, 0.23099365830421448,
     -0.005224645137786865,  0.031816959381103516, -0.008337080478668213, -0.016229331493377686, 0.19708731770515442,  -0.11581768095493317, -0.07144637405872345, -0.12580333650112152, 0.23897501826286316, -0.11361116170883179, -0.029829084873199463, -0.016117125749588013, -0.15677642822265625, -0.2351592481136322, -0.09235444664955139, -0.0005917549133300781},
    {-0.18740224838256836, 0.3235287666320801,  0.21560509502887726, 0.15748926997184753,  -0.10665899515151978, -0.45976319909095764, -0.14415901899337769, 0.33237794041633606,  0.1294880509376526, -0.24089555442333221, 0.23131486773490906,    -0.16453838348388672, -0.1879502534866333,   -0.0853324607014656, -0.013487424701452255, -0.18083034455776215,
     0.204835444688797,    0.19787411391735077, 0.16681599617004395, -0.06187828257679939, -0.09485650807619095, -0.5403583645820618,  0.30917489528656006,  -0.38416802883148193, 0.1288428008556366, -0.4893631637096405,  -0.0006085570203140378, 0.08344067633152008,  -0.010908503085374832, 0.08845185488462448, -0.3138270080089569,   0.021095864474773407},
    {0.2445356547832489,  -0.25179523229599,     -0.03595581650733948,   -0.2247384935617447, -0.18591392040252686, -0.2436089813709259, 0.12019377946853638,  -0.0004897713661193848, -0.060149773955345154, 0.0036822259426116943, -0.023719608783721924, 0.1815313994884491,  -0.17477229237556458, -0.24928541481494904, 0.09252583980560303, 0.2766347825527191,
     -0.0435158908367157, 0.0024047791957855225, -0.0025478601455688477, 0.10837841033935547, 0.011662036180496216, 0.17453277111053467, -0.26104578375816345, 0.25785937905311584,    0.055965542793273926,  -0.14754252135753632,  -0.19711825251579285,  -0.1990664005279541, -0.25961950421333313, -0.16006283462047577, 0.17001944780349731, 0.13313841819763184},
    {0.33882996439933777, -0.03974108025431633,  -0.29531267285346985,  -0.12870919704437256, 0.1735655665397644,  -0.06899067759513855, -0.1304585337638855, -0.25748032331466675, 0.12272989004850388, -0.47224074602127075, 0.12053777277469635, 0.08477456122636795, 0.17057445645332336,  -0.11764024198055267, 0.2596402168273926,  -0.011404687538743019,
     0.20514214038848877, -0.062074434012174606, -0.049646519124507904, -0.5399166941642761,  0.31795692443847656, 0.41035541892051697,  0.1112697422504425,  -0.33942320942878723, 0.26612213253974915, -0.14947713911533356, 0.30130377411842346, -0.3212292194366455, -0.07876840233802795, 0.09208381175994873,  0.05036818981170654, -0.3086855113506317},
    {-0.07136619836091995, -0.0840892344713211, -0.09463948011398315, 0.1358400285243988,    -0.011231636628508568, 0.34840139746665955, 0.09055444598197937, 0.15659596025943756, 0.3506806790828705,    0.1348220854997635, 0.39687255024909973,   0.3375127613544464,   0.1551947295665741,   -0.2006828784942627,  0.25693562626838684, -0.5463477969169617,
     0.024907076731324196, -0.5714390873908997, 0.030377330258488655, -0.025173932313919067, -0.18244953453540802,  0.01961863413453102, 0.07360603660345078, 0.29093673825263977, -0.014293589629232883, -0.456674724817276, -0.015411559492349625, -0.24986359477043152, -0.17014279961585999, -0.16492784023284912, 0.15301133692264557, -0.014115565456449986},
    {0.06902361661195755, 0.042322564870119095, 0.435560941696167,   -0.2102985680103302,  -0.20962508022785187, -0.3923019766807556, -0.05343528091907501, -0.5614789724349976, 0.24055474996566772,  0.3691076636314392,  0.20678925514221191, 0.06192873790860176,  0.23198117315769196,  0.037081122398376465, -0.1781468242406845, 0.03466745465993881,
     -0.1191803365945816, 0.1482740044593811,   0.06459270417690277, -0.09051410108804703, 0.36539071798324585,  -1.0489530563354492, 0.18619951605796814,  0.2242341786623001,  -0.42337119579315186, -0.5656006932258606, -0.1169990748167038, -0.24130724370479584, 0.015436028130352497, 0.10087350010871887,  0.19673551619052887, 0.1297542154788971},
    {-0.1775062531232834, 0.36545899510383606, 0.11377494037151337, 0.06697875261306763,  0.27037665247917175, 0.09406924992799759, -0.13584820926189423, -0.22983144223690033,  0.3929795026779175,  -0.1800995022058487, 0.1269286423921585,  -0.13240230083465576, 0.24989929795265198, -0.13962846994400024, -0.09125974774360657, 0.14973336458206177,
     0.17531795799732208, 0.06401856243610382, -0.2474026083946228, -0.04631296917796135, 0.06078369915485382, 0.15146423876285553, -0.12405598163604736, -0.037796519696712494, 0.29941749572753906, 0.25853314995765686, 0.32715603709220886, 0.031306903809309006, 0.14362649619579315, -0.15590742230415344, -0.0968969315290451,  -0.32089048624038696},
    {0.011671286076307297, -0.17417921125888824, -0.1954243779182434,  0.11905297636985779,  -0.08276168256998062, -0.23625048995018005, 0.17438042163848877, 0.08355874568223953,  0.05561438202857971, 0.028763869777321815, -0.27141034603118896, -0.08365590125322342, 0.141214519739151,   -0.26340219378471375, -0.24634520709514618, -0.15856991708278656,
     0.11450771242380142,  0.03802022337913513,  -0.04534363001585007, -0.16038726270198822, 0.127760648727417,    0.227569580078125,    0.12096203863620758, -0.14666254818439484, 0.3633330762386322,  0.25081679224967957,  0.08682725578546524,  -0.02611732855439186, 0.17313769459724426, 0.21884869039058685,  -0.14238427579402924, 0.3396674394607544},
    {0.1942751258611679,   -0.24746260046958923, -0.3134695887565613, 0.28736570477485657, -0.1177612692117691, -0.09726128727197647, 0.3074917197227478,   0.36714187264442444, 0.17899221181869507,   -0.06597498059272766,  0.16775403916835785, 0.1764012724161148,  -0.16864801943302155, -0.36559024453163147, 0.5326231718063354,    -0.012447616085410118,
     -0.17762576043605804, 0.21842055022716522,  0.3689650297164917,  -0.1867833137512207, 0.2052227407693863,  0.9114584922790527,   -0.08523566275835037, -0.2099071592092514, -0.020585879683494568, -0.039620038121938705, 0.5768436193466187,  0.19256222248077393, 0.28781068325042725,  0.46607404947280884,  -0.029090818017721176, -0.2008306235074997},
    {0.01531083881855011, -0.29221928119659424, 0.3607613742351532,  0.05615052580833435,  -0.2875964939594269,  -0.16978523135185242, 0.1294325441122055,  0.1939823478460312,  -0.02293497882783413, -0.04651505872607231, 0.0972668007016182,  0.24797837436199188, -0.033590152859687805, 0.0057988595217466354, -0.2402813732624054, 0.036833230406045914,
     0.0646822452545166,  0.28210410475730896,  -0.4311542809009552, -0.31502407789230347, -0.44378772377967834, -0.4917370080947876,  -0.2778291702270508, -0.1744866967201233, 0.33088627457618713,  0.17498387396335602,  0.36354586482048035, 0.3319587707519531,  -0.17221146821975708,  -0.2597397565841675,   -0.0716484859585762, 0.24286992847919464},
    {0.19191083312034607, -0.45058473944664,   0.10610326379537582,  -0.07870350778102875, 0.24934200942516327,  -0.3572070002555847, 0.06220564618706703, 0.03874170407652855, -0.28461048007011414, 0.04095122590661049, 0.03379493206739426, 0.11799323558807373, 0.12009453773498535, 0.12189331650733948, 0.018171507865190506, 0.4377257227897644,
     0.2878560423851013,  0.12312906980514526, -0.26461753249168396, 0.32147568464279175,  -0.07144268602132797, 0.34021496772766113, 0.1374436914920807,  0.24003201723098755, -0.3678218722343445,  0.25383055210113525, 0.11307550221681595, 0.13248774409294128, -0.2513251304626465, 0.08186573535203934, 0.11910729855298996,  0.4054059684276581},
    {0.32638636231422424, 0.31314656138420105, -0.09439872205257416, -0.24108782410621643, 0.02205025404691696, 0.07426926493644714, -0.1615452617406845,  0.03462832793593407, 0.27068978548049927,  0.025267967954277992, 0.28830814361572266,  -0.12344818562269211, 0.03924480080604553,  -0.03760538622736931, -0.11560153216123581, 0.15344543755054474,
     0.22924071550369263, 0.14649327099323273, 0.3811536431312561,   -0.220550075173378,   0.3276527523994446,  0.5847262144088745,  -0.13829748332500458, 0.07489614188671112, -0.01592867262661457, -0.08496701717376709, -0.08453327417373657, 0.10348539799451828,  -0.11203230172395706, 0.4760448634624481,   0.11754793673753738,  -0.21214909851551056},
    {0.021222583949565887, -0.17580664157867432, 0.15182840824127197, 0.11754158139228821, 0.2699645757675171,  0.0334288589656353,  -0.2646607458591461, -0.11373305320739746, 0.5189040899276733,   -0.1831328123807907, -0.05343738943338394, -0.28285452723503113, -0.1790204793214798, 0.21455611288547516, 0.023873619735240936, 0.3386698365211487,
     0.09715518355369568,  0.27637699246406555,  0.12181146442890167, -0.5708858966827393, 0.15435145795345306, 0.24890032410621643, 0.02116832695901394, -0.0502198226749897,  -0.06540001183748245, 0.2776634097099304,  0.1667872816324234,   -0.22264929115772247, 0.06819604337215424, 0.11991692334413528, -0.30132541060447693, 0.030323756858706474},
    {-0.17943666875362396, 0.24838392436504364, 0.0035254303365945816, 0.18953737616539001,  -0.06520164757966995, -0.22485141456127167, -0.05365122854709625, -0.4203714430332184, 0.29931625723838806, -0.01683550886809826, 0.30975452065467834, 0.19081436097621918, -0.10940881818532944, -0.014924321323633194, 0.09375111013650894,  0.0603409968316555,
     0.183492973446846,    -0.3059889078140259, 0.18640947341918945,   -0.34749191999435425, 0.15478308498859406,  0.3671548068523407,   -0.09942074120044708, -0.3965318202972412, 0.3497382402420044,  -0.1570451408624649,  0.36743277311325073, 0.10203351080417633, 0.26798105239868164,  0.4416039288043976,    -0.06017478182911873, -0.29456451535224915},
    {0.1927841454744339,   -0.21094335615634918, -0.1503838151693344, -0.037685126066207886, 0.33834901452064514, 0.3695085644721985,  -0.11830303817987442, -0.08324690163135529, 0.2229444682598114,  0.08950675278902054,  -0.31342941522598267,  0.20276278257369995,  0.08603271096944809, -0.46742552518844604, -0.07126250863075256, 0.1521562933921814,
     -0.28760233521461487, -0.07210680097341537, 0.2925926148891449,  -0.49699363112449646,  0.14834149181842804, 0.35432863235473633, 0.2041211873292923,   -0.2156422734260559,  0.16069523990154266, -0.05745747685432434, -0.002905473345890641, -0.13524866104125977, 0.17877425253391266, 0.5011159777641296,   0.225363090634346,    0.14433878660202026},
    {0.28701987862586975,  0.12322298437356949,  0.08232450485229492, -0.010166853666305542, -0.2666354179382324, 0.00010177651711273938, -0.21216203272342682, -0.26601412892341614,  0.01726691983640194, -0.3925846815109253, 0.33694109320640564, -0.23363721370697021, 0.2870230972766876,    -0.2128085345029831, -0.15258930623531342, 0.1964813470840454,
     -0.12798483669757843, -0.10040808469057083, 0.3533775508403778,  -0.0516146644949913,   0.19031459093093872, -0.2177160084247589,    -0.1698596328496933,  -0.042292915284633636, -0.2854437232017517, -0.5718201398849487, 0.3320308327674866,  -0.21652346849441528, -0.014643370173871517, 0.30347177386283875, 0.33417925238609314,  0.4126887619495392},
    {0.16753807663917542,  -0.27566468715667725, -0.46353426575660706,  -0.12894418835639954, 0.10226737707853317, -0.0024460535496473312, 0.05108023062348366,  0.5283582210540771,   -0.13133351504802704,  0.4961368441581726,   -0.21297825872898102, -0.17295971512794495,  0.1550215780735016,  -0.25370344519615173, -0.1700163185596466,   0.1501108705997467,
     -0.08021608740091324, -0.19072209298610687, -0.029462356120347977, -0.27309927344322205, 0.27703210711479187, -0.2904339134693146,    -0.27988117933273315, -0.19074879586696625, -0.023402685299515724, -0.22871321439743042, 0.14946027100086212,  -0.051795657724142075, -0.0538036935031414, -0.20540089905261993, -0.027651779353618622, 0.19119326770305634},
    {0.2468787431716919,  0.02916552871465683, -0.10270483046770096, 0.05694732069969177,  0.08429334312677383, -0.38986116647720337, 0.2033725082874298,  -0.060688067227602005, 0.34288379549980164, -0.17355337738990784, -0.15320265293121338, -0.16476702690124512, -0.10326119512319565, 0.2924482226371765,   -0.21542271971702576, 0.1579800695180893,
     0.13772021234035492, 0.16992393136024475, -0.2569955587387085,  -0.36983948945999146, 0.2820943593978882,  0.16766920685768127,  0.02949788235127926, -0.06298919022083282,  0.21383102238178253, 0.009490445256233215, 0.01960647664964199,  0.004333105869591236, 0.12601245939731598,  -0.10470423102378845, -0.15391144156455994, -0.027954714372754097},
    {0.22251740097999573, -0.41022706031799316, 0.2958216965198517,   -0.011079579591751099, 0.006105758249759674, -0.3381770849227905, 0.33700016140937805, -0.22312456369400024, 0.37795427441596985, -0.05167440325021744, 0.15363091230392456, 0.15772968530654907, 0.14259642362594604,  -0.0341092124581337, 0.23148483037948608, 0.4261972904205322,
     0.1783641278743744,  -0.13743239641189575, -0.08358726650476456, 0.2799028158187866,    -0.0985642820596695,  0.8500548601150513,  0.14068539440631866, -0.3498186469078064,  -0.187865749001503,  -0.1357755810022354,  0.39558646082878113, 0.42198190093040466, -0.17230753600597382, 0.1371842920780182,  -0.2169760912656784, 0.4892592430114746},
    {0.26670628786087036,  -0.5297061800956726, -0.23218503594398499, -0.11938893795013428, 0.17456787824630737, 0.1796448677778244, 0.17444805800914764,  -0.14868570864200592, -0.1773729920387268, 0.009368104860186577, -0.3260475695133209,  0.1601698398590088,  0.2994336187839508,  0.07108261436223984, 0.42158982157707214,  0.057309288531541824,
     -0.10579033941030502, 0.6366599798202515,  0.5517695546150208,   0.18068383634090424,  0.3591836392879486,  0.5566765666007996, -0.24352242052555084, -0.23190589249134064, -0.1948515921831131, 0.15400178730487823,  -0.12056320905685425, 0.10477214306592941, -0.1913599967956543, 0.6437247395515442,  -0.04721911624073982, 0.26995280385017395},
    {-0.29515552520751953, -0.3675779104232788,  -0.22804316878318787, -0.046210408210754395, 0.27391576766967773, 0.18038572371006012, 0.24657262861728668,  0.15210522711277008, -0.42528319358825684, 0.30812057852745056, 0.11148513853549957, 0.28651541471481323, -0.1954207867383957, 0.1684940904378891,   -0.17998971045017242, -0.008290871977806091,
     0.19316424429416656,  -0.08942733705043793, 0.20661009848117828,  0.19388745725154877,   0.16575504839420319, -0.6813423037528992, -0.16252999007701874, 0.26986387372016907, 0.12542103230953217,  0.03525211662054062, 0.2186092585325241,  0.05533329397439957, 0.02466237172484398, -0.17020505666732788, -0.1261560618877411,  0.45899778604507446},
    {0.10690191388130188,  -0.1333785355091095, 0.22521312534809113, 0.1962096393108368,   -0.27245795726776123, -0.10038939118385315, 0.01077115535736084, -0.24147868156433105, 0.21067366003990173,  -0.16874152421951294, -0.09145262092351913, -0.23616576194763184, 0.01818082109093666,  0.07709330320358276, -0.054652392864227295, 0.17586453258991241,
     -0.20929668843746185, -0.3032604455947876, 0.3032325804233551,  0.023159772157669067, -0.04732688516378403, -0.28275591135025024, -0.0923546776175499, -0.23754534125328064, -0.29011502861976624, 0.11930930614471436,  -0.02645084261894226, 0.21418911218643188,  -0.29392749071121216, -0.1775781363248825, -0.15737296640872955,  -0.12919582426548004},
    {-0.3152516782283783,   0.00922470260411501,  0.09065510332584381, -0.24377357959747314, 0.0016749100759625435, 0.231159508228302,  0.1018122211098671, -0.15156996250152588, -0.12174984812736511, 0.0840204581618309,  0.007021293044090271, 0.021394871175289154, -0.23241984844207764, 0.24613113701343536, -0.04239000752568245, -0.21406243741512299,
     -0.051301632076501846, -0.00340683339163661, 0.18925724923610687, -0.31728458404541016, 0.034282416105270386,  0.0524410605430603, 0.170323446393013,  -0.29759204387664795, 0.00759543851017952,  0.13681524991989136, 0.02487579919397831,  -0.09867002815008163, -0.1883355975151062,  -0.0937628522515297, -0.32302016019821167, -0.19659176468849182},
    {-0.1645238995552063,  -0.20520885288715363, 0.028937434777617455, -0.032556235790252686, 0.09477407485246658, 0.05290096625685692, -0.15495648980140686, 0.37531885504722595,   -0.24919505417346954, 0.3124936819076538,  0.15137305855751038, 0.13508857786655426, 0.07438983023166656, 0.39421913027763367, -0.38125064969062805, 0.1743191033601761,
     -0.24585461616516113, -0.04425531625747681, -0.13644622266292572, 0.2292506992816925,    -0.2129341959953308, -0.7715768218040466, -0.20101064443588257, -0.019768845289945602, -0.23541924357414246, 0.10541673749685287, 0.13975851237773895, 0.09875547885894775, 0.2331005036830902,  0.05895024538040161, -0.5197814106941223,  -0.28495141863822937},
    {-0.014125846326351166, 0.03202163055539131, 0.03184662014245987, -0.0997391790151596,  -0.281249076128006,  -0.3680061399936676, -0.3443814218044281, 0.3760012984275818,  -0.49833327531814575, -0.17215803265571594, 0.06004440039396286, -0.33290737867355347, -0.17585121095180511, -0.2646711766719818, -0.12405602633953094, -0.059192582964897156,
     -0.15403710305690765,  0.3034120202064514,  0.13911287486553192, -0.11465901881456375, 0.31622233986854553, 0.37269288301467896, 0.25978702306747437, -0.1676618456840515, 0.012927996926009655, -0.2948688864707947,  0.11459490656852722, -0.1893606185913086,  -0.07820048183202744, 0.23609888553619385, 0.3911679685115814,   0.04578341543674469},
    {0.19986504316329956,  -0.000581907806918025, -0.2741067707538605, 0.14704129099845886, 0.3321100175380707,   -0.2152920365333557, 0.149038165807724,    -0.06583912670612335, 0.29354920983314514, -0.2273387610912323, 0.13440728187561035,   -0.37061047554016113, 0.17784181237220764, -0.22648315131664276, -0.23955553770065308,  -0.060343824326992035,
     -0.09674740582704544, -0.2983926236629486,   -0.2426433265209198, -0.7961371541023254, -0.04287610948085785, 0.6144887208938599,  -0.21999986469745636, 0.22409768402576447,  0.2576991021633148,  0.09800152480602264, -0.002786025172099471, -0.23618200421333313, 0.2703055739402771,  -0.10916490107774734, -0.046362362802028656, 0.1889377385377884},
    {0.1897309571504593,  -0.2506451904773712,  0.15183545649051666,   -0.12776529788970947, 0.16164159774780273,  -0.04958505928516388, -0.1445200890302658,  0.17259663343429565,   -0.22691704332828522, -0.19105389714241028, 0.09351665526628494,  0.044133082032203674, 0.20093609392642975,  -0.1579945683479309,   0.15720734000205994, -0.2495649755001068,
     -0.2684357762336731, -0.20115284621715546, -0.039622802287340164, 0.24590638279914856,  -0.21409286558628082, 0.06458434462547302,  0.037313397973775864, -0.007753429003059864, -0.20750285685062408, -0.26120659708976746, -0.25714442133903503, 0.21012210845947266,  -0.11118060350418091, -0.052416473627090454, 0.2900788486003876,  -0.1955198347568512},
    {-0.44630536437034607, -0.38713014125823975, 0.17679744958877563,  0.22406259179115295,  -0.026394249871373177, -0.17619264125823975, -0.28380969166755676,  0.2192171812057495,  -0.31516337394714355, 0.10372010618448257, 0.19144165515899658, 0.06199897453188896,  0.11286250501871109, 0.030120225623250008, 0.44255101680755615,  -0.24315810203552246,
     0.08071888983249664,  0.23865163326263428,  -0.32712647318840027, -0.14904829859733582, 0.15061518549919128,   -0.02114918828010559, -0.006363634951412678, 0.22634820640087128, 0.2035677582025528,   0.08653078973293304, 0.45757395029067993, 0.027702638879418373, -0.1790314018726349, 0.061148177832365036, -0.09590253233909607, 0.15606573224067688},
    {0.09187575429677963,  0.07476189732551575, -0.1053197905421257, -0.2479618489742279, -0.27662602066993713, -0.3786906599998474, 0.1479899287223816,   -0.16748875379562378, -0.00452772993594408,  0.13559913635253906, -0.04831239581108093, 0.3758213520050049,   -0.23265762627124786, 0.25118041038513184, -0.024436194449663162, -0.29702064394950867,
     0.008299252018332481, 0.31491297483444214, 0.2829679548740387,  0.16976718604564667, -0.3200679123401642,  -0.2761695981025696, -0.18703028559684753, 0.2904306650161743,   -0.046232983469963074, 0.303915798664093,   0.3394472002983093,   -0.15014544129371643, 0.1562744677066803,   -0.3847856819629669, 0.037809111177921295,  0.34378761053085327},
    {0.37540125846862793, 0.2629682421684265,   -0.15035107731819153, -0.2793004512786865, 0.31494760513305664,   0.18318688869476318, 0.037273310124874115, -0.25486651062965393, 0.4932330846786499,  -0.18126028776168823, 0.3321765661239624,  -0.15667428076267242, -0.2947555184364319, -0.10625030845403671, -0.41717836260795593, -0.2629789710044861,
     0.07051227986812592, -0.27560296654701233, 0.07203096151351929,  0.2356964647769928,  -0.054090529680252075, 0.2640745937824249,  0.1457420289516449,   0.07789420336484909,  0.31469646096229553, 0.21531929075717926,  -0.1653137356042862, 0.18231703341007233,  0.304466187953949,   0.18381574749946594,  -0.19840598106384277, -0.367367148399353},
    {-0.014945399016141891, 0.14715486764907837,  -0.29277220368385315, -0.2552877962589264, 0.29838886857032776, 0.037463512271642685, -0.10426614433526993, -0.02534141018986702, -0.17442606389522552, -0.00951902661472559, 0.31443703174591064,  0.13188877701759338, 0.18774104118347168,  0.2926691472530365,  -0.6272465586662292, 0.24204713106155396,
     0.25721046328544617,   -0.03232262656092644, 0.1397215873003006,   0.19537873566150665, 0.09487266093492508, -0.5929959416389465,  0.08569719642400742,  -0.0114790303632617,  -0.02886654995381832, 0.032067861407995224, -0.20913207530975342, 0.16126999258995056, -0.28695201873779297, -0.5375758409500122, 0.04107077419757843, -0.22431331872940063},
    {-0.23818035423755646, -0.2855088710784912, -0.0822817012667656, 0.031786173582077026, -0.1416301727294922, 0.1487899124622345,   0.31332990527153015, 0.18150590360164642, -0.32472285628318787, 0.2897433936595917,   -0.15898339450359344, -0.21056059002876282, -0.0034420061856508255, 0.2760491669178009,   -0.04823772609233856, 0.1690240055322647,
     0.09666968137025833,  0.5453729629516602,  0.18541219830513,    0.07625121623277664,  0.07281182706356049, -0.11315181851387024, 0.05835858732461929, 0.11896535754203796, 0.09425585716962814,  -0.12047974020242691, 0.36094728112220764,  0.09263552725315094,  0.043186936527490616,   -0.14871662855148315, -0.3504349887371063,  0.22859656810760498},
};

const float bias_l2[SHAPE_L_2] = {0.0,
                                  0.04662414267659187,
                                  0.0,
                                  0.019143998622894287,
                                  0.06315664947032928,
                                  0.06898397207260132,
                                  0.033812619745731354,
                                  -0.014759736135601997,
                                  -0.03404196351766586,
                                  -0.002524048089981079,
                                  -0.0017510000616312027,
                                  0.041365619748830795,
                                  -0.009709873236715794,
                                  0.0288185216486454,
                                  0.026656171306967735,
                                  0.010707571171224117,
                                  -0.11368933320045471,
                                  0.02457209676504135,
                                  0.04302329942584038,
                                  0.00315558142028749,
                                  -0.0025820888113230467,
                                  -0.0051231905817985535,
                                  -0.027881866320967674,
                                  -0.0011673494009301066,
                                  -0.023747213184833527,
                                  0.06390853971242905,
                                  -0.009680146351456642,
                                  0.00790467020124197,
                                  0.03558840975165367,
                                  0.03519853204488754,
                                  0.03229978308081627,
                                  -0.04491642117500305};

const float weights_l3[SHAPE_L_3][SHAPE_L_2] = {
    {0.2554379403591156,  0.005861057434231043, -0.02001705765724182, -0.08029931038618088,  0.2007206529378891,  -0.0010235602967441082, -0.15582089126110077, 0.3060248792171478, -0.006455658469349146, 0.22235065698623657,  -0.364374577999115,  -0.13940849900245667, -0.4209825098514557,  0.30279120802879333,  -0.01840571127831936, -0.34742364287376404,
     0.31505683064460754, -0.26006877422332764, -0.12157867103815079, -0.002529971534386277, 0.16550619900226593, 0.22954782843589783,    0.12460415065288544,  0.2874257266521454, -0.0514494962990284,   -0.41147491335868835, -0.2013450413942337, 0.29701030254364014,  -0.11689450591802597, -0.15493565797805786, 0.24760165810585022,  -0.14651446044445038},
    {-0.12400099635124207, 0.4316112697124481,  -0.03642171621322632, 0.3045111298561096,   -0.2683853209018707, 0.30437272787094116,   0.23143383860588074, 0.18435730040073395, 0.13716255128383636, -0.22957022488117218, -0.008583073504269123, 0.23485317826271057,  0.046430137008428574, 0.38266581296920776, 0.17884542047977448,  -0.32822948694229126,
     -0.7531582713127136,  0.16228491067886353, 0.17350690066814423,  -0.09233225882053375, -0.3144252896308899, -0.012222792953252792, 0.2536911368370056,  -0.5867823362350464, -0.904664933681488,  0.2706225514411926,   0.3456208407878876,    -0.43939024209976196, -0.3324834704399109,  0.3216194808483124,  -0.33111342787742615, -0.11265242099761963},
    {-0.05815547704696655, 0.44100379943847656, 0.2777853310108185,    0.1905021220445633, -0.6441488265991211, -0.17669536173343658, 0.340493768453598,    0.2607201039791107,   0.07664477080106735, -0.6092156171798706, -0.0889158844947815, 0.20590132474899292,  0.26645004749298096,  0.24390898644924164,  0.08289021253585815,  -0.22062784433364868,
     -0.6835911870002747,  0.05849650502204895, -0.053702518343925476, 0.5364091992378235, -0.3271256387233734, -0.17847350239753723, -0.06658373028039932, -0.37145259976387024, -0.7436515092849731, 0.2210742086172104,  0.27887263894081116, -0.25631779432296753, -0.17557097971439362, -0.00774284265935421, -0.42037102580070496, 0.050679877400398254},
    {0.04057013988494873, 0.8979780077934265,  -0.22032028436660767, 0.0572221577167511,  -0.8236678242683411, -0.329854279756546,   -0.2444804608821869,  0.26176342368125916, 0.253615140914917,   -0.10557026416063309, -0.36276623606681824, 0.20795153081417084,   -0.2880532741546631,  -0.1933770775794983, 0.22518384456634521, 0.2092982530593872,
     0.1850127875804901,  -0.3323879837989807, -0.701537013053894,   0.17207112908363342, 0.2271328717470169,  -0.35211819410324097, -0.18895070254802704, -0.4204597473144531, -0.2749377191066742, -0.07468944787979126, -0.24482661485671997, -0.035912904888391495, -0.49041956663131714, 0.22299660742282867, 0.23277702927589417, 0.012089662253856659},
    {0.07987004518508911, -0.6339148879051208,  -0.25295770168304443, -0.4047237038612366, 0.2048511654138565, 0.18424217402935028,  -0.36523330211639404, -0.07981082051992416, -0.11614977568387985, -0.025766750797629356, 0.15070292353630066, -0.06707035005092621, 0.38668882846832275, 0.027180636301636696, 0.1966041773557663,  -0.5618934631347656,
     0.6710413694381714,  -0.04842819646000862, 0.10175464302301407,  0.7251542210578918,  0.4040478765964508, 0.028804298490285873, -0.20362471044063568, 0.7232217788696289,   -0.04414472356438637, -0.07662132382392883,  0.02778742089867592, 0.19845597445964813,  0.40075239539146423, -0.184439554810524,   0.06361725926399231, 0.07823855429887772},
    {-0.3288315534591675, -0.39236125349998474, -0.1878129243850708,  0.24372249841690063,  0.48700007796287537,  0.8658362030982971,  0.2773860692977905,   -0.19071583449840546, 0.07280682027339935, 0.11029708385467529, -0.19113317131996155, -0.1210726946592331,  -0.24108129739761353,  -0.11156154423952103, 0.10719206184148788, 0.06355457752943039,
     -0.6550145745277405, 0.38053619861602783,  -0.30291813611984253, -0.10411861538887024, 0.002718942239880562, 0.03448356315493584, -0.21641118824481964, -0.23942357301712036, -0.6753455400466919, 0.5453294515609741,  -0.30312830209732056, -0.35073935985565186, -0.014784041792154312, 0.3650300204753876,   0.1991490125656128,  -0.262079656124115},
    {0.09907054901123047,  0.15904197096824646, -0.16539467871189117, 0.2659045159816742,   0.03746460750699043, -0.2646581828594208, -0.1953003853559494, -0.28135931491851807, 0.16406916081905365, -0.33399781584739685, -0.06676794588565826, -0.2486373335123062, -0.1019669622182846,  -0.31254440546035767, -0.2021281123161316, 0.19638940691947937,
     -0.14753365516662598, 0.1283583790063858,  -0.18500171601772308, 0.039435118436813354, -0.1866481751203537, -0.2452988624572754, 0.20060738921165466, -0.21919727325439453, 0.3047795593738556,  0.12396319210529327,  -0.19055427610874176, 0.07602390646934509, 0.030088504776358604, 0.2506333887577057,   -0.1971605122089386, -0.074134461581707},
    {-0.04648587107658386, -0.042810216546058655, -0.0615558922290802,  -0.2823025584220886,  0.1270321160554886,  -0.17224720120429993, -0.2378454953432083, -0.17496134340763092, 0.27389228343963623, -0.0347188375890255,  -0.08137208223342896, 0.143138125538826,   -0.19155484437942505, 0.2988152503967285,   -0.034495845437049866, 0.04122045263648033,
     -0.13439054787158966, -0.23594410717487335,  -0.13063085079193115, -0.11602895706892014, -0.3190152049064636, -0.06368741393089294, -0.131974458694458,  0.06514537334442139,  -0.3029628098011017, -0.18767131865024567, -0.10537790507078171, -0.3292653560638428, -0.20761683583259583, -0.22179585695266724, 0.0047676656395196915, -0.3156508803367615},
    {-0.1934015154838562, 0.024661362171173096, 0.320677250623703,  -0.0344441756606102, 0.14726433157920837,   0.5631951689720154,     0.17418017983436584, 0.1672060489654541, -0.1428253948688507,  -1.0069011449813843, 0.17979668080806732, 0.25948891043663025, 0.4186613857746124,  -0.2737923264503479,  -0.28003084659576416, -0.2618894875049591,
     -0.1582869440317154, -0.05398145690560341, -0.262839674949646, -0.2312999814748764, -0.039796147495508194, -0.0005457103252410889, 0.25458279252052307, 0.286425918340683,  -0.43869107961654663, -0.4537142813205719, 0.18219533562660217, -0.714146077632904,  0.14371073246002197, -0.28679728507995605, 0.326458215713501,    0.05935819074511528},
    {-0.15250591933727264, -0.006505083292722702, -0.31883347034454346, 0.2386407107114792,  0.3455210328102112, 0.06385627388954163,  -0.3908660411834717, -0.06850820034742355, 0.3085770010948181, -0.2903801500797272,  0.41853228211402893,   0.3138440251350403,  0.17626427114009857, -0.2636445462703705,  0.39832332730293274,  0.004129109438508749,
     0.7100329995155334,   0.08716638386249542,   0.01235447358340025,  0.46381092071533203, 0.4294884204864502, -0.19430506229400635, 0.3429487645626068,  0.03550685942173004,  0.5243996977806091, -0.25000494718551636, -0.004655770491808653, 0.29050663113594055, 0.48965293169021606, -0.32724735140800476, -0.44284144043922424, -0.0027551359962671995},
    {-0.045716673135757446, 0.3379897177219391,   -0.026958376169204712, 0.22756144404411316, -0.28621071577072144, -0.29340678453445435, 0.27488335967063904,  -0.28075188398361206, 0.09929940104484558, 0.05577141046524048, -0.29574713110923767, 0.09373223781585693, -0.30565348267555237,  -0.34318509697914124, -0.2601858973503113, -0.11580958962440491,
     -0.17042407393455505,  -0.31797200441360474, -0.30631208419799805,  -0.3431090712547302, -0.1378299742937088,  -0.3299609422683716,  -0.07952889800071716, 0.1221885085105896,   0.05298018455505371, 0.09979698061943054, 0.32279691100120544,  -0.2067091315984726, -0.060236185789108276, -0.12389369308948517, -0.0803423523902893, -0.34234610199928284},
    {0.2025299370288849,    0.03043171763420105, -0.21133491396903992, -0.323000967502594,  -0.10688306391239166, 0.1966451108455658,  0.2551102340221405,    -0.028863847255706787, -0.2576214373111725, 0.19805166125297546, -0.2231506109237671, -0.17500744760036469, -0.17673960328102112, -0.29095250368118286, -0.14193035662174225, -0.01578769087791443,
     0.0006104409694671631, -0.0720924437046051, -0.32649147510528564, 0.24361857771873474, -0.11309643089771271, 0.25419870018959045, -0.006349772214889526, 0.33798542618751526,   0.3376214802265167,  0.2962384521961212,  -0.3520066738128662, -0.3068980872631073,  -0.08714669942855835, 0.14350688457489014,  -0.20058216154575348, -0.2728765606880188},
    {0.05543094873428345,  0.18258881568908691,  0.27844491600990295,  -0.31815728545188904, -0.13382011651992798, 0.16457168757915497,   -0.1973189115524292,  0.08769074082374573, -0.3184402287006378, 0.1647702157497406, -0.20233868062496185, 0.027223756536841393, 0.10186969488859177, -0.17790259420871735, -0.21104086935520172, -0.1248890608549118,
     -0.31840914487838745, -0.18058398365974426, -0.36939698457717896, 0.1753443330526352,   -0.2831690013408661,  -0.040926188230514526, -0.10057461261749268, 0.3288906514644623,  0.2031250298023224,  -0.144735649228096, -0.08358699083328247, -0.2122037261724472,  -0.3682877719402313, -0.07058829069137573, 0.01261660922318697,  0.03119487874209881},
    {0.24596866965293884, -0.4322039484977722, -0.1315242052078247, -0.29153573513031006, 0.43556275963783264, 0.004324347712099552, -0.00040502409683540463, 0.19852206110954285, -0.27319106459617615, 0.08548279851675034, 0.12822522222995758,  0.07945653796195984, -0.10092928260564804, 0.17135891318321228, 0.07170416414737701,  0.09128989279270172,
     0.1331731528043747,  0.01254357397556305, -0.3550432324409485, 0.1842368245124817,   0.4126717746257782,  -0.08488087356090546, -0.13158446550369263,    0.12346183508634567, 0.4332388937473297,   0.19490188360214233, -0.16854938864707947, 0.4087531566619873,  0.08256219327449799,  0.31339895725250244, -0.04516035318374634, 0.21480590105056763},
    {0.07872086763381958, 0.3485404849052429,   0.2474021017551422,   0.5116463899612427,   0.14883460104465485, 0.46147382259368896, 0.26170673966407776,  0.4795040488243103,  -0.2335786372423172, -0.22009369730949402, 0.050872623920440674, 0.2948584258556366,   -0.06754064559936523, 0.30372193455696106,  0.1428603231906891,  0.6855411529541016,
     -0.5822008848190308, 0.057244449853897095, -0.33297020196914673, -0.09804049134254456, 0.0717502012848854,  0.0868074893951416,  0.018480507656931877, -0.4077516198158264, -0.7549158930778503, 0.48498237133026123,  -0.17032603919506073, -0.31517571210861206, -0.4354947507381439,  -0.24487096071243286, 0.20540063083171844, -0.11076675355434418},
    {0.3079739511013031, -0.21512064337730408, -0.14684635400772095, -0.2406006157398224, 0.11496804654598236, -0.6545100212097168, 0.2509576678276062,   0.2256736010313034,  0.38917216658592224, 0.04857969656586647,  -0.22949668765068054, 0.2201467752456665,  -0.3111289441585541,  -0.07914857566356659,  -0.20788614451885223, -0.9246721863746643,
     0.8796297311782837, -0.08575335144996643, 0.389616996049881,    0.30019640922546387, 0.40800344944000244, -0.3172440528869629, -0.17280344665050507, 0.21595041453838348, -0.4617341458797455, 0.017926445230841637, -0.04064174368977547, 0.35731077194213867, 0.017212018370628357, -0.006471117492765188, -0.10903774946928024, 0.3617337942123413},
};
const float bias_l3[SHAPE_L_3] = {-0.035082146525382996, 0.02946838177740574, 0.022503957152366638, -0.018753428012132645, 0.019887158647179604, 0.045173320919275284, -0.0074768089689314365, -0.016804296523332596, 0.04304368421435356, 0.033006396144628525, 0.0, 0.0, -0.02775971032679081, 0.05826370790600777, 0.08084313571453094, 0.029037926346063614};

const float weights_l4[SHAPE_L_4][SHAPE_L_3] = {
    {0.060073066502809525, -0.10790648311376572, 0.11519329249858856, -0.21079927682876587, -0.44258177280426025, 0.3493077754974365, 0.4835900366306305, -0.03324449062347412, -0.3678969740867615, -0.5714834332466125, 0.45527732372283936, 0.14562273025512695, 0.2045372724533081, 0.33539456129074097, -0.05592817813158035, -0.31076839566230774},
    {-0.35664236545562744, -0.07242238521575928, 0.2125754952430725, 0.0666884183883667, -0.16243430972099304, -0.47040948271751404, -0.16930389404296875, 0.29177844524383545, -0.08237256854772568, 0.05383344739675522, 0.48905789852142334, -0.2966223955154419, -0.4106968641281128, -0.14051784574985504, 0.08262133598327637, -0.41653314232826233},
    {-0.09022331982851028, 0.4094091057777405, 0.5183871984481812, 0.9138329029083252, -0.30073514580726624, -0.44225361943244934, 0.22453880310058594, -0.14652661979198456, 0.23031511902809143, -0.07740631699562073, 0.34620165824890137, 0.1805717945098877, -0.015293879434466362, -0.30244025588035583, 0.07426683604717255, -0.07263652235269547},
    {-0.5764430165290833, 0.4476708471775055, 0.2231738418340683, -0.21130648255348206, -0.16206897795200348, 0.5645214915275574, -0.10272560268640518, -0.17329490184783936, 0.49685901403427124, -0.3682343363761902, -0.24702954292297363, 0.3887685537338257, -0.03024713508784771, -0.01181025244295597, 0.49076324701309204, -0.3574194014072418},
    {0.3521185517311096, -0.10814912617206573, -0.5988256931304932, 0.157533660531044, 0.02185518853366375, 0.09322541952133179, 0.17916220426559448, 0.4408005177974701, -0.8926657438278198, 0.3075333535671234, -0.48601675033569336, -0.1306372880935669, 0.05775725841522217, -0.21925108134746552, 0.41529610753059387, -0.3848189115524292},
    {0.12046315521001816, -0.03303280100226402, 0.23151138424873352, -0.38244685530662537, 0.22591204941272736, -0.117855504155159, 0.20370249450206757, -0.0637674331665039, 0.21099582314491272, 0.006116047501564026, -0.4278055429458618, -0.08129405975341797, -0.20905494689941406, -0.13367298245429993, -0.975943386554718, 0.18387335538864136},
    {-0.24924810230731964, 0.05660558119416237, 0.25185269117355347, 0.23676924407482147, 0.35262182354927063, 0.3913513123989105, 0.17711153626441956, 0.2966328561306, 0.9736433625221252, 0.34990108013153076, 0.40802884101867676, -0.026454925537109375, 0.03925497829914093, 0.2605961263179779, -0.0019394912524148822, 0.12712691724300385},
    {0.5020436644554138, -0.2646043002605438, -0.08984968811273575, 0.29423701763153076, -0.17257854342460632, 0.11614881455898285, -0.4662797451019287, -0.3888767659664154, 0.07426109910011292, 0.012590600177645683, 0.017088890075683594, 0.21661508083343506, -0.4545351266860962, 0.3586691617965698, -0.6310925483703613, -0.052171722054481506},
};
const float bias_l4[SHAPE_L_4] = {0.004308671690523624, -0.009978190995752811, 0.03268841654062271, 0.013912147842347622, -0.0795341283082962, -0.030330704525113106, 0.0417502298951149, -0.03201115131378174};

const float weights_l5[SHAPE_L_5][SHAPE_L_4] = {
    {0.3253522515296936, 0.16657835245132446, 0.4309230148792267, -0.657175600528717, 0.31098678708076477, -0.4287215769290924, -0.1894455850124359, -0.1914311945438385},
    {0.70774245262146, 0.2919335663318634, 0.626847505569458, 0.8565037250518799, 0.4054350256919861, 0.5761626958847046, 0.08856172114610672, 0.1218670904636383},
    {0.09311547130346298, -0.45126765966415405, -1.0290164947509766, 0.7514039874076843, -0.1977544128894806, -0.37845534086227417, 0.16328908503055573, -0.503693163394928},
    {-0.7776487469673157, 0.4184022843837738, 0.5949875712394714, 0.270649254322052, -0.847027063369751, -0.22288569808006287, 0.7283393144607544, -0.37413638830184937},
};
const float bias_l5[SHAPE_L_5] = {-0.012559947557747364, -0.14929719269275665, -0.053350407630205154, 0.08447951078414917};

const float weights_l6[SHAPE_L_6][SHAPE_L_5] = {
    {-0.008741622790694237, -0.12658660113811493, -0.5058910846710205, 0.6952038407325745},
    {-2.2614977979174e-07, 0.7900616526603699, -0.14684544503688812, 0.2720753252506256},
};
const float bias_l6[SHAPE_L_6] = {0.11857957392930984, -0.09526317566633224};

#endif