#ifndef _MODEL_H_
#define _MODEL_H_

#define IN_SHAPE 13

#define SHAPE_L_1 64
#define SHAPE_L_2 32
#define SHAPE_L_3 16
#define SHAPE_L_4 8
#define SHAPE_L_5 4
#define SHAPE_L_6 2

const float weights_l1[SHAPE_L_1][IN_SHAPE]{
    {0.10075493156909943, 0.3566121459007263, 0.35607925057411194, 0.08709380775690079, 0.2170993983745575, -0.08201193809509277, -0.1741194725036621, 0.38416150212287903, -0.20034457743167877, 0.21927590668201447, -0.1141672432422638, 0.05771370604634285, -0.29104575514793396},
    {0.24916118383407593, 0.08565279841423035, 0.14077401161193848, -0.12863223254680634, 0.2259400486946106, -0.18976472318172455, -0.1417447328567505, 0.18547208607196808, -0.09313152730464935, 0.023837922140955925, -0.017866691574454308, 0.2519184947013855, -0.23705878853797913},
    {0.16126768290996552, -0.22596727311611176, -0.149835467338562, -0.10864199697971344, -0.22342588007450104, 0.03531395271420479, 0.1609470248222351, 0.18195724487304688, -0.1067662164568901, 0.250584214925766, 0.34821629524230957, 0.3159988820552826, -0.336956262588501},
    {0.18495967984199524, -0.12482716888189316, 0.16126440465450287, -0.10466267913579941, 0.30419692397117615, -0.25574636459350586, 0.18712472915649414, -0.16750113666057587, -0.29954764246940613, -0.12126456946134567, 0.07396946847438812, -0.2230500429868698, 0.013400652445852757},
    {-0.18246178328990936, -0.08709359169006348, 0.02968868985772133, -0.32737070322036743, -0.19422349333763123, 0.11981424689292908, 0.1480657011270523, 0.22301535308361053, -0.17803236842155457, 0.014099892228841782, -0.21602027118206024, 0.28824642300605774, 0.23759759962558746},
    {-0.09058330953121185, 0.04836568236351013, 0.24450504779815674, -0.1860712468624115, 0.2459801435470581, 0.3316989243030548, -0.014336925931274891, 0.07742617279291153, 0.16783979535102844, 0.22363218665122986, -0.011347370222210884, -0.11148647964000702, 0.3197847902774811},
    {0.1580025851726532, -0.2037685066461563, 0.2061389535665512, 0.22420679032802582, 0.15249116718769073, 0.2663359045982361, 0.15881182253360748, 0.2363402545452118, 0.16213767230510712, -0.08507372438907623, 0.036010149866342545, 0.22526352107524872, -0.1894763857126236},
    {0.03608667477965355, 0.108736053109169, 0.18128857016563416, -0.21058443188667297, -0.07717892527580261, 0.31086793541908264, -0.21314530074596405, -0.1674513965845108, -0.03345472738146782, -0.10554596781730652, 0.14846716821193695, -0.00760769983753562, 0.22425828874111176},
    {-0.21398741006851196, -0.2114025354385376, -0.16865500807762146, -0.048610687255859375, 0.05225569009780884, 0.1822255253791809, -0.11079466342926025, -0.14822284877300262, 0.11609792709350586, -0.2557198703289032, -0.16256478428840637, -0.25289568305015564, -0.12379515171051025},
    {-0.02113405242562294, -0.07785462588071823, -0.009579798206686974, 0.006417135242372751, 0.025812558829784393, -0.17360995709896088, -0.03223463147878647, -0.3453989624977112, 0.16115711629390717, 0.22221225500106812, -0.021315842866897583, 0.2152165323495865, 0.3115367889404297},
    {-0.002482702722772956, 0.08317015320062637, -0.3150544762611389, 0.015300191938877106, -0.23766550421714783, 0.12952446937561035, 0.20830896496772766, 0.03883061185479164, -0.025873733684420586, -0.08524810522794724, 0.12001578509807587, 0.030214732512831688, 0.21678179502487183},
    {0.14962787926197052, 0.1446983963251114, 0.039177924394607544, 0.24537764489650726, 0.21733592450618744, -0.03579346463084221, 0.12333006411790848, -0.07854694128036499, 0.28166428208351135, -0.12110011279582977, 0.15519648790359497, 0.1359253227710724, 0.2175081968307495},
    {0.2648800015449524, -0.44004392623901367, -0.0019105433020740747, -0.19703467190265656, 0.337047815322876, -0.16625748574733734, 0.12519852817058563, -0.025401776656508446, 0.005511655006557703, -0.1552736610174179, -0.01984478533267975, 0.1568950116634369, -0.34050026535987854},
    {0.23872226476669312, -0.3478967547416687, 0.13542120158672333, 0.023321939632296562, -0.1962420493364334, -0.025553636252880096, 0.03345298394560814, 0.01854919083416462, 0.26335740089416504, -0.21999084949493408, 0.14322593808174133, -0.14734219014644623, 0.38383373618125916},
    {0.12874111533164978, -0.25563377141952515, 0.17079418897628784, -0.2762812376022339, -0.25849658250808716, -0.3695163130760193, 0.0638284832239151, 0.24377179145812988, -0.02878052368760109, 0.12228937447071075, 0.13480530679225922, 0.2511884570121765, 0.09824461489915848},
    {0.14260458946228027, 0.019743459299206734, -0.0523122176527977, 0.25874337553977966, -0.26291921734809875, 0.11099947988986969, 0.0638388991355896, 0.10253126919269562, -0.3206762373447418, 0.22567947208881378, 0.052326615899801254, 0.11113537847995758, -0.4838109016418457},
    {0.002869588788598776, 0.04918360710144043, 0.10376416891813278, 0.07910876721143723, -0.19219300150871277, -0.15645599365234375, -0.011460734531283379, 0.14610031247138977, -0.13847209513187408, -0.11699879169464111, -0.10636923462152481, 0.13230445981025696, 0.3046351969242096},
    {0.10001204907894135, -0.13468311727046967, -0.11173120141029358, -0.2683543562889099, -0.19478492438793182, -0.17583739757537842, 0.13322153687477112, 0.03597636893391609, -0.26903966069221497, -0.23576553165912628, 0.07716986536979675, 0.10191021859645844, -0.1435350477695465},
    {0.04683181270956993, 0.1844048947095871, -0.19058987498283386, 0.1194201335310936, 0.2714725136756897, 0.23230662941932678, -0.2875097393989563, -0.27425625920295715, -0.1563020497560501, -0.011178038083016872, 0.2567845284938812, -0.23086923360824585, -0.10991781949996948},
    {-0.13742101192474365, -0.13551314175128937, 0.11240753531455994, -0.10339237004518509, 0.04096515476703644, 0.24143056571483612, 0.32570740580558777, 0.12194205075502396, 0.016971828415989876, 0.3062535226345062, 0.16640590131282806, 0.22136694192886353, 0.08361359685659409},
    {0.019335491582751274, -0.025399276986718178, 0.2745148241519928, 0.25637757778167725, -0.07882902026176453, -0.1948811560869217, 0.25767239928245544, 0.28306517004966736, 0.12709839642047882, 0.008028274402022362, 0.050870634615421295, -0.2685798108577728, 0.38155582547187805},
    {0.14662837982177734, -0.2948108911514282, -0.14060883224010468, 0.07329986989498138, -0.06900028139352798, 0.07717327028512955, 0.18785294890403748, -0.39438170194625854, 0.2914663255214691, -0.28973689675331116, -0.22488833963871002, -0.11838726699352264, 0.37364426255226135},
    {0.21089816093444824, -0.185502827167511, 0.28317564725875854, -0.07066687196493149, 0.04643065482378006, -0.010784365236759186, 0.010469230823218822, 0.10827545821666718, -0.34807804226875305, -0.20173829793930054, -0.27301260828971863, 0.0846426710486412, -0.23144444823265076},
    {0.038039714097976685, 0.03745777904987335, 0.27643153071403503, 0.26641595363616943, 0.39844244718551636, -0.026194242760539055, -0.14523674547672272, -0.12724633514881134, 0.12677812576293945, 0.08089853823184967, 0.13345955312252045, -0.004585720598697662, -0.2810293436050415},
    {-0.15572449564933777, 0.10106834769248962, -0.07629618048667908, -0.18236495554447174, -0.13290125131607056, 0.00970807671546936, -0.10567411780357361, -0.08573198318481445, -0.10052654147148132, -0.21833688020706177, -0.05570608377456665, -0.09702271223068237, -0.24659419059753418},
    {-0.3397482633590698, -0.2623347342014313, -0.17738623917102814, 0.24555550515651703, 0.012214619666337967, -0.11466797441244125, 0.133608877658844, 0.030290700495243073, -0.10275430232286453, 0.06772270798683167, 0.034357961267232895, 0.19773735105991364, 0.020771948620676994},
    {0.06635939329862595, -0.1767493635416031, 0.1523735076189041, -0.11147341132164001, -0.0480542853474617, 0.09275932610034943, -0.0644381046295166, 0.15756037831306458, 0.21782170236110687, -0.11139893531799316, 0.13103219866752625, 0.11161540448665619, -0.09131155908107758},
    {-0.12366070598363876, -0.1851162612438202, -0.32517915964126587, 0.07085084170103073, 0.11505954712629318, 0.4179171621799469, -0.2531581223011017, -0.18948794901371002, -0.33155810832977295, 0.028705628588795662, -0.058404792100191116, -0.01785709336400032, 0.19856859743595123},
    {-0.0909537747502327, 0.04818026348948479, 0.305623859167099, -0.051323018968105316, -0.22852182388305664, 0.06105497106909752, 0.06604897230863571, -0.1249886155128479, -0.10833977907896042, -0.031379394233226776, 0.00297068664804101, 0.2444787174463272, -0.25140705704689026},
    {-0.06983141601085663, 0.1720450222492218, 0.12989768385887146, -0.0739750936627388, -0.24702616035938263, -0.12236596643924713, 0.07839320600032806, -0.2535724937915802, -0.21265120804309845, 0.02588558942079544, 0.2746047079563141, -0.11937759816646576, -0.0554567389190197},
    {0.09292303770780563, -0.25805315375328064, -0.11454492807388306, 0.16767917573451996, -0.11604765802621841, -0.1520593911409378, 0.27878740429878235, -0.2911151051521301, 0.132923424243927, -0.2556588649749756, 0.13233689963817596, 0.2777509093284607, 0.16149286925792694},
    {-0.20328310132026672, -0.12286373227834702, -0.09783114492893219, -0.12249434739351273, -0.29052668809890747, -0.0250223558396101, 0.316193163394928, 0.03191598504781723, -0.051688890904188156, -0.18126462399959564, 0.2710539996623993, 0.38228803873062134, 0.14930686354637146},
    {0.09032750874757767, 0.16131684184074402, 0.2783651053905487, -0.0065130251459777355, 0.0881122276186943, 0.2698136270046234, 0.019337419420480728, -0.01902027800679207, 0.07998863607645035, 0.016934573650360107, 0.07185851037502289, 0.19996260106563568, 0.13597732782363892},
    {-0.20379729568958282, -0.1657235324382782, 0.07724282145500183, 0.12472958117723465, -0.18164831399917603, -0.2316189557313919, 0.08712894469499588, -0.23414617776870728, -0.23135891556739807, 0.020360400900244713, 0.03849745914340019, -0.13824042677879333, -0.04325486347079277},
    {0.20028822124004364, -0.582040011882782, 0.046664535999298096, -0.3463674485683441, 0.16980226337909698, 0.06884771585464478, -0.31806710362434387, 0.06806571781635284, 0.2697078287601471, -0.042017608880996704, 0.17491981387138367, -0.022169973701238632, 0.2728163003921509},
    {0.12238380312919617, 0.14941097795963287, 0.27543962001800537, 0.031832076609134674, 0.11847619712352753, 0.1979253739118576, -0.10018759965896606, -0.06473353505134583, -0.07800888270139694, 0.037416327744722366, 0.120899498462677, -0.024861831218004227, -0.5053554177284241},
    {0.0843476876616478, -0.3271031677722931, 0.3185502588748932, -0.07279723137617111, 0.3535642921924591, -0.21556557714939117, 0.2988961338996887, -0.13461583852767944, 0.338998019695282, 0.13503356277942657, 0.09726665169000626, 0.11715561896562576, 0.21257002651691437},
    {0.3275744318962097, 0.12783142924308777, 0.41281551122665405, -0.13360853493213654, 0.1163962185382843, -0.017301468178629875, 0.1532198190689087, 0.25492483377456665, 0.3973175585269928, 0.1879778504371643, 0.29589563608169556, -0.1050482913851738, -0.17090220749378204},
    {0.04832449555397034, 0.08730804175138474, 0.19013254344463348, 0.2641236186027527, 0.3366120159626007, 0.2972874045372009, 0.13895495235919952, 0.12623320519924164, 0.26403528451919556, 0.005299003329128027, -0.1563541293144226, 0.2958258092403412, -0.04778636619448662},
    {0.2820987105369568, -0.421120285987854, 0.19312241673469543, -0.03934409096837044, -0.1452171802520752, -0.13341616094112396, -0.08508062362670898, -0.23497998714447021, 0.16894906759262085, 0.19086818397045135, 0.1710214912891388, 0.28949886560440063, -0.37779074907302856},
    {0.24334591627120972, -0.2354310005903244, 0.26811736822128296, 0.07456605136394501, 0.2827397286891937, 0.09344402700662613, -0.19306932389736176, 0.20714853703975677, 0.024947844445705414, -0.027573173865675926, 0.2398916333913803, -0.2635175287723541, -0.09573569148778915},
    {-0.13026349246501923, 0.17179521918296814, -0.10768070816993713, 0.057982731610536575, 0.13933530449867249, 0.11897152662277222, 0.03422006592154503, -0.1198631003499031, -0.06989052146673203, -0.18776769936084747, -0.25739920139312744, 0.2905348241329193, 0.2201727032661438},
    {-0.1374376267194748, -0.07005038857460022, 0.3169874846935272, 0.248546302318573, 0.09397818148136139, 0.14329391717910767, -0.06021451950073242, -0.04432941600680351, 0.11321306973695755, 0.029208725318312645, 0.22283083200454712, 0.3915944993495941, -0.39471757411956787},
    {0.21427634358406067, 0.14595061540603638, 0.41101089119911194, 0.0831112414598465, 0.16354012489318848, -0.12032271921634674, -0.10630887746810913, 0.3109434247016907, 0.30834513902664185, 0.04082261025905609, 0.13557110726833344, -0.07752080261707306, -0.1521376073360443},
    {-0.17325764894485474, -0.08571527898311615, 0.20697227120399475, -0.23684018850326538, -0.13226746022701263, 0.0123138427734375, -0.1205371618270874, -0.051885440945625305, -0.14659881591796875, -0.019828468561172485, -0.2426666021347046, -0.02247077226638794, -0.19752448797225952},
    {0.2987837493419647, -0.09411073476076126, -0.0959191620349884, -0.21866895258426666, 0.1478787511587143, 0.2187214493751526, 0.14579643309116364, -0.2547733783721924, 0.286770761013031, -0.06034958362579346, -0.05473916232585907, 0.2619153559207916, 0.017363522201776505},
    {0.018086262047290802, -0.22074927389621735, -0.5095627903938293, -0.0730864480137825, -0.10623668879270554, -0.11691779643297195, 0.09958988428115845, -0.48131462931632996, 0.04509846866130829, -0.17277739942073822, -0.08022152632474899, 0.1511468142271042, 0.31141138076782227},
    {0.27133050560951233, -0.2047693431377411, -0.1299479454755783, 0.001293607521802187, 0.16669917106628418, 0.28147658705711365, 0.13944628834724426, 0.30789265036582947, 0.034173816442489624, -0.08015190064907074, 0.131544291973114, -0.23268279433250427, -0.026062889024615288},
    {0.22089779376983643, 0.041378505527973175, 0.15331333875656128, 0.088184654712677, -0.06237892434000969, -0.07253418117761612, 0.22954589128494263, 0.2818285822868347, 0.31034547090530396, 0.07207632809877396, 0.0981515496969223, -0.1682860106229782, 0.10144864022731781},
    {-0.050051961094141006, -0.030266176909208298, -0.1551893800497055, 0.33565571904182434, -0.14633886516094208, -0.14580121636390686, -0.07712918519973755, -0.07887155562639236, -0.03704453259706497, -0.1320062279701233, 0.09240341931581497, -0.020910387858748436, 0.07724642008543015},
    {0.08945325016975403, 0.0878508985042572, -0.3343936800956726, 0.22188805043697357, 0.02918040007352829, -0.11622065305709839, 0.13891148567199707, 0.11343614012002945, 0.004146344494074583, -0.2058168202638626, 0.13373133540153503, -0.04526849463582039, 0.15071268379688263},
    {0.011277466081082821, 0.15457768738269806, 0.3522428274154663, -0.0021387271117419004, 0.08112780749797821, -0.0649770125746727, -0.23773188889026642, 0.3145473897457123, -0.056249428540468216, 0.30623719096183777, 0.29062360525131226, 0.017743723466992378, -0.0961134061217308},
    {-0.2795874774456024, 0.14483612775802612, -0.29644834995269775, -0.3173191249370575, -0.3480623662471771, -0.17418552935123444, -0.14220233261585236, 0.03250998631119728, 0.24227873980998993, 0.2868981659412384, -0.11303849518299103, 0.3695105016231537, 0.21374352276325226},
    {-0.24100430309772491, 0.03465849161148071, -0.01246631145477295, -0.055117279291152954, 0.12907910346984863, -0.18860048055648804, -0.07719138264656067, 0.1858980655670166, 0.13520973920822144, -0.08134758472442627, 0.08189085125923157, 0.0054943859577178955, -0.09769502282142639},
    {0.2357015162706375, -0.3082718551158905, -0.26067206263542175, -0.003369682701304555, 0.14423906803131104, -0.29610568284988403, 0.40231651067733765, -0.021807024255394936, 0.12111889570951462, -0.09727291017770767, -0.04184453934431076, 0.11439186334609985, 0.27263644337654114},
    {0.09005718678236008, 0.12142553180456161, 0.09309370070695877, -0.006446582265198231, -0.17473404109477997, -0.09553925693035126, -0.035917818546295166, -0.3467402756214142, 0.0077574653550982475, 0.08757397532463074, -0.10526729375123978, -0.5018775463104248, 0.16564883291721344},
    {0.0857909619808197, -0.22510536015033722, -0.10960063338279724, 0.13411401212215424, -0.2482769936323166, -0.1745775192975998, 0.048947785049676895, -0.21070018410682678, 0.11550881713628769, -0.17686282098293304, 0.17016659677028656, -0.20143350958824158, -0.09569552540779114},
    {-0.21106696128845215, 0.1845826357603073, -0.1336183398962021, -0.20151486992835999, 0.3160472810268402, 0.05135805159807205, -0.23925019800662994, 0.3123648166656494, 0.11950531601905823, 0.20708386600017548, -0.12720099091529846, 0.5394529700279236, -0.2701716721057892},
    {0.24076229333877563, -0.048077382147312164, 0.019108973443508148, 0.0456293448805809, -0.10204212367534637, -0.09394996613264084, -0.09844540804624557, 0.14413264393806458, 0.11523236334323883, -0.15636928379535675, 0.15668772161006927, 0.3028734624385834, -0.39254286885261536},
    {0.25438687205314636, -0.1207493245601654, -0.1215147003531456, -0.0792984738945961, 0.0779842808842659, 0.2546539604663849, 0.01965235359966755, 0.22072717547416687, 0.0872950479388237, -0.06678719818592072, -0.21742190420627594, -0.21828976273536682, -0.2024996429681778},
    {0.09794247150421143, 0.001797020435333252, -0.12012186646461487, -0.2605385184288025, 0.006650030612945557, -0.2775697410106659, -0.12525027990341187, -0.25534409284591675, -0.13802707195281982, -0.14594319462776184, -0.10874049365520477, -0.14186067879199982, -0.23241764307022095},
    {0.21378418803215027, 0.4350476562976837, -0.1399884670972824, 0.14064951241016388, -0.17682652175426483, 0.046833157539367676, 0.044287294149398804, 0.05140259116888046, -0.28567346930503845, 0.10871921479701996, -0.23691758513450623, -0.332646906375885, 0.057791393250226974},
    {-0.24404092133045197, 0.29350709915161133, -0.2695581912994385, 0.1643470674753189, 0.06287238001823425, -0.13027645647525787, 0.30569857358932495, 0.0923115611076355, -0.1253168135881424, 0.17577508091926575, 0.0360080786049366, -0.4089112877845764, 0.29292958974838257},
    {-0.21706169843673706, 0.24591311812400818, -0.42701488733291626, 0.09676416218280792, 0.2600800395011902, 0.10258068889379501, 0.30608758330345154, -0.09883393347263336, -0.009290271438658237, -0.3085261881351471, 0.1275903880596161, 0.12181178480386734, 0.20244480669498444},
};

const float bias_l1[SHAPE_L_1] = {-0.0072005377151072025,
                                  0.03374537453055382,
                                  0.09267494082450867,
                                  0.02986752614378929,
                                  -0.12631341814994812,
                                  0.038534510880708694,
                                  0.1117580384016037,
                                  0.012109597213566303,
                                  0.0,
                                  -0.07380732148885727,
                                  -0.02549966797232628,
                                  0.09275264292955399,
                                  0.11875899881124496,
                                  -0.0390823632478714,
                                  -0.0841994509100914,
                                  0.06212359666824341,
                                  -0.08070041984319687,
                                  -0.04014687240123749,
                                  0.07597202807664871,
                                  0.0990019217133522,
                                  -0.04473721981048584,
                                  0.025990761816501617,
                                  -0.003697350388392806,
                                  0.05455524101853371,
                                  0.0,
                                  0.17552955448627472,
                                  0.13537538051605225,
                                  -0.1204540953040123,
                                  0.11901471763849258,
                                  -0.013382540084421635,
                                  0.09038187563419342,
                                  -0.1133478507399559,
                                  0.05407583341002464,
                                  -0.014377288520336151,
                                  -0.03277987614274025,
                                  0.0698385015130043,
                                  0.09077891707420349,
                                  0.13159985840320587,
                                  0.10694095492362976,
                                  0.11166156083345413,
                                  0.05584225058555603,
                                  -0.08603674918413162,
                                  0.15630890429019928,
                                  0.07884393632411957,
                                  0.0,
                                  0.08403836935758591,
                                  -0.09150931239128113,
                                  0.06406474858522415,
                                  0.021487262099981308,
                                  0.017240706831216812,
                                  -0.016599496826529503,
                                  -0.005004244856536388,
                                  0.03610311076045036,
                                  0.0,
                                  0.059905245900154114,
                                  0.013413818553090096,
                                  0.015027346089482307,
                                  -0.07415957748889923,
                                  0.14903558790683746,
                                  -0.00043311112676747143,
                                  0.0,
                                  -0.09066187590360641,
                                  0.1032467857003212,
                                  -0.12416227161884308};

const float weights_l2[SHAPE_L_2][SHAPE_L_1] = {
    {-0.36193960905075073,  0.15680758655071259,  0.11124270409345627, -0.03265800699591637, -0.18196184933185577, 0.08596015721559525, 0.1624922752380371,  0.043008074164390564,  -0.12213414907455444, -0.3469591736793518,  -0.10225233435630798, -0.08540526032447815, 0.3332291543483734,   0.11521334946155548,  0.04478085786104202,  -0.0406193733215332,
     -0.2875264883041382,   0.08921810239553452,  -0.4987981915473938, 0.28327909111976624,  -0.11094368994235992, 0.0895160660147667,  0.3125580847263336,  0.0028922182973474264, 0.20608431100845337,  0.08709818124771118,  0.2611827850341797,   -0.4693562686443329,  -0.11026328057050705, -0.14371107518672943, -0.03628535568714142, -0.46402913331985474,
     0.1167367547750473,    -0.13348722457885742, 0.19496524333953857, -0.31453678011894226, 0.02253432758152485,  0.14737282693386078, 0.14760920405387878, 0.07631140202283859,   0.4798499345779419,   -0.36985260248184204, 0.05864117667078972,  -0.10282497107982635, -0.05489307641983032, -0.1642703115940094,  -0.23732328414916992, 0.20310036838054657,
     -0.015651550143957138, 0.08657617121934891,  -0.0887148454785347, -0.35221490263938904, 0.008643683046102524, 0.05250251293182373, 0.1913430541753769,  0.27437204122543335,   0.010983115062117577, -0.6081928610801697,  -0.06838254630565643, 0.20148712396621704,  -0.12617099285125732, -0.10364443808794022, 0.6293756365776062,   -0.32033318281173706},
    {-0.2675655484199524,  0.02047601155936718,   0.15720972418785095,  0.41851136088371277, -0.1265030801296234,  -0.2205679565668106,  0.09407797455787659,   -0.15553060173988342, 0.10396414995193481,  -0.3775746822357178, 0.035356245934963226, -0.011468377895653248, 0.3431846499443054,   -0.14741095900535583,  -0.07688278704881668, -0.011258228681981564,
     -0.25316423177719116, -0.062312375754117966, -0.42567527294158936, 0.04896271973848343, -0.352980375289917,   -0.22063004970550537, -0.021208414807915688, -0.26043644547462463, 0.13208091259002686,  0.08574690669775009, 0.2957693636417389,   -0.2143099159002304,   0.2185223549604416,   -0.20711767673492432,  0.21796034276485443,  -0.04705817997455597,
     -0.08291105926036835, 0.18201066553592682,   -0.12765797972679138, 0.08245152980089188, -0.05018966272473335, 0.34475308656692505,  0.16779378056526184,   0.5280811786651611,   0.012750886380672455, -0.0401696152985096, 0.4142875671386719,   -0.08121512085199356,  0.06769204139709473,  -0.030763942748308182, -0.36636883020401,    0.05790066346526146,
     0.21274812519550323,  -0.26494109630584717,  -0.2837079167366028,  -0.2852697968482971, 0.20591987669467926,  -0.17128992080688477, 0.05954718217253685,   0.20828495919704437,  0.19582998752593994,  0.26944801211357117, 0.4995187520980835,   0.22801275551319122,   -0.21022701263427734, -0.20323346555233002,  0.2976486384868622,   -0.06328469514846802},
    {-0.11044555902481079, -0.0622367262840271,  -0.17590713500976562, 0.09141403436660767,   0.12237632274627686,   -0.17597126960754395, 0.009520888328552246,  0.11155986785888672,  0.05949676036834717,  -0.2078736424446106,  0.018836617469787598, -0.03891569375991821,  -0.02022695541381836, -0.006973922252655029, 0.2264319658279419,   0.11477160453796387,
     0.14816373586654663,  -0.10333669185638428, 0.07113665342330933,  -0.060310542583465576, -0.1451299786567688,   -0.20253819227218628, -0.14203089475631714,  0.06805986166000366,  -0.23399263620376587, -0.22806930541992188, -0.0467529296875,     -0.007481515407562256, -0.0442049503326416,  -0.01669520139694214,  0.037643373012542725, 0.09454447031021118,
     0.19369184970855713,  0.22316807508468628,  -0.18059831857681274, 0.21319496631622314,   -0.004809677600860596, -0.20631200075149536, -0.09951144456863403,  0.24984043836593628,  -0.0930640697479248,  0.0436253547668457,   -0.05899077653884888, 0.172194242477417,     -0.0840146541595459,  -0.16490548849105835,  -0.05138719081878662, 0.15257132053375244,
     -0.18953436613082886, -0.13095134496688843, 0.13932007551193237,  0.24778133630752563,   0.11465281248092651,   0.20121455192565918,  -0.022276759147644043, -0.07162314653396606, -0.1034885048866272,  -0.02574068307876587, 0.11768680810928345,  -0.09885537624359131,  0.1442164182662964,   0.13101500272750854,   -0.21688181161880493, 0.14182943105697632},
    {0.5261796712875366,   -0.054920487105846405, 0.02832396887242794,  0.12951266765594482, 0.10469137877225876,  0.15269501507282257, -0.05728990584611893, -0.09392060339450836, -0.19115406274795532,  0.20109514892101288,  -0.3826060891151428, 0.047027070075273514, 0.09327882528305054,  -0.18302181363105774, 0.1776573657989502,   0.2112545520067215,
     0.21217064559459686,  -0.23457768559455872,  0.5826770663261414,   -0.1838999092578888, 0.21343465149402618,  -0.1635756939649582, 0.31538042426109314,  0.42023423314094543,  -0.0751696228981018,   -0.07811351120471954, 0.14145269989967346, -0.21108587086200714, 0.11734700947999954,  -0.1405619978904724,  -0.23160819709300995, 0.19195924699306488,
     -0.11013545840978622, -0.21933208405971527,  -0.15434175729751587, 0.1913108080625534,  0.16382920742034912,  0.13034863770008087, 0.0844891145825386,   0.2568148970603943,   -0.023404927924275398, -0.16665872931480408, 0.27178460359573364, 0.26701274514198303,  0.23058968782424927,  -0.11212693899869919, -0.27576205134391785, -0.017625106498599052,
     0.08297739923000336,  -0.22033479809761047,  0.21705631911754608,  0.1279207468032837,  -0.36123254895210266, 0.1555389165878296,  -0.20726405084133148, 0.0726630836725235,   -0.16894377768039703,  0.41618892550468445,  0.16141614317893982, 0.25435784459114075,  -0.03835660219192505, -0.2756343483924866,  -0.3942624032497406,  0.00078660185681656},
    {-0.44119173288345337, 0.07260576635599136,  0.14145851135253906, -0.036033641546964645, 0.05488685891032219,  -0.16864198446273804,  -0.17251911759376526, 0.03576960414648056,  0.2417319416999817,  -0.13335752487182617, -0.12225546687841415, 0.2320714145898819,   0.245536670088768,    0.1881079226732254,   -0.008486921899020672, -0.17727337777614594,
     -0.15961280465126038, -0.09650487452745438, -0.5378412008285522, 0.21922831237316132,   -0.21038107573986053, -0.047719623893499374, 0.14096815884113312,  0.016368428245186806, 0.19088292121887207, 0.16187794506549835,  -0.1293799728155136,  -0.3544538617134094,  0.19357725977897644,  -0.07335049659013748, 0.04742198809981346,   -0.25879034399986267,
     0.014956655912101269, 0.11940038204193115,  0.21679681539535522, -0.22410491108894348,  0.15863074362277985,  0.31520533561706543,   0.12515000998973846,  0.14607134461402893,  0.29624074697494507, -0.14801758527755737, 0.41055071353912354,  -0.09378211200237274, 0.04789555072784424,  -0.05209827795624733, -0.5421589612960815,   0.25134575366973877,
     0.09448602050542831,  -0.15003721415996552, -0.303120493888855,  0.05229867249727249,   0.43052372336387634,  0.13012081384658813,   -0.0196900125592947,  0.44647523760795593,  0.09476247429847717, -0.5473659038543701,  0.26221248507499695,  0.2503962218761444,   -0.23710542917251587, -0.02080921269953251, 0.5556396245956421,    -0.12274336814880371},
    {-0.15249614417552948, 0.28776082396507263, -0.09833747893571854, 0.02172127552330494,  -0.11872134357690811, 0.11083196103572845,    0.2856275737285614,    0.1482529640197754,  0.17977678775787354,  0.04394624009728432,  0.16723087430000305, -0.09003150463104248,  0.4283115565776825,  -0.2602979242801666,  0.18433216214179993,  -0.20430409908294678,
     -0.18418262898921967, -0.0690363273024559, -0.4117512106895447,  -0.15706707537174225, 0.15070849657058716,  -0.022849492728710175,  0.051961854100227356,  -0.354345440864563,  -0.08529424667358398, 0.14682579040527344,  0.26614993810653687, -0.581835150718689,    0.42489728331565857, -0.24063222110271454, 0.288536936044693,    -0.0660347267985344,
     0.21147273480892181,  -0.1067897155880928, 0.03544379025697708,  -0.5556820631027222,  -0.05529347062110901, 0.26110878586769104,    0.2173800766468048,    0.5061959624290466,  0.22816984355449677,  -0.29282915592193604, 0.4484148919582367,  -0.051877208054065704, 0.16943258047103882, 0.027504676952958107, -0.20956695079803467, -0.14325670897960663,
     0.11562789231538773,  0.14585795998573303, -0.06359387189149857, -0.21052336692810059, 0.153675839304924,    -0.0008050203323364258, -0.051615964621305466, 0.35964420437812805, 0.09096743166446686,  -0.32907500863075256, 0.15248212218284607, 0.09935229271650314,   0.08033263683319092, -0.17855782806873322, 0.6739861965179443,   -0.14851154386997223},
    {-0.21207351982593536,  -0.05893971771001816, 0.21385426819324493,   0.20688800513744354,  -0.1280490756034851,  -0.2194768786430359, 0.17204883694648743,  -0.06311049312353134,  0.20790719985961914,    0.06235770881175995,  0.22003020346164703,  0.11801762878894806,  -0.24049286544322968,   -0.23033270239830017,  -0.17127102613449097, 0.11582208424806595,
     0.21514536440372467,   0.21627642214298248,  -0.013350499793887138, 8.45613976707682e-05, 0.021671704947948456, -0.2334272414445877, -0.24400828778743744, 0.022786036133766174,  -0.0020542144775390625, 0.24209648370742798,  -0.09307640790939331, 0.14836379885673523,  -0.0031063768547028303, -0.041149914264678955, -0.17456556856632233, -0.0589694119989872,
     0.0019265328301116824, 0.15074293315410614,  -0.22636647522449493,  -0.13897985219955444, -0.17229248583316803, 0.1818804293870926,  -0.19220593571662903, -0.016141744330525398, -0.10711722820997238,   0.19934618473052979,  0.08264321088790894,  0.17850743234157562,  0.07032138109207153,    -0.24338379502296448,  -0.1604788899421692,  0.23075416684150696,
     0.013918626122176647,  0.02108161896467209,  0.18719884753227234,   0.1445576697587967,   0.13799822330474854,  -0.1513550877571106, -0.20354126393795013, -0.17124921083450317,  0.17725929617881775,    0.028198378160595894, -0.06332474201917648, -0.09127884358167648, 0.11265194416046143,    -0.007378980051726103, -0.17786483466625214, -0.2218284010887146},
    {-0.24202336370944977, -0.23944848775863647, -0.05175628513097763,  0.1292027086019516,   0.05444926396012306,  0.037873998284339905, -0.0070264278911054134, 0.19094893336296082,  0.23298364877700806,  0.08110056072473526,  0.07423662394285202,  -0.23602020740509033, 0.023021766915917397, 0.15224197506904602,  0.1927351951599121,    -0.002728264080360532,
     0.22156235575675964,  -0.05136683210730553, -0.08644834160804749,  -0.17851050198078156, -0.09158909320831299, -0.12371271848678589, 0.22663231194019318,    -0.08938228338956833, -0.15852493047714233, 0.15073515474796295,  -0.1817672699689865,  -0.10784625262022018, -0.2369505614042282,  -0.1314314603805542,  0.0065799676813185215, -0.005292260088026524,
     -0.10618596524000168, -0.05300214886665344, -0.030189363285899162, 0.24279797077178955,  0.005235230550169945, -0.09181851148605347, -0.25064653158187866,   0.1521405726671219,   0.1486024409532547,   -0.14113107323646545, -0.22719958424568176, 0.060295943170785904, 0.18617266416549683,  -0.16146795451641083, 0.1692054569721222,    0.17585884034633636,
     0.1810494363307953,   -0.17681314051151276, 0.11518997699022293,   -0.19992437958717346, 0.12987878918647766,  -0.19723814725875854, 0.20759721100330353,    0.04891209304332733,  0.18368908762931824,  0.045533835887908936, -0.1663857251405716,  0.2239331156015396,   -0.13317954540252686, 0.10952895879745483,  -0.09141089767217636,  -0.11174729466438293},
    {-0.14274299144744873, -0.22533667087554932, -0.06321217119693756, 0.09934782981872559, -0.08318489044904709, -0.03890574350953102,  0.04254408925771713,  -0.1088138073682785,  0.2040238380432129,    -0.09887246787548065, -0.13723717629909515, -0.19891324639320374, 0.013834554702043533, 0.18557357788085938,   0.047536030411720276, 0.162933349609375,
     -0.1989755928516388,  -0.157423198223114,   -0.10701382160186768, 0.06306255608797073, -0.16067439317703247, -0.030073674395680428, -0.11913091689348221, 0.028270483016967773, 0.174596905708313,     0.17443932592868805,  0.04267609491944313,  0.08277153968811035,  0.05399617180228233,  -0.030297040939331055, 0.2188401222229004,   -0.04882900416851044,
     0.23068150877952576,  -0.08884572982788086, 0.09098413586616516,  -0.2343387007713318, 0.056194961071014404, 0.11237937211990356,   -0.0739726647734642,  -0.20426160097122192, -0.2011280655860901,   0.08971833437681198,  -0.20641420781612396, -0.06361635029315948, 0.06451451778411865,  -0.25119954347610474,  -0.2233780026435852,  -0.14119690656661987,
     -0.09767839312553406, -0.07578879594802856, -0.09880715608596802, 0.21009784936904907, 0.04179418087005615,  0.15718740224838257,   0.20957572758197784,  0.010112941265106201, -0.021965324878692627, 0.06796817481517792,  0.05344346910715103,  -0.16778290271759033, 0.2445937991142273,   -0.07573604583740234,  -0.1709350347518921,  0.006005759816616774},
    {0.17839446663856506,   0.14205361902713776,  0.21559669077396393,  0.25585123896598816,  -0.1471712440252304, -0.20657137036323547, -0.008839515969157219, -0.2891455590724945, 0.05897897481918335, 0.02843756601214409, -0.06305072456598282,   0.1972305029630661,   -0.0866871178150177,  0.002859650645405054, 0.11894751340150833,  0.04089702293276787,
     0.07087289541959763,   -0.16286121308803558, -0.18253903090953827, 0.08958419412374496,  -0.2567604184150696, -0.22853553295135498, 0.05961398035287857,   0.1510760635137558,  0.08332282304763794, 0.15494108200073242, -0.17328955233097076,   0.2821289300918579,   0.10677555948495865,  0.19038549065589905,  0.15988117456436157,  0.2373107373714447,
     0.08047253638505936,   0.1926000565290451,   -0.13793283700942993, 0.23320215940475464,  -0.2039394974708557, 0.12686121463775635,  0.0986204743385315,    0.10349930822849274, -0.4440402090549469, 0.28550684452056885, 0.00029576208908110857, 0.08213300257921219,  -0.17365998029708862, 0.15439960360527039,  0.15674880146980286,  -0.2151104211807251,
     -0.007507004775106907, -0.273539274930954,   0.14699260890483856,  -0.28414440155029297, 0.23588044941425323, 0.017335236072540283, 0.13198284804821014,   0.03445322811603546, 0.12916910648345947, 0.8213492035865784,  0.28673118352890015,    0.015320895239710808, -0.2305012345314026,  0.07679391652345657,  -0.07640669494867325, -0.05203058943152428},
    {-0.21838606894016266,  -0.06285742670297623, 0.3450116515159607,   -0.18024082481861115, -0.1170043796300888, 0.1971045881509781,   0.22496244311332703,   0.09529296308755875,  -0.07401204109191895, 0.12787464261054993, 0.12437225133180618,  -0.011633760295808315, -0.041574034839868546, -0.12978291511535645, 0.21990220248699188,  -0.41735580563545227,
     0.0355590395629406,    0.2671836316585541,   -0.07720821350812912, -0.07383867353200912, 0.19735343754291534, 0.023477153852581978, -0.016893768683075905, -0.43930914998054504, 0.1945531964302063,   0.3041277825832367,  0.3570946455001831,   -0.42320650815963745,  0.2933504581451416,    -0.13474644720554352, 0.04836331307888031,  -0.30300185084342957,
     0.06587110459804535,   -0.2118060290813446,  -0.05954127758741379, -0.5758492946624756,  0.2973495125770569,  0.2690965235233307,   -0.09193958342075348,  0.2936079800128937,   0.09504266828298569,  -0.2089231312274933, -0.12430449575185776, 0.3558523952960968,    -0.07991647720336914,  0.309495747089386,    -0.43050384521484375, 0.19609889388084412,
     -0.056281499564647675, 0.24556082487106323,  -0.07786473631858826, 0.2525849938392639,   0.08075742423534393, -0.23544001579284668, 0.2989194691181183,    -0.05052344501018524, -0.16504138708114624, -0.6294208765029907, 0.265350341796875,    0.20498955249786377,   -0.006348371505737305, -0.19883397221565247, 0.3133576810359955,   -0.39694684743881226},
    {-0.5756256580352783,  -0.12273328751325607, 0.24926245212554932,   -0.2125173658132553,  -0.15356898307800293, 0.21997769176959991,  -0.020613348111510277, 0.3103320300579071,   -0.195367693901062,   -0.18186281621456146, -0.2583692669868469, 0.23521438241004944,  0.1902274340391159,   -0.19656209647655487, -0.2614249289035797,  -0.1710071712732315,
     -0.05333082750439644, 0.038400985300540924, -0.5382127165794373,   -0.1519957333803177,  -0.22014588117599487, 0.12821653485298157,  -0.046977341175079346, -0.21960683166980743, -0.092673659324646,   0.1487199366092682,   0.0411536730825901,  -0.3542461097240448,  -0.02385874092578888, -0.144994854927063,   0.14329560101032257,  -0.3936498761177063,
     0.026356592774391174, 0.1758362203836441,   0.2362387627363205,    -0.5935549139976501,  -0.03522277995944023, -0.10996406525373459, 0.28298187255859375,   -0.04816894978284836, 0.3013606369495392,   0.10945767164230347,  -0.0845436230301857, 0.11713626235723495,  -0.22148346900939941, 0.09244047105312347,  -0.17925642430782318, -0.13753855228424072,
     0.1805351972579956,   0.2740355432033539,   -0.050964098423719406, -0.31201228499412537, 0.17686320841312408,  0.17995035648345947,  -0.16099564731121063,  0.35567140579223633,  -0.07413509488105774, -0.6099072694778442,  0.08481919020414352, -0.14418788254261017, 0.08508354425430298,  0.17168577015399933,  0.5379620790481567,   -0.1986246258020401},
    {-0.48109328746795654, 0.18710294365882874,  0.314235121011734,    -0.22623483836650848, -0.2339087277650833, 0.16490156948566437,  0.2879738211631775,  0.06573066115379333,  -0.23320013284683228, -0.07250137627124786, -0.22888995707035065, 0.2692579925060272,   0.006986973807215691, -0.024549152702093124, -0.22545497119426727, 0.0892127975821495,
     0.04603100195527077,  -0.15967418253421783, -0.32800665497779846, 0.17386813461780548,  -0.2061796337366104, -0.04652031883597374, 0.2194204479455948,  -0.24825090169906616, 0.1122860312461853,   0.2943003475666046,   0.34563538432121277,  -0.3738197982311249,  0.1442774385213852,   -0.22833161056041718,  0.2143203765153885,   0.009546175599098206,
     0.14372214674949646,  -0.04694497957825661, -0.09004522860050201, -0.4061538577079773,  0.205231711268425,   0.2863682508468628,   0.22752171754837036, 0.16375796496868134,  0.10260561853647232,  -0.14486950635910034, 0.060690321028232574, 0.16376183927059174,  -0.13760191202163696, 0.1421215832233429,    -0.5395208597183228,  0.2123650163412094,
     0.11023259162902832,  0.10812953859567642,  -0.1776842325925827,  -0.09402867406606674, 0.4055697023868561,  -0.24066686630249023, 0.0645330548286438,  0.25139278173446655,  -0.20991641283035278, -0.5684660077095032,  0.24726775288581848,  -0.19025592505931854, -0.2244308590888977,  -0.11828147619962692,  0.45671984553337097,  -0.36347031593322754},
    {-0.3339901268482208,  -0.1567620486021042,  -0.01883155293762684, -0.1095595732331276,  0.21331678330898285,  0.07810454070568085,  0.01528739370405674,   0.04961276799440384,  -0.15221112966537476, 0.21061229705810547,  0.3204728364944458,   -0.05476260185241699,  0.07217879593372345,  -0.21701273322105408, -0.17406679689884186,   -0.32218867540359497,
     -0.09687535464763641, -0.23305632174015045, -0.06479408591985703, -0.09417694807052612, -0.15485696494579315, 0.1387374848127365,   -0.12145235389471054,  -0.18952308595180511, -0.10193240642547607, 0.2509751319885254,   0.021621989086270332, -0.030566709116101265, -0.07416436076164246, 0.033270955085754395, 0.12949825823307037,    0.2829902470111847,
     0.12268385291099548,  0.042340755462646484, -0.08106198161840439, -0.5902330875396729,  -0.1256965696811676,  -0.06488776206970215, 0.07066842913627625,   -0.11371805518865585, 0.0923510193824768,   0.035469334572553635, 0.24357759952545166,  -0.19355902075767517,  -0.12109875679016113, 0.03275385871529579,  0.020327117294073105,   -0.11685594916343689,
     -0.1767885982990265,  -0.23905880749225616, 0.20126907527446747,  -0.25522351264953613, 0.5822120308876038,   0.09667688608169556,  -0.027287673205137253, 0.5904932022094727,   -0.11337979882955551, 0.31376704573631287,  0.09476941078901291,  -0.4070729911327362,   0.03021097183227539,  -0.1894748955965042,  -0.0017358780605718493, 0.2195354402065277},
    {-0.04279356077313423, 0.07430987805128098,   0.04297516494989395,   -0.23871555924415588, -0.09813553839921951, -0.15497225522994995, -0.09001035243272781, 0.20094604790210724,  0.06731909513473511, 0.09464001655578613,   -0.19701337814331055, -0.18075013160705566, -0.013291175477206707,  0.1203102096915245,    -0.20661674439907074, -0.12459510564804077,
     -0.03983234241604805, 0.1557607799768448,    -0.17392708361148834,  -0.09434539079666138, 0.08981936424970627,  0.23407042026519775,  -0.24419568479061127, -0.20739318430423737, 0.08719903230667114, -0.013103489764034748, 0.23351536691188812,  -0.15323618054389954, -0.0014001131057739258, -0.039437055587768555, -0.1277589499950409,  -0.22391116619110107,
     -0.05753113329410553, 0.05482238531112671,   0.0024284590035676956, 0.03543931245803833,  0.14721955358982086,  -0.21422603726387024, -0.15624777972698212, 0.1423070877790451,   0.18074029684066772, 0.14640076458454132,   -0.14860932528972626, -0.00906295981258154, -0.007328391075134277,  -0.05005180835723877,  0.04414024204015732,  0.10454054176807404,
     0.1502983421087265,   0.0002028346061706543, -0.19710282981395721,  0.05908491834998131,  -0.12015609443187714, -0.12816870212554932, 0.029317917302250862, 0.22098834812641144,  0.06546026468276978, -0.21044886112213135,  0.13052605092525482,  0.037579163908958435, 0.14368587732315063,    0.1904306709766388,    -0.07133383303880692, 0.1515805721282959},
    {0.06009739264845848,  -0.22107473015785217, 0.12834224104881287,   -0.14698049426078796, -0.10817793011665344,  0.09111037850379944,   0.20635391771793365,  -0.15590111911296844, 0.10588979721069336,  -0.20087549090385437,  0.0786796435713768,    -0.0507332980632782,  -0.1171766072511673,  0.21551820635795593,  0.13570059835910797,  -0.08922415226697922,
     -0.09922030568122864, 0.035243432968854904, -0.22628627717494965,  0.025370562449097633, -0.027288932353258133, -0.030990973114967346, -0.23324866592884064, 0.08013748377561569,  0.2326642870903015,   0.18488362431526184,   -0.17833051085472107,  0.07736827433109283,  -0.25801724195480347, -0.19745534658432007, 0.0718337818980217,   -0.056519925594329834,
     -0.25297239422798157, 0.20005212724208832,  0.17976728081703186,   0.3434840440750122,   -0.05998582765460014,  -0.24421554803848267,  0.07368107885122299,  0.05178184062242508,  0.046785756945610046, 0.1534706950187683,    0.03694358840584755,   0.14402203261852264,  0.07158184051513672,  0.17008426785469055,  0.04642103612422943,  0.14715474843978882,
     -0.20508134365081787, 0.16407181322574615,  -0.061133455485105515, 0.14733247458934784,  0.008025388233363628,  0.04087495803833008,   -0.16187739372253418, -0.13257452845573425, -0.2225508987903595,  -0.057293251156806946, -0.023929286748170853, -0.14765751361846924, -0.02419900894165039, -0.11892475932836533, -0.11318644881248474, -0.08897445350885391},
    {-0.08892476558685303, 0.08371716737747192,  0.08867877721786499,  -0.08042621612548828,  0.13424503803253174,  -0.09480541944503784,  -0.19369840621948242, -0.03501063585281372, -0.15616387128829956, 0.20869570970535278,  -0.04670459032058716, -0.06504029035568237, -0.12883728742599487, -0.03281623125076294, -0.15116482973098755, 0.07541036605834961,
     -0.07946562767028809, 0.0989721417427063,   -0.1866568922996521,  0.012668609619140625,  -0.17953526973724365, -0.1334049105644226,   -0.17938166856765747, 0.14241796731948853,  0.18449759483337402,  0.10771149396896362,  -0.22670787572860718, 0.018688201904296875, -0.11037731170654297, 0.08097612857818604,  -0.20353907346725464, -0.08689743280410767,
     0.21145552396774292,  0.15942877531051636,  -0.15604937076568604, 0.19120538234710693,   -0.18579578399658203, -0.0884789228439331,   0.038238584995269775, -0.23292917013168335, 0.1156889796257019,   -0.18610906600952148, 0.06206011772155762,  0.00953453779220581,  -0.14971810579299927, -0.21260356903076172, 0.10337775945663452,  -0.00939333438873291,
     -0.0777859091758728,  -0.17910873889923096, -0.22158455848693848, -0.056259334087371826, 0.01106172800064087,  -0.025540590286254883, -0.11831766366958618, 0.08071738481521606,  0.12257158756256104,  0.03305482864379883,  0.242681622505188,    -0.08659571409225464, 0.14408433437347412,  0.16647320985794067,  -0.08485239744186401, -0.23696410655975342},
    {0.13684141635894775,  -0.23276802897453308, 0.046497754752635956,  -0.4411207437515259,  0.04172792285680771, 0.2645029127597809,   -0.1308450698852539,  0.1822691112756729,   -0.18544107675552368,  -0.055447809398174286, 0.2804945111274719,   -0.031915076076984406, -0.20663699507713318, 0.313451886177063,    0.25303781032562256, 0.22253507375717163,
     0.39174777269363403,  -0.23917093873023987, 0.5922608375549316,    -0.17109811305999756, 0.3410543203353882,  0.3144778609275818,   -0.4212197959423065,  0.17496466636657715,  0.09439510107040405,   -0.407791405916214,    -0.1713983416557312,  0.3102952539920807,    -0.24779611825942993, -0.18972861766815186, 0.18158550560474396, 0.17074733972549438,
     0.23613473773002625,  -0.03601394221186638, 0.2814942002296448,    -0.3254023790359497,  0.253700852394104,   0.10010223835706711,  -0.10555162280797958, -0.12818117439746857, -0.37046247720718384,  0.3267389237880707,    -0.5269570350646973,  -0.15769176185131073,  -0.13216519355773926, -0.2298809140920639,  0.46710842847824097, 0.0025782608427107334,
     -0.04835478961467743, 0.24464190006256104,  -0.052643775939941406, -0.11238349974155426, -0.4539383053779602, 0.004641056060791016, 0.2754397392272949,   -0.6249853372573853,  -0.026194019243121147, -0.48011574149131775,  -0.48137733340263367, -0.4703049957752228,   0.0912213921546936,   -0.2899860143661499,  -0.6464348435401917, 0.37577712535858154},
    {-0.3881833851337433,   -0.17813889682292938, -0.20413072407245636, -0.4177072048187256,  -0.19389943778514862, 0.19746801257133484,  -0.2093459665775299,   -0.05279652029275894,  0.010778963565826416, -0.2680289149284363,   0.10318055748939514,  0.24981287121772766,    0.02391933463513851,   0.21568001806735992,  0.01849348098039627,   -0.012074252590537071,
     0.047762155532836914,  0.020806781947612762, -0.4582900404930115,  -0.09396428614854813, 0.2635076940059662,   -0.16179950535297394, -0.024771403521299362, -0.025294272229075432, -0.20952320098876953, -0.3692134618759155,   -0.07631468772888184, -0.0014963186113163829, 0.17339904606342316,   -0.09724225103855133, -0.031270239502191544, -0.3018123507499695,
     0.1209242194890976,    -0.1415330320596695,  0.3283117115497589,   -0.16034801304340363, -0.09581586718559265, 0.2858760356903076,   0.25856494903564453,   0.07582832872867584,   0.26044636964797974,  -0.061041831970214844, 0.1666516214609146,   0.010249150916934013,   0.0016101598739624023, 0.11758050322532654,  -0.38415995240211487,  0.15170232951641083,
     -0.026457935571670532, -0.0988221988081932,  -0.31984031200408936, 0.2895190417766571,   -0.2775045335292816,  -0.11707413196563721, 0.10029484331607819,   0.4259141981601715,    0.050476107746362686, -0.5831109881401062,   -0.27787983417510986, -0.14879755675792694,   0.19669079780578613,   -0.15107586979866028, 0.49371904134750366,   0.05867232382297516},
    {-0.4087291955947876,  0.02352849952876568,  0.09987735748291016,  0.300719678401947,    -0.2668176591396332, 0.1307828575372696,   0.14413323998451233,  -0.18098555505275726, -0.08439189195632935, -0.010695704258978367, -0.29485949873924255, 0.09635891020298004,  -0.009132335893809795, -0.22811700403690338, -0.1749563217163086,  -0.09194856882095337,
     -0.3634788393974304,  0.016756320372223854, -0.1257728487253189,  -0.06772475689649582, -0.1786056011915207, 0.08970735222101212,  0.3501512110233307,   -0.3743596076965332,  0.2124754786491394,   0.46435585618019104,   0.17743004858493805,  -0.3989727199077606,  0.3183596432209015,    0.1923137903213501,   -0.13150571286678314, 0.17773719131946564,
     -0.09377984702587128, -0.07996085286140442, -0.22449631989002228, -0.22743631899356842, 0.13546627759933472, 0.06290165334939957,  0.1504870355129242,   0.3381994366645813,   0.2471822202205658,   -0.3191583752632141,   0.40131866931915283,  -0.12566961348056793, -0.1196865439414978,   0.1329210102558136,   -0.09829981625080109, 0.08041265606880188,
     -0.11228128522634506, -0.11473178118467331, 0.055759623646736145, -0.12970693409442902, 0.3564155101776123,  0.031042397022247314, -0.19345761835575104, 0.6870605945587158,   -0.2777285873889923,  0.1250026375055313,    0.3244374692440033,   0.16250313818454742,  -0.14125776290893555,  -0.0794692263007164,  0.524800717830658,    -0.018857263028621674},
    {0.18633142113685608,  0.0025623859837651253, -0.1897093951702118,  0.1754809468984604,   -0.29605337977409363, -0.02495020069181919, 0.0870610773563385,    -0.2935744524002075,  0.14270281791687012, 0.20983797311782837,  -0.11918098479509354, -0.18128500878810883, 0.06124328821897507,  0.05255073308944702,  0.02057885378599167,   -0.02646791748702526,
     0.22787973284721375,  -0.0788201093673706,   0.6078941226005554,   -0.10858470946550369, -0.04813145473599434, 0.16630323231220245,  0.08455349504947662,   0.2510381042957306,   -0.1285649538040161, -0.05869840830564499, 0.21388861536979675,  -0.16714034974575043, -0.19395101070404053, -0.0391308069229126,  -0.030606430023908615, -0.03674338385462761,
     -0.12413270771503448, -0.012043774127960205, 0.16324009001255035,  0.4041464924812317,   0.053038839250802994, 0.10284797102212906,  -0.044953085482120514, 0.11869052052497864,  0.2649305462837219,  -0.4399581551551819,  0.15809237957000732,  -0.18373693525791168, -0.10008227825164795, -0.04077356308698654, -0.0399249866604805,   0.2620255947113037,
     0.10598912090063095,  -0.2565705180168152,   -0.15104247629642487, 0.18997792899608612,  -0.2507314085960388,  0.23473292589187622,  0.10832232981920242,   -0.09604530036449432, -0.2740154564380646, 0.2737087309360504,   0.18421906232833862,  0.09222603589296341,  -0.11489582061767578, -0.12530449032783508, -0.3178895115852356,   0.07963539659976959},
    {0.19176384806632996,  -0.18232691287994385, -0.03296571969985962,  -0.03346455469727516, 0.13614240288734436,   0.010269285179674625, -0.13094228506088257, -0.13444650173187256,  0.16679710149765015,  0.008929379284381866, 0.05436018854379654, -0.14158542454242706, -0.028350234031677246, 0.07021614164113998,   -0.10493079572916031, -0.23816871643066406,
     0.17277295887470245,  0.12867067754268646,  -0.24046772718429565,  -0.23294314742088318, -0.2234276682138443,   0.22026462852954865,  0.2046455293893814,   -0.008122265338897705, 0.22315990924835205,  -0.24997800588607788, 0.06130755692720413, -0.02486637979745865, -0.1839117407798767,   0.0068964362144470215, -0.11037641763687134, 0.051971614360809326,
     0.07119275629520416,  0.04560673236846924,  0.21303093433380127,   -0.1451019048690796,  -0.19813397526741028,  -0.07721389085054398, -0.14470674097537994, 0.0625043511390686,    0.2182340919971466,   -0.2031797170639038,  0.04484081268310547, -0.13394592702388763, -0.14083963632583618,  -0.14152078330516815,  0.22468137741088867,  0.022581428289413452,
     0.023831389844417572, 0.07708156108856201,  -0.057900212705135345, 0.20195358991622925,  -0.042897939682006836, 0.08867150545120239,  -0.23263749480247498, 0.04449177905917168,   -0.21549201011657715, 0.013754963874816895, 0.1595083475112915,  0.1317060887813568,   0.10676544904708862,   -0.07714527100324631,  0.09191882610321045,  0.06950801610946655},
    {0.5437483787536621,   -0.01599879190325737,  -0.12231122702360153, -0.23585470020771027, -0.021122733131051064, 0.26783308386802673,  0.0919521227478981,  0.22047440707683563,   0.14982181787490845,  0.042433902621269226, -0.1320197880268097,  0.0891614630818367,   -0.04148818179965019, -0.09415759891271591, -0.1692851185798645, 0.27793264389038086,
     0.03192600607872009,  0.22214461863040924,   0.4287865161895752,   0.17389070987701416,  0.23854279518127441,   -0.11804689466953278, 0.11408466100692749, 0.45812031626701355,   -0.15397971868515015, -0.3693562150001526,  0.13598430156707764,  0.4440517723560333,   -0.03000512346625328, 0.1811850666999817,   -0.153878316283226,  0.19740962982177734,
     0.20035968720912933,  -0.031031232327222824, -0.23592592775821686, 0.41524383425712585,  -0.11508367210626602,  -0.1147787943482399,  0.1100897416472435,  -0.23569153249263763,  0.12272516638040543,  -0.14531248807907104, 0.013997601345181465, 0.1373872309923172,   -0.13410413265228271, -0.23039144277572632, 0.14205273985862732, 0.261707067489624,
     0.020283229649066925, 0.19138197600841522,   0.12513472139835358,  0.30543768405914307,  -0.25681930780410767,  -0.06385505199432373, -0.2872636616230011, -0.039855387061834335, 0.008641913533210754, 0.5495601892471313,   0.016380595043301582, -0.16777563095092773, -0.19436663389205933, -0.2204194962978363,  -0.4767124354839325, 0.012891502119600773},
    {-0.2255430966615677,  0.06749308109283447,  -0.08470454066991806, 0.1780465841293335,   -0.15179063379764557,  0.16585470736026764,  0.1978805661201477,    0.00044955359771847725, -0.20896583795547485, -0.2001306265592575,  -0.2743082642555237,  0.1625453680753708,   0.35957071185112,     0.24226585030555725,   0.210032656788826,     -0.2966456115245819,
     -0.14075228571891785, -0.13962799310684204, -0.14281705021858215, 0.19865413010120392,  0.21764515340328217,   -0.11241286993026733, 0.018893972039222717,  -0.18965844810009003,   0.06148260831832886,  0.01074312999844551,  -0.07474212348461151, -0.07994534075260162, -0.06230980157852173, 0.020642651244997978,  -0.020621173083782196, -0.2120824009180069,
     0.01703045889735222,  -0.03863672539591789, -0.07679279893636703, -0.13774104416370392, 0.17699557542800903,   0.08249583840370178,  0.2815696895122528,    0.2718382477760315,     -0.1012723371386528,  -0.17251184582710266, 0.30014994740486145,  0.33529403805732727,  0.05866283178329468,  -0.053166504949331284, -0.397992342710495,    0.20596623420715332,
     0.10700207203626633,  0.0845436379313469,   -0.3178245425224304,  0.049933675676584244, -0.004232073202729225, 0.09529906511306763,  -0.041886378079652786, 0.20202310383319855,    0.13066436350345612,  -0.3033711016178131,  0.0962260514497757,   -0.06750303506851196, -0.08903133869171143, 0.07457425445318222,   0.5789271593093872,    -0.3011977970600128},
    {-0.39992591738700867, -0.4019838869571686, -0.2193610966205597, -0.4215424358844757, 0.31410202383995056,  0.3746306300163269,    0.12919922173023224,  -0.056483909487724304, 0.201543927192688,    0.2597450911998749,  0.32917797565460205,  -0.1570490449666977,  -0.02174108661711216, 0.2516143321990967,   0.21197672188282013, -0.11992964893579483,
     0.025479024276137352, 0.1480482667684555,  0.04872371256351471, 0.12884479761123657, -0.08659795671701431, 0.2982580363750458,    0.002406829036772251, -0.27549904584884644,  -0.12498605251312256, -0.2886731028556824, 0.0399852879345417,   0.6103631854057312,   -0.2655332684516907,  0.23182892799377441,  0.15979889035224915, 0.1787310391664505,
     0.08215171098709106,  0.07591515779495239, 0.20435145497322083, -0.3276457190513611, 0.12391366809606552,  0.005570150446146727,  -0.16623084247112274, -0.27878329157829285,  -0.23399971425533295, 0.29914093017578125, -0.33538737893104553, -0.24918310344219208, -0.1572539210319519,  0.10065192729234695,  0.3847781717777252,  0.30867600440979004,
     0.23122148215770721,  -0.0967721939086914, -0.0936276912689209, -0.1616266518831253, -0.12145479768514633, 0.0018001198768615723, -0.129060298204422,   -0.24581816792488098,  0.08865702152252197,  -0.5593352317810059, -0.48998990654945374, -0.0964420810341835,  -0.20960009098052979, -0.16947734355926514, -0.3689306080341339, 0.23142686486244202},
    {-0.24776500463485718, -0.17333471775054932, 0.18255555629730225,  0.10448521375656128,  -0.1354324221611023, 0.03769916296005249,   -0.18288928270339966, 0.03762483596801758,   -0.0944933295249939,  -0.14245599508285522, -0.03450274467468262, -0.1665041446685791,     -0.22940438985824585, 0.010482430458068848,  0.05369126796722412,   0.0005992650985717773,
     -0.10905516147613525, -0.2240769863128662,  -0.09998840093612671, -0.19315862655639648, -0.1909274458885193, -0.012378394603729248, 0.21990758180618286,  -0.056265950202941895, -0.07964193820953369, 0.24356836080551147,  -0.14709490537643433, -0.11146926879882812,    0.1616988182067871,   0.23422545194625854,   0.06596958637237549,   -0.015941977500915527,
     0.0344395637512207,   -0.165419340133667,   -0.18178796768188477, -0.1433337926864624,  -0.2357904314994812, 0.13928568363189697,   0.20008069276809692,  -0.024764716625213623, -0.21171033382415771, -0.13990408182144165, -0.18584340810775757, 0.20228368043899536,     0.09571444988250732,  -0.006049692630767822, -0.037221431732177734, 0.06636667251586914,
     -0.21120983362197876, 0.0966564416885376,   -0.0496906042098999,  0.08560597896575928,  -0.1798231601715088, 0.037952959537506104,  0.17309194803237915,  0.16932988166809082,   -0.19672107696533203, 0.24029797315597534,  -0.000244140625,      -0.00015527009963989258, 0.1871669888496399,   0.040623247623443604,  0.036310791969299316,  -0.06923198699951172},
    {0.18250340223312378,  0.1887218952178955,   0.020254552364349365,   -0.18616223335266113,  -0.02651524543762207, 0.16752701997756958,  -0.1088552474975586,  0.03750133514404297,  -0.22325050830841064, -0.02576899528503418, -0.03823298215866089, 0.11891412734985352,   0.05453008413314819,  -0.139298677444458,    -0.14286619424819946, 0.013035416603088379,
     0.08565574884414673,  -0.21371299028396606, 0.1812693476676941,     -0.15014928579330444,  -0.10098367929458618, -0.07496607303619385, -0.15671461820602417, -0.09123587608337402, -0.19745129346847534, -0.08796578645706177, 0.1837245225906372,   -0.11535423994064331,  -0.24444562196731567, -0.022141873836517334, -0.18237090110778809, 0.21112918853759766,
     -0.24843734502792358, -0.1741301417350769,  2.3245811462402344e-06, 0.1401119828224182,    -0.157398521900177,   -0.14970719814300537, -0.07299602031707764, -0.02659982442855835, 0.016997218132019043, 0.07072705030441284,  -0.17271125316619873, -0.10692399740219116,  -0.2388131022453308,  -0.16641217470169067,  0.0995415449142456,   -0.1606089472770691,
     -0.19751274585723877, -0.1307128667831421,  -0.011965572834014893,  -0.058032095432281494, -0.24587136507034302, 0.10501879453659058,  -0.07146978378295898, 0.021540284156799316, 0.044554054737091064, 0.18472909927368164,  0.03332066535949707,  -0.002446413040161133, 0.06143563985824585,  -0.015768110752105713, 0.07842838764190674,  -0.0441814661026001},
    {0.12871044874191284,  -0.04532414674758911, 0.20916378498077393,   -0.12479162216186523, -0.19772523641586304, -0.1309528946876526,  -0.22654807567596436,  0.004366815090179443, 0.09059172868728638,  -0.24667763710021973, 0.120952308177948,    -0.10040819644927979, 0.05461937189102173,  0.23770618438720703,   -0.015145957469940186, 0.0995032787322998,
     0.2400529384613037,   0.1951935887336731,   0.13842076063156128,   -0.1756494641304016,  -0.17547953128814697, 0.22507721185684204,  0.019643127918243408,  -0.24176841974258423, 0.0946044921875,      -0.06137716770172119, -0.1334332823753357,  0.209711492061615,    -0.20781856775283813, -0.07860726118087769,  -0.098202645778656,    0.20441758632659912,
     -0.05092060565948486, 0.08824914693832397,  0.06958019733428955,   0.061477482318878174, -0.09010380506515503, -0.14017271995544434, -0.011076569557189941, 0.14881443977355957,  -0.2008376121520996,  0.10996401309967041,  -0.21834886074066162, -0.10322916507720947, -0.08063280582427979, 0.22223347425460815,   0.19123870134353638,   -0.21274638175964355,
     -0.1827460527420044,  0.05703336000442505,  -0.017746269702911377, -0.2021501660346985,  0.010152280330657959, -0.1753193736076355,  0.08575499057769775,   0.1500425934791565,   -0.07319998741149902, -0.20319342613220215, -0.18067753314971924, -0.1867935061454773,  0.21994590759277344,  -0.015918254852294922, 0.09083312749862671,   -0.0773964524269104},
    {-0.002338048769161105, -0.24205820262432098, -0.0559101477265358,  0.15415015816688538,  0.09533236175775528,  -0.1818787157535553,  -0.17342552542686462, 0.12267525494098663, 0.05170518159866333,  -0.11722812801599503, 0.007829609327018261, 0.17499279975891113,  0.06780680269002914,   -0.22050386667251587, -0.25360649824142456, -0.06749505549669266,
     -0.024609412997961044, -0.2093493938446045,  0.16777178645133972,  -0.06664272397756577, 0.17576618492603302,  0.12809710204601288,  0.15554764866828918,  0.16431546211242676, 0.24854183197021484,  0.036871377378702164, 0.19725662469863892,  0.11512642353773117,  -0.11919806897640228,  0.2370794266462326,   -0.23917630314826965, -0.1739027053117752,
     0.010704155080020428,  -0.06941068172454834, 0.032596491277217865, 0.13744449615478516,  0.06750794500112534,  -0.23876556754112244, -0.16352137923240662, 0.16176539659500122, 0.03418949246406555,  0.22672681510448456,  0.024084100499749184, 0.009673220105469227, -0.047834038734436035, 0.16557268798351288,  0.15743429958820343,  -0.07909484952688217,
     0.17455002665519714,   0.19751864671707153,  -0.1820787936449051,  0.13898780941963196,  -0.16226623952388763, 0.1503920555114746,   -0.15954959392547607, -0.1201302632689476, -0.09204015135765076, -0.11678803712129593, -0.20986993610858917, 0.1841500997543335,   0.0449482798576355,    0.037582240998744965, 0.09241855889558792,  0.10810587555170059},
    {-0.45933404564857483, -0.08351986855268478,  0.11494631320238113,  -0.05099858343601227, -0.0029223093297332525, 0.0260988287627697,   0.23718273639678955,  0.07101903110742569,  -0.04165005683898926, -0.25888943672180176, 0.14561018347740173,   0.24750268459320068,   0.20316754281520844,   -0.0767206996679306, -0.19728779792785645, -0.16109144687652588,
     0.039537034928798676, 0.054893508553504944,  -0.23653343319892883, 0.257401704788208,    0.09590615332126617,    0.2308935970067978,   -0.04400395601987839, -0.29874134063720703, 0.13786524534225464,  0.2052430361509323,   0.0025838275905698538, -0.4376545548439026,   0.29832276701927185,   -0.1114010363817215, -0.20699121057987213, -0.19281545281410217,
     0.18378128111362457,  0.10920363664627075,   -0.03745277225971222, -0.33926719427108765, 0.21822212636470795,    -0.05041443929076195, 0.21011218428611755,  0.11329500377178192,  0.13598784804344177,  -0.19365613162517548, 0.16275213658809662,   0.046492356806993484,  -0.09617757797241211,  0.17985473573207855, -0.5744112730026245,  0.10672499984502792,
     -0.1982857882976532,  -0.033605992794036865, -0.2382444590330124,  -0.1383272409439087,  0.33371075987815857,    0.10895556211471558,  0.11337865889072418,  0.6074615120887756,   0.1418217122554779,   -0.5294873714447021,  0.2046036571264267,    -0.060854215174913406, -0.026525020599365234, 0.1247304305434227,  0.4995596706867218,   -0.31711384654045105},
    {-0.2844892740249634,  0.02274223417043686,  0.12935613095760345,  0.08757418394088745,  -0.3366677761077881,  0.00588989956304431, 0.28196775913238525,  0.14013217389583588,  0.20776641368865967,   -0.2944454848766327,  0.08180321007966995,  0.13361480832099915, 0.3104954659938812,   -0.22189931571483612, -0.2692175507545471,  -0.2918393313884735,
     -0.13552919030189514, 0.08848855644464493,  -0.7059617638587952,  -0.08043239265680313, -0.06605292111635208, 0.17323876917362213, 0.17369118332862854,  -0.2313489317893982,  0.09940725564956665,   0.24582527577877045,  -0.09157805889844894, -0.6262889504432678, 0.25355586409568787,  -0.19478824734687805, 0.16093230247497559,  -0.4350424110889435,
     0.11987071484327316,  -0.20356570184230804, 0.2472018152475357,   -0.26094892621040344, -0.11111617088317871, 0.2326999008655548,  0.030934402719140053, 0.036733463406562805, 0.1310189813375473,    0.055829014629125595, 0.3530307412147522,   0.09881820529699326, -0.09166604280471802, 0.05713405832648277,  -0.42806756496429443, 0.0010034069418907166,
     -0.1711895763874054,  0.06996200233697891,  -0.22150400280952454, -0.314285010099411,   0.19655802845954895,  0.15087532997131348, -0.2128596305847168,  0.3593814969062805,   -0.053536783903837204, -0.5309818387031555,  0.10459572076797485,  0.12972749769687653, 0.17963659763336182,  -0.14190706610679626, 0.6011428833007812,   -0.29716745018959045},
    {0.16654841601848602,  0.14959736168384552,  -0.003722309833392501, 0.18542557954788208, -0.20402418076992035, -0.25357338786125183, 0.08439613878726959,  -0.1292353719472885,   0.13420873880386353, 0.0021341813262552023, 0.07065239548683167, 0.12063571065664291,  0.08967488259077072,  0.0292061697691679,    0.26514363288879395, -0.08608929067850113,
     -0.10988467186689377, -0.22360539436340332, -0.128042072057724,    0.13251441717147827, -0.06044529378414154, -0.12489734590053558, -0.11234632134437561, -0.042874205857515335, 0.15113937854766846, -0.24968469142913818,  0.02896926924586296, 0.2183031141757965,   -0.2700704038143158,  -0.020314574241638184, 0.2705354690551758,  -0.10741861164569855,
     -0.2520495355129242,  -0.12904715538024902, -0.23865222930908203,  0.1327897012233734,  -0.23405058681964874, 0.12431441992521286,  -0.1825316995382309,  0.29550063610076904,   0.17793715000152588, -0.33840322494506836,  -0.2801440954208374, 0.27662840485572815,  0.16312134265899658,  0.1037769541144371,    0.24623501300811768, 0.17314672470092773,
     0.24081145226955414,  -0.3005809485912323,  0.25393328070640564,   0.0664922297000885,  -0.5915118455886841,  -0.13029563426971436, 0.1416550576686859,   0.07022052258253098,   0.06644202768802643, 0.3247189521789551,    0.24231073260307312, -0.12728039920330048, -0.22971665859222412, -0.26920706033706665,  0.05299895256757736, -0.0664285197854042},
};

const float bias_l2[SHAPE_L_2] = {0.15194380283355713,
                                  0.11832684278488159,
                                  0.0,
                                  -0.01819099858403206,
                                  0.07961921393871307,
                                  0.11383458971977234,
                                  -0.024235356599092484,
                                  -0.0165328998118639,
                                  -0.011504153721034527,
                                  -0.056118592619895935,
                                  0.12516865134239197,
                                  0.09194222837686539,
                                  0.07584964483976364,
                                  0.10485424846410751,
                                  -0.015316708013415337,
                                  -0.016427412629127502,
                                  0.0,
                                  -0.09036559611558914,
                                  0.0242031030356884,
                                  0.10979816317558289,
                                  0.021051090210676193,
                                  -0.005946414545178413,
                                  -0.0341661274433136,
                                  0.08789883553981781,
                                  -0.015566529706120491,
                                  0.0,
                                  0.0,
                                  0.0,
                                  -0.03673592582345009,
                                  0.09549590945243835,
                                  0.1208340972661972,
                                  0.03966411203145981};

const float weights_l3[SHAPE_L_3][SHAPE_L_2] = {
    {0.07997303456068039,  0.1291772872209549,  0.09376206994056702, -0.5964739918708801,  0.3946516513824463,  0.2219889760017395,  0.3622523546218872,    0.18152832984924316, -0.2193785011768341, -0.500571072101593,   0.04801783710718155,  0.21985198557376862, -0.009084545075893402, -0.2596251368522644, 0.1744064837694168, 0.14939738810062408,
     0.024023205041885376, -0.5252315402030945, 0.3651074171066284,  -0.14189951121807098, 0.10334664583206177, -0.0726458951830864, -0.051992662250995636, 0.28695520758628845, -0.2718372642993927, -0.03960791230201721, -0.22644978761672974, 0.2361244261264801,  -0.1853981912136078,   -0.1285618096590042, 0.4282864034175873, -0.5086072087287903},
    {-0.28549233078956604, 0.2418065220117569, 0.21072301268577576, -0.11689667403697968, -0.15108180046081543, -0.17599906027317047, 0.0845661386847496,  0.3227121829986572,   -0.1200791448354721, -0.06056363508105278, 0.028214003890752792, 0.17263734340667725, 0.273946076631546,   -0.35246214270591736,  -0.21607767045497894, 0.28367191553115845,
     0.06826895475387573,  0.0637471154332161, 0.2437271922826767,  0.01196685153990984,  0.09574415534734726,  -0.05337664857506752, 0.35521289706230164, -0.22087089717388153, -0.2293882668018341, -0.33050817251205444, 0.33227476477622986,  0.12356653809547424, 0.07331886887550354, -0.012655124999582767, -0.1883956640958786,  -0.028440341353416443},
    {-0.38088664412498474, 0.3193984627723694,   -0.26882144808769226, 0.40273046493530273, -0.11109419912099838, 0.18562926352024078,  0.22787874937057495,   -0.1390417218208313,  -0.2167893946170807,  0.3540315330028534,   -0.22813229262828827, -0.2420230358839035, 0.18573401868343353,  -0.08791481703519821, 0.07471088320016861, 0.027201028540730476,
     0.0793394148349762,   -0.09218452125787735, -0.3555629849433899,  0.38050323724746704, -0.30040454864501953, -0.07818838953971863, 0.0005772807635366917, -0.27942678332328796, -0.27919965982437134, -0.06923505663871765, 0.0957002341747284,   -0.2866721451282501, -0.13598240911960602, -0.2916288375854492,  0.22162868082523346, -0.401563435792923},
    {-0.06577867269515991, 0.4577111601829529,  0.018401235342025757, 0.6753280162811279,  0.17093612253665924, 0.14226853847503662,  0.11970765143632889,   -0.32271677255630493, 0.10367003083229065,  0.1765110194683075,   0.10797562450170517, -0.24666325747966766, -0.18342013657093048, -0.3780997395515442, -0.2951885759830475,   0.22561877965927124,
     -0.2983178496360779,  -0.2483726292848587, -0.13457031548023224, 0.17007364332675934, 0.40308207273483276, 0.007327228784561157, -0.021718407049775124, -0.04825887084007263, -0.48701509833335876, -0.29059645533561707, 0.08592301607131958, -0.3244898319244385,  0.15245527029037476,  0.11011272668838501, -0.023767627775669098, 0.17633956670761108},
    {0.26113325357437134,   0.5542486310005188,  0.3421296775341034,  -0.33209967613220215, 0.43959590792655945, 0.4914420247077942,   0.010147123597562313, -0.33348384499549866, 0.05471987649798393, 0.07853402197360992, 0.5059528946876526,   0.33955860137939453, 0.34170445799827576, -0.017070725560188293, -0.09404648840427399, -0.20769307017326355,
     -0.008383601903915405, -0.6586579084396362, -0.2524341344833374, 0.2150896191596985,   -0.2993278503417969, -0.26049095392227173, -0.3558632433414459,  0.25849679112434387,  -0.2885407507419586, -0.1983327865600586, -0.14395374059677124, -0.3502325415611267, 0.05680983141064644, 0.20500651001930237,   0.03365246206521988,  -0.5565670132637024},
    {-0.32795464992523193, -0.2146611511707306, 0.2824518382549286,   -0.11503097414970398, -0.053492456674575806, 0.02895835041999817, 0.24805697798728943, -0.21035483479499817, 0.34916993975639343, -0.23789653182029724, -0.1188821792602539, -0.11254683136940002, -0.09648391604423523, -0.24108663201332092, -0.19919738173484802, -0.02356177568435669,
     0.3123154938220978,   -0.3515916168689728, -0.03639724850654602, 0.16966339945793152,  0.20468363165855408,   0.27351197600364685, 0.2943015992641449,  0.03250423073768616,  0.16999772191047668, -0.11555476486682892, 0.0911765992641449,  0.16895607113838196,  -0.14916114509105682, -0.3270948529243469,  -0.10770921409130096, -0.04934096336364746},
    {0.3017875850200653,    0.04158298298716545,  0.07632887363433838, -0.28183120489120483, -0.010271649807691574, 0.473255455493927,   0.22577889263629913, -0.275705486536026, 0.22664780914783478, -0.3870387673377991, 0.27562853693962097,  0.3079536557197571,  0.2587459981441498,   -0.3529373109340668, -0.2824764549732208, 0.10461103916168213,
     -0.002054154872894287, -0.15068461000919342, 0.3744208514690399,  0.07344334572553635,  -0.5373119711875916,   -0.1792803853750229, 0.08522555977106094, 0.2231907695531845, -0.3682248890399933, 0.2648986876010895,  -0.18968753516674042, 0.09916916489601135, -0.08949309587478638, 0.38662269711494446, 0.49053871631622314, -0.4969364106655121},
    {0.26467791199684143,  -0.19448183476924896, 0.24434331059455872,  0.099616639316082,  -0.38138294219970703, -0.2670401930809021,  -0.14265240728855133, -0.3500811457633972,  -0.18282687664031982, -0.2941593825817108, -0.2801532447338104,  0.20994877815246582,  0.17124943435192108,  0.21069924533367157, -0.27944543957710266, 0.006803440395742655,
     -0.21558938920497894, -0.29866042733192444, -0.35130277276039124, -0.243803933262825, 0.09119322896003723,  -0.07421335577964783, 0.26075252890586853,  -0.20708118379116058, 0.163506418466568,    0.20300373435020447, -0.16533467173576355, -0.27922987937927246, -0.12626567482948303, 0.2815841734409332,  -0.07510736584663391, -0.1833333969116211},
    {0.04703826084733009, 0.4490174353122711,   0.20849719643592834, -0.3993498384952545, 0.2924353778362274,  0.3163301348686218,  -0.03502138704061508, -0.1417941451072693, 0.020090237259864807,  0.14562277495861053, -0.03828466683626175, 0.465541809797287,  0.35323914885520935, -0.2702925503253937, 0.0416538342833519, -0.27880069613456726,
     0.09288632869720459, -0.45410048961639404, 0.4801858961582184,  0.05421854183077812, -0.1566387563943863, 0.32472920417785645, -0.3001880645751953,  0.11955786496400833, 0.0023404464591294527, 0.3284663259983063,  0.26485195755958557,  0.2927800118923187, 0.12782500684261322, 0.4024696350097656,  0.4049147963523865, -0.32104259729385376},
    {-0.08496297895908356, 0.06499923765659332, -0.12343016266822815, 0.14528009295463562,  0.18672694265842438, -0.017468376085162163, 0.3171667456626892,  0.12965263426303864,  -0.033176571130752563, 0.10283687710762024,  -0.31439265608787537, -0.3301621675491333,  -0.3764578700065613, 0.23815198242664337, -0.35041311383247375, -0.2742117643356323,
     -0.05797839164733887, 0.04430287703871727, 0.007570346351712942, -0.28832733631134033, 0.18858537077903748, 0.12963075935840607,   0.29192104935646057, -0.19630280137062073, 0.21452470123767853,   -0.02554461359977722, 0.11194035410881042,  -0.23782707750797272, 0.2653319537639618,  0.24367301166057587, 0.12438350170850754,  -0.04844876006245613},
    {0.04728223383426666,  0.3163639307022095,  -0.2027609795331955, -0.039567526429891586, 0.2962608337402344,  -0.06504658609628677, 0.2900765836238861,  0.3255046606063843,   0.21971088647842407,  -0.02299734577536583, -0.24297396838665009, -0.1229536309838295,  0.035003092139959335, -0.33912214636802673, 0.09654568135738373, 0.17315545678138733,
     -0.17563772201538086, -0.2867245376110077, 0.05121037736535072, 0.13180342316627502,   0.00919051468372345, 0.16919414699077606,  0.36422914266586304, -0.36383548378944397, -0.07329880446195602, -0.08433499932289124, -0.09703603386878967, -0.23720693588256836, 0.31951966881752014,  0.09385481476783752,  0.26432064175605774, 0.2869482934474945},
    {-0.13425421714782715, -0.019216397777199745, -0.1511922925710678, 0.418133020401001,   0.10818194597959518, 0.15000851452350616, -0.3185000419616699, 0.26917487382888794, -0.15284882485866547, -0.07383868843317032,  0.31554993987083435, -0.34550145268440247, 0.21523237228393555, -0.17930588126182556, -0.2759481966495514,  -0.17588424682617188,
     0.15918055176734924,  0.3996606171131134,    -0.0981164500117302, -0.3826630711555481, 0.2898815870285034,  0.04568847641348839, 0.5902063250541687,  0.04525511711835861, -0.20064185559749603, -0.002396225929260254, 0.08108252286911011, -0.34864935278892517, -0.1470939815044403, -0.2748222351074219,  -0.19818125665187836, 0.089807890355587},
    {0.2594466805458069,  -0.4427337348461151, 0.008142441511154175, -0.17108657956123352, -0.03782548010349274, -0.15014316141605377, 0.02487257309257984, 0.06180404871702194, 0.0846659243106842, -0.5550673007965088,  0.2798730134963989,  -0.0207656342536211, 0.13330808281898499, -0.6899478435516357,  -0.2770729959011078, -0.2543424665927887,
     -0.2994484603404999, 0.6144647598266602,  0.2980183959007263,   -0.37795886397361755, -0.23095937073230743, 0.14432236552238464,  0.4180759787559509,  0.31222817301750183, 0.4160751700401306, -0.06968611478805542, -0.1933133453130722, -0.3089529871940613, 0.12873776257038116, -0.08718439191579819, -0.2007804960012436, -0.29514285922050476},
    {0.25107845664024353,  -0.06545421481132507,  -0.33446642756462097, -0.3328801989555359, -0.3210373520851135, 0.2679467499256134,  0.13782617449760437, -0.0467340350151062, -0.13873149454593658, -0.10699643194675446, 0.05520561337471008, -0.23387151956558228, -0.07808133959770203, -0.06964698433876038, 0.34399017691612244, -0.005242407321929932,
     -0.09235334396362305, -0.044296592473983765, -0.13382433354854584, -0.2863807678222656, 0.11349934339523315, 0.12326234579086304, -0.0750698447227478, -0.352223664522171,  -0.3350674510002136,  -0.080893874168396,   0.30538037419319153, -0.3192879855632782,  0.04743063449859619,  0.25996193289756775,  -0.3337474763393402, 0.12886998057365417},
    {0.23671820759773254,  0.2132946103811264,   0.1979070007801056,  -0.7545424699783325, 0.19490140676498413,  -0.08647201210260391, -0.023418160155415535, 0.08879843354225159, -0.1776697337627411,  -0.3178552985191345, 0.04302956536412239, -0.13788706064224243, 0.3512713313102722,   0.498510479927063,   -0.3330497741699219, 0.34683045744895935,
     -0.26050496101379395, -0.42834070324897766, 0.09499310702085495, 0.44540202617645264, -0.04758520424365997, 0.018270671367645264, -0.7120101451873779,   0.3056768476963043,  -0.21976275742053986, 0.3075388967990875,  -0.2361631989479065, 0.060199618339538574, -0.32355019450187683, 0.37693485617637634, 0.18172752857208252, -0.5457855463027954},
    {-0.14308862388134003, -0.13809388875961304, 0.03618079423904419, 0.29097700119018555, 0.007866540923714638, -0.0023564251605421305, -0.2948514223098755, 0.21357960999011993, -0.02693343162536621, 0.2861754298210144, -0.3660290241241455,   0.21045149862766266, 0.13677431643009186,  -0.2366746962070465,  0.2994002401828766,  -0.10271120816469193,
     -0.2913866937160492,  0.04349009692668915,  0.2095387876033783,  0.08251850306987762, 0.004695454146713018, 0.010414769873023033,   0.22191546857357025, -0.346768856048584,  -0.30895715951919556, 0.0687989890575409, -0.013754963874816895, 0.11664941906929016, -0.27212169766426086, -0.28015419840812683, -0.3127093017101288, 0.25701889395713806},
};
const float bias_l3[SHAPE_L_3] = {0.046999741345644, 0.014924715273082256, -0.07808027416467667, -0.0009276493219658732, 0.09212158620357513, 0.0, 0.10144231468439102, -0.04413110390305519, 0.03657246008515358, -0.028665438294410706, -0.010252631269395351, -0.034510836005210876, 0.02560119889676571, 0.0, 0.09456901252269745, -0.018595563247799873};
const float weights_l4[SHAPE_L_4][SHAPE_L_3] = {
    {0.05294935032725334, -0.12514856457710266, 0.08939477056264877, -0.22633689641952515, -0.2554662227630615, -0.38553130626678467, -0.2467719167470932, -0.42255908250808716, -0.10036544501781464, 0.06044166162610054, 0.10741639882326126, -0.2610664665699005, 0.09900844842195511, 0.48650383949279785, -0.0038167345337569714, 0.3849232494831085},
    {0.6361063718795776, 0.21791841089725494, -0.8013931512832642, -0.474909245967865, 0.6289595365524292, -0.4948657751083374, 0.4095297157764435, -0.13924221694469452, 0.27077654004096985, -0.4076360762119293, -0.4745800197124481, -0.8097096085548401, -0.3795105218887329, 0.029157042503356934, 0.7039246559143066, -0.416879266500473},
    {0.1891193389892578, -0.29116642475128174, -0.4964470863342285, 0.2922626733779907, 0.1458059549331665, 0.13312935829162598, 0.08245563507080078, 0.12954318523406982, -0.2358919382095337, -0.27278661727905273, -0.3891686201095581, -0.4269564151763916, -0.39637160301208496, 0.24870002269744873, -0.28736913204193115, -0.0969243049621582},
    {0.11828581988811493, -0.2726167142391205, 0.1885930746793747, -0.11247145384550095, -0.19027258455753326, -0.31408965587615967, -0.09815341234207153, -0.30190205574035645, -0.4524803161621094, 0.19590602815151215, 0.44585996866226196, 0.4253205358982086, -0.4847750663757324, 0.357654333114624, 0.39932411909103394, -0.3105606734752655},
    {-0.3114919364452362, 0.17238985002040863, -0.013612610287964344, -0.3576730191707611, 0.128177210688591, 0.34620141983032227, -0.3521619141101837, 0.2358573079109192, 0.4062160849571228, 0.0077936090528965, -0.3390360176563263, -0.1764192283153534, 0.5437905788421631, 0.05906379222869873, -0.3880794942378998, -0.13302671909332275},
    {0.17212294042110443, -0.18138816952705383, -0.19642092287540436, -0.8004814982414246, -0.09871216118335724, 0.2496182918548584, 0.09889081120491028, -0.13643278181552887, 0.09736601263284683, -0.25802552700042725, -0.22832007706165314, 0.2994755208492279, 0.555663526058197, 0.3090630769729614, -0.0706850066781044, 0.013793510384857655},
    {0.25152352452278137, -0.10960762202739716, -0.17090801894664764, -0.14652614295482635, 0.4028512239456177, -0.10426890850067139, -0.07216867804527283, 0.299875944852829, -0.3592950999736786, -0.15716592967510223, -0.20153294503688812, -0.4463352859020233, -0.15799680352210999, 0.06876707077026367, -0.18421174585819244, 0.32567328214645386},
    {0.08203661441802979, -0.013640999794006348, -0.4872443675994873, 0.2149362564086914, -0.2940264940261841, -0.2621232271194458, -0.3181493282318115, -0.2014397382736206, -0.0002651214599609375, -0.29141128063201904, -0.47511816024780273, 0.08277082443237305, 0.10909485816955566, 0.4687800407409668, -0.39648008346557617, -0.4777688980102539},
};
const float bias_l4[SHAPE_L_4] = {-0.013020985759794712, 0.12521597743034363, 0.0, -0.013040469959378242, 0.025141660124063492, -0.008127347566187382, -0.04073043167591095, 0.0};

const float weights_l5[SHAPE_L_5][SHAPE_L_4] = {
    {0.31785857677459717, 0.13333560526371002, -0.6240965127944946, 0.2275368720293045, -0.18615755438804626, -0.9865383505821228, 0.35513025522232056, -0.11445194482803345},
    {0.23763887584209442, -0.5340437293052673, 0.6508393883705139, 0.12693867087364197, -0.09730376303195953, 0.13699153065681458, -0.10324786603450775, 0.028321146965026855},
    {0.38135552406311035, -0.39704829454421997, 0.5565609335899353, -0.06517048925161362, 0.5890895128250122, 0.43634921312332153, 0.16572503745555878, 0.23100030422210693},
    {0.20811788737773895, 0.6570885181427002, 0.5070909857749939, -0.4199931025505066, -0.28458184003829956, -0.349958598613739, -0.4473099708557129, 0.507775604724884},
};
const float bias_l5[SHAPE_L_5] = {-0.012604164890944958, -0.01265514362603426, -0.019506674259901047, 0.12752161920070648};

const float weights_l6[SHAPE_L_6][SHAPE_L_5] = {
    {0.10336259752511978, -0.3165168762207031, 0.07271688431501389, 0.25896143913269043},
    {-0.8120661973953247, 0.040201473981142044, 0.0025870674289762974, 0.16622960567474365},
};
const float bias_l6[SHAPE_L_6] = {0.05067838355898857, 0.19190625846385956};

#endif