#ifndef _MODELDATA_H_
#define _MODELDATA_H_

#define IN_SHAPE 14

#define SHAPE_L_1 32
#define SHAPE_L_2 32
#define SHAPE_L_3 16
#define SHAPE_L_4 8
#define SHAPE_L_5 4
#define SHAPE_L_6 2


const float weights_l1[][IN_SHAPE]{
	{-0.03388020396232605, -0.04899340867996216, -0.3320041596889496, -0.1764259934425354, -0.7278359532356262, 0.4039011001586914, 0.22532308101654053, 0.5640732049942017, 0.17615686357021332, -0.07105769217014313, 0.364402174949646, -0.20603692531585693, -0.3973621428012848, -0.12137236446142197},
	{-0.15742434561252594, 0.03913717716932297, -0.0718572735786438, -0.3388151526451111, -0.10122078657150269, -0.17014086246490479, -0.3262648582458496, 0.06410722434520721, -0.25649505853652954, -0.2883501648902893, 0.08791500329971313, 0.23526589572429657, 0.1399095058441162, -0.02318018674850464},
	{-0.244744673371315, 0.12224943190813065, -0.12517713010311127, -0.28879761695861816, 0.4270908832550049, -0.3035263419151306, 0.09110903739929199, 0.17873944342136383, -0.18902389705181122, 0.1162639930844307, -0.11700369417667389, 0.4804697334766388, 0.09284702688455582, 0.19698679447174072},
	{-0.16292008757591248, -0.26351118087768555, -0.003935812506824732, 0.26752519607543945, -0.3058394491672516, 0.14164675772190094, 0.06130189448595047, -0.41277366876602173, 0.5236612558364868, -0.10823347419500351, -0.002550835022702813, -0.453285276889801, -0.10272353142499924, -0.0018779076635837555},
	{0.291547954082489, 0.2424611896276474, -0.27249404788017273, -0.46998167037963867, 0.19149750471115112, 0.09917088598012924, -0.08181683719158173, -0.5480263233184814, 0.09978024661540985, 0.028103267773985863, -0.8926635980606079, -0.010469501838088036, 0.15704022347927094, -0.12449148297309875},
	{0.04672372713685036, 0.14882759749889374, 0.23172461986541748, 0.1623300313949585, -0.2620076537132263, 0.3195488750934601, 0.11845175176858902, 0.3597462773323059, 0.3975805938243866, -0.2004983127117157, 0.2362004518508911, 0.2368575781583786, -0.10889871418476105, 0.0594036690890789},
	{0.1404697597026825, 0.018021313473582268, 0.15469391644001007, 0.23454485833644867, -0.07682381570339203, -0.3752836585044861, 0.3820548355579376, 0.3825184106826782, 0.39681848883628845, 0.0371200293302536, 0.061645083129405975, 0.020877210423350334, -0.3192705810070038, -0.4301269054412842},
	{0.2722794711589813, -0.3341295123100281, -0.17584574222564697, 0.37671366333961487, -0.30435505509376526, 0.38706448674201965, 0.010203485377132893, -0.038599222898483276, -0.038744572550058365, 0.09253795444965363, 0.37219467759132385, -0.18703556060791016, -0.25842514634132385, -0.2822902500629425},
	{0.3273199796676636, -0.06290096789598465, -0.1200607642531395, -0.08306924998760223, 0.20388181507587433, 0.1554284542798996, 0.28497177362442017, 0.6030232310295105, 0.18659189343452454, 0.30677518248558044, 0.16310840845108032, 0.3263413906097412, 0.010416224598884583, 0.39121949672698975},
	{0.3705138862133026, -0.21443352103233337, 0.06253134459257126, 0.32529690861701965, 0.4118271470069885, -0.3355894982814789, 0.2812912166118622, 0.3870243728160858, -0.08809757977724075, 0.11885494738817215, -0.016082366928458214, -0.09722711145877838, -0.06746844947338104, -0.026231708005070686},
	{0.19059531390666962, -0.05263340473175049, 0.059981461614370346, 0.31665322184562683, 0.029099849984049797, 0.10950258374214172, 0.016301991418004036, 0.091286301612854, 0.066908098757267, -0.38244736194610596, -0.24180790781974792, 0.13744404911994934, 0.2892903685569763, 0.3494274616241455},
	{-0.21258790791034698, -0.1379930078983307, -0.020660102367401123, -0.30542200803756714, -0.2622118592262268, 0.33480140566825867, 0.0990515947341919, 0.26540514826774597, 0.2146388590335846, -0.05606645345687866, -0.02069118618965149, -0.3413054049015045, 0.26862648129463196, -0.30544397234916687},
	{0.041813239455223083, -0.4957621395587921, -0.4572838842868805, 0.28287091851234436, 0.29512959718704224, -0.3124772608280182, 0.23219357430934906, -0.3941832482814789, -0.3583381175994873, -0.01207389310002327, -0.057636842131614685, 0.16878952085971832, 0.4224330484867096, 0.2341521829366684},
	{0.007584018632769585, -0.11233046650886536, -0.12448094040155411, -0.050084058195352554, -0.005725933704525232, 0.2877843379974365, -0.37908443808555603, 0.17487137019634247, 0.033617209643125534, -0.21726663410663605, 0.25270766019821167, 0.165358766913414, -0.10590244084596634, 0.40265506505966187},
	{-0.2284507304430008, 0.4737267792224884, -0.20356521010398865, -0.050548255443573, -0.19241955876350403, -0.1836664229631424, 0.17276091873645782, 0.7588170170783997, -0.6094127297401428, 0.0622737891972065, 0.3981981873512268, -0.13748398423194885, 0.1607467383146286, 0.2889077365398407},
	{-0.1464635580778122, 0.2719932198524475, -0.13897623121738434, 0.4797627925872803, -0.16945871710777283, 0.008226708509027958, 0.36947792768478394, 0.1311964988708496, 0.017810264602303505, -0.022958634421229362, 0.04368007555603981, -0.4216582775115967, 0.06972597539424896, -0.14865389466285706},
	{0.3065193295478821, 0.15992021560668945, -0.0008836016058921814, 0.2563491761684418, 0.1847396045923233, -0.3074815273284912, 0.20907211303710938, -0.12402626872062683, 0.13989107310771942, 0.28713154792785645, 0.1402060091495514, -0.041641924530267715, -0.25860142707824707, -0.197435200214386},
	{-0.05852023884654045, 0.3476412892341614, -0.10457943379878998, 0.27395421266555786, 0.19165106117725372, 0.03494103252887726, 0.25123974680900574, 0.5359913110733032, 0.40638217329978943, 0.05210089683532715, -0.2613928020000458, 0.00710245780646801, -0.055201947689056396, -0.13563993573188782},
	{-0.0015384560683742166, 0.2720089554786682, 0.22473680973052979, -0.06313575059175491, -0.47717952728271484, -0.05872718244791031, 0.1062743216753006, -0.5222851634025574, 0.11263491213321686, -0.026236597448587418, 0.17227910459041595, -0.702217161655426, 0.2526004910469055, 0.2893823981285095},
	{0.221162348985672, -0.4031077027320862, 0.21602953970432281, 0.26639679074287415, 0.09016503393650055, 0.038743942975997925, -0.0204584039747715, -0.45980584621429443, 0.0019154073670506477, -0.10968515276908875, 0.34814807772636414, -0.23793014883995056, 0.35154831409454346, -0.2961428761482239},
	{-0.13670390844345093, 0.18017873167991638, -0.21703669428825378, -0.09603381156921387, -0.10965245962142944, 0.07795074582099915, -0.15652307868003845, -0.006444394588470459, -0.1839991956949234, -0.2923128604888916, -0.20987503230571747, -0.18784567713737488, -0.12110060453414917, -0.3254202902317047},
	{-0.17747868597507477, 0.22063182294368744, -0.12581086158752441, 0.09804320335388184, 0.2641070783138275, 0.23330006003379822, -0.467649906873703, 0.2253042608499527, 0.39084845781326294, -0.056125424802303314, 0.1357993334531784, -0.20869699120521545, 0.398574560880661, 0.35082125663757324},
	{0.33354416489601135, -0.12892836332321167, 0.2538318634033203, 0.34686774015426636, 0.15031202137470245, -0.16346274316310883, -0.07704845815896988, -0.41265758872032166, -0.0588449127972126, 0.0791860893368721, -0.1268809288740158, 0.08113452047109604, -0.13676363229751587, 0.03561898320913315},
	{0.16940006613731384, 0.37927621603012085, 0.17004063725471497, -0.06556592881679535, -0.23809503018856049, 0.27819323539733887, 0.04959724843502045, 0.530585765838623, -0.02980249561369419, 0.006724079605191946, 0.21296708285808563, 0.18957673013210297, -0.286440908908844, 0.16799908876419067},
	{0.11334912478923798, -0.059226538985967636, 0.2190922051668167, -0.35411718487739563, 0.10689961910247803, 0.4486507773399353, 0.21703605353832245, 0.2739430069923401, 0.059429895132780075, 0.07716388255357742, 0.08062752336263657, -0.2357891947031021, -0.0033990719821304083, -0.4408775866031647},
	{0.2899833619594574, -0.21531730890274048, -0.21489587426185608, -0.06514519453048706, -0.11708609759807587, -0.11786075681447983, 0.0783112570643425, -0.11280441284179688, -0.19110600650310516, 0.05271532014012337, -0.14078156650066376, 0.00861615315079689, 0.3776732087135315, -0.11698552221059799},
	{-0.02636612392961979, 0.005469879135489464, 0.29372698068618774, 0.15108105540275574, 0.34635546803474426, -0.18005084991455078, 0.31947776675224304, 0.44958725571632385, 0.10163794457912445, -0.040240347385406494, 0.4715248644351959, -0.021744171157479286, -0.40404024720191956, -0.348955363035202},
	{-0.1024460420012474, 0.2278292328119278, -0.3730466961860657, -0.13849036395549774, 0.26007571816444397, -0.08733616024255753, -0.3749508261680603, -0.4402681589126587, 0.24483904242515564, 0.26684191823005676, 0.18694892525672913, 0.16384680569171906, -0.3522394895553589, 0.2597188353538513},
	{0.10491372644901276, 0.19975727796554565, 0.43735334277153015, 0.3249654471874237, -0.2007463127374649, -0.1445418745279312, -0.017568830400705338, 0.4295573830604553, -0.10351093858480453, -0.1220172867178917, 0.005025791469961405, 0.2288079559803009, -0.45125722885131836, 0.39726653695106506},
	{-0.1823245882987976, -0.07836533337831497, -0.20060639083385468, -0.047550350427627563, 0.48814988136291504, 0.09427516162395477, 0.0016415235586464405, 0.09503214806318283, 0.34862056374549866, -0.17211928963661194, 0.12105003744363785, 0.4294969439506531, -0.4868091940879822, -0.22945111989974976},
	{-0.21706941723823547, 0.005733869969844818, 0.48652857542037964, 0.1512092649936676, -0.39933791756629944, 0.1787465512752533, -0.34399133920669556, -0.26938724517822266, 0.1101536825299263, -0.05641347914934158, -0.3784809708595276, -0.2676449120044708, 0.38510534167289734, -0.21197175979614258},
	{-0.38031357526779175, -0.22247228026390076, -0.04784325510263443, 0.24836589395999908, -0.09536807984113693, 0.05562099814414978, -0.41261565685272217, -0.3605372905731201, -0.09371637552976608, -0.17106471955776215, 0.3159649968147278, 0.49978482723236084, 0.3773534893989563, 0.18598170578479767},
};
const float bias_l1[] =
	{-0.032429590821266174, -0.010863041505217552, -0.05661628022789955, -0.09047175198793411, 0.24075037240982056, 0.0015210941201075912, 0.01752281002700329, 0.058566756546497345, 0.03510703518986702, 0.07308643311262131, 0.012264193035662174, 0.0, -0.10053747892379761, -0.0018986923387274146, -0.16797520220279694, 0.08445882052183151, 0.057600852102041245, 0.014271756634116173, 0.09196022897958755, 0.025837097316980362, 0.0, 0.09896572679281235, 0.05780006945133209, -0.0237113069742918, 0.13644717633724213, -0.007652090862393379, -0.08097713440656662, -0.07281436771154404, -0.02826443500816822, 0.06948067247867584, 0.024470141157507896, -0.041997525840997696};

const float weights_l2[][SHAPE_L_1]{
	{0.23701676726341248, 0.1381630152463913, 0.4085899293422699, -0.2453179508447647, -0.41117799282073975, -0.07190975546836853, -0.27725738286972046, -0.1802947223186493, 0.05017147958278656, 0.2868650257587433, 0.10128607600927353, 0.1889929175376892, 0.032321058213710785, 0.13126550614833832, -0.4215199947357178, 0.17823734879493713, 0.10828845202922821, -0.3096754848957062, 0.0730019360780716, 0.07521497458219528, -0.27087247371673584, 0.03189951181411743, 0.2685893774032593, -0.056277401745319366, -0.6109792590141296, -0.22894001007080078, -0.46262332797050476, -0.1147889792919159, 0.17215009033679962, 0.5287873148918152, 0.3688066005706787, 0.2613378167152405},
	{-0.07808832824230194, -0.25946009159088135, -0.29965823888778687, 0.050119876861572266, -0.026676863431930542, -0.2853635847568512, -0.12309065461158752, 0.17100785672664642, -0.15465088188648224, -0.005680988077074289, 0.028376705944538116, -0.04453721642494202, -0.13750679790973663, -0.2134849578142166, 0.13117516040802002, 0.10993795841932297, 0.06954355537891388, 0.25632500648498535, -0.02976655215024948, -0.07307511568069458, 0.15050357580184937, -0.14366668462753296, -0.21485528349876404, -0.163210928440094, 0.027910936623811722, 0.00164715014398098, -0.09587394446134567, 0.2371715009212494, 0.0697527527809143, -0.25383684039115906, 0.21304358541965485, 0.19493688642978668},
	{-0.27785736322402954, 0.03979066014289856, -0.1634487807750702, -0.12146886438131332, 0.4904598295688629, 0.22972330451011658, -0.43497464060783386, 0.08025415241718292, 0.010144123807549477, 0.27498480677604675, -0.07649385184049606, 0.2896367013454437, -0.16126927733421326, -0.0653625950217247, 0.01560994703322649, -0.261019766330719, 0.05401262268424034, -0.243130162358284, -0.17981937527656555, -0.31287574768066406, 0.2246645987033844, -0.10497090220451355, 0.25271299481391907, -0.21620243787765503, 0.06320130079984665, -0.1033308133482933, -0.011464620009064674, -0.0031870510429143906, -0.24195300042629242, -0.48581379652023315, 0.08953409641981125, -0.19039587676525116},
	{-0.21366049349308014, 0.15764877200126648, 0.3458418846130371, -0.24221797287464142, -0.184086412191391, 0.2804303467273712, 0.3033081591129303, -0.14314381778240204, -0.14330676198005676, -0.2505539357662201, 0.08462616801261902, -0.20028048753738403, -0.22994710505008698, -0.046148382127285004, -0.3444482386112213, -0.0680430680513382, 0.29822301864624023, 0.08260368555784225, -0.684845507144928, 0.30508267879486084, -0.1841563582420349, -0.07061415165662766, 0.24687820672988892, -0.25935572385787964, 0.12136203050613403, -0.4452610909938812, 0.043910760432481766, -0.12695106863975525, 0.0925024151802063, -0.3302824795246124, -0.6348057985305786, 0.378064900636673},
	{0.028994878754019737, -0.29813888669013977, -0.23675890266895294, -0.18058553338050842, -0.4610031545162201, 0.12942995131015778, 0.3034185767173767, -0.48278409242630005, 0.2644670903682709, -0.17106622457504272, 0.13072021305561066, -0.27939373254776, -0.18275263905525208, 0.21921128034591675, -0.2188684493303299, -0.3876793384552002, -0.18408046662807465, 0.19536204636096954, 0.21951742470264435, -0.2561870515346527, 0.13306176662445068, 0.13039706647396088, -0.08711010217666626, 0.30486807227134705, 0.12712660431861877, -0.12953728437423706, 0.22667816281318665, 0.2418271005153656, 0.11267177015542984, 0.17609387636184692, -0.21026228368282318, -0.3014165163040161},
	{-0.4272997975349426, -0.03178820013999939, 0.10196489095687866, 0.2778378427028656, 0.3989640176296234, 0.29573994874954224, -0.08449989557266235, 0.28316763043403625, -0.14183080196380615, -0.15337732434272766, -0.07395460456609726, -0.2874583899974823, -0.28612348437309265, -0.040203265845775604, -0.0492522232234478, -0.25657978653907776, 0.2027336210012436, 0.08974931389093399, 0.3320261836051941, 0.2672957181930542, 0.24127164483070374, -0.12607179582118988, -0.2686215937137604, 0.010179100558161736, 0.07100570201873779, -0.19009925425052643, 0.24969139695167542, -0.02791709452867508, -0.3541218936443329, 0.17848363518714905, -0.01785343512892723, -0.016613246873021126},
	{0.24862799048423767, -0.30130454897880554, -0.04881558567285538, 0.7518999576568604, 0.31444695591926575, -0.23448048532009125, -0.49991706013679504, 0.07915650308132172, 0.13043352961540222, 0.14810684323310852, -0.20223140716552734, -0.16983036696910858, -0.09253843873739243, -0.1833086907863617, 0.6468526721000671, -0.10686895996332169, 0.16477461159229279, -0.3416447937488556, 0.013555726036429405, 0.3094231188297272, 0.10706931352615356, 0.33113762736320496, 0.10878392308950424, -0.24265694618225098, -0.05595375597476959, -0.2119593769311905, 0.10488150268793106, -0.1907982975244522, -0.06111915782094002, 0.1390736848115921, 0.2951832413673401, 0.38550883531570435},
	{0.48280519247055054, 0.21853667497634888, 0.11438263952732086, 0.38698410987854004, 0.07395396381616592, -0.12073450535535812, -0.30227839946746826, 0.3633531332015991, 0.18172647058963776, -0.13404808938503265, 0.2131868451833725, -0.1558442860841751, 0.10373147577047348, 0.3215186297893524, 0.46563827991485596, 0.1961314082145691, -0.18581925332546234, -0.3597177565097809, 0.08359883725643158, 0.12819601595401764, -0.18432950973510742, 0.29160481691360474, -0.18797411024570465, -0.07845631241798401, -0.02062656171619892, 0.1646832674741745, 0.17464245855808258, -0.015033718198537827, -0.05842042714357376, -0.29559922218322754, -0.4292237460613251, 0.28972408175468445},
	{-0.059736598283052444, 0.11855749040842056, 0.12603257596492767, 0.08520844578742981, 0.08171997964382172, 0.07880140095949173, 0.3230220079421997, 0.11866661161184311, 0.17271332442760468, 0.3074139356613159, 0.34295740723609924, -0.16465814411640167, 0.0031288827303797007, 0.27656906843185425, 0.1820846050977707, -0.3395780324935913, 0.045427288860082626, 0.29036810994148254, 0.08149738609790802, 0.1619025021791458, 0.2623791992664337, 0.16200831532478333, 0.08214978128671646, 0.08559136837720871, 0.24143677949905396, 0.1784878820180893, -0.08103259652853012, -0.07881787419319153, 0.052814483642578125, -0.17852909862995148, -0.004013883415609598, 0.059931207448244095},
	{-0.4031240940093994, -0.16753461956977844, -0.14419826865196228, -0.5163320899009705, 0.07492966949939728, -0.08248410373926163, -0.0025489884428679943, 0.0560714527964592, 0.2718382477760315, 0.10845525562763214, -0.1956309974193573, -0.25455671548843384, -0.13690289855003357, 0.09831482172012329, -0.6241333484649658, -0.3052646219730377, 0.20487159490585327, 0.2434893250465393, 0.042264096438884735, -0.17157894372940063, 0.17318254709243774, 0.09549718350172043, 0.17445968091487885, -0.11338779330253601, -0.18226358294487, 0.366592139005661, -0.10830321162939072, 0.024502066895365715, 0.26033496856689453, 0.03056725673377514, -0.3602406084537506, -0.14938683807849884},
	{-0.038744717836380005, 0.18364132940769196, 0.22536343336105347, -0.28874635696411133, -0.22158704698085785, 0.19547565281391144, 0.1913684606552124, -0.07538559287786484, -0.2428952008485794, -0.15210066735744476, 0.12086506187915802, 0.02772793173789978, 0.2163519412279129, 0.1826876699924469, 0.19135519862174988, -0.041609544306993484, -0.0221438966691494, -0.01591641828417778, -0.2283404916524887, 0.24289998412132263, 0.08157649636268616, -0.29826855659484863, -0.22175009548664093, -0.16600072383880615, -0.2178269624710083, 0.18781644105911255, 0.19698427617549896, 0.17746639251708984, 0.025942163541913033, -0.24342194199562073, 0.021645044907927513, -0.2884485125541687},
	{0.5790885090827942, -0.18611671030521393, 0.4241616129875183, -0.0914914682507515, 0.42239323258399963, -0.10545128583908081, 0.27984994649887085, -0.10423464328050613, -0.0467655211687088, 0.248530775308609, 0.04749217629432678, -0.16294220089912415, 0.2057926505804062, -0.15611042082309723, 0.26544979214668274, -0.2775649130344391, -0.10781118273735046, -0.22937174141407013, -0.14055867493152618, -0.17595310509204865, -0.1198427826166153, -0.038607046008110046, 0.09976621717214584, 0.3485734462738037, 0.5207394957542419, -0.14311109483242035, 0.06624159961938858, 0.15284256637096405, -0.11377443373203278, -0.06153874471783638, -0.3430729806423187, 0.15700510144233704},
	{0.597202479839325, 0.06547468155622482, 0.33241742849349976, -0.2381868213415146, -0.29594141244888306, 0.22770187258720398, 0.015419027768075466, -0.02809193730354309, -0.042366474866867065, -0.16304798424243927, 0.14103998243808746, -0.19139529764652252, -0.044134318828582764, -0.24055130779743195, -0.1802571415901184, 0.10044277459383011, 0.25723302364349365, 0.19870787858963013, -0.7487099766731262, 0.175652414560318, 0.2703808844089508, -0.3273206949234009, 0.048538289964199066, -0.07413988560438156, -0.01750200241804123, -0.204062357544899, -0.0010855516884475946, -0.6089265942573547, 0.2606855630874634, -0.768363356590271, -0.5678502321243286, 0.25035360455513},
	{0.3842213749885559, 0.15239375829696655, -0.007986417040228844, 0.35265204310417175, -0.0007023903308436275, 0.08023574203252792, 0.09385386854410172, 0.2277608960866928, 0.031716614961624146, 0.1883431077003479, -0.3189639151096344, -0.21472224593162537, -0.19412121176719666, 0.23099181056022644, 0.7061396837234497, 0.21868376433849335, -0.22237686812877655, -0.19119156897068024, -0.11835521459579468, 0.22740893065929413, -0.021539151668548584, 0.14315947890281677, -0.29087433218955994, -0.06567980349063873, 0.341806560754776, 0.1820412427186966, -0.07083714008331299, 0.2515215575695038, -0.2762262523174286, 0.1943230926990509, 0.14190369844436646, 0.10106369853019714},
	{0.17182521522045135, -0.2952328622341156, -0.053367432206869125, -0.0005127731128595769, 0.30468428134918213, 0.14346018433570862, 0.22288011014461517, -0.21854597330093384, 0.13709351420402527, 0.09574801474809647, -0.2650145888328552, 0.010567843914031982, -0.10082963854074478, 0.1155080497264862, 0.3823854327201843, -0.06667519360780716, -0.2841005027294159, -0.10087094455957413, -0.39029982686042786, -0.328775554895401, 0.2963443696498871, 0.14689654111862183, 0.28929755091667175, -0.06132810562849045, 0.43968552350997925, -0.21080371737480164, 0.21052925288677216, 0.11821671575307846, 0.0823221206665039, -0.25896066427230835, 0.04511556774377823, -0.15910221636295319},
	{0.02185782417654991, -0.16721001267433167, 0.5106911659240723, 0.7229855060577393, 0.23753124475479126, -0.2308676838874817, 0.050325050950050354, -0.051960788667201996, 0.0027363821864128113, 0.251751571893692, -0.15691255033016205, -0.19271719455718994, 0.1338045597076416, 0.23575793206691742, 0.07584980130195618, -0.24097497761249542, -0.19408521056175232, -0.16304709017276764, 0.0896139144897461, -0.07783615589141846, 0.24351397156715393, 0.36514851450920105, 0.18321755528450012, -0.01838022843003273, 0.27604079246520996, -0.10822190344333649, -0.025472350418567657, 0.09483680874109268, -0.03743880242109299, -0.16526438295841217, -0.3432871103286743, 0.06751163303852081},
	{-0.2068440318107605, 0.10369092226028442, -0.10936692357063293, 0.15251240134239197, -0.2452961504459381, -0.08341291546821594, -0.18296951055526733, -0.24225246906280518, -0.006166726350784302, -0.20294272899627686, -0.08339561522006989, -0.10201321542263031, -0.020263463258743286, -0.2599920332431793, -0.11123770475387573, -0.13499359786510468, -0.1604776233434677, -0.02090156078338623, 0.20673224329948425, -0.27381235361099243, -0.12452255189418793, -0.23618416488170624, 0.008822917938232422, -0.20660772919654846, 0.21251091361045837, -0.0740109533071518, -0.2878999710083008, -0.02218616008758545, 0.15936049818992615, -0.04029357433319092, 0.028477996587753296, 0.05529361963272095},
	{0.081061452627182, 0.2883104979991913, 0.34391021728515625, -0.12796731293201447, 0.04386278986930847, 0.13022294640541077, -0.22359564900398254, 0.12438026815652847, 0.08863194286823273, -0.20822980999946594, -0.11795851588249207, 0.12287646532058716, 0.20887896418571472, 0.26348215341567993, -0.5392106175422668, 0.37782996892929077, -0.1588878333568573, -0.40943586826324463, -0.26134124398231506, 0.2610745131969452, 0.28152701258659363, 0.12601731717586517, -0.18198613822460175, 0.22030790150165558, 0.03462906926870346, -0.1040002778172493, -0.14616192877292633, -0.2700493037700653, 0.06871609389781952, 0.33391836285591125, 0.026671817526221275, 0.2141656130552292},
	{0.2332032471895218, -0.14895904064178467, -0.36632248759269714, 0.07816611230373383, 0.028482135385274887, -0.16644352674484253, 0.2142094373703003, -0.26038214564323425, 0.26047345995903015, -0.21144315600395203, 0.11576923727989197, 0.007219225168228149, 0.012625966221094131, -0.13005849719047546, 0.26722341775894165, 0.42823299765586853, -0.1383211314678192, 0.13578343391418457, -0.3161391019821167, 0.33191928267478943, -0.02177560329437256, 0.003685222938656807, 0.005521311424672604, -0.36155271530151367, 0.23283347487449646, 0.021414002403616905, -0.27803266048431396, 0.1250172257423401, -0.2078223079442978, -0.24532052874565125, -0.05524856597185135, 0.30881768465042114},
	{0.10579264909029007, -0.24892829358577728, 0.07005907595157623, -0.34610965847969055, 0.1609238088130951, -0.08323836326599121, 0.27927976846694946, -0.11998314410448074, -0.28078389167785645, -0.14514826238155365, 0.2226852923631668, -0.1448179930448532, -0.2684873640537262, -0.12308812141418457, -0.24238234758377075, 0.2660275399684906, -0.1519462913274765, 0.27667737007141113, 0.11754988878965378, 0.022461993619799614, 0.24542495608329773, -0.26667407155036926, 0.1296112984418869, 0.2492980659008026, -0.04349643737077713, -0.10131416469812393, 0.17593158781528473, -0.017804240807890892, -0.0797840878367424, -0.16108468174934387, -0.05654226988554001, 0.052099257707595825},
	{-0.05707022175192833, -0.25885578989982605, 0.37889716029167175, 0.06869138032197952, -0.4724944531917572, 0.03923557326197624, 0.31410709023475647, -0.2878457009792328, -0.10583973675966263, 0.40020233392715454, -0.0027160809841006994, -0.29121172428131104, -0.22973816096782684, -0.039078328758478165, -0.4874286651611328, 0.05845334008336067, 0.30205148458480835, 0.4389053285121918, -0.47217461466789246, 0.2472856044769287, 0.12996771931648254, -0.08674930036067963, -0.06825543940067291, -0.2846480906009674, 0.6076768636703491, -0.3700196146965027, 0.2840143144130707, -0.16346056759357452, 0.21806134283542633, 0.10246892273426056, -0.26640158891677856, 0.009688954800367355},
	{0.4234164357185364, -0.25144538283348083, 0.30176228284835815, 0.05978865176439285, 0.03345922380685806, 0.12745946645736694, 0.07382090389728546, -0.06643589586019516, 0.10915267467498779, 0.11659754812717438, -0.185505211353302, -0.22355011105537415, 0.2122219204902649, -0.26110532879829407, -0.0694851279258728, 0.37105557322502136, 0.237138569355011, 0.18261733651161194, 0.17360377311706543, -0.16787171363830566, -0.03949332237243652, 0.011605847626924515, 0.01931559294462204, 0.2612323760986328, -0.18542736768722534, -0.24216622114181519, -0.15359611809253693, 0.02761240117251873, -0.23018434643745422, -0.19138085842132568, -0.3452395796775818, 0.2502421438694},
	{-0.011973172426223755, -0.10250900685787201, -0.15064583718776703, 0.21679151058197021, 0.33428823947906494, -0.22242499887943268, 0.01935669593513012, -0.05508354678750038, -0.09537748247385025, 0.1963787078857422, 0.31009942293167114, 0.03938630223274231, -0.0029691089875996113, -0.32890450954437256, 0.10571623593568802, -0.03634480759501457, 0.27628692984580994, -0.02630688063800335, -0.5882636904716492, 0.05533984676003456, -0.10481379926204681, 0.18377278745174408, 0.24246779084205627, -0.6795164346694946, -0.36288943886756897, -0.06339246779680252, -0.5112707018852234, -0.20324458181858063, -0.3526693284511566, 0.3317062258720398, -0.051530878990888596, -0.3511388599872589},
	{-0.12578707933425903, -0.1532067060470581, -0.5870043635368347, -0.12941791117191315, -0.007502113934606314, 0.2636629343032837, 0.28318578004837036, -0.3015668988227844, 0.266909122467041, -0.07312921434640884, 0.10761595517396927, -0.2605474889278412, -0.07677025347948074, 0.059327591210603714, 0.2758091986179352, -0.3196910619735718, -0.2168741375207901, 0.1532886028289795, -0.10721375793218613, -0.2094862461090088, -0.06947106122970581, 0.025668147951364517, 0.056395478546619415, -0.023276882246136665, 0.6443203091621399, 0.013475149869918823, 0.04587699472904205, -0.14890049397945404, 0.19126681983470917, -0.12325269728899002, -0.5149505734443665, 0.06348288804292679},
	{0.050040408968925476, -0.1794506162405014, -0.42363327741622925, -0.15725374221801758, -0.20572535693645477, 0.2203271985054016, 0.16173633933067322, 0.02743813395500183, 0.31850871443748474, 0.314419686794281, 0.2231646031141281, 0.19962117075920105, 0.18451698124408722, 0.24946452677249908, 0.23423300683498383, 0.2131374180316925, 0.2964181900024414, 0.053478725254535675, -0.4525444507598877, 0.19567696750164032, 0.04218640923500061, 0.25175920128822327, -0.08018583804368973, -0.18938472867012024, 0.33779609203338623, -0.09266150742769241, 0.24863199889659882, -0.042334944009780884, -0.18891644477844238, -0.20901210606098175, -0.4981411397457123, -0.20911455154418945},
	{0.13783612847328186, -0.2675955295562744, -0.0987921729683876, 0.3241123557090759, 0.3908143639564514, 0.14584706723690033, -0.11609041690826416, 0.09698490053415298, 0.001811027410440147, 0.02815208025276661, -0.101225845515728, -0.16822677850723267, -0.19448167085647583, 0.2959698736667633, 0.6167551279067993, -0.4029359221458435, -0.30893775820732117, 0.2543690502643585, -0.3208254277706146, -0.3279861807823181, -0.2750973701477051, 0.3446941673755646, -0.1545785367488861, -0.06015961989760399, -0.3671098053455353, -0.17870227992534637, -0.026672402396798134, 0.010063135996460915, -0.17025639116764069, -0.6348198652267456, -0.7846333980560303, 0.38427257537841797},
	{0.20161443948745728, -0.30429700016975403, -0.10362380743026733, -0.15036897361278534, -0.14841631054878235, 0.2189916968345642, 0.483689546585083, -0.08700401335954666, 0.12962262332439423, 0.11683271825313568, 0.2586278021335602, 0.03329142928123474, -0.012475273571908474, -0.10273372381925583, 0.16274021565914154, 0.039016589522361755, -0.1787879467010498, 0.10427944362163544, -0.15857309103012085, -0.002368585905060172, 0.21814236044883728, -0.06370849162340164, -0.2755853533744812, -0.045576684176921844, 0.47075986862182617, 0.41444480419158936, 0.36012551188468933, 0.3774384558200836, 0.02438538335263729, -0.49066004157066345, -0.438545823097229, -0.24430157244205475},
	{0.17862935364246368, 0.01056433655321598, 0.3219009339809418, 0.19060640037059784, -0.4201801121234894, -0.32138967514038086, -0.4525650143623352, -0.08824273198843002, 0.035332296043634415, 0.065921850502491, -0.00325273466296494, -0.033389389514923096, 0.22056777775287628, 0.235125333070755, -0.2326577603816986, -0.09213665872812271, -0.31476864218711853, 0.014075619168579578, 0.11745476722717285, 0.039175841957330704, 0.20296743512153625, 0.2163981944322586, -0.013192974962294102, -0.24484340846538544, 0.030603790655732155, 0.27936336398124695, -0.06605236232280731, 0.17666101455688477, -0.03196455165743828, 0.16681674122810364, 0.2229861319065094, 0.27791619300842285},
	{-0.1240534707903862, 0.25304293632507324, 0.0434286892414093, 0.39898720383644104, 0.35768213868141174, -0.01715965010225773, -0.014982988126575947, -0.1896367073059082, 0.24666841328144073, -0.14793336391448975, 0.23973095417022705, 0.2438410222530365, -0.0018757705111056566, 0.019095107913017273, 0.5535246133804321, -0.2522870600223541, -0.017624378204345703, 0.013919259421527386, -0.27992263436317444, -0.17418774962425232, -0.09375488758087158, 0.01708095893263817, 0.11373429745435715, 0.13585959374904633, 0.110976442694664, -0.26236581802368164, 0.2826053202152252, 0.109815813601017, -0.1866852194070816, -0.2759949266910553, -0.013470679521560669, 0.31787845492362976},
	{-0.4889944791793823, 0.2448039948940277, -0.043455563485622406, 0.3137616515159607, -0.14912369847297668, 0.0002249918761663139, 0.5042808055877686, -0.14547206461429596, -0.23074214160442352, 0.2879665195941925, 0.2710666358470917, -0.059557512402534485, -0.20735648274421692, -0.10257916897535324, -0.8385947942733765, 0.31165677309036255, 0.2276194542646408, -0.06124770641326904, -0.5732216238975525, -0.19708535075187683, 0.006638079881668091, -0.02030259184539318, 0.2892303168773651, 0.21154634654521942, 0.3627150356769562, -0.33279094099998474, 0.3423764109611511, -0.19593103229999542, 0.08015704900026321, -0.111418217420578, 0.34356674551963806, -0.336599737405777},
	{0.2525564730167389, 0.2600182592868805, -0.2708624601364136, 0.29353997111320496, -0.09375941753387451, -0.26477137207984924, -0.21982577443122864, -0.2820694148540497, -0.2044273465871811, -0.07981361448764801, -0.13272254168987274, -0.06536966562271118, 0.21853753924369812, -0.2764187455177307, 0.27724596858024597, 0.15336444973945618, -0.129361093044281, 0.04912114143371582, -0.08302746713161469, -0.25385767221450806, -0.04891479015350342, 0.2381335198879242, -0.03200444579124451, 0.1132030189037323, 0.10062992572784424, -0.19842444360256195, -0.035483479499816895, -0.19107380509376526, -0.16653738915920258, 0.17217054963111877, 0.2766307294368744, 0.012758731842041016},
	{-0.10059494525194168, 0.016464006155729294, -0.6240034699440002, 0.12743008136749268, 0.10800641775131226, 0.07711953669786453, 0.3519788086414337, -0.14533346891403198, 0.2542858123779297, 0.13634218275547028, 0.25746873021125793, -0.12466731667518616, -0.15314717590808868, -0.12130870670080185, 0.5217906832695007, -0.1613946259021759, -0.052338045090436935, 0.18949556350708008, -0.09637054055929184, -0.09625018388032913, 0.2623964250087738, -0.03598611801862717, -0.016083141788840294, -0.0008473363122902811, 0.42502784729003906, 0.2809198498725891, 0.14978565275669098, -0.18718582391738892, 0.1985497772693634, -0.42712780833244324, -0.1763180047273636, 0.08806242048740387},
};
const float bias_l2[] =
	{0.008801176212728024, -0.010729551315307617, 0.0952620729804039, -0.0018535495037212968, 0.048989489674568176, 0.025803525000810623, 0.06912701576948166, 0.023493224754929543, 0.028665557503700256, 0.02668841928243637, -0.015239755623042583, 0.024976985529065132, -0.039685964584350586, 0.01667621359229088, 0.0168142132461071, 0.05252872779965401, 0.0, -0.0425540953874588, -0.00407210411503911, 0.02301095239818096, 0.02020496129989624, 0.010348863899707794, 0.08323182910680771, 0.024776116013526917, 0.026613805443048477, 0.09150315821170807, 0.03675515577197075, -0.033686403185129166, 0.012577008455991745, 0.01895204372704029, 0.0, 0.000657216995023191};

const float weights_l3[][SHAPE_L_2]{
	{-0.19129453599452972, 0.2064838707447052, 0.07265891134738922, -0.057774607092142105, 0.17402492463588715, -0.21151328086853027, -0.048561349511146545, -0.3291516602039337, 0.06559182703495026, -0.037874531000852585, -0.018142109736800194, 0.04043037071824074, 0.09621205925941467, -0.03442349657416344, -0.25063738226890564, -0.1292986273765564, -0.3482513129711151, 0.32105669379234314, 0.22071415185928345, -0.31361714005470276, 0.243142232298851, -0.007652062922716141, -0.2561543881893158, -0.32734715938568115, -0.02305256389081478, -0.08412870764732361, 0.1288469433784485, 0.2938311696052551, 0.21103571355342865, -0.1903931051492691, 0.16862305998802185, -0.03079158626496792},
	{0.2888977825641632, 0.02448374219238758, -0.3402888774871826, 0.0642712190747261, -0.2851114571094513, -0.04282037913799286, -0.29655274748802185, 0.060222987085580826, -0.2963218688964844, -0.003692071884870529, 0.21494148671627045, -0.15248894691467285, -0.22349758446216583, -0.016334878280758858, 0.0791902169585228, 0.1619933545589447, -0.13789142668247223, 0.3063620626926422, 0.21980924904346466, -0.14624135196208954, 0.04871223121881485, -0.13379375636577606, 0.25586575269699097, -0.33353370428085327, -0.05177207663655281, -0.1441524624824524, 0.19806821644306183, 0.1989268809556961, -0.13777557015419006, -0.1669733226299286, 0.1164979338645935, 0.192031592130661},
	{-0.0038138863164931536, 0.11945055425167084, 0.45437002182006836, 0.3060949742794037, -0.17552542686462402, -0.7726176977157593, 0.4731219708919525, 0.12434544414281845, -0.12776583433151245, -0.09135987609624863, 0.07147292047739029, -0.07572712004184723, 0.26280325651168823, 0.09252797812223434, -0.1264355480670929, 0.06807349622249603, 0.32597461342811584, -0.14217549562454224, 0.27323222160339355, -0.10253757238388062, 0.2504607141017914, -0.1524091511964798, 0.16282270848751068, 0.16575628519058228, 0.030481770634651184, 0.5749914646148682, -0.15998293459415436, 0.21034905314445496, 0.21763885021209717, -0.1512894630432129, -0.20252200961112976, 0.31115052103996277},
	{-0.468603253364563, -0.30027705430984497, 0.3629012107849121, -0.18711957335472107, -0.023121338337659836, -0.4268151521682739, 0.03606955707073212, 0.07528848946094513, 0.059061046689748764, -0.026259450241923332, 0.06786398589611053, 0.1641920655965805, 0.01593172550201416, 0.2475154995918274, -0.02688555233180523, 0.06566496938467026, -0.19586685299873352, -0.11998433619737625, 0.4009658396244049, 0.013616761192679405, 0.7356813549995422, -0.1486719250679016, -0.9101505875587463, 0.43809229135513306, -0.05848347768187523, 0.5726860165596008, 0.3973744213581085, -0.8271306157112122, 0.20108801126480103, 0.5199179649353027, -0.04286259412765503, 0.273083359003067},
	{-0.3129473328590393, -0.21397611498832703, 0.08070345968008041, -0.2318708449602127, -0.28441086411476135, -0.12897151708602905, 0.004358443431556225, 0.19418980181217194, -0.23566953837871552, -0.10052531957626343, -0.10099390894174576, -0.21253879368305206, -0.13528156280517578, -0.2919856905937195, -0.2239900678396225, 0.24794265627861023, 0.2427615225315094, 0.0658215880393982, -0.29711103439331055, -0.06914271414279938, 0.16244898736476898, 0.06381269544363022, -0.12992806732654572, -0.353278785943985, 0.24182017147541046, -0.11770467460155487, 0.413713276386261, 0.06142262741923332, -0.41520020365715027, 0.3134782314300537, 0.17686715722084045, -0.03154914826154709},
	{-0.3405018150806427, -0.3329072892665863, 0.5573218464851379, 0.38416236639022827, -0.2710779905319214, -0.033344145864248276, -0.09043615311384201, 0.1452278345823288, 0.06815749406814575, -0.26088932156562805, 0.04154790937900543, -0.011655604466795921, 0.4846416115760803, 0.05127972364425659, -0.11559262126684189, -0.022644709795713425, 0.07512935996055603, -0.13626553118228912, -0.03387951850891113, -0.16178607940673828, -0.16738884150981903, 0.11899612843990326, -0.6159141063690186, 0.1804732233285904, 0.24469783902168274, 0.18784058094024658, 0.0650186762213707, 0.004119904711842537, 0.17460943758487701, 0.2904822528362274, -0.008583366870880127, 0.05640890449285507},
	{0.15131133794784546, -0.24685461819171906, 0.3666180670261383, 0.2486875206232071, -0.5246531367301941, -0.5764698386192322, 0.707242488861084, 0.3853469789028168, 0.16582392156124115, 0.067071832716465, -0.14839255809783936, -0.02000167965888977, -0.007738464046269655, -0.2915937304496765, -0.0029964295681566, 0.3592927157878876, -0.05072954297065735, 0.559845507144928, -0.34424975514411926, -0.28545835614204407, -0.31021586060523987, 0.41034090518951416, 0.2599063515663147, -0.37032556533813477, -0.08884676545858383, 0.22114770114421844, -0.4891560673713684, -0.05377213656902313, 0.2805337607860565, -0.2047683596611023, 0.324916809797287, -0.11918268352746964},
	{-0.034020569175481796, -0.27094393968582153, -0.4174262285232544, 0.20080433785915375, 0.009521471336483955, -0.4004184901714325, -0.13615402579307556, 0.321891725063324, 0.30378448963165283, 0.22405681014060974, -0.1769937127828598, 0.34260275959968567, 0.7990773916244507, 0.1358632594347, 0.27733126282691956, 0.439162939786911, -0.015234142541885376, -0.18022353947162628, 0.0968412384390831, 0.27205878496170044, 0.3905159533023834, 0.2593369483947754, -0.2387724369764328, 0.17104472219944, 0.3467753231525421, 0.507664144039154, 0.19614361226558685, -0.29717370867729187, -0.11460784077644348, -0.0882682353258133, 0.29389849305152893, 0.040042001754045486},
	{0.2706274390220642, 0.03252515196800232, -0.24378246068954468, 0.49609044194221497, 0.16031336784362793, 0.33889561891555786, -0.068498894572258, 0.006088592577725649, -0.27822425961494446, 0.14105673134326935, -0.2944422960281372, 0.18902994692325592, 0.3263896405696869, 0.18416671454906464, 0.03688730299472809, -0.08147237449884415, -0.09795349836349487, 0.10145484656095505, 0.27721816301345825, 0.17928354442119598, 0.13619154691696167, 0.16841726005077362, -0.2333844006061554, -0.25178927183151245, 0.09414032846689224, 0.21774467825889587, 0.23819701373577118, 0.3146248459815979, -0.14040079712867737, -0.4286234676837921, -0.18372367322444916, -0.24467414617538452},
	{-0.10353925079107285, 0.1557675153017044, 0.17428749799728394, 0.188156858086586, 0.062300700694322586, -0.13822725415229797, 0.3397218883037567, 0.30152177810668945, -0.26635465025901794, -0.09036079049110413, 0.1959090381860733, -0.3119056224822998, 0.5490388870239258, -0.3238219618797302, 0.04111195728182793, 0.2292696237564087, 0.05245545506477356, 0.1661747545003891, 0.40719327330589294, -0.3038272559642792, -0.06983944773674011, 0.3768799602985382, 0.4699168801307678, -0.18652281165122986, -0.15278221666812897, -0.19249306619167328, -0.25981801748275757, 0.2688041627407074, 0.3536941111087799, 0.06743224710226059, -0.053108394145965576, 0.19569504261016846},
	{-0.23954036831855774, -0.15045110881328583, -0.05932706221938133, 0.10485293716192245, 0.44640758633613586, 0.06030931696295738, -0.04706510156393051, -0.23425902426242828, 0.17648200690746307, -0.013532252050936222, -0.15675920248031616, -0.07403785735368729, 0.11580813676118851, 0.13461893796920776, 0.30861276388168335, -0.0498734712600708, 0.28716644644737244, -0.3795698881149292, -0.013232352212071419, 0.1474759578704834, 0.307231605052948, -0.30593693256378174, -0.14582262933254242, 0.14177905023097992, 0.13660329580307007, 0.6134330630302429, 0.22007083892822266, -0.3010241985321045, 0.35896143317222595, 0.20494775474071503, -0.2814420759677887, 0.38558638095855713},
	{-0.10517467558383942, -0.15426117181777954, 0.1911645233631134, 0.22160759568214417, -0.05893924832344055, 0.04296642541885376, -0.3018079400062561, -0.2759901285171509, -0.24020323157310486, -0.1428549736738205, -0.13914984464645386, 0.10564881563186646, -0.08496972918510437, 0.010408252477645874, -0.20203766226768494, -0.06066492199897766, 0.012191057205200195, 0.13999605178833008, 0.09170335531234741, 0.021963655948638916, -0.22016669809818268, 0.31239792704582214, 0.16962823271751404, -0.16331297159194946, -0.23146265745162964, -0.21289889514446259, -0.026735275983810425, -0.11841991543769836, 0.19386228919029236, -0.15811970829963684, 0.3392147719860077, -0.0058276355266571045},
	{-0.007829779759049416, 0.05538484454154968, 0.019165372475981712, -0.22515562176704407, -0.1998761147260666, -0.1562982052564621, 0.14526523649692535, 0.2955303192138672, -0.28168579936027527, 0.3295227289199829, 0.16390417516231537, -0.3402455151081085, 0.18209519982337952, 0.08095166087150574, -0.2007981538772583, -0.07827605307102203, -0.2679445445537567, -0.0021661189384758472, -0.07064381241798401, -0.11456932872533798, 0.11621038615703583, 0.2992338538169861, -0.08938980102539062, -0.2520756423473358, 0.03819536790251732, -0.11845271289348602, -0.13090761005878448, 0.33623531460762024, -0.31364691257476807, -0.3949664235115051, -0.19644729793071747, 0.08820217102766037},
	{0.06418807804584503, -0.17351855337619781, 0.10011953115463257, -0.37895652651786804, 0.05824097990989685, 0.36137497425079346, -0.36217260360717773, 0.022550484165549278, 0.08845868706703186, 0.39041027426719666, 0.2075164020061493, -0.3596748113632202, -0.7602107524871826, -0.21334196627140045, -0.28001320362091064, 0.22766293585300446, 0.024404287338256836, -0.1724257618188858, -0.20117449760437012, 0.31756308674812317, 0.27558305859565735, 0.08465499430894852, 0.33445852994918823, 0.02629302628338337, 0.2025611251592636, -0.14781461656093597, 0.051955219358205795, -0.21130052208900452, -0.3837406039237976, -0.17731879651546478, -0.29995793104171753, 0.2391166239976883},
	{-0.2678462564945221, -0.03560468554496765, 0.2974312901496887, 0.38207483291625977, -0.3850652277469635, 0.4323684573173523, -0.020439183339476585, -0.411367803812027, 0.05783021077513695, -0.14903877675533295, 0.26294922828674316, -0.15113765001296997, 0.7310790419578552, -0.18358351290225983, -0.00020491374016273767, -0.24398913979530334, 0.2351260483264923, 0.19377420842647552, -0.42352017760276794, -0.15636847913265228, 0.20490245521068573, -0.03786765784025192, -0.2216784805059433, 0.14154227077960968, 0.2085597962141037, 0.12103750556707382, -0.2481517493724823, 0.3407674729824066, 0.0011737444438040257, 0.47235915064811707, -0.08575820922851562, 0.07701967656612396},
	{-0.3086344301700592, 0.06537297368049622, 0.22679772973060608, -0.024562180042266846, 0.18024270236492157, -0.11207267642021179, 0.13597847521305084, 0.2500118911266327, -0.11176521331071854, -0.17253845930099487, 0.21942642331123352, -0.23596568405628204, 0.10494768619537354, -0.29808738827705383, -0.1872773915529251, 0.11310011893510818, 0.13683360815048218, 0.22452214360237122, -0.11120732128620148, -0.08009350299835205, -0.0446830689907074, 0.056219156831502914, -0.17563122510910034, -0.11955263465642929, -0.24434545636177063, 0.2204471081495285, -0.09834107011556625, -0.17616531252861023, -0.21063721179962158, 0.28195926547050476, 0.2578732669353485, -0.14909519255161285},
};
const float bias_l3[] =
	{-0.01997060887515545, -0.010386482812464237, 0.04660508409142494, 0.03587217628955841, -0.01970129832625389, -0.003145097056403756, 0.05428595095872879, 0.02996811456978321, -0.014131797477602959, -0.047502703964710236, 0.001758366939611733, 0.0, 0.0047084866091609, -0.0015945503255352378, -0.016009852290153503, -0.021892592310905457};

const float weights_l4[][SHAPE_L_3]{
	{0.33511781692504883, -0.4064897298812866, -0.3942422866821289, -0.23825055360794067, -0.2742745876312256, -0.17903104424476624, -0.4350765645503998, 0.0816984698176384, -0.4683527946472168, -0.45588767528533936, -0.026305928826332092, 0.4222015142440796, -0.4603010416030884, -0.18262703716754913, -0.3129369616508484, 0.2964824438095093},
	{-0.25462037324905396, 0.32144615054130554, 0.5266754627227783, 0.3214382827281952, -0.4669775366783142, 0.47574740648269653, 0.389814555644989, 0.3934820592403412, 0.032844770699739456, -0.38246235251426697, 0.08493596315383911, 0.2488938570022583, -0.4188520610332489, -0.5452827215194702, 0.10190469771623611, 0.22933579981327057},
	{-0.35037145018577576, 0.4595983624458313, 0.2197321057319641, 0.5167344212532043, 0.37236443161964417, -0.15109974145889282, -0.33632656931877136, 0.3578561842441559, -0.3963879346847534, 0.13941706717014313, 0.7359285950660706, -0.21222102642059326, -0.7460203766822815, 0.47325658798217773, 0.18464258313179016, 0.20112605392932892},
	{-0.33295926451683044, -0.26285800337791443, 0.42775413393974304, -0.20975354313850403, 0.24057163298130035, 0.006649453192949295, 0.21434107422828674, -0.3469436466693878, -0.043386220932006836, -0.2424953132867813, 0.18376265466213226, 0.35485661029815674, 0.5581417679786682, 0.21166270971298218, -0.06958484649658203, -0.2647799253463745},
	{0.08850467205047607, -0.012866616249084473, -0.0195540189743042, 0.3524000644683838, 0.1672736406326294, -0.336185097694397, -0.04677772521972656, -0.22814035415649414, -0.21760916709899902, -0.32111024856567383, -0.4085768461227417, 0.07102346420288086, 0.2329040765762329, -0.48018884658813477, 0.09994888305664062, -0.02316272258758545},
	{0.4859565794467926, -0.3774453103542328, -0.0008767192484810948, 0.6173274517059326, 0.15833792090415955, 0.008785569109022617, -0.30199044942855835, 0.059527475386857986, -0.760603666305542, 0.014260663650929928, 0.4200812578201294, 0.13852858543395996, -0.21648402512073517, -0.12560349702835083, -0.6514943838119507, 0.15606899559497833},
	{0.4445433020591736, 0.369928240776062, 0.15523278713226318, -0.0974464863538742, -0.003420416731387377, 0.1440742015838623, -0.11120634526014328, -0.4153022766113281, -0.20474907755851746, -0.0843072459101677, 0.24240927398204803, -0.3360323905944824, 0.12457364797592163, -0.14615051448345184, -0.2519359290599823, -0.49701011180877686},
	{-0.503030002117157, 0.42276638746261597, -0.4546619653701782, 0.3992423713207245, 0.5367683172225952, 0.3854075074195862, -0.1579306423664093, -0.018568797037005424, 0.18926464021205902, -0.4308554232120514, 0.2061881273984909, -0.1925370693206787, 0.14412276446819305, -0.3875764012336731, 0.5451650023460388, -0.1494198888540268},
};
const float bias_l4[] =
	{-0.034447893500328064, 0.045568592846393585, 0.0558202899992466, 0.004633103962987661, 0.0, 0.028184356167912483, -0.012323984876275063, -0.024571586400270462};

const float weights_l5[][SHAPE_L_4]{
	{0.1815977394580841, 0.07015988230705261, 0.22973774373531342, -0.7165594696998596, -0.6370270252227783, 0.6507462859153748, -0.303489625453949, -0.8501031994819641},
	{0.4420236051082611, 0.627454400062561, -0.152740940451622, -0.750630795955658, -0.045350492000579834, -0.01798471063375473, -0.32305288314819336, 0.13754898309707642},
	{-0.5771686434745789, 0.5266025066375732, -0.004396486561745405, 0.5371468663215637, 0.018770694732666016, -0.7565567493438721, 0.6359599828720093, 0.6153379678726196},
	{0.40581363439559937, 0.21909557282924652, -0.40985605120658875, 0.37015509605407715, -0.0666424036026001, -0.6951631307601929, 0.6660086512565613, 0.23985010385513306},
};
const float bias_l5[] =
	{0.032751813530921936, 0.03506148234009743, 0.17130762338638306, -0.04655105248093605};

const float weights_l6[][SHAPE_L_5]{
	{0.17606356739997864, 0.9317955374717712, 0.32360631227493286, -0.3449283242225647},
	{1.1029897928237915, 0.6014128923416138, -0.2817792296409607, -0.09987911581993103},
};
const float bias_l6[] =
	{0.04263310134410858, 0.020765110850334167};

#endif