#ifndef _MODEL_H_
#define _MODEL_H_

#define IN_SHAPE 13

#define SHAPE_L_1 64
#define SHAPE_L_2 32
#define SHAPE_L_3 32
#define SHAPE_L_4 16
#define SHAPE_L_5 8
#define SHAPE_L_6 4
#define SHAPE_L_7 2


const std::vector<std::vector<float>> weights_l1{
	{0.06458322703838348, 0.35325852036476135, -0.13410137593746185, 0.027637645602226257, 0.2953135669231415, 0.0665857344865799, 0.19603466987609863, 0.020772119984030724, 0.003693311009556055, 0.2827589213848114, -0.23198752105236053, 0.20807017385959625, -0.3418285548686981},
	{-0.23446418344974518, 0.2062530368566513, -0.23491007089614868, -0.27170175313949585, -0.057448860257864, 0.28198087215423584, 0.0021008832845836878, -0.26779401302337646, -0.008127229288220406, 0.036258894950151443, 0.18762226402759552, 0.16789931058883667, 0.13188451528549194},
	{0.3100791871547699, -0.0033153966069221497, 0.2315649837255478, -0.027408478781580925, -0.01576077751815319, 0.09444401413202286, -0.16211919486522675, 0.22263413667678833, -0.184925377368927, -0.055357590317726135, 0.20609362423419952, -0.20662519335746765, -0.1834334284067154},
	{0.00015582179185003042, 0.3488345444202423, 0.1884213387966156, -0.31023353338241577, 0.06376158446073532, -0.06361685693264008, -0.026125257834792137, 0.25051552057266235, -0.06059359386563301, 0.0881642997264862, -0.25441253185272217, -0.0658540278673172, -0.06360083073377609},
	{-0.2022736519575119, -0.18669578433036804, -0.11394892632961273, 0.1841612011194229, 0.239924818277359, -0.13507816195487976, 0.1561347097158432, -0.028553670272231102, 0.09534282237291336, -0.05200480669736862, -0.17396648228168488, 0.09296581149101257, -0.06003187224268913},
	{-0.10363911837339401, -0.26098233461380005, -0.03477688878774643, -0.12495579570531845, -0.1674685776233673, -0.020139502361416817, 0.04129382595419884, 0.272569477558136, 0.25206783413887024, -0.14391787350177765, -0.133710116147995, 0.29310938715934753, 0.09203562885522842},
	{0.18574537336826324, 0.17813611030578613, 0.20194882154464722, -0.30892813205718994, 0.3001921474933624, 0.024732273072004318, 0.23057834804058075, 0.01447673887014389, 0.0841681957244873, -0.03957546502351761, 0.15032699704170227, -0.025845030322670937, -0.08985760807991028},
	{0.1796865016222, 0.08773534744977951, 0.33850347995758057, 0.13230006396770477, -0.18710707128047943, 0.27359551191329956, -0.06206919997930527, 0.18743684887886047, 0.20449542999267578, 0.21235446631908417, 0.20010940730571747, -0.23736180365085602, -0.0652088150382042},
	{0.08245259523391724, -0.1994519978761673, -0.06157359480857849, 0.2347584366798401, 0.03489607945084572, 0.28438466787338257, -0.010775999166071415, 0.23956632614135742, 0.2551411986351013, 0.13662832975387573, 0.1010945737361908, -0.22394542396068573, 0.048026274889707565},
	{-0.27861282229423523, 0.15292340517044067, 0.05193544924259186, -0.24605418741703033, -0.18547064065933228, 0.161155566573143, -0.12946416437625885, 0.05449970066547394, -0.22955939173698425, -0.0655086487531662, 0.05985478684306145, -0.23916947841644287, 0.10457491129636765},
	{-0.21364937722682953, -0.3722957670688629, 0.02575431950390339, -0.019398491829633713, 0.05945703759789467, 0.2657988667488098, 0.23216292262077332, 0.02086954191327095, 0.08863689005374908, -0.2904717028141022, 0.11266826093196869, 0.08240160346031189, 0.18492437899112701},
	{0.282305508852005, -0.23932169377803802, 0.08014505356550217, 0.201534241437912, -0.17200499773025513, -0.034667838364839554, -0.12832920253276825, 0.1379871517419815, -0.14972805976867676, -0.11812012642621994, 0.12964534759521484, 0.24723294377326965, -0.2909258008003235},
	{0.09995529800653458, -0.2215416431427002, -0.05248808115720749, 0.001747211441397667, -0.3099979758262634, -0.13972990214824677, -0.3117540180683136, 0.06290047615766525, -0.0425432063639164, -0.10087943077087402, -0.24677850306034088, 0.17144232988357544, -0.09224496781826019},
	{-0.3406550884246826, 0.08961042016744614, 0.221599280834198, 0.20013763010501862, 0.25690120458602905, -0.3091176748275757, -0.08214861154556274, 0.26577258110046387, 0.482174813747406, 0.11054322123527527, -0.12558676302433014, -0.04698686674237251, 0.22489072382450104},
	{0.19890955090522766, 0.06639012694358826, -0.24182681739330292, 0.17126280069351196, 0.19684596359729767, -0.2636384069919586, -0.11318553984165192, -0.24250349402427673, -0.1697108894586563, 0.13620710372924805, 0.153318390250206, 0.026747778058052063, 0.05670167878270149},
	{0.17251209914684296, 0.2140103429555893, 0.08885560184717178, -0.3055955767631531, -0.1613309234380722, -0.27166852355003357, -0.24795782566070557, 0.22725151479244232, 0.05281202122569084, 0.23109005391597748, 0.1914830356836319, -0.0006062317406758666, -0.21834702789783478},
	{0.24434638023376465, -0.43018314242362976, 0.0736607164144516, 0.1679219901561737, -0.23560675978660583, -0.3587527871131897, 0.12309099733829498, -0.3239004611968994, 0.2578585147857666, -0.20825336873531342, 0.22335433959960938, 0.0798492357134819, 0.22574330866336823},
	{0.10596078634262085, 0.25365132093429565, 0.2512296736240387, 0.17264117300510406, -0.05019468814134598, 0.2512030601501465, 0.25504761934280396, 0.149044468998909, -0.14823272824287415, -0.0500335767865181, -0.20901194214820862, 0.25941431522369385, -0.2862260341644287},
	{0.02292529307305813, -0.02582523040473461, -0.17463593184947968, -0.0036318236961960793, -0.2729266881942749, 0.18681363761425018, -0.2026488482952118, 0.22486765682697296, 0.38114699721336365, -0.032392535358667374, 0.1489945650100708, 0.2496359497308731, -0.2586492896080017},
	{0.05081465467810631, -0.25821080803871155, -0.01462972816079855, 0.057744190096855164, -0.2795102894306183, 0.003604067722335458, 0.29972803592681885, -0.2819664478302002, 0.11225664615631104, 0.16551119089126587, -0.14309002459049225, 0.05479746311903, 0.2983667552471161},
	{0.27076488733291626, 0.12232901901006699, 0.02382606267929077, 0.17674286663532257, 0.30137255787849426, -0.2367582768201828, -0.11525813490152359, -0.03465641289949417, -0.21171626448631287, 0.10456961393356323, -0.3647414743900299, -0.2606181800365448, 0.0298480112105608},
	{-0.05244709178805351, 0.24599434435367584, 0.17609523236751556, -0.2375103235244751, 0.01646861806511879, 0.05039714649319649, 0.030317673459649086, 0.36125099658966064, -0.032639987766742706, 0.13887397944927216, -0.2115219086408615, 0.02754419483244419, -0.39321169257164},
	{0.14591632783412933, 0.03375796228647232, 0.18448056280612946, -0.17034074664115906, -0.2331853210926056, 0.26675570011138916, -0.11673417687416077, -0.038551051169633865, -0.17292022705078125, -0.21092671155929565, 0.23340123891830444, -0.12227686494588852, 0.02609614096581936},
	{0.0920446589589119, 0.22056566178798676, 0.20628896355628967, 0.08007717877626419, 0.2060672789812088, -0.04010724648833275, -0.2493019700050354, -0.15020149946212769, -0.1919112205505371, -0.08305566012859344, -0.22243785858154297, -0.24519267678260803, -0.20994506776332855},
	{0.19911381602287292, -0.014053559862077236, -0.20120999217033386, 0.09697278589010239, 0.23658142983913422, -0.08010821789503098, 0.020463205873966217, 0.21816007792949677, -0.21577276289463043, 0.16831190884113312, 0.15769778192043304, -0.01633826270699501, 0.16454406082630157},
	{-0.07002799957990646, -0.025712337344884872, 0.30977898836135864, 0.3414177894592285, 0.18220074474811554, 0.28500527143478394, 0.11069978028535843, -0.05149230360984802, -0.0068476260639727116, 0.0925198644399643, 0.34451496601104736, -0.03553420677781105, 0.13690581917762756},
	{-0.2055756151676178, 0.23861347138881683, 0.036839600652456284, 0.06660375744104385, 0.2934722602367401, 0.09908170998096466, 0.2051205337047577, 0.16481786966323853, -0.015427584759891033, -0.029480446130037308, 0.0771598145365715, -0.06787923723459244, -0.41070008277893066},
	{0.2783614695072174, -0.3222962021827698, -0.2276344746351242, 0.03933537006378174, -0.19597305357456207, -0.056052420288324356, 0.24644456803798676, -0.2026243656873703, 0.2030763477087021, -0.040796294808387756, -0.12458936125040054, 0.16240976750850677, -0.16386164724826813},
	{0.006415450479835272, 0.0015212070429697633, 0.3684385120868683, 0.13889159262180328, 0.2528949975967407, 0.07442303746938705, 0.14400073885917664, 0.24354761838912964, 0.05186765268445015, -0.04669257625937462, 0.051359716802835464, 0.08668934553861618, 0.02933390997350216},
	{0.19833821058273315, -0.11882467567920685, -0.0822434201836586, -0.21121522784233093, -0.07755011320114136, 0.13888871669769287, -0.09338191896677017, 0.1415984034538269, -0.21184711158275604, 0.2061624974012375, -0.005009456537663937, -0.12624682486057281, 0.15877220034599304},
	{-0.15669715404510498, 0.2328736037015915, -0.036831703037023544, -0.10222606360912323, -0.19864892959594727, 0.2979089319705963, -0.036370955407619476, 0.11075830459594727, -0.18550634384155273, 0.09838954359292984, 0.13216392695903778, -0.15125276148319244, 0.2180112898349762},
	{-0.14411863684654236, -0.2778664231300354, 0.1303064078092575, 0.10212813317775726, -0.3249436020851135, -0.12085173279047012, 0.22981560230255127, 0.12384810298681259, 0.07105996459722519, 0.1470171958208084, 0.1332685500383377, 0.11800634115934372, 0.16691917181015015},
	{0.09172369539737701, -0.11091348528862, -0.03446020185947418, 0.22915895283222198, 0.1654069721698761, -0.13624130189418793, 0.13354647159576416, 0.045183729380369186, -0.118903249502182, 0.17957057058811188, -0.19844631850719452, -0.056562721729278564, -0.06732240319252014},
	{0.23102548718452454, -0.015343609265983105, -0.1805381178855896, -0.10208319872617722, 0.10899963229894638, -0.22132501006126404, 0.12207180261611938, -0.02224426530301571, -0.03790442645549774, 0.11515124887228012, 0.03352127596735954, -0.024403490126132965, 0.26698070764541626},
	{0.25083664059638977, 0.04930073022842407, -0.05287986993789673, -0.2303563356399536, -0.11624881625175476, 0.10366640985012054, 0.08271815627813339, -0.1623506397008896, -0.0005977259716019034, 0.03738890588283539, -0.013369717635214329, -0.28974437713623047, 0.2060493677854538},
	{-0.5806443095207214, -0.1719483733177185, 0.14183297753334045, 0.059322845190763474, -0.2372320145368576, 0.019987784326076508, -0.0020992127247154713, 0.022094732150435448, 0.0003955283318646252, -0.30249157547950745, 0.17209167778491974, 0.1911499798297882, 0.07591607421636581},
	{0.24494248628616333, -0.3652175962924957, -0.13889172673225403, -0.13176897168159485, 0.21920347213745117, 0.0134541355073452, -0.04846557602286339, 0.1285344511270523, 0.09075625985860825, 0.12953084707260132, -0.18336613476276398, -0.10458382219076157, -0.04189271479845047},
	{0.29250362515449524, -0.15505816042423248, -0.19407251477241516, 0.06680142879486084, 0.1914982944726944, 0.2968232035636902, -0.11747915297746658, 0.15331052243709564, -0.12227125465869904, 0.012642595916986465, 0.018433256074786186, 0.18477007746696472, -0.3030945956707001},
	{-0.2645851671695709, -0.12900647521018982, 0.22065892815589905, -0.08206436038017273, -0.2529665529727936, 0.09125971794128418, -0.27848079800605774, -0.12710438668727875, 0.14857617020606995, 0.02970936894416809, 0.2411791980266571, -0.25614142417907715, -0.05276501178741455},
	{0.11430659890174866, 0.36573082208633423, 0.04028855636715889, 0.23564395308494568, 0.26522064208984375, 0.1980188935995102, -0.29923734068870544, 0.19180791079998016, -0.07818953692913055, -0.046504613012075424, -0.011979695409536362, 0.153482586145401, -0.22211521863937378},
	{-0.019699614495038986, 0.15394112467765808, 0.08949356526136398, 0.3036753237247467, 0.10520219057798386, -0.36164766550064087, -0.08739634603261948, -0.16156557202339172, 0.35039737820625305, 0.2114606350660324, 0.09219004958868027, -0.35566920042037964, 0.07295696437358856},
	{-0.1367412656545639, 0.2998383045196533, 0.4080564081668854, 0.2008427381515503, 0.09773798286914825, -0.13372646272182465, -0.07491009682416916, -0.0470484122633934, 0.4318420886993408, -0.0916411504149437, 0.041434962302446365, -0.013627980835735798, 0.23450663685798645},
	{0.06245994567871094, -0.23346500098705292, 0.1898338347673416, -0.22125694155693054, 0.04694776237010956, 0.272100031375885, 0.06112787500023842, -0.26598572731018066, 0.05594702437520027, -0.2502121925354004, 0.017837045714259148, 0.04574545845389366, -0.10836804658174515},
	{-0.05939561873674393, 0.3277183473110199, 0.1562313437461853, -0.2541079819202423, -0.05085403844714165, 0.02363112010061741, -0.24362629652023315, 0.3173965513706207, -0.002103033009916544, 0.07045993953943253, -0.058788225054740906, 0.24231159687042236, -0.03282538801431656},
	{-0.22521410882472992, -0.16424599289894104, -0.2674420475959778, -0.07118886709213257, -0.27035197615623474, 0.2225411832332611, -0.1486043930053711, -0.13037189841270447, 0.11222842335700989, -0.13790999352931976, -0.039056941866874695, -0.10278163850307465, -0.24682113528251648},
	{-0.062065672129392624, -0.18890108168125153, -0.28048473596572876, -0.2276177853345871, 0.14502133429050446, 0.2621319591999054, 0.08543793857097626, -0.02093450352549553, -0.2355920821428299, -0.2838893234729767, 0.10146677494049072, -0.20262432098388672, 0.16720640659332275},
	{-0.06376414746046066, -0.07995742559432983, -0.2402137815952301, 0.08123081177473068, 0.0702713206410408, 0.279436856508255, -0.2599586248397827, 0.04966610670089722, -0.05314060300588608, 0.12267965823411942, 0.15354475378990173, -0.0423787422478199, 0.1565750241279602},
	{0.00844318512827158, 0.07338664680719376, -0.3273981213569641, -0.0511341467499733, -0.2211228609085083, 0.2773076891899109, -0.34897497296333313, -0.24565766751766205, 0.06024497002363205, -0.17807869613170624, 0.33629167079925537, -0.03619282692670822, 0.12238052487373352},
	{-0.029217083007097244, 0.13629549741744995, 0.3002062439918518, 0.2409573346376419, 0.07310528308153152, -0.1592673808336258, 0.19582059979438782, -0.23404768109321594, -0.023221397772431374, 0.23393046855926514, 0.11377114057540894, 0.07143125683069229, 0.13284456729888916},
	{-0.1136355996131897, -0.003117324085906148, -0.3796522915363312, -0.03491206839680672, -0.13643182814121246, 0.1955677568912506, 0.11646942794322968, -0.23139557242393494, 0.1483435183763504, 0.02479437366127968, 0.13324180245399475, 0.22223155200481415, 0.1805998980998993},
	{0.009747703559696674, -0.2311139553785324, 0.047166645526885986, 0.3583606779575348, 0.20651714503765106, 0.1654559224843979, 0.160338893532753, -0.2811027467250824, 0.03693981468677521, 0.16282640397548676, 0.10968702286481857, -0.26665928959846497, -0.18954291939735413},
	{0.19923646748065948, 0.11071372032165527, -0.2045568972826004, 0.12646092474460602, -0.09207848459482193, 0.1793549358844757, 0.23956361413002014, -0.1810552328824997, 0.09415161609649658, 0.21039296686649323, 0.19853618741035461, -0.008935672231018543, 0.07132993638515472},
	{0.30989179015159607, 0.06662242859601974, 0.08405004441738129, 0.20997856557369232, 0.2776529788970947, -0.021163538098335266, -0.2280365377664566, -0.01662774756550789, 0.07796846330165863, -0.005528911482542753, 0.06094618886709213, -0.32910996675491333, -0.23943489789962769},
	{0.2702593207359314, -0.11756733059883118, 0.3292199969291687, -0.2694140672683716, 0.23286932706832886, -0.21889427304267883, -0.05820465832948685, 0.12521426379680634, 0.010638394393026829, -0.19402453303337097, -0.1531078964471817, -0.23894983530044556, 0.032772570848464966},
	{0.09425284713506699, 0.17283020913600922, -0.14819638431072235, 0.1424299031496048, 0.19580554962158203, 0.21719786524772644, 0.27780523896217346, 0.11962960660457611, 0.2362985610961914, 0.23548690974712372, -0.2428228110074997, 0.23997944593429565, -0.005097879096865654},
	{0.18757355213165283, -0.3114330470561981, 0.030380481854081154, -0.12654998898506165, 0.09792861342430115, -0.08666010200977325, -0.1963539570569992, -0.2806965410709381, 0.09848535805940628, -0.21943490207195282, 0.2172594964504242, 0.19139966368675232, 0.33256760239601135},
	{0.23471742868423462, 0.3881690204143524, -0.21183298528194427, 0.025789372622966766, 0.07356217503547668, 0.2935311198234558, -0.17158323526382446, 0.20728625357151031, -0.26234278082847595, 0.06014600396156311, 0.0834241509437561, -0.10288489609956741, 0.12765339016914368},
	{0.17164449393749237, -0.05067113786935806, 0.1670421063899994, -0.314426064491272, 0.3264105021953583, -0.21535608172416687, 0.3207244873046875, -0.21344579756259918, 0.03728634491562843, -0.11236921697854996, -0.005554282106459141, 0.1144750639796257, 0.2145606428384781},
	{-0.05399098992347717, 0.0493028461933136, 0.018019258975982666, -0.1819477379322052, -0.10398899018764496, 0.04240691661834717, -0.036238670349121094, 0.11185392737388611, 0.16629135608673096, -0.13963180780410767, -0.17090699076652527, -0.19412973523139954, -0.0970897227525711},
	{0.14795902371406555, -0.09088273346424103, -0.06702432036399841, 0.21213339269161224, 0.22227737307548523, 0.2685985267162323, -0.2128964364528656, 0.3141789138317108, 0.0454598143696785, 0.3459947109222412, 0.3633919656276703, 0.1340910792350769, -0.3190193772315979},
	{0.11320618540048599, 0.07091877609491348, 0.18215328454971313, 0.23355287313461304, 0.23687289655208588, 0.15793922543525696, -0.26174038648605347, 0.3061412572860718, 0.07821662724018097, 0.22324031591415405, 0.2746295630931854, -0.010165215469896793, -0.23025326430797577},
	{0.1751403957605362, 0.16651920974254608, 0.2590206265449524, 0.07996140420436859, -0.08605536073446274, -0.11365954577922821, 0.22696654498577118, 0.14318564534187317, -0.11273858696222305, 0.2111482173204422, 0.09911470860242844, -0.1655549705028534, -0.08543971180915833},
	{0.1724490374326706, -0.14052316546440125, -0.2596910297870636, 0.03369396924972534, -0.13077160716056824, 0.07947362214326859, -0.061839450150728226, 0.15819674730300903, -0.23198971152305603, -0.018236573785543442, 0.07014147937297821, -0.23504066467285156, 0.19250184297561646},
	{-0.13465553522109985, -0.18671512603759766, -0.23628529906272888, 0.3065512478351593, -0.018984679132699966, 0.12537194788455963, 0.15502066910266876, 0.0030759605579078197, 0.13308219611644745, -0.03666812181472778, -0.007899962365627289, 0.1976660043001175, 0.031099332496523857},
};
const float bias_l1[] =
	{0.06689085811376572, -0.07491698116064072, 0.0920550748705864, -0.006290392484515905, -0.01576356589794159, -0.022967679426074028, 0.019249383360147476, 0.04056903347373009, 0.02969283051788807, -0.022348491474986076, 0.019136235117912292, 0.029841357842087746, -0.042240262031555176, 0.05647570267319679, 0.02443297579884529, -0.0039175827987492085, -0.05292860046029091, 0.0339062325656414, 0.07433170825242996, -0.00264941668137908, 0.07678775489330292, -0.008789177983999252, 0.028962673619389534, -0.002989888424053788, 0.01618543080985546, 0.050695616751909256, 0.009141859598457813, 0.03548841178417206, 0.027822021394968033, -0.024137282744050026, -0.05870329216122627, -0.030390150845050812, 0.03427555784583092, -0.02990778535604477, -0.015213221311569214, 0.06492587924003601, 0.0399005152285099, 0.08815492689609528, 0.0, 0.01815151609480381, 0.08298099040985107, 0.07370832562446594, -0.005097426939755678, -0.0031177587807178497, 0.0, 0.041399747133255005, 0.014696143567562103, -0.0013751107035204768, 0.03987746313214302, -0.0575045570731163, 0.03086078353226185, 0.03653128445148468, 0.09966815263032913, 0.052605170756578445, 0.040863607078790665, -0.01778506673872471, -0.025163277983665466, 0.019737867638468742, 0.0, 0.07039695233106613, 0.05711071193218231, 0.013592125847935677, 0.016030481085181236, 0.054117895662784576};

const std::vector<std::vector<float>> weights_l2{
	{-0.009493451565504074, 0.25369545817375183, 0.013725832104682922, 0.18832838535308838, 0.15175971388816833, -0.23103538155555725, -0.15819954872131348, 0.19185993075370789, -0.07319896668195724, -0.05350972339510918, -0.23968245089054108, 0.011442158371210098, -0.07329723238945007, 0.15440787374973297, 0.01960153691470623, -0.11799054592847824, -0.23960311710834503, 0.17103073000907898, -0.13230229914188385, -0.16698633134365082, 0.3106042146682739, 0.5337696075439453, 0.006278148852288723, -0.16623127460479736, -0.18676045536994934, -0.01130636502057314, 0.17451848089694977, -0.25083503127098083, 0.08693423122167587, -0.07744885236024857, -0.13172613084316254, 0.3474281430244446, -0.10673102736473083, -0.06956078857183456, 0.1607545167207718, 0.016085969284176826, -0.21973663568496704, -0.031739067286252975, -0.024591445922851562, 0.24607396125793457, 0.23442727327346802, 0.3093618154525757, -0.05824142321944237, 0.23295395076274872, 0.20757031440734863, -0.5492802858352661, -0.20102766156196594, -0.23318824172019958, 0.006675592623651028, -0.28557056188583374, 0.004500263836234808, 0.1298377513885498, 0.19236157834529877, 0.23185423016548157, 0.28678998351097107, -0.1126997172832489, 0.24134661257266998, -0.20383454859256744, 0.23121953010559082, 0.017013369128108025, -0.013422442600131035, 0.06337370723485947, -0.26274242997169495, 0.17696188390254974},
	{0.10304448008537292, 0.022151898592710495, -0.27266725897789, -0.19253365695476532, 0.05263344943523407, -0.16338713467121124, -0.1775941699743271, 0.11486060917377472, -0.1626143455505371, -0.16992461681365967, -0.19337187707424164, 0.1997273713350296, 0.1893540620803833, 0.3207416832447052, -0.05204528197646141, 0.2771209180355072, 0.2294478863477707, -0.15417873859405518, 0.542345404624939, 0.11216385662555695, 0.13919857144355774, -0.13124285638332367, 0.047840505838394165, 0.12664029002189636, 0.0815509557723999, 0.16104230284690857, 0.056138698011636734, -0.328760027885437, 0.21022582054138184, -0.008137858472764492, 0.08446014672517776, 0.2692209780216217, 0.2562757730484009, 0.19180983304977417, -0.09426793456077576, 0.06796583533287048, -0.14032013714313507, -0.24233044683933258, 0.05496150255203247, -0.19187520444393158, 0.28280654549598694, 0.17390060424804688, -0.20385590195655823, -0.30292806029319763, -0.02534031867980957, -0.35325881838798523, -0.10210737586021423, -0.4324414134025574, 0.14996899664402008, 0.1799769401550293, -0.07025603950023651, -0.09302781522274017, 0.07074590027332306, 0.1815938502550125, -0.16036102175712585, -0.2185220867395401, -0.10479682683944702, -0.10753972828388214, 0.10400617122650146, -0.047014690935611725, 0.008457653224468231, 0.13270670175552368, 0.16889351606369019, 0.17078275978565216},
	{0.097020223736763, -0.01307431049644947, -0.22316181659698486, -0.30209216475486755, 0.2127121537923813, -0.3903560936450958, -0.23848184943199158, -0.2066270411014557, -0.053361400961875916, 0.1571502685546875, -0.04731127992272377, -0.10813260078430176, -0.16351968050003052, 0.4410729706287384, -0.276180237531662, 0.08854734897613525, 0.17613044381141663, -0.20669244229793549, 0.15829883515834808, 0.08714953064918518, 0.20996525883674622, 0.0418667197227478, 0.03392138332128525, -0.07145100831985474, -0.18027475476264954, 0.12855136394500732, -0.07313722372055054, -0.3452107310295105, -0.13883452117443085, -0.11582369357347488, 0.07091822475194931, -0.027840999886393547, 0.10918525606393814, -0.15163356065750122, 0.24776870012283325, -0.1412936896085739, 0.002327361609786749, -0.3829573094844818, 0.10015368461608887, -0.44310328364372253, 0.37903881072998047, 0.13892512023448944, -0.07831786572933197, -0.028224345296621323, 0.08748370409011841, 0.08193236589431763, 0.13951024413108826, 0.206883043050766, -0.08040716499090195, -0.2665591537952423, 0.03427601605653763, 0.12315532565116882, -0.18274259567260742, -0.03726905956864357, -0.1291714459657669, 0.21435879170894623, -0.04457937926054001, 0.02298125810921192, -0.13545089960098267, -0.3285044729709625, 0.16562944650650024, -0.0165646243840456, 0.11014708131551743, -0.14611580967903137},
	{-0.0951552763581276, 0.04483393207192421, 0.24803534150123596, -0.072783462703228, -0.07287412881851196, -0.19539973139762878, 0.07664219290018082, 0.24208779633045197, -0.1908828318119049, 0.09041105210781097, -0.053225915879011154, 0.0543212890625, -0.21361760795116425, 0.2943095266819, -0.11440868675708771, 0.1239081397652626, -0.3095460832118988, -0.26589787006378174, -0.04536889120936394, -0.11055076122283936, 0.03882581368088722, 0.31471553444862366, -0.03093111515045166, -0.1283252090215683, -0.006697739474475384, 0.11460049450397491, 0.18953892588615417, -0.21693073213100433, 0.16811777651309967, -0.17372752726078033, 0.0822579488158226, -0.30428460240364075, -0.21148960292339325, 0.1396203190088272, -0.03437492623925209, 0.14299455285072327, 0.023136848583817482, 0.2581004798412323, -0.12749159336090088, -0.028569189831614494, 0.02496327832341194, -0.04788307473063469, -0.22731591761112213, 0.011335277929902077, -0.0005851984024047852, -0.2371755838394165, 0.21077261865139008, 0.16981767117977142, -0.3154633939266205, -0.01978004351258278, 0.5510513186454773, 0.1317010521888733, 0.2664570212364197, 0.07437966018915176, 0.06950656324625015, -0.2508915662765503, 0.0021265007089823484, -0.026292521506547928, -0.20503580570220947, -0.06748219579458237, 0.12915834784507751, 0.18105269968509674, 0.2543707489967346, -0.050919122993946075},
	{0.05559821054339409, -0.19165906310081482, -0.14386174082756042, -0.16730625927448273, 0.0368792898952961, -0.16304905712604523, 0.17810073494911194, 0.1895662397146225, 0.008027875795960426, 0.14758038520812988, -0.06437493860721588, -0.2849363386631012, 0.23471787571907043, 0.17262020707130432, -0.10862736403942108, 0.03397996723651886, -0.14788372814655304, -0.20133665204048157, -0.38128355145454407, -0.23570787906646729, 0.17297959327697754, -0.1276785433292389, 0.2554338574409485, -0.037655774503946304, -0.008883156813681126, 0.23306924104690552, 0.08604571223258972, -0.1875433325767517, 0.057301610708236694, 0.12126944959163666, -0.021028291434049606, 0.09566093236207962, -0.09741143882274628, -0.22388914227485657, 0.24013280868530273, 0.05570093169808388, -0.03734103590250015, -0.10336004197597504, 0.0995059609413147, -0.05819428339600563, 0.4242675006389618, 0.056586552411317825, 0.32752496004104614, 0.19522762298583984, -0.12760114669799805, 0.1881060153245926, 0.02649233303964138, -0.6660546064376831, -0.17601430416107178, 0.028634944930672646, -0.5710272789001465, 0.2286716252565384, -0.2681981325149536, 0.13196420669555664, 0.10900966078042984, -0.1512959897518158, -0.20141491293907166, 0.2551494538784027, 0.1828172206878662, -0.22707490622997284, 0.14300520718097687, -0.20429913699626923, 0.06024289131164551, 0.13577032089233398},
	{0.10461555421352386, 0.19842785596847534, 0.220131516456604, -0.16592523455619812, 0.22282201051712036, -0.1559865027666092, 0.02717924863100052, 0.16282013058662415, -0.3014336824417114, 0.18569332361221313, -0.16981622576713562, 0.07770466059446335, 0.2034437209367752, -0.2536860406398773, -0.09897845983505249, -0.16328741610050201, 0.12991595268249512, 0.20955555140972137, 0.07277123630046844, -0.08776778727769852, 0.22719316184520721, -0.23148858547210693, 0.21724824607372284, 0.004900634288787842, -0.1344902664422989, -0.17584073543548584, 0.12406917661428452, -0.08950744569301605, 0.21519677340984344, 0.014745612628757954, 0.15648436546325684, 0.02752692438662052, 0.1496560275554657, 0.24020999670028687, 0.026472041383385658, -0.4317358434200287, -0.03904039040207863, 0.11945435404777527, 0.1202356219291687, -0.3373222351074219, -0.46244099736213684, 0.109748974442482, 0.0890132486820221, -0.07941953092813492, 0.03372752666473389, 0.04655826836824417, -0.23024655878543854, -0.165904238820076, 0.07764625549316406, -0.16493859887123108, -0.10819689929485321, 0.22509828209877014, -0.11690008640289307, 0.23060846328735352, -0.09102125465869904, 0.01169543992727995, -0.2942117154598236, -0.008387787267565727, -0.02606302499771118, -0.2955389618873596, -0.1257944107055664, 0.1146165281534195, -0.23357771337032318, -0.20709313452243805},
	{-0.2025170922279358, -0.13472341001033783, 0.13488450646400452, -0.14285416901111603, 0.2927355468273163, 0.30195099115371704, -0.14611968398094177, 0.024840908125042915, 0.11536448448896408, -0.08167093992233276, 0.1501278132200241, 0.1826949268579483, 0.13854821026325226, -0.17778339982032776, -0.30745503306388855, 0.1279725581407547, -0.06104670464992523, -0.08378608524799347, 0.27634546160697937, 0.025561030954122543, -0.27466171979904175, -0.34879618883132935, 0.02808075211942196, 0.03711599111557007, -0.18201467394828796, 0.26042434573173523, 0.08340370655059814, -0.1163913831114769, 0.007893023081123829, 0.03336251527070999, 0.003653172869235277, 0.16536886990070343, -0.09643981605768204, 0.007059776224195957, -0.18002696335315704, 0.25163474678993225, 0.2087128907442093, 0.095311738550663, 0.0148392915725708, 0.026782773435115814, -0.32700809836387634, 0.2209666222333908, -0.1426476240158081, 0.155918151140213, 0.15972864627838135, -0.08657408505678177, -0.021329449489712715, 0.11572835594415665, -0.16803890466690063, -0.18196652829647064, -0.5425630807876587, 0.010866246186196804, -0.41089576482772827, -0.1098497211933136, -0.1402149200439453, -0.06298112869262695, 0.029808443039655685, -0.12128999084234238, -0.1464882493019104, 0.06745745986700058, 0.24179881811141968, -0.13139644265174866, -0.25961145758628845, 0.15122804045677185},
	{-0.14977411925792694, 0.04971674084663391, 0.0037137363106012344, 0.03213302046060562, -0.25054752826690674, 0.021358812227845192, -0.2023075520992279, -0.23342497646808624, -0.02615436725318432, 0.0014513134956359863, -0.13420577347278595, -0.0033916400279849768, 0.07552394270896912, -0.07005270570516586, 0.19249187409877777, -0.14102205634117126, -0.14134453237056732, -0.10421060025691986, 0.18800756335258484, 0.20009753108024597, -0.02322962135076523, -0.06666137278079987, 0.04235026612877846, -0.21234148740768433, 0.031239697709679604, -0.0875982940196991, 0.0225211288779974, 0.19312691688537598, -0.04965250566601753, 0.13809573650360107, -0.07432303577661514, -0.0769515261054039, 0.04891503229737282, 0.18620169162750244, -0.014585909433662891, -0.024769876152276993, -0.0035309954546391964, 0.13760323822498322, 0.0950700044631958, 0.13690848648548126, -0.13267192244529724, 0.11389201134443283, -0.043806884437799454, 0.143256276845932, -0.19110912084579468, -0.09711884707212448, -0.008567537181079388, -0.04376435652375221, -0.18218374252319336, 0.02741340547800064, 0.1686558723449707, -0.22049017250537872, 0.09100856631994247, 0.13730479776859283, -0.08925838768482208, 0.14238548278808594, -0.204459547996521, -0.07722437381744385, 0.0340886116027832, -0.06784674525260925, -0.19338929653167725, -0.2528544068336487, 0.20149938762187958, 0.0474051795899868},
	{-0.3284171521663666, -0.12829041481018066, 0.10800390690565109, 0.09637526422739029, 0.08466515690088272, -0.09580788016319275, 0.2655898928642273, -0.04702433943748474, -0.01702086068689823, 0.22112619876861572, -0.0035390956327319145, 0.01104437094181776, 0.1295464038848877, 0.3461923599243164, 0.22894921898841858, -0.2138967365026474, -0.22190673649311066, -0.23508621752262115, -0.21246089041233063, -0.214954674243927, -0.05206960439682007, 0.08300257474184036, -0.14188963174819946, 0.14683127403259277, -0.2198721170425415, -0.1859719306230545, 0.04300101846456528, 0.01222917065024376, -0.12658682465553284, 0.11393717676401138, 0.11219857633113861, 0.11373346298933029, 0.229887917637825, 0.08662138879299164, -0.13401897251605988, -0.14673171937465668, 0.2420274019241333, -0.2362717241048813, -0.11084747314453125, 0.11420298367738724, 0.20516633987426758, 0.23410053551197052, -0.04199526458978653, 0.2771124243736267, -0.19627225399017334, 0.17446862161159515, 0.1462453454732895, 0.06974031031131744, 0.08645902574062347, 0.20128852128982544, 0.14293615520000458, -0.1419479250907898, 0.09153624624013901, -0.04683336615562439, 0.15330064296722412, -0.0625988021492958, -0.21253451704978943, -0.006510005798190832, -0.12723106145858765, 0.05778108164668083, 0.18453286588191986, 0.08269128203392029, -9.024585597217083e-05, 0.12233655154705048},
	{0.2070990353822708, -0.23528531193733215, -0.1584778130054474, -0.05446789041161537, -0.11512290686368942, 0.1538856029510498, -0.17927224934101105, 0.004304456990212202, -0.08481287956237793, 0.050376538187265396, 0.09731731563806534, -0.13486911356449127, 0.11601609736680984, -0.39013347029685974, -0.24267345666885376, 0.030987650156021118, 0.2463635802268982, 0.1564449816942215, -0.4063139855861664, -0.03062722086906433, 0.19662965834140778, -0.3398238718509674, 0.09098542481660843, -0.007058327551931143, -0.2387116402387619, -0.0994427502155304, -0.04431203007698059, -0.21891199052333832, -0.11279618740081787, 0.13166293501853943, 0.019172748550772667, 0.19984064996242523, 0.02149028144776821, -0.03383854776620865, 0.03898672014474869, -0.1461978405714035, 0.21464775502681732, 0.12620724737644196, 0.07984989881515503, -0.07835133373737335, -0.2879439890384674, 0.14339296519756317, 0.21097445487976074, -0.009238981641829014, 0.1317582130432129, -0.19276198744773865, -0.34845972061157227, -0.21438708901405334, -0.0686207041144371, -0.0823456197977066, -0.0557110570371151, 0.12222535163164139, 0.11825813353061676, 0.05391481891274452, -0.14118215441703796, 0.22743280231952667, -0.2355094701051712, 0.1803465634584427, 0.09290844202041626, 0.027758294716477394, -0.12116048485040665, 0.15318340063095093, -0.08661104738712311, -0.25680115818977356},
	{0.21136555075645447, -0.15963239967823029, 0.040847525000572205, -0.1075608879327774, -0.06395392119884491, 0.1854124218225479, -0.09358341246843338, 0.23777465522289276, -0.221897155046463, 0.06206149607896805, 0.23660317063331604, 0.3121045231819153, -0.08205845952033997, -0.2700864374637604, 0.1921522170305252, 0.20540159940719604, 0.08633849769830704, -0.1326064020395279, 0.21978281438350677, 0.21791039407253265, -0.08684556931257248, -0.26102909445762634, 0.04739069193601608, -0.07261490821838379, -0.1538686603307724, 0.01745026931166649, 0.08930634707212448, 0.21572041511535645, 0.2326037436723709, -0.1439395695924759, -0.15497826039791107, 0.01970105618238449, 0.0888015404343605, -0.1257074773311615, -0.22480693459510803, 0.40175458788871765, 0.19799910485744476, 0.3242839574813843, 0.24972277879714966, -0.16175426542758942, 0.08477379381656647, -0.3110920488834381, 0.07120507955551147, 0.08118891716003418, -0.24744433164596558, 0.1467359960079193, 0.09094278514385223, -0.34532010555267334, 0.011676675640046597, -0.25398358702659607, -0.21272188425064087, -0.07853779196739197, 0.26625970005989075, 0.21983857452869415, 0.12119187414646149, 0.05600278452038765, -0.24410076439380646, 0.00544781843200326, 0.02846628427505493, 0.1166096106171608, 0.023783491924405098, 0.19032172858715057, -0.26945987343788147, 0.08171502500772476},
	{-0.1712014228105545, -0.0856795459985733, 0.3133625388145447, -0.2681971490383148, -0.1543111354112625, -0.24122503399848938, 0.21121248602867126, 0.2928351163864136, 0.2239827960729599, -0.20821090042591095, 0.14021681249141693, 0.28507816791534424, 0.1599205583333969, 0.20577259361743927, 0.08456087857484818, -0.1496494561433792, -0.27089306712150574, 0.18017876148223877, 0.31650641560554504, 0.0395670123398304, -0.04140567407011986, 0.06411521881818771, 0.2302679717540741, 0.11286675930023193, 0.14347553253173828, 0.16527295112609863, -0.038237497210502625, 0.19617438316345215, 0.13983356952667236, -0.22234834730625153, -0.308683842420578, -0.3326980471611023, -0.06713593751192093, 0.0511339008808136, -0.06682826578617096, 0.21905311942100525, 0.2629088759422302, 0.07214987277984619, 0.24631071090698242, 0.12568344175815582, 0.22619816660881042, -0.007405174430459738, 0.286289781332016, -0.11772427707910538, 0.09956592321395874, 0.1122756078839302, 0.0019032876007258892, -0.2647979259490967, -0.09556252509355545, -0.2562943696975708, -0.03820221871137619, 0.10516265779733658, -0.16580164432525635, 0.07587917894124985, -0.1100883036851883, -0.14792869985103607, -0.06117541715502739, -0.10670120269060135, 0.0097275972366333, 0.3308941721916199, 0.36210596561431885, -0.09507297724485397, 0.05680670589208603, -0.15635451674461365},
	{0.025051862001419067, -0.015342877246439457, -0.18569763004779816, -0.11109740287065506, -0.1943051815032959, 0.14944502711296082, -0.2459167242050171, 0.10748232901096344, -0.19768467545509338, 0.09181053936481476, 0.1586063653230667, -0.23304620385169983, -0.0656985193490982, -0.0969054102897644, -0.02542760781943798, 0.015416096895933151, 0.05830376595258713, 0.15218131244182587, -0.10840389877557755, -0.23338176310062408, -0.1861090064048767, -0.21055956184864044, 0.17235605418682098, 0.09685903787612915, -0.1358204036951065, -0.17392277717590332, 0.06747741997241974, -0.22205516695976257, -0.2501806616783142, -0.21254710853099823, -0.04673893377184868, 0.036211248487234116, -0.1740650236606598, 0.0857781320810318, -0.04007185995578766, 0.008677092380821705, 0.007253156043589115, -0.04727180302143097, -0.02737504243850708, 0.1399475634098053, 0.13190299272537231, -0.10259866714477539, -0.08800983428955078, 0.17839324474334717, -0.13967299461364746, 0.10171865671873093, -0.22171878814697266, -0.11099878698587418, -0.08682296425104141, 0.10776061564683914, 0.10148483514785767, 0.0198338832706213, 0.15552085638046265, -0.11559183150529861, 0.02962261624634266, 0.0812019631266594, 0.23581863939762115, -0.005522953346371651, 0.09242594242095947, 0.18281368911266327, -0.17364759743213654, 0.12694641947746277, -0.14552868902683258, -0.13783042132854462},
	{0.11627291887998581, -0.06389699876308441, 0.08562034368515015, -0.2390427589416504, -0.0031929227989166975, 0.21802584826946259, -0.1445741206407547, -0.008111154660582542, -0.05510001257061958, -0.022235333919525146, -0.1206977516412735, -0.12617197632789612, -0.091050885617733, -0.1603299081325531, 0.16470617055892944, -0.23787951469421387, -0.12851734459400177, 0.11369330435991287, 0.10516583174467087, -0.16299715638160706, 0.13047361373901367, -0.14269448816776276, -0.21708613634109497, -0.02461796998977661, 0.21886777877807617, -0.19545678794384003, -0.1642341911792755, -0.21134501695632935, 0.14345641434192657, 0.0026738932356238365, 0.0014773139264434576, -0.042318008840084076, -0.05840131267905235, -0.03506791591644287, 0.1414029598236084, 0.1450432538986206, 0.010289669036865234, 0.13363419473171234, -0.11484652757644653, -0.025232430547475815, -0.15879762172698975, -0.14348310232162476, -0.1605990082025528, 0.10277460515499115, 0.1911865472793579, 0.1323893666267395, 0.04215693473815918, 0.004516124725341797, -0.14603711664676666, -0.11016717553138733, -0.23775708675384521, -0.21556471288204193, -0.08978992700576782, -0.19038361310958862, 0.039766233414411545, 0.11477388441562653, -0.030485060065984726, -0.15088489651679993, -0.2091207504272461, -0.08118351548910141, 0.12051573395729065, 0.16783083975315094, 0.08497518301010132, -0.2441975474357605},
	{0.14088279008865356, -0.1836572289466858, 0.19524288177490234, -0.04554812237620354, 0.2181462198495865, -0.043362464755773544, 0.19155949354171753, -0.21916750073432922, 0.12397389113903046, 0.13475559651851654, 0.22709563374519348, 0.21466279029846191, -0.08216923475265503, 0.18840615451335907, 0.10889995098114014, 0.04483020305633545, 0.010334531776607037, -0.05634557083249092, 0.038038015365600586, -0.13915927708148956, -0.09099888801574707, -0.23162299394607544, 0.07710796594619751, -0.01568371057510376, -0.21940673887729645, -0.2187887281179428, 0.0198555588722229, -0.17803889513015747, 0.22946003079414368, 0.0531732439994812, 0.07997362315654755, 0.007616990711539984, -0.00713946670293808, 0.16447898745536804, -0.16475582122802734, -0.056352633982896805, 0.03217911720275879, -0.11017060279846191, -0.22465288639068604, -0.16524720191955566, -0.09490424394607544, -0.11656340956687927, -0.19741451740264893, -0.2440289705991745, -0.13600492477416992, 0.1463567018508911, -0.056221604347229004, 0.19674307107925415, 0.056527383625507355, 0.030416101217269897, -0.02619004249572754, -0.12467025220394135, 0.080483078956604, 0.11180410534143448, -0.07283256947994232, -0.2068474143743515, 0.043570466339588165, -0.18036776781082153, -0.14155638217926025, -0.04354405403137207, -0.14090460538864136, 0.0591137632727623, 0.03422427177429199, -0.1376299262046814},
	{0.14247295260429382, -0.09144371747970581, -0.054937832057476044, 0.098282091319561, -0.1107332706451416, -0.10960781574249268, 0.028156420215964317, 0.2147081047296524, -0.0736093670129776, 0.06789110600948334, -0.11378955841064453, -0.17081387341022491, -0.005851387977600098, 0.19629356265068054, 0.13792604207992554, 0.18086032569408417, -0.031181368976831436, -0.06570944935083389, -0.025099992752075195, -0.18029281497001648, 0.11943782866001129, -0.15214979648590088, -0.1430494487285614, 0.174940824508667, -0.15015321969985962, 0.21651345491409302, -0.21615147590637207, -0.24531292915344238, -0.1603115200996399, -0.01374856662005186, 0.20669448375701904, -0.04347118362784386, -0.03777293115854263, -0.0386543832719326, -0.115431047976017, -0.0320383720099926, -0.048626601696014404, -0.06433558464050293, -0.17243421077728271, -0.08965006470680237, -0.09998804330825806, -0.22009682655334473, 0.15472117066383362, 0.03237555921077728, 0.18003010749816895, 0.16006851196289062, 0.18303275108337402, -0.058096349239349365, 0.09194743633270264, -0.25306639075279236, 0.21968555450439453, -0.12103679776191711, -0.18390607833862305, 0.07264158129692078, 0.18224209547042847, -0.22521795332431793, -0.12779904901981354, 0.12276440113782883, 0.07218706607818604, -0.19658347964286804, -0.06699617207050323, -0.19631753861904144, 0.1307910680770874, -0.20805686712265015},
	{-0.05021631345152855, 0.18619371950626373, -0.21764874458312988, -0.23103448748588562, 0.22991640865802765, 0.096250981092453, -0.13719089329242706, 0.029334092512726784, 0.23057489097118378, -0.1266816109418869, 0.24614936113357544, 0.04238683730363846, -0.22804616391658783, -0.24890272319316864, -0.24155935645103455, -0.0088539719581604, -0.04106114059686661, -0.10162569582462311, 0.10806094110012054, 0.10258734971284866, -0.0287553109228611, -0.07670007646083832, 0.13359171152114868, 0.09272956848144531, 0.21360373497009277, 0.0844208374619484, 0.022320380434393883, -0.1390160769224167, -0.21974647045135498, -0.15470200777053833, 0.08113384991884232, 0.15705767273902893, -0.23966315388679504, 0.1341131627559662, -0.05329876393079758, 0.37827515602111816, -0.01927003636956215, -0.15156811475753784, 0.16729116439819336, 0.10789459198713303, -0.16241943836212158, -0.06799613684415817, 0.18807584047317505, 0.24314923584461212, 0.08735424280166626, 0.05006692185997963, 0.07298028469085693, -0.07836274057626724, -0.12287072092294693, -0.18858955800533295, -0.20478489995002747, -0.19555987417697906, 0.035610537976026535, -0.025783859193325043, 0.027833078056573868, -0.2530263066291809, -0.037451401352882385, 0.03033614717423916, -0.06389796733856201, 0.04832882061600685, 0.019029298797249794, -0.12485889345407486, -0.30938056111335754, 0.07534150034189224},
	{0.18632183969020844, 0.13095702230930328, 0.17200618982315063, 0.1009032279253006, 0.19693702459335327, 0.09683195501565933, -0.12592148780822754, 0.05800439789891243, 0.19922809302806854, -0.19668054580688477, 0.21249467134475708, 0.0917314812541008, 0.07179331034421921, -0.23160222172737122, -0.1336849480867386, -0.029984125867486, -0.12337882816791534, -0.026777129620313644, 0.0037638021167367697, 0.24342316389083862, -0.056162167340517044, -0.35083574056625366, 0.1430818885564804, 0.1679299920797348, -0.027990002185106277, 0.11878065764904022, -0.08284147828817368, 0.06173200160264969, -0.0012542924378067255, -0.06935519725084305, -0.19585080444812775, -0.2953089773654938, 0.025946814566850662, -0.09504204243421555, -0.10652869939804077, 0.2789323329925537, -0.06419900059700012, 0.32439127564430237, -0.08889102935791016, -0.2074270099401474, -0.15735897421836853, 0.1273626685142517, -0.07961991429328918, 0.06862782686948776, 0.24254673719406128, -0.24519981443881989, -0.22297969460487366, -0.4068093001842499, 0.12317674607038498, 0.10952317714691162, -0.1400541365146637, 0.21860738098621368, 0.016815979033708572, -0.051712486892938614, 0.24875035881996155, 0.12508682906627655, -0.15095661580562592, 0.18032707273960114, -0.0450747013092041, 0.043108854442834854, 0.2338247150182724, 0.25471267104148865, 0.1953340321779251, 0.04872460290789604},
	{0.12545661628246307, -0.06605780869722366, -0.04342697560787201, 0.0037759309634566307, 0.15649232268333435, 0.3264792263507843, 0.2121690809726715, 0.06888436526060104, -0.17103074491024017, -0.17143142223358154, -0.13236136734485626, 0.19204026460647583, 0.18751873075962067, 0.11195576190948486, -0.15034453570842743, -0.2616023123264313, -0.11225610971450806, 0.2637241780757904, 0.3187749683856964, 0.1592373549938202, -0.2107011377811432, 0.12875986099243164, -0.027635466307401657, 0.022107360884547234, -0.04508547484874725, -0.2379399836063385, 0.2758404016494751, 0.002946228487417102, 0.026454122737050056, -0.046712394803762436, -0.016146589070558548, -0.24970446527004242, -0.1593388170003891, -0.1794498711824417, -0.06244425103068352, -0.07532322406768799, -0.05525482818484306, -0.06813590973615646, -0.150953471660614, -0.004979386460036039, -0.13841217756271362, -0.26102519035339355, 0.14954300224781036, 0.2116619348526001, 0.037911057472229004, 0.005375072825700045, -0.3423067331314087, -0.04792308062314987, -0.12786865234375, -0.13903215527534485, -0.2588827311992645, -0.19483546912670135, -0.3521079421043396, 0.015494097024202347, 0.02042301557958126, -0.20691493153572083, -0.12800759077072144, 0.018744852393865585, -0.01787465810775757, 0.09846734255552292, 0.07645818591117859, -0.19458237290382385, 0.05338379368185997, 0.05443393811583519},
	{-0.42159393429756165, 0.01602308452129364, -0.30316951870918274, -0.10777730494737625, 0.20530731976032257, -0.07077542692422867, -0.25269076228141785, 0.16115471720695496, 0.0060962107963860035, 0.07284232974052429, 0.19094739854335785, -0.3577914535999298, 0.16130514442920685, -0.5385567545890808, -0.06843526661396027, 0.13427308201789856, -0.1601816564798355, -0.20534031093120575, -0.04783889278769493, 0.17289796471595764, -0.3597452938556671, 0.06732519716024399, 0.15336064994335175, -0.16164083778858185, -0.01828017458319664, 0.14753679931163788, -0.08431709557771683, 0.014528521336615086, 0.08958572894334793, -0.006662917789071798, 0.31736165285110474, 0.06931149959564209, 0.01590936817228794, 0.017220081761479378, -0.007986422628164291, -0.35916972160339355, -0.11247655749320984, 0.15771585702896118, 0.17173826694488525, -0.10415631532669067, -0.27777099609375, 0.052722472697496414, 0.15721623599529266, -0.06636882573366165, 0.09625887870788574, -0.0048999120481312275, 0.35689201951026917, 0.5808663964271545, -0.02880944311618805, 0.1406436264514923, 0.08598722517490387, 0.16988739371299744, 0.2510623335838318, -0.20313814282417297, -0.05750397592782974, -0.03165237978100777, 0.3018363416194916, -0.17612259089946747, -0.11133146286010742, 0.08628114312887192, 0.04575891047716141, -0.39088550209999084, 0.04801909253001213, 0.05371122062206268},
	{0.00018993235426023602, 0.09107798337936401, -0.13050049543380737, 0.10700717568397522, -0.008607927709817886, -0.03180518001317978, -0.1348789632320404, -0.15248626470565796, 0.23209044337272644, -0.22476571798324585, -0.15305881202220917, 0.1829528957605362, 0.2246541976928711, -0.20745785534381866, 0.222178652882576, -0.036767590790987015, -0.1958555430173874, -0.0959075391292572, 0.0009506940841674805, 0.1488882452249527, -0.08814330399036407, 0.09947818517684937, -0.16746899485588074, -0.23519736528396606, -0.0883805975317955, -0.10993135720491409, 0.1872546672821045, 0.10339968651533127, 0.10850783437490463, -0.04470112547278404, 0.05851501226425171, -0.19529177248477936, 0.2402704507112503, 0.16948160529136658, -0.062388837337493896, 0.10026341676712036, -0.20413535833358765, 0.08321156352758408, 0.17216861248016357, -0.03464067727327347, -0.13386815786361694, -0.23522573709487915, -0.16381177306175232, 0.16361220180988312, 0.14877629280090332, 0.19568485021591187, -0.15335620939731598, 0.19978201389312744, -0.026612991467118263, 0.2152765542268753, 0.007594863884150982, -0.07100408524274826, -0.20399105548858643, 0.007209577597677708, -0.2498582899570465, -0.1873009204864502, 0.1300361305475235, 0.14046898484230042, 0.22822856903076172, -0.014387646690011024, 0.055196769535541534, 0.04111001268029213, 0.10674717277288437, -0.13594281673431396},
	{0.4036617577075958, -0.29396378993988037, 0.11290522664785385, 0.4267452359199524, 0.15452203154563904, 0.02069208212196827, -0.18879428505897522, 0.1773471236228943, -0.05952642112970352, 0.18121761083602905, -0.08689738065004349, 0.4986063539981842, -0.15388837456703186, -0.12122060358524323, 0.05836460366845131, 0.2170727401971817, 0.013006161898374557, 0.28570103645324707, 0.24862121045589447, -0.28344324231147766, 0.04482436180114746, -0.028308577835559845, -0.10833726078271866, 0.04985043406486511, -0.13679201900959015, 0.23182915151119232, 0.41959241032600403, 0.3462219834327698, -0.06233161687850952, -0.04385235160589218, -0.22116363048553467, -0.12033860385417938, 0.27065804600715637, -0.24045543372631073, -0.2561953067779541, 0.42110559344291687, -0.042331647127866745, 0.1714920699596405, 0.05238986015319824, 0.11093495786190033, 0.18949195742607117, 0.03387010842561722, 0.10257694870233536, 0.4582018554210663, 0.09870254993438721, -0.037963010370731354, -0.014460332691669464, -0.04379016160964966, 0.2266712188720703, -0.10649381577968597, 0.09612232446670532, 0.07951771467924118, 0.14259858429431915, 0.059499938040971756, 0.06780353933572769, -0.24589967727661133, -0.004204816650599241, -0.20414045453071594, -0.19180971384048462, 0.4829308092594147, 0.022206265479326248, -0.12176968902349472, -0.33838528394699097, 0.12034028768539429},
	{-0.15795299410820007, -0.11501732468605042, 0.11041971296072006, 0.14823153614997864, -0.2009485960006714, -0.09956339746713638, 0.03795912489295006, 0.24271631240844727, 0.21717120707035065, -0.2059202641248703, 0.07959172129631042, 0.2316141277551651, -0.03099297173321247, -0.07018129527568817, 0.13985386490821838, -0.21494579315185547, 0.11561174690723419, 0.09519375115633011, 0.038028646260499954, 0.3093690872192383, -0.3165394961833954, 0.07596243917942047, 0.1978001743555069, 0.1577776074409485, 0.012096232734620571, 0.16648907959461212, 0.0046696849167346954, 0.1620442420244217, 0.009216424077749252, -0.12541908025741577, -0.18905429542064667, 0.35583338141441345, -0.18165357410907745, -0.05846339464187622, -0.12555669248104095, 0.1097564697265625, 0.11963647603988647, -0.1275070160627365, -0.023202717304229736, -0.08878418803215027, -0.010914054699242115, 0.3586083948612213, 0.10045450925827026, -0.01346151065081358, -0.009650111198425293, -0.18200035393238068, 0.18638812005519867, 0.10335031896829605, -0.07683899253606796, 0.2808084785938263, -0.08252502232789993, -0.19293615221977234, -0.15732800960540771, 0.177499458193779, 0.004947612062096596, 0.059740204364061356, 0.08335896581411362, 0.29148998856544495, 0.1930975317955017, -0.2845461070537567, -0.24766504764556885, 0.0626489520072937, -0.28270456194877625, 0.15425841510295868},
	{-0.07669459283351898, -0.3189670145511627, 0.27295851707458496, -0.14761410653591156, 0.17778906226158142, -0.24403022229671478, 0.005826557986438274, -0.11316405236721039, 0.2218308001756668, -0.004677715245634317, 0.1921495646238327, 0.30162757635116577, -0.1972697377204895, -0.018711596727371216, -0.09849552065134048, -0.1386789083480835, -0.09152132272720337, 0.1410638689994812, -0.013262337073683739, 0.12013349682092667, -0.09089001268148422, -0.2468450665473938, 0.08927161991596222, 0.09296426922082901, 0.17004095017910004, 0.011721551418304443, -0.29868707060813904, -0.05902327969670296, 0.25558018684387207, -0.18323664367198944, -0.024486636742949486, -0.2750018239021301, 0.2111978828907013, -0.25345098972320557, -0.2609112858772278, 0.563830554485321, 0.21658243238925934, -0.18612749874591827, 0.19674038887023926, -0.029886318370699883, -0.1488942950963974, 0.10909345746040344, -0.1879807412624359, 0.01660158671438694, 0.2385650873184204, 0.1473327875137329, 0.1083638146519661, -0.18370863795280457, 0.18941694498062134, -0.19994260370731354, -0.3807407021522522, 0.16699472069740295, -0.037229783833026886, 0.32818493247032166, 0.24734923243522644, 0.005087040830403566, 0.1619063913822174, 0.15698666870594025, -0.2157050371170044, 0.22072970867156982, -0.023458436131477356, -0.21783137321472168, -0.13521814346313477, -0.17111095786094666},
	{0.1167529821395874, -0.3023121654987335, 0.1546812206506729, -0.010705478489398956, -0.2644065320491791, 0.1326093226671219, 0.1672014743089676, 0.24028410017490387, 0.011540242470800877, 0.04114549979567528, 0.03928297758102417, 0.24988293647766113, -0.09673698246479034, 0.17042367160320282, -0.01224371138960123, -0.2792935073375702, 0.20031802356243134, 0.06935252249240875, -0.03906334191560745, -0.18194574117660522, 0.08461672067642212, -0.24752572178840637, -0.08384888619184494, -0.21560294926166534, 0.18571248650550842, 0.18819372355937958, -0.03441556170582771, -0.16538426280021667, -0.16061362624168396, -0.01861940138041973, -0.2809971272945404, -0.31278425455093384, 0.040394481271505356, -0.2202366143465042, -0.04655173420906067, 0.19562511146068573, 0.24556264281272888, 0.3262214958667755, -0.1494898796081543, 0.275094598531723, 0.24935732781887054, 0.2827572226524353, 0.22584626078605652, 0.1478332132101059, 0.16761261224746704, -0.1598808914422989, 0.11920060217380524, -0.13210883736610413, 0.1762986183166504, -0.12706258893013, -0.17004729807376862, 0.021188940852880478, -0.03748306632041931, -0.03108496591448784, 0.004981806501746178, 0.16824010014533997, 0.013443203642964363, -0.12760306894779205, 0.09120172262191772, -0.05600721761584282, 0.08445259183645248, 0.23702186346054077, 0.028723057359457016, 0.023753447458148003},
	{-0.3233223855495453, -0.13026635348796844, 0.05238652601838112, -0.180754154920578, -0.020956693217158318, 0.23424597084522247, 0.03544297441840172, -0.11181090027093887, 0.08409103751182556, -0.13106577098369598, 0.05184686928987503, 0.11437287926673889, 0.22113174200057983, 0.5180970430374146, -0.12503758072853088, -0.31564417481422424, 0.2507944405078888, 0.044835589826107025, -0.297309935092926, 0.07143038511276245, 0.2938770353794098, 0.005801070481538773, 0.16185089945793152, 0.23133841156959534, -0.04131266847252846, 0.019200442358851433, -0.09833033382892609, -0.08314348012208939, 0.19011197984218597, 0.1611519455909729, -0.19680246710777283, 0.1081022098660469, 0.01818643882870674, 0.20837238430976868, 0.143973708152771, 0.2164170742034912, 0.10497094690799713, -0.09979262948036194, 0.14490938186645508, -0.08232047408819199, 0.4793291985988617, 0.40791502594947815, 0.18366310000419617, 0.025954866781830788, 0.08746546506881714, -0.1273805946111679, -0.19206877052783966, -0.2047692835330963, 0.3060140907764435, -0.22823786735534668, 0.018167568370699883, -0.08197905868291855, -0.1394914835691452, -0.0019499165937304497, 0.04455140605568886, 0.10359806567430496, -0.22787554562091827, -0.07627283781766891, -0.24701422452926636, -0.16913624107837677, 0.13058361411094666, 0.1647123545408249, -0.05911003798246384, -0.27912449836730957},
	{-0.15892378985881805, -0.11201868206262589, 0.04937853291630745, 0.14607366919517517, -0.16231085360050201, 0.028477810323238373, 0.04381650686264038, 0.026383180171251297, -0.1527380794286728, 0.0017409971915185452, -0.20771268010139465, -0.09059637039899826, 0.06193630024790764, -0.26727294921875, 0.03456253558397293, -0.0011391669977456331, 0.07354703545570374, -0.10375530272722244, -0.34639686346054077, -0.18909700214862823, 0.15371209383010864, -0.08112867921590805, -0.05318059027194977, 0.1472061574459076, -0.09327036887407303, 0.051323052495718, -0.06606592237949371, -0.22658878564834595, 0.1908898800611496, 0.2803994119167328, -0.10757580399513245, 0.12142368406057358, -0.25039103627204895, -0.1199561282992363, -0.06552577018737793, -0.3893061876296997, 0.1786240190267563, 0.08190473914146423, -0.08028846979141235, 0.27627840638160706, -0.2941349148750305, -0.027879411354660988, -0.03718923032283783, 0.018051955848932266, -0.07828253507614136, 0.026286432519555092, 0.0781397596001625, -0.08114764094352722, 0.15842728316783905, -0.2083137184381485, 0.20331594347953796, 0.2019757330417633, 0.1782430112361908, -0.1377042680978775, 0.15093505382537842, 0.0327652283012867, 0.23909927904605865, -0.16343942284584045, 0.1004263162612915, -0.14526182413101196, 0.22684958577156067, -0.09608353674411774, -0.02698754519224167, 0.15220214426517487},
	{-0.45644158124923706, 0.20766206085681915, -0.031645260751247406, 0.059057705104351044, -0.23081830143928528, 0.002490977058187127, -0.19053244590759277, 0.05384605750441551, 0.05587345361709595, -0.08389387279748917, 0.28146734833717346, -0.2656395435333252, -0.18199379742145538, 0.26865914463996887, 0.34513500332832336, -0.31050363183021545, 0.3856948912143707, 0.00357057829387486, -0.43281090259552, 0.2614244222640991, -0.0584154836833477, -0.05786589905619621, 0.22111044824123383, -0.14132997393608093, 0.030797025188803673, -0.02572043426334858, 0.013682111166417599, -0.26395002007484436, 0.2020787000656128, 0.2103717029094696, 0.24757789075374603, -0.01814051903784275, 0.014645451679825783, 0.018428226932883263, 0.09307428449392319, -0.24366742372512817, -0.20785453915596008, -0.3568681478500366, -0.036564528942108154, -0.23403878509998322, 0.09334492683410645, 0.47135546803474426, -0.017780225723981857, 0.15546400845050812, -0.14258313179016113, -0.16834712028503418, -0.10579214245080948, 0.06599859893321991, 0.24880649149417877, -0.029316440224647522, 0.02204219065606594, 0.18868309259414673, -0.570176899433136, 0.036085907369852066, 0.14375492930412292, 0.19062192738056183, -0.2029135823249817, -0.08845803141593933, 0.11860829591751099, -0.013821082189679146, -0.2692664861679077, -0.19234280288219452, 0.24854329228401184, -0.18524913489818573},
	{0.3938286602497101, 0.07638910412788391, 0.1185213178396225, 0.2846270203590393, -0.11218658089637756, -0.14559119939804077, 0.20648936927318573, 0.18184271454811096, -0.246582493185997, 0.09168706089258194, 0.1139095202088356, 0.05859967693686485, -0.07298469543457031, 0.4394475817680359, -0.03556438907980919, 0.010670332238078117, -0.2098453789949417, 0.12224025279283524, 0.1355879157781601, 0.12596659362316132, 0.2753766179084778, 0.3102802336215973, -0.021726254373788834, 0.12612104415893555, 0.1480998694896698, -0.23738837242126465, 0.23860658705234528, -0.1768340766429901, 0.18970447778701782, -0.19600749015808105, -0.04081500694155693, 0.1661207675933838, -0.09026476740837097, -0.10142924636602402, -0.025753304362297058, -0.008767380379140377, 0.09749944508075714, 0.04654974862933159, -0.21038806438446045, 0.03012138418853283, -0.3475414514541626, 0.28994670510292053, 0.24892538785934448, 0.3620840907096863, -0.17344564199447632, -0.42711618542671204, -0.009110997430980206, 0.15834857523441315, 0.1263258159160614, -0.20483838021755219, 0.24986204504966736, -0.24978260695934296, 0.04567001387476921, -0.052506450563669205, -0.12813042104244232, -0.040802136063575745, 0.13920506834983826, -0.2291981726884842, 0.005844235420227051, -0.02168760448694229, 0.047756947576999664, -0.0023321695625782013, 0.07950552552938461, -0.24674752354621887},
	{0.09195446968078613, -0.13514935970306396, -0.1159101128578186, 0.04913383722305298, 0.17548704147338867, -0.09816187620162964, 0.03630244731903076, 0.07693934440612793, -0.17373788356781006, -0.06291449069976807, 0.029935836791992188, 0.03551977872848511, -0.07458603382110596, 0.1708923578262329, 0.09729349613189697, -0.06647777557373047, 0.09662860631942749, -0.2253463864326477, -0.21210837364196777, 0.2051977515220642, 0.18140190839767456, -0.012965142726898193, -0.15419530868530273, 0.09157365560531616, 0.09071528911590576, -0.1447659730911255, -0.21289300918579102, -0.022084534168243408, -0.1432167887687683, -0.21696728467941284, -0.06460016965866089, -0.04480069875717163, -0.0618131160736084, 0.10628396272659302, -0.19676971435546875, -0.23281115293502808, 0.2259138822555542, -0.01507502794265747, 0.16575127840042114, -0.24075037240982056, 0.028437316417694092, 0.06305605173110962, 0.027186870574951172, -0.22729676961898804, 0.13157767057418823, 0.09660911560058594, -0.00577235221862793, 0.06761407852172852, -0.222278892993927, 0.12322771549224854, 0.20908111333847046, -0.09718579053878784, 0.03523808717727661, 0.01490849256515503, -0.00690990686416626, -0.08280491828918457, -0.24213480949401855, -0.19097596406936646, -0.17155951261520386, -0.17999446392059326, 0.0831834077835083, 0.06605035066604614, -0.08329492807388306, -0.029045462608337402},
	{0.05855917930603027, 0.0479656457901001, -0.21187809109687805, 0.0022046705707907677, 0.050742387771606445, -0.08886782824993134, 0.013757459819316864, 0.07762959599494934, 0.029361099004745483, -0.20667743682861328, -0.25462016463279724, 0.06345093250274658, 0.14435912668704987, 0.13109630346298218, -0.13479243218898773, 0.08811947703361511, 0.04140044376254082, 0.03298713639378548, 0.17447781562805176, -0.24609294533729553, 0.18438023328781128, 0.11346584558486938, 0.09022002667188644, 0.23940539360046387, -0.12306556105613708, -0.2607966661453247, 0.1926436424255371, -0.039325084537267685, 0.18327739834785461, 0.1340845674276352, -0.13674597442150116, 0.0823790431022644, -0.08627040684223175, -0.16041164100170135, -0.00019140863150823861, 0.056099534034729004, -0.21117164194583893, 0.12615905702114105, 0.08335155248641968, 0.011865788139402866, 0.03273838758468628, -0.07401078939437866, 0.1768312007188797, -0.07894078642129898, -0.14495545625686646, 0.0840148776769638, 0.1348007172346115, -0.20730721950531006, 0.0018660102505236864, -0.21666593849658966, 0.02172786369919777, 0.13759581744670868, -0.11814748495817184, 0.04194927215576172, -0.244101420044899, 0.17164097726345062, 0.15519767999649048, -0.2542548179626465, -0.1192973256111145, -0.2501782178878784, -0.18382108211517334, 0.22443853318691254, 0.15271835029125214, -0.23017925024032593},
	{0.2311352789402008, -0.0893758237361908, -0.045686524361371994, 0.20347221195697784, -0.073698990046978, 0.2050769031047821, 0.026950158178806305, -0.022052962332963943, -0.28914883732795715, -0.1596616804599762, 0.17571651935577393, -0.08563599735498428, 0.12109026312828064, -0.24871647357940674, -0.20891380310058594, -0.22806398570537567, 0.15244856476783752, -0.03145098686218262, 0.36584776639938354, -0.2498106211423874, -0.30831030011177063, 0.22572308778762817, 0.061723724007606506, 0.1183539405465126, -0.11701969057321548, -0.15899206697940826, 0.335901141166687, -0.04228506237268448, 0.12378578633069992, -0.01470883283764124, -0.21056148409843445, -0.2504560351371765, 0.051752299070358276, -0.20084653794765472, -0.11168564856052399, -0.24818219244480133, -0.22943207621574402, -0.06783182919025421, 0.1325896978378296, -0.1631300151348114, 0.24299633502960205, -0.27901941537857056, 0.22076621651649475, 0.2736857533454895, -0.13889694213867188, -0.06802012771368027, -0.3388596773147583, -0.2230919450521469, -0.20784591138362885, 0.015399875119328499, 0.15345366299152374, 0.09920063614845276, -0.2931496500968933, -0.060110777616500854, 0.0812244564294815, 0.20799599587917328, -0.03318539634346962, -0.015606255270540714, 0.01937645673751831, 0.12155881524085999, 0.025945892557501793, 0.08423875272274017, 0.07151056826114655, -0.04053403064608574},
};
const float bias_l2[] =
	{0.023915866389870644, -0.004798840265721083, 0.020954040810465813, -0.0010740718571469188, 0.04358283430337906, 0.004922276362776756, 0.053863029927015305, -0.02790229395031929, 0.06770703196525574, -0.013977579772472382, 0.04165838286280632, 0.04239834100008011, -0.010729817673563957, -0.010598593391478062, 0.005163596943020821, -0.010425623506307602, -0.014310038648545742, 0.04418466240167618, -0.0532975047826767, -0.02851024456322193, -0.0042619346641004086, 0.06837043166160583, 0.004596378654241562, 0.044417575001716614, 0.048386942595243454, 0.018867986276745796, 0.008450780063867569, 0.010097061283886433, -0.012644223868846893, 0.0, -0.012474599294364452, -0.04555584117770195};

const std::vector<std::vector<float>> weights_l3{
	{0.3538514971733093, 0.17215800285339355, -0.3619028329849243, -0.1324721872806549, 0.23614716529846191, -0.12755489349365234, -0.06653416156768799, -0.08514145016670227, -0.1508682668209076, 0.11244761943817139, -0.20496658980846405, 0.13758240640163422, -0.11995913833379745, -0.03203410655260086, 0.1066841259598732, 0.2759103775024414, 0.01222175732254982, -0.1151999831199646, 0.4989309012889862, 0.31922340393066406, 0.13413454592227936, 0.13338062167167664, 0.009527488611638546, 0.0073591480031609535, -0.0038314976263791323, -0.009685817174613476, 0.34392744302749634, 0.21134576201438904, 0.4049798846244812, 0.18902790546417236, 0.2722139060497284, 0.14308033883571625},
	{-0.033435970544815063, -0.21159863471984863, -0.21252915263175964, -0.2966294288635254, -0.05355045199394226, -0.13395385444164276, -0.11563795804977417, 0.024646639823913574, -0.28627586364746094, -0.17801453173160553, 0.1330043375492096, -0.02709144353866577, -0.26861879229545593, -0.0658753514289856, 0.08735844492912292, -0.05175420641899109, 0.011153161525726318, -0.27594104409217834, 0.12953037023544312, -0.12300164997577667, -0.22267593443393707, 0.17886608839035034, -0.02057957649230957, -0.19496232271194458, -0.19307446479797363, -0.27089130878448486, 0.027162015438079834, -0.28388115763664246, -0.09287552535533905, -0.09421814978122711, 0.26466819643974304, -0.1152590811252594},
	{-0.22997567057609558, 0.19747191667556763, -0.33914491534233093, 0.3278595507144928, -0.2867923378944397, 0.28791308403015137, 0.05602195858955383, 0.09042293578386307, 0.2420213222503662, 0.32536429166793823, 0.31938043236732483, 0.21310918033123016, 0.021253403276205063, 0.04217863827943802, -0.2479468435049057, 0.008310724049806595, -0.2827907204627991, 0.24912422895431519, 0.4044559895992279, -0.4817817211151123, 0.06612033396959305, 0.6301098465919495, 0.12655681371688843, -0.09964179247617722, -0.012716689147055149, -0.2775258719921112, -0.030233297497034073, -0.6059865355491638, 0.06446607410907745, -0.09000624716281891, 0.1902063488960266, -0.017057405784726143},
	{0.09192514419555664, -0.04335257411003113, -0.17899630963802338, -0.22158180177211761, -0.3058933615684509, -0.047018736600875854, -0.12362931668758392, 0.12771251797676086, -0.1652471125125885, -0.024084240198135376, 0.19011792540550232, -0.07892775535583496, -0.09636735916137695, -0.21324266493320465, 0.14680200815200806, -0.13704359531402588, -0.21244478225708008, -0.13137999176979065, -0.14724548161029816, -0.14122192561626434, 0.30304619669914246, -0.2174396812915802, -0.2709333300590515, 0.02249211072921753, 0.15286579728126526, -0.2932584881782532, -0.06245659291744232, -0.07903338968753815, 0.12185868620872498, 0.19707539677619934, -0.25730764865875244, 0.016869544982910156},
	{0.178166002035141, 0.4406588673591614, 0.2877677381038666, -0.06729236245155334, 0.24660900235176086, -0.1887422800064087, 0.26655295491218567, -0.08384466171264648, -0.2790845036506653, -0.22491446137428284, -0.18926052749156952, 0.11838304996490479, 0.10352719575166702, -0.25930607318878174, -0.2633553743362427, -0.012144381180405617, -0.06196100264787674, -0.1349584460258484, -0.07276292145252228, -0.09008679538965225, 0.013401301577687263, 0.18053483963012695, -0.13190962374210358, 0.1663409322500229, 0.219111368060112, -0.004148766864091158, -0.08509289473295212, 0.1757252961397171, 0.03148369491100311, -0.19050279259681702, 0.1580926775932312, -0.3278895914554596},
	{0.2291889488697052, -0.22242674231529236, -0.2754572629928589, -0.1802210807800293, 0.1517590433359146, 0.009319454431533813, -0.13719463348388672, -0.06104954332113266, 0.2356870472431183, 0.2509496212005615, -0.11600594222545624, 0.07671216130256653, 0.29411861300468445, -0.13480041921138763, 0.23166397213935852, -0.22546061873435974, 0.132447749376297, 0.0722605437040329, -0.22517548501491547, -0.24789059162139893, 0.2770998179912567, -0.06003051623702049, 0.15787099301815033, -0.25717461109161377, -0.2581591010093689, -0.06949140131473541, -0.22267509996891022, -0.09011012315750122, -0.25059062242507935, -0.28083381056785583, 0.16435745358467102, 0.2794128954410553},
	{-0.25303152203559875, 0.1555149257183075, 0.02302905172109604, -0.2846233546733856, -0.3009510338306427, 0.027456074953079224, -0.2612922489643097, 0.09186199307441711, -0.019538283348083496, -0.02053678035736084, 0.06198084354400635, 0.015562430955469608, -0.27845895290374756, -0.1356535106897354, -0.23344606161117554, 0.2724984586238861, -0.014390140771865845, -0.21944467723369598, 0.18445396423339844, -0.13165469467639923, 0.025909334421157837, 0.1283428966999054, -0.1789155751466751, 0.041535817086696625, -0.20038333535194397, -0.09660544991493225, -0.1882908046245575, 0.26904019713401794, 0.020254939794540405, -0.23653317987918854, -0.09799438714981079, -0.22884038090705872},
	{-0.21689699590206146, 0.04818294942378998, -0.2898421585559845, 0.2956430912017822, -0.06788630038499832, 0.01615954376757145, -0.02350289560854435, -0.024672014638781548, -0.04411017894744873, 0.03705151006579399, 0.26998963952064514, -0.2528802156448364, -0.19029082357883453, -0.1958497166633606, 0.052992790937423706, 0.24274447560310364, 0.06809192895889282, -0.2568753659725189, 0.1076960414648056, 0.051341474056243896, -0.10350839793682098, 0.15350383520126343, 0.11114755272865295, -0.29418104887008667, 0.22375398874282837, 0.13100053369998932, -0.2657780349254608, -0.06152454763650894, -0.11120720952749252, 0.09763172268867493, 0.16830413043498993, -0.09309613704681396},
	{-0.3513692021369934, 0.22325073182582855, 0.5303203463554382, -0.23232011497020721, 0.0382995642721653, 0.28992754220962524, -0.056936994194984436, 0.22103551030158997, -0.2055327147245407, 0.13929349184036255, 0.23674222826957703, 0.3361891806125641, -0.17907755076885223, 0.17852771282196045, -0.1278773844242096, -0.2850314974784851, 0.3236810564994812, 0.29938045144081116, -0.5104207396507263, -0.4522881805896759, -0.0757712796330452, -0.1443619728088379, -0.13924191892147064, 0.0591423362493515, 0.26783129572868347, 0.2922492027282715, -0.09088017791509628, -0.10351449251174927, -0.5092698335647583, 0.1746319830417633, -0.2960084080696106, -0.19562122225761414},
	{0.4046671390533447, 0.2920529246330261, -0.020710736513137817, -0.1778256893157959, -0.13260628283023834, -0.03025578148663044, -0.13729867339134216, -0.26630163192749023, 0.17358465492725372, -0.17216388881206512, -0.24880170822143555, -0.23891505599021912, -0.15676647424697876, 0.22671452164649963, -0.007958639413118362, 0.2547132074832916, 0.12574999034404755, 0.00786683615297079, 0.11221946775913239, -0.20074765384197235, -0.0738687515258789, 0.2066286951303482, -0.2663395404815674, 0.2756522595882416, 0.25394508242607117, -0.1977710872888565, -0.1307942420244217, 0.0706179216504097, 0.06491796672344208, 0.21688207983970642, 0.30146023631095886, 0.1227727085351944},
	{-0.19062796235084534, -0.3779039978981018, 0.11862365901470184, -0.2741720676422119, -0.2268669605255127, 0.20335757732391357, 0.26558342576026917, 0.05377267673611641, 0.23727089166641235, 0.1905348151922226, -0.03850635886192322, -0.09107334911823273, 0.18037985265254974, -0.12617510557174683, 0.08157991617918015, -0.009868737310171127, 0.24736055731773376, 0.2949509024620056, 0.07916582375764847, -0.21914125978946686, -0.09363528341054916, 0.07511576265096664, 0.013173284940421581, 0.15481862425804138, 0.24633730947971344, -0.13176140189170837, 0.14071223139762878, -0.17257161438465118, 0.33766812086105347, 0.050146669149398804, -0.2634637951850891, 0.08751462399959564},
	{-0.19519370794296265, -0.14653821289539337, 0.3154395520687103, -0.38854002952575684, 0.3736582100391388, 0.1078723594546318, 0.40981581807136536, -0.0332939550280571, -0.17655491828918457, -0.1049637421965599, 0.2724822163581848, -0.1658545285463333, -0.07852484285831451, -0.2622338831424713, -0.002935183234512806, -0.014621471986174583, 0.08233668655157089, 0.09706126153469086, -0.40497902035713196, -0.4842238426208496, 0.13968294858932495, 0.3318238854408264, -0.009968864731490612, 0.3063400685787201, 0.19115659594535828, -0.254827618598938, 0.04067007079720497, -0.14309465885162354, -0.2794235348701477, -0.17917385697364807, -0.05200198292732239, -0.3364822268486023},
	{-0.2002672702074051, 0.2664971649646759, -0.057675644755363464, -0.1625852733850479, 0.27918824553489685, 0.08489760756492615, 0.16663779318332672, 0.16204151511192322, -0.14662840962409973, -0.28780728578567505, 0.18859811127185822, 0.23785042762756348, 0.11122193932533264, -0.0429442822933197, 0.165883868932724, -0.2739601731300354, 0.0625402107834816, 0.09000137448310852, -0.051348138600587845, 0.009710973128676414, 0.03630569577217102, -0.1362708956003189, -0.3029414713382721, -0.12546393275260925, -0.29975587129592896, 0.166010782122612, -0.3099348247051239, -0.11377144604921341, -0.05501678213477135, -0.09000886976718903, 0.12098881602287292, -0.28357836604118347},
	{0.06421199440956116, 0.012595153413712978, 0.15933701395988464, -0.014271678403019905, 0.1254836618900299, 0.02635977976024151, 0.5012731552124023, -0.1544162631034851, -0.0490361787378788, -0.13399256765842438, -0.16639094054698944, 0.33012184500694275, 0.0547136515378952, -0.19984731078147888, 0.005337351001799107, -0.03104455955326557, -0.18365658819675446, 0.17741143703460693, -0.33716881275177, -0.471464067697525, -0.23905910551548004, 0.39442238211631775, 0.2008734494447708, 0.28001585602760315, 0.13744620978832245, -0.006781996693462133, 0.25064748525619507, -0.08661250025033951, 0.01980779878795147, 0.1527329981327057, 0.2741754949092865, -0.28946349024772644},
	{-0.17829523980617523, 0.22931678593158722, 0.1622730791568756, -0.5301616191864014, 0.18991240859031677, -0.3611551523208618, 0.41832268238067627, 0.06440602242946625, -0.028481919318437576, 0.08815429359674454, 0.29645082354545593, 0.07079637795686722, -0.2149716019630432, -0.23833997547626495, 0.23657546937465668, -0.12489847838878632, -0.1608205884695053, -0.012863222509622574, 0.2594771385192871, -0.24824771285057068, 0.019897347316145897, 0.3356074094772339, 0.16459320485591888, -0.014824146404862404, 0.13638806343078613, 0.27348417043685913, -0.2080664485692978, 0.26997116208076477, -0.42130613327026367, -0.13741078972816467, -0.13387827575206757, -0.05947961285710335},
	{-0.1230485811829567, -0.4091641902923584, -0.062350302934646606, 0.2640557587146759, 0.0290584247559309, -0.23781177401542664, 0.3870018422603607, -0.04111724719405174, 0.02806195616722107, -0.21100002527236938, 0.15860280394554138, -0.06363940238952637, 0.06167539954185486, -0.15651625394821167, -0.033495187759399414, -0.21510404348373413, -0.39055389165878296, 0.08427847176790237, 0.042224105447530746, -0.28406426310539246, -0.07890792191028595, 0.12232550978660583, -0.37815698981285095, -0.17334678769111633, 0.18823203444480896, -0.5685099959373474, 0.0701470747590065, -0.39643266797065735, 0.027167711406946182, -0.1476975828409195, -0.1912539005279541, 0.27737051248550415},
	{-0.3790769577026367, 0.19164277613162994, 0.07804124057292938, -0.06352677941322327, 0.15755894780158997, -0.13674956560134888, -0.15510928630828857, 0.21878285706043243, -0.33674222230911255, -0.20531851053237915, -0.08016534894704819, 0.1253472864627838, -0.10829631984233856, -0.10975170880556107, -0.0692823976278305, 0.2663984000682831, 0.20657099783420563, 0.29440024495124817, 0.0059614828787744045, -0.19438645243644714, 0.12310147285461426, 0.030572621151804924, -0.04212155565619469, 0.05244595184922218, 0.09327692538499832, 0.05476992949843407, 0.2019505649805069, 0.1861383020877838, -0.27381810545921326, -0.26888173818588257, 0.2212802916765213, -0.2800518572330475},
	{0.10199834406375885, -0.04630747437477112, -0.5755900144577026, 0.17699579894542694, -0.22536775469779968, 0.1605740189552307, 0.0883101373910904, 0.2442859411239624, 0.220645472407341, 0.10614675283432007, 0.22115427255630493, -0.30849283933639526, 0.2280074656009674, 0.25627487897872925, -0.022864149883389473, -0.024548787623643875, -0.36111947894096375, 0.11069118231534958, -0.05777597054839134, 0.14773023128509521, 0.1554671972990036, -0.559162974357605, 0.18082211911678314, 0.039911314845085144, 0.17386861145496368, -0.250041663646698, -0.09976963698863983, 0.30318981409072876, 0.04792310670018196, -0.2662302255630493, -0.18261459469795227, 0.28616318106651306},
	{-0.376691609621048, 0.16489341855049133, 0.17392145097255707, -0.2649731934070587, -0.03137386962771416, -0.259786993265152, 0.3477254807949066, 0.25990915298461914, -0.2959218919277191, -0.2115282118320465, 0.03268857300281525, 0.3514997661113739, -0.20457440614700317, -0.11621689051389694, -0.16489890217781067, -0.06611359119415283, 0.07841484248638153, -0.12367000430822372, -0.4505603313446045, -0.17508819699287415, 0.18973293900489807, -0.0527169294655323, -0.01713619753718376, 0.17120270431041718, 0.038199666887521744, -0.04424267262220383, 0.17426320910453796, -0.06148052588105202, -0.1891585737466812, -0.12672270834445953, -0.13306653499603271, 0.09677451848983765},
	{-0.23069500923156738, -0.20913955569267273, -0.25030961632728577, -0.021787531673908234, 0.056777384132146835, 0.09192227572202682, 0.1906287670135498, 0.26139241456985474, -0.29459089040756226, 0.10046488046646118, -0.20076875388622284, -0.14802005887031555, -0.07760722190141678, 0.16862887144088745, -0.011952221393585205, 0.20217052102088928, -0.07718509435653687, 0.10380421578884125, 0.12386634200811386, -0.23887425661087036, 0.29060178995132446, 0.0242066141217947, 0.2225060909986496, -0.2168695032596588, 0.018798377364873886, 0.036930304020643234, 0.03546743094921112, -0.17060765624046326, -0.18138697743415833, -0.30448830127716064, 0.04119526594877243, -0.05911710113286972},
	{-0.2016669511795044, -0.236898735165596, 0.3712129294872284, 0.11699455231428146, 0.079058937728405, -0.18851238489151, 0.2665388882160187, -0.27355051040649414, 0.11108572781085968, 0.09168935567140579, 0.3383369743824005, 0.33319494128227234, 0.022957276552915573, 0.13285478949546814, -0.01179090142250061, 0.25436070561408997, 0.44698360562324524, -0.2177688479423523, -0.25916874408721924, -0.0169384703040123, 0.07341065257787704, -0.022837579250335693, 0.06835675239562988, 0.19795559346675873, -0.047012511640787125, -0.10472366213798523, -0.15695688128471375, -0.06147916615009308, 0.004653126001358032, -0.2802829444408417, -0.15617772936820984, -0.22201882302761078},
	{0.27289217710494995, -0.09453647583723068, 0.034277696162462234, 0.187104269862175, -0.6312389373779297, -0.19204595685005188, -0.19592833518981934, -0.26266446709632874, 0.07978535443544388, -0.04012935981154442, 0.19793058931827545, 0.2829032838344574, 0.1959105283021927, -0.001181070227175951, 0.22024962306022644, -0.29926297068595886, -0.07446655631065369, 0.10758968442678452, 0.2683250308036804, 0.3559669256210327, -0.23828019201755524, 0.22428937256336212, -0.2368721067905426, 0.1542363166809082, 0.06661117076873779, -0.34340131282806396, -0.249738872051239, -0.23894363641738892, 0.4093146324157715, -0.27526211738586426, 0.027653085067868233, 0.27777889370918274},
	{0.25073540210723877, -0.10583566129207611, 0.09199675917625427, -0.05741821601986885, 0.04832988604903221, 0.1709733009338379, 0.11882008612155914, 0.19052404165267944, -0.05786879360675812, -0.2489575743675232, -0.17376720905303955, 0.16651608049869537, -0.004260450601577759, -0.08291372656822205, -0.022532403469085693, -0.11315242946147919, -0.16297957301139832, -0.24453139305114746, 0.26627233624458313, -0.17083245515823364, -0.029498398303985596, -0.0016107881674543023, -0.3058779835700989, -0.1914692223072052, -0.26118096709251404, 0.28236398100852966, -0.0514015331864357, -0.21905037760734558, -0.021648617461323738, -0.04025465250015259, 0.04597058892250061, 0.18789349496364594},
	{-0.22413229942321777, -0.1920958161354065, 0.050892800092697144, 0.11296409368515015, 0.21897760033607483, 0.2924228012561798, -0.019569754600524902, 0.26657959818840027, 0.301875501871109, 0.04098370671272278, 0.017085164785385132, -0.08740822970867157, -0.20324555039405823, 0.2659258544445038, -0.13342197239398956, 0.25937268137931824, -0.12600336968898773, 0.01717868447303772, -0.2313326895236969, -0.17745892703533173, 0.30237552523612976, -0.17190015316009521, -0.28786084055900574, -0.04994511604309082, 0.13981616497039795, -0.031028926372528076, -0.07713465392589569, -0.07635858654975891, 0.27790483832359314, -0.16435468196868896, -0.21083949506282806, -0.3012867867946625},
	{0.26360276341438293, 0.2810876965522766, 0.0535147599875927, -0.24080400168895721, -0.04464840143918991, 0.40507885813713074, 0.39664697647094727, -0.23092183470726013, 0.03390990570187569, 0.012858071364462376, -0.15925495326519012, -0.26610875129699707, 0.25453904271125793, 0.09081758558750153, -0.18935953080654144, -0.014716921374201775, 0.3633347749710083, -0.3164334297180176, 0.06924395263195038, 0.23344652354717255, -0.285153329372406, 0.16174742579460144, 0.06773389875888824, 0.24424242973327637, -0.023201584815979004, -0.059808194637298584, -0.5626910328865051, 0.23177672922611237, -0.06929188966751099, 0.16433855891227722, -0.07146681845188141, -0.1388670653104782},
	{-0.27004706859588623, -0.2746513783931732, 0.02008245326578617, 0.0542411133646965, -0.07222101837396622, 0.26053479313850403, 0.14559784531593323, -0.09668559581041336, 0.14122748374938965, -0.27724796533584595, -0.03662979602813721, -0.12713488936424255, 0.20271946489810944, 0.06531445682048798, -0.20866593718528748, 0.24050405621528625, 0.2102886289358139, -0.0874650627374649, 0.272891104221344, 0.12334507703781128, -0.17121674120426178, -0.056781668215990067, -0.310183584690094, 0.18409095704555511, -0.03068440407514572, 0.17974527180194855, -0.1324569284915924, 0.1050996482372284, -0.1274009793996811, 0.15494543313980103, 0.233255997300148, 0.17613275349140167},
	{0.1502489298582077, -0.03901534155011177, 0.2563244104385376, -0.385002076625824, 0.40729179978370667, -0.4959278106689453, -0.02739822492003441, -0.055015671998262405, -0.22228527069091797, -0.30096328258514404, 0.1488293558359146, -0.0768912136554718, 0.28691962361335754, 0.20041999220848083, 0.13999561965465546, 0.20390592515468597, -0.24608197808265686, 0.05030249431729317, -0.5026348829269409, 0.39135128259658813, 0.017625583335757256, -0.303171843290329, 0.2068680226802826, 0.1633230447769165, 0.3121682405471802, 0.12019558250904083, -0.12977086007595062, 0.6317436695098877, 0.03436386585235596, -0.04339522123336792, 0.14516784250736237, -0.2118404060602188},
	{0.31110188364982605, 0.29413044452667236, 0.019598016515374184, -0.051913369446992874, -0.3485872447490692, -0.35495564341545105, -0.3525899648666382, 0.1854708045721054, -0.0546887181699276, 0.10732027888298035, 0.30979123711586, 0.18244045972824097, 0.08332039415836334, -0.19322803616523743, -0.15294580161571503, 0.20329685509204865, -0.29320192337036133, -0.1523590087890625, 0.23183950781822205, -0.26153242588043213, -0.03071233071386814, 0.3405185043811798, -0.31002286076545715, -0.2380993664264679, 0.2803061008453369, -0.11334382742643356, 0.11173692345619202, 0.0629783347249031, 0.39429500699043274, 0.26701804995536804, 0.25177547335624695, 0.33454015851020813},
	{0.0007109415018931031, -0.3218521475791931, -0.12314759194850922, -0.03517713025212288, 0.029412608593702316, 0.5021546483039856, -0.39558327198028564, -0.17559437453746796, -0.07526414841413498, 0.2425665557384491, 0.11247286945581436, -0.22166423499584198, -0.13904213905334473, 0.2379026561975479, -0.29330095648765564, 0.12547358870506287, 0.23672685027122498, -0.05474631488323212, 0.013868804089725018, -0.1394132673740387, -0.2747255861759186, -0.09404744952917099, -0.16447696089744568, 0.21828289330005646, 0.04092889279127121, 0.10816249996423721, -0.32993805408477783, 0.09863007813692093, -0.10702121257781982, 0.0307331383228302, -0.26842162013053894, -0.12288771569728851},
	{-0.22602307796478271, 0.18343423306941986, -0.09664855897426605, -0.06286018341779709, 0.2250695377588272, 0.23108281195163727, 0.008289933204650879, -0.1842256337404251, 0.02828732132911682, -0.07501470297574997, 0.02082260139286518, 0.24799059331417084, -0.19757084548473358, -0.29956310987472534, -0.21776708960533142, -0.1462329626083374, 0.23215621709823608, -0.25528261065483093, 0.03653688728809357, -0.20915229618549347, 0.2719241678714752, -0.12504185736179352, -0.1982150375843048, -0.14474555850028992, 0.17291656136512756, -0.10273627936840057, -0.1390630453824997, -0.2578720152378082, -0.025419069454073906, -0.023969560861587524, 0.2376037836074829, -0.27500656247138977},
	{-0.46672022342681885, -0.273127019405365, 0.08913331478834152, -0.10933704674243927, 0.10944604873657227, 0.0541379414498806, 0.3685159385204315, 0.22598840296268463, -0.09914129972457886, -0.10976794362068176, 0.2400866448879242, 0.2278592586517334, -0.14612197875976562, -0.07742980122566223, -0.1753770262002945, -0.03357135131955147, -0.2091357260942459, 0.19445280730724335, 0.05121612921357155, -0.18072421848773956, 0.0200312789529562, -0.18551726639270782, 0.020269326865673065, 0.3395671546459198, 0.1378553807735443, -0.07139009982347488, -0.06699883192777634, -0.002287063281983137, -0.46917226910591125, -0.041009485721588135, -0.2528148889541626, 0.1817629039287567},
	{0.21326300501823425, -0.01676812767982483, -0.17632938921451569, -0.19906941056251526, -0.261199027299881, 0.21895912289619446, 0.10247209668159485, 0.035070598125457764, 0.04960829019546509, 0.12444356083869934, -0.29348471760749817, -0.23133212327957153, -0.17575399577617645, 0.010964810848236084, -0.1402105689048767, 0.251816064119339, -0.23443368077278137, -0.012653112411499023, 0.015839070081710815, -0.24910758435726166, 0.07569953799247742, -0.2894829213619232, -0.18027184903621674, -0.17698171734809875, -0.2982553243637085, -0.0901370644569397, 0.2707507908344269, -0.25311174988746643, 0.20578178763389587, -0.05319604277610779, -0.11153905093669891, 0.08446717262268066},
};
const float bias_l3[] =
	{0.022282108664512634, 0.0, -0.0003140517510473728, 0.0, 0.03301554545760155, -0.008228512480854988, -0.023610932752490044, -0.0094285998493433, 0.04224415123462677, -0.013015422970056534, 0.029110262170433998, 0.04915301501750946, -0.014320389367640018, 0.03516608104109764, 0.03680998086929321, -0.02077028527855873, 0.01429039053618908, -0.015839576721191406, 0.025177214294672012, -0.02071760594844818, 0.0660426989197731, 0.03486926108598709, -0.016794588416814804, 0.0, -0.0288597010076046, -0.02392117865383625, 0.018832629546523094, -0.007121534086763859, -0.004424941260367632, -0.01597486436367035, 0.0374889001250267, 0.0};

const std::vector<std::vector<float>> weights_l4{
	{0.05073179677128792, -0.33345845341682434, 0.2577444612979889, 0.17471936345100403, 0.2374836504459381, -0.21968814730644226, 0.20730909705162048, 0.2598315179347992, 0.06390739232301712, 0.31335359811782837, -0.06503693759441376, 0.20214606821537018, -0.05546892061829567, 0.3622349798679352, 0.1387096643447876, -0.12718579173088074, 0.046844881027936935, -0.29220348596572876, -0.16818398237228394, -0.20706459879875183, 0.08398107439279556, 0.47548723220825195, 0.31335100531578064, 0.020429670810699463, 0.5201168656349182, -0.002301499480381608, 0.06561584025621414, -0.08390118181705475, -0.19978761672973633, -0.10787319391965866, -0.10146497935056686, 0.3458065688610077},
	{0.29326269030570984, 0.1510312855243683, -0.13262537121772766, 0.1629602015018463, 0.09315907955169678, 0.2302486151456833, 0.11815285682678223, 0.2976354956626892, 0.00965779647231102, -0.17088505625724792, 0.18235015869140625, 0.32296934723854065, -0.25317656993865967, -0.30947691202163696, -0.1273689866065979, 0.027134060859680176, 0.27587050199508667, -0.2854531407356262, 0.03565129265189171, -0.34392237663269043, 0.09640081226825714, -0.22881776094436646, 0.051845937967300415, 0.3360362946987152, -0.28198879957199097, 0.23811092972755432, -0.02403085120022297, -0.16457606852054596, 0.15335284173488617, 0.11055242270231247, -0.2593109905719757, -0.150713250041008},
	{-0.044500865042209625, -0.042687416076660156, 0.44493043422698975, 0.2633749544620514, -0.2430039644241333, 0.3226882815361023, 0.045573651790618896, -0.05108344182372093, -0.0925464779138565, -0.5526982545852661, -0.1450999528169632, 0.28753602504730225, 0.3546808660030365, -0.22816048562526703, 0.1750727742910385, -0.022511648014187813, -0.17911271750926971, 0.16184720396995544, -0.31904318928718567, 0.1505383402109146, 0.2670583426952362, -0.024801773950457573, -0.1583416610956192, 0.2590397298336029, -0.49670547246932983, 0.2533280849456787, 0.20649391412734985, -0.19789299368858337, 0.25284263491630554, 0.1170680820941925, 0.20519225299358368, -0.10116633772850037},
	{-0.1463356465101242, -0.30153700709342957, 0.3751068413257599, -0.08454540371894836, 0.2992890775203705, 0.0006520706810988486, 0.10921671241521835, 0.21455813944339752, -0.07854080945253372, -0.07025030255317688, 0.2669354975223541, 0.2027270495891571, -0.3352818489074707, 0.21451576054096222, 0.20701846480369568, 0.4907654821872711, 0.17958736419677734, -0.5524158477783203, 0.12651804089546204, 0.12297888845205307, 0.04913562536239624, 0.1600625067949295, 0.2303413301706314, 0.18053224682807922, 0.29978787899017334, -0.17538484930992126, -0.1661456823348999, 0.018051225692033768, -0.2728607654571533, 0.1377725899219513, 0.1970025599002838, -0.2574416995048523},
	{0.15394657850265503, -0.2239808291196823, -0.22892972826957703, 0.01020139455795288, 0.0007722734590061009, 0.2536604404449463, 0.2396744340658188, 0.1844726800918579, 0.01634308136999607, -0.16080641746520996, -0.07967700064182281, 0.1597331315279007, -0.03025215119123459, 0.36726608872413635, 0.3521225154399872, 0.1649320423603058, -0.11032294481992722, -0.49083608388900757, -0.25586119294166565, 0.09348145872354507, -0.18706275522708893, -0.4347367584705353, 0.3503197729587555, 0.3119356334209442, -0.03657966107130051, -0.17297601699829102, 0.3351106643676758, -0.5184153914451599, -0.2284161001443863, 0.1059679463505745, 0.3941827416419983, -0.2445392906665802},
	{0.02357010543346405, 0.11869150400161743, 0.5432345867156982, -0.14018084108829498, -0.13076405227184296, -0.14784449338912964, 0.17775359749794006, 0.10580790787935257, 0.037045396864414215, -0.11000418663024902, 0.3690483868122101, 0.2568533420562744, 0.2991124987602234, 0.11486031115055084, 0.12381657212972641, -0.48196375370025635, 0.1371821016073227, 0.13519041240215302, -0.11889196187257767, -0.2766738831996918, -0.051378462463617325, 0.11050883680582047, -0.16437548398971558, 0.021681517362594604, 0.11055033653974533, 0.1461324691772461, -0.19270923733711243, -0.14401596784591675, 0.34767183661460876, -0.09930448234081268, -0.03801414370536804, 0.32263144850730896},
	{-0.18464511632919312, -0.11145338416099548, -0.055148687213659286, -0.1011698842048645, 0.10727796703577042, -0.27818334102630615, -0.3226439952850342, -0.13725164532661438, 0.2042400985956192, -0.36436927318573, -0.020792901515960693, 0.38278308510780334, -0.058949630707502365, 0.3295696973800659, 0.08142877370119095, -0.11155819147825241, 0.27297329902648926, -0.40961119532585144, 0.15686176717281342, -0.12203263491392136, 0.27456143498420715, -0.2593614459037781, -0.30758288502693176, 0.02279376983642578, 0.381050705909729, -0.2023630440235138, 0.326695054769516, -0.4147539436817169, -0.34291335940361023, -0.10883548855781555, 0.1359255313873291, -0.29176855087280273},
	{-0.5304990410804749, -0.02122095227241516, 0.22310690581798553, 0.1941176950931549, -0.07781747728586197, 0.0278566163033247, 0.33807048201560974, 0.028841208666563034, 0.15544719994068146, 0.06903903186321259, -0.10450529307126999, -0.1574406772851944, -0.2865808308124542, 0.0923367366194725, 0.08405659347772598, -0.5474181175231934, 0.18654057383537292, 0.25821229815483093, -0.32953396439552307, 0.1297595053911209, 0.12686049938201904, 0.4232637286186218, 0.3321707546710968, 0.11259371042251587, -0.13793781399726868, 0.013043750077486038, -0.18253441154956818, 0.22031442821025848, 0.3205636143684387, -0.006200375501066446, -0.015220648609101772, -0.07370361685752869},
	{-0.216804638504982, 0.29845842719078064, 0.31353646516799927, -0.20270611345767975, 0.21501418948173523, 0.28814762830734253, 0.024569178000092506, 0.31460538506507874, 0.22476862370967865, -0.33287808299064636, -0.0029803013894706964, -0.20390203595161438, 0.3168601393699646, -0.35033226013183594, -0.34652480483055115, -0.007070481777191162, 0.3152235150337219, 0.1263459473848343, 0.1557311862707138, -0.027267586439847946, -0.26490721106529236, -0.004292020574212074, 0.002635091543197632, -0.29887855052948, 0.3106817603111267, 0.34202250838279724, 0.028712240979075432, -0.11564411222934723, -0.1778631955385208, 0.2606046795845032, -0.05543554946780205, -0.25331830978393555},
	{-0.08377218246459961, -0.2951633930206299, -0.13674061000347137, 0.26949670910835266, 0.16172713041305542, 0.16990819573402405, -0.22919978201389313, 0.08976639062166214, -0.05481293424963951, -0.09284164011478424, 0.025880349799990654, 0.13708463311195374, 0.14505335688591003, -0.09909567981958389, 0.031606633216142654, 0.10693679749965668, -0.1146719753742218, -0.1282944530248642, -0.3211635649204254, 0.2833396792411804, -0.01115910243242979, 0.30370134115219116, 0.11571299284696579, -0.15151150524616241, 0.10563133656978607, -0.3176177144050598, -0.007673324551433325, 0.1380828320980072, 0.023381149396300316, 0.261886864900589, 0.2221325933933258, -0.1469900757074356},
	{-0.024723974987864494, 0.09459167718887329, -0.23932278156280518, 0.10949969291687012, 0.2926255464553833, -0.3310960829257965, -0.08960447460412979, -0.050378940999507904, -0.0036784939002245665, 0.1891186237335205, -0.5488895177841187, -0.36136695742607117, -0.2977614104747772, -0.3532983958721161, 0.38561004400253296, -0.34671902656555176, 0.02585923857986927, -0.02060931921005249, -0.2540554404258728, 0.11543649435043335, -0.6109495162963867, 0.20998024940490723, -0.2744329571723938, -0.2805652618408203, 0.05195556953549385, 0.004526190459728241, 0.32805827260017395, -0.37135618925094604, 0.10456511378288269, -0.03266626596450806, -0.22236000001430511, -0.29492416977882385},
	{-0.09819680452346802, 0.080227792263031, 0.4230714738368988, 0.23745384812355042, 0.33568769693374634, 0.35569408535957336, -0.30402424931526184, 0.1319042444229126, 0.3567906618118286, -0.028360692784190178, -0.008863751776516438, 0.39347901940345764, 0.07708979398012161, -0.08967775106430054, 0.32638946175575256, 0.3623814284801483, -0.09190265834331512, -0.3306604027748108, 0.2661410868167877, -0.06922397762537003, 0.25163111090660095, 0.256619393825531, 0.026094473898410797, -0.10657842457294464, 0.5395062565803528, -0.21691223978996277, -0.3310142457485199, -0.534378707408905, -0.12649554014205933, -0.2042325884103775, 0.1764647513628006, -0.19633299112319946},
	{-0.013362536206841469, -0.25056958198547363, 0.34697023034095764, 0.12101742625236511, 0.11645423620939255, -0.23536376655101776, 0.30258485674858093, -0.06662030518054962, -0.20989611744880676, 0.07751660794019699, 0.004674508236348629, -0.29580485820770264, -0.05794524773955345, -0.29058748483657837, 0.27043330669403076, 0.40001180768013, -0.28389737010002136, 0.3257366716861725, -0.30161258578300476, -0.03337832912802696, 0.16902625560760498, 0.2836259603500366, 0.33403480052948, -0.17163722217082977, 0.14809000492095947, 0.31630292534828186, -0.3730977773666382, -0.19631049036979675, -0.12150228023529053, -0.14771568775177002, 0.16931723058223724, 0.20306333899497986},
	{-0.20957578718662262, 0.11354613304138184, -0.2696038484573364, 0.05022841691970825, 0.01040300726890564, -0.07435742020606995, -0.07400277256965637, -0.21880030632019043, -0.025686323642730713, 0.026893973350524902, -0.03325679898262024, 0.16765686869621277, -0.24844546616077423, -0.14147743582725525, -0.2958754301071167, 0.11779606342315674, -0.21107099950313568, 0.14284610748291016, -0.31768110394477844, -0.2974874675273895, -0.031517088413238525, -0.31989288330078125, -0.1585521399974823, -0.08299657702445984, -0.11290305852890015, -0.19490329921245575, 0.2033863365650177, -0.26861080527305603, -0.21734042465686798, 0.12233483791351318, -0.07651475071907043, -0.11068680882453918},
	{-0.08879155665636063, -0.11082825064659119, -0.20980678498744965, -0.32220977544784546, 0.13293366134166718, -0.18517296016216278, 0.18258136510849, -0.22576378285884857, 0.3872585892677307, -0.27966246008872986, 0.043782614171504974, 0.38860398530960083, -0.11927460134029388, -0.010163741186261177, -0.16984404623508453, -0.23992158472537994, -0.07441483438014984, -0.5020955801010132, 0.4013453722000122, 0.061652712523937225, 0.2048385590314865, -0.2932918965816498, -0.14000971615314484, -0.14362448453903198, 0.4243175685405731, 0.09169825166463852, -0.13196510076522827, -0.28802868723869324, -0.002459360519424081, -0.06359889358282089, 0.37175652384757996, 0.32951006293296814},
	{0.1508645862340927, 0.08954334259033203, -0.2995932400226593, -0.2710946798324585, 0.27694085240364075, 0.3469489514827728, -0.3207554221153259, -0.2614031732082367, -0.12246820330619812, 0.2868719696998596, 0.07956266403198242, -0.2713947594165802, -0.032517869025468826, -0.17627328634262085, 0.10840795934200287, -0.033099763095378876, 0.5257896184921265, 0.3961363434791565, -0.10062526166439056, -0.06030220165848732, -0.14832286536693573, -0.20163746178150177, 0.18694360554218292, -0.09604904055595398, -0.11027027666568756, -0.13384181261062622, 0.5868476033210754, 0.20300136506557465, -0.4972895085811615, -0.2304188311100006, -0.15668651461601257, -0.2887703776359558},
};
const float bias_l4[] =
	{0.045117806643247604, -0.00407334603369236, 0.024235432967543602, 0.03998367115855217, 0.04477805271744728, -0.009482349269092083, 0.029598305001854897, 0.016513172537088394, -0.01782039925456047, -0.00860725436359644, -0.02626483328640461, 0.04404810816049576, -0.06476995348930359, 0.0, 0.04521802440285683, 0.1996326595544815};

const std::vector<std::vector<float>> weights_l5{
	{0.43931493163108826, 0.08779364079236984, -0.38007986545562744, -0.28122764825820923, -0.1843121349811554, 0.09987542033195496, -0.1356109380722046, -0.1422993242740631, 0.4212963879108429, -0.3739643096923828, 0.3080008029937744, 0.3620845079421997, 0.016063768416643143, 0.13686156272888184, 0.10219783335924149, -0.2382923811674118},
	{0.3758911192417145, 0.07600951194763184, -0.11270733177661896, 0.36492112278938293, -0.0529874823987484, -0.14761027693748474, -0.35118505358695984, -0.3996422290802002, -0.1283864676952362, 0.20383146405220032, 0.5540057420730591, -0.09558290988206863, 0.48961004614830017, 0.2840050458908081, -0.5439903140068054, 0.1894175112247467},
	{-0.1765468865633011, -0.162125825881958, 0.019144153222441673, 0.37412184476852417, -0.42861640453338623, -0.10630731284618378, -0.36437979340553284, -0.29624825716018677, 0.18531836569309235, -0.38098329305648804, 0.1608513742685318, 0.38901111483573914, 0.12684956192970276, -0.4272083044052124, -0.07947853207588196, 0.10865414142608643},
	{0.4981669485569, -0.16858123242855072, 0.18571527302265167, -0.02409893274307251, -0.2781265377998352, 0.4857597351074219, -0.06763042509555817, 0.4578303098678589, -0.059332475066185, -0.27949875593185425, 0.056110117584466934, 0.40037429332733154, -0.05944652110338211, 0.10940849781036377, 0.2916432023048401, -0.5959263443946838},
	{-0.15014907717704773, -0.322118878364563, 0.20328445732593536, 0.1850760579109192, 0.2821117341518402, 0.03261707350611687, -0.40362510085105896, -0.19930019974708557, -0.38375791907310486, 0.2850080728530884, 0.41290953755378723, 0.01513205748051405, 0.48346322774887085, -0.23953795433044434, -0.3114111125469208, -0.21270233392715454},
