#ifndef _MODEL_H_
#define _MODEL_H_

#define IN_SHAPE 13

#define SHAPE_L_1 64
#define SHAPE_L_2 32
#define SHAPE_L_3 32
#define SHAPE_L_4 16
#define SHAPE_L_5 8
#define SHAPE_L_6 4
#define SHAPE_L_7 2


const std::vector<std::vector<float>> weights_l1{
	{0.03232531622052193, -0.07389871776103973, 0.06769901514053345, 0.039947837591171265, -0.131293386220932, -0.06646816432476044, -0.08157098293304443, -0.04309053719043732, -0.23807576298713684, -0.25423458218574524, -0.1027931421995163, -0.002682062331587076, -0.1923927217721939, -0.2712823748588562, -0.031092176213860512, 0.027690429240465164, -0.27756714820861816, -0.23428040742874146, 0.20880818367004395, -0.19994467496871948, 0.23405633866786957, -0.19192592799663544, 0.15085619688034058, -0.055254437029361725, -0.030449893325567245, -0.0962960347533226, 0.1348894089460373, 0.13856500387191772, -0.19875772297382355, 0.09658706188201904, 0.1502295881509781, 0.17313554883003235, 0.1230243667960167, -0.1212705597281456, -0.08505803346633911, 0.08570939302444458, 0.2877165973186493, -0.025579508394002914, 0.06467924267053604, 0.05227496102452278, -0.12971462309360504, -0.05395783856511116, 0.07458286732435226, -0.15231329202651978, 0.0366794615983963, 0.2798912227153778, 0.03889297693967819, 0.2296302318572998, 0.29397743940353394, -0.043390095233917236, -0.033192191272974014, -0.17954961955547333, -0.01870822347700596, -0.11426917463541031, -0.09236936271190643, -0.040070146322250366, 0.2651965320110321, 0.004373649135231972, -0.06052514910697937, 0.004459292162209749, -0.08456742763519287, 0.2742578983306885, -0.15452513098716736, 0.08894426375627518},
	{-0.24982950091362, -0.008239179849624634, -0.1390298306941986, -0.08039912581443787, -0.09645366668701172, 0.14633864164352417, 0.03751542419195175, -0.0931721180677414, 0.17904511094093323, -0.18675780296325684, 0.29382678866386414, 0.023253031075000763, -0.00042892165947705507, -0.22200676798820496, -0.21860264241695404, 0.03770597279071808, -0.09447318315505981, 0.20858311653137207, 0.05217733979225159, 0.0021071212831884623, 0.14435577392578125, 0.20814529061317444, 0.18189041316509247, -0.1747054010629654, -0.14639200270175934, -0.0196031853556633, 0.24435724318027496, 0.0604146346449852, 0.04126179218292236, -0.14471597969532013, 0.11411496251821518, 0.03780585154891014, -0.29063478112220764, -0.062302686274051666, 0.08822420984506607, -0.20168977975845337, 0.22913017868995667, 0.18638907372951508, 0.1406010389328003, 0.049218062311410904, -0.2758791446685791, -0.2401861697435379, -0.1633501648902893, 0.16209156811237335, 0.12721626460552216, -0.11076682806015015, -0.21652667224407196, 0.17750616371631622, 0.002095363102853298, 0.13307088613510132, 0.08047913759946823, -0.04403340071439743, 0.16486403346061707, -0.04795819893479347, -0.10415402054786682, -0.24032559990882874, 0.02557644434273243, 0.1510414183139801, 0.013364523649215698, -0.006396395154297352, 0.0961383581161499, -0.19965551793575287, -0.18509280681610107, -0.03277624398469925},
	{0.013061079196631908, 0.04080575704574585, -0.003486997913569212, 0.01498517394065857, 0.14308679103851318, -0.13768285512924194, 0.15089872479438782, -0.19200241565704346, 0.020290952175855637, -0.12098899483680725, 0.24329893290996552, -0.0926477238535881, -0.06177714094519615, -0.02243483066558838, -0.21962149441242218, 0.051809147000312805, 0.12494194507598877, 0.12526339292526245, -0.24889306724071503, 0.10044744610786438, 0.2071686089038849, 0.16151662170886993, 0.04136747866868973, 0.21198320388793945, 0.04585926979780197, 0.10568703711032867, -0.0237886905670166, -0.020708713680505753, -0.23175132274627686, 0.23870396614074707, 0.1453147828578949, -0.2046121209859848, -0.18424469232559204, -0.11085112392902374, 0.10344202816486359, -0.2597530782222748, 0.049615874886512756, -0.038235705345869064, 0.04814045876264572, 0.05374498292803764, 0.16348572075366974, 0.22215457260608673, 0.06672877818346024, -0.017097927629947662, -0.08721424639225006, 0.267569363117218, -0.03536340966820717, -0.11861799657344818, 0.18763814866542816, -0.0920138955116272, 0.07704474776983261, 0.21095901727676392, -0.05964226648211479, -0.13822457194328308, 0.08478168398141861, -0.18897444009780884, -0.2511587142944336, -0.23080554604530334, -0.022577255964279175, -0.06280642002820969, -0.027110010385513306, -0.24908015131950378, -0.08773265779018402, 0.16270208358764648},
	{0.05074431002140045, -0.25768420100212097, 0.13120412826538086, -0.13341563940048218, -0.15808899700641632, 0.19786477088928223, -0.10055380314588547, -0.25603199005126953, -0.1627587080001831, 0.08693772554397583, -0.16926153004169464, -0.2038346230983734, 0.19886046648025513, -0.24842414259910583, 0.025324005633592606, 0.12431642413139343, -0.2042427957057953, 0.21883001923561096, 0.05662462115287781, -0.012284005992114544, -0.07414667308330536, -0.10940973460674286, 0.14926742017269135, 0.2656450867652893, 0.0951538160443306, -0.017339976504445076, -0.219699427485466, 0.2504865527153015, -0.06719359755516052, 0.04140632972121239, -0.109031543135643, 0.19655057787895203, 0.08492788672447205, 0.06615763157606125, 0.08610797673463821, -0.2678578495979309, -0.02448296919465065, 0.2871752381324768, -0.18038628995418549, 0.08633127063512802, 0.1002768948674202, -0.19879640638828278, 0.1777704358100891, -0.11021362990140915, -0.21166425943374634, -0.2195827066898346, -0.023618336766958237, 0.14194566011428833, -0.27774733304977417, -0.16996031999588013, -0.022116204723715782, 0.050382014364004135, 0.1690734177827835, 0.27604445815086365, 0.25218889117240906, 0.002575099468231201, 0.18854039907455444, -0.02016388066112995, -0.12822933495044708, 0.17412728071212769, 0.11218404769897461, 0.24613222479820251, 0.18874521553516388, -0.1930048018693924},
	{-0.011157646775245667, -0.030752673745155334, 0.022354310378432274, -0.17130032181739807, -0.2567528486251831, 0.07072779536247253, -0.2079639881849289, -0.06593933701515198, 0.2620730996131897, -0.10794618725776672, 0.06555754691362381, 0.2405981421470642, 0.26389482617378235, -0.10343904793262482, 0.25216254591941833, -0.28121617436408997, 0.13915207982063293, -0.2597232162952423, -0.0674879252910614, -0.024331163614988327, 0.30298182368278503, 0.27825507521629333, -0.18367092311382294, -0.18408524990081787, 0.18368186056613922, 0.023385239765048027, 0.18247783184051514, -0.04716115444898605, -0.1330104023218155, 0.10913433879613876, 0.06713294982910156, 0.04339204356074333, -0.013038929551839828, 0.2025282233953476, -0.17928864061832428, 0.24911342561244965, -0.05066300928592682, 0.1456802934408188, 0.19703689217567444, -0.06834414601325989, 0.17502115666866302, 0.13517706096172333, -0.05505478382110596, 0.2226794809103012, 0.04118255898356438, -0.007217551581561565, 0.17309650778770447, -0.1069161519408226, 0.1395241916179657, -0.09432104229927063, 0.1815720796585083, -0.05543955788016319, -0.10898910462856293, 0.1585087776184082, 0.07553547620773315, -0.1614132821559906, 0.12710760533809662, -0.06466459482908249, 0.027038395404815674, -0.25059589743614197, 0.09314790368080139, 0.12099099904298782, -0.17494773864746094, -0.022714892402291298},
	{-0.17783348262310028, -0.2008843719959259, 0.2546887993812561, 0.03146845102310181, -0.18762066960334778, 0.0601920485496521, -0.11374898999929428, 0.18056288361549377, 0.025604519993066788, 0.13881903886795044, -0.1104620024561882, 0.03405975550413132, 0.20083704590797424, -0.01952749490737915, 0.08662120997905731, 0.2077604979276657, -0.13313205540180206, 0.04843108355998993, 0.16176709532737732, 0.12979112565517426, -0.1636241227388382, 0.24148164689540863, -0.10792229324579239, -0.11759570986032486, -0.11013983190059662, -0.08042451739311218, -0.04892969876527786, -0.04604538157582283, -0.27335071563720703, -0.08129329234361649, -0.05850547179579735, -0.1666550189256668, 0.22529470920562744, -0.022840257734060287, -0.07186784595251083, 0.0734068751335144, 0.04383883625268936, 0.2663266360759735, -0.21577461063861847, 0.04020961374044418, 0.1746017336845398, -0.13371695578098297, -0.2488846629858017, 0.10626600682735443, 0.05332569032907486, -0.2520119547843933, 0.2190409004688263, -0.15597105026245117, 0.21597662568092346, 0.06360417604446411, 0.21026693284511566, 0.26675647497177124, -0.15537887811660767, 0.04112321883440018, -0.07935764640569687, -0.06271681189537048, 0.26771843433380127, -0.16231727600097656, -0.26100632548332214, -0.01446736790239811, -0.1259600669145584, 0.0531625971198082, 0.1858438402414322, -0.012559188529849052},
	{0.15082421898841858, -0.14560823142528534, -0.07161306589841843, -0.03677375614643097, -0.09910030663013458, 0.07858780026435852, 0.26827535033226013, -0.07015669345855713, 0.08051981031894684, -0.257537305355072, -0.11675062775611877, -0.11312591284513474, 0.14292681217193604, -0.003172934055328369, 0.12206387519836426, -0.004443121608346701, 0.012111455202102661, -0.11539189517498016, 0.2698218524456024, 0.15328910946846008, -0.2319740355014801, 0.026815464720129967, 0.05463379621505737, 0.06578509509563446, 0.012519124895334244, 0.1360481083393097, -0.08168120682239532, -0.24958015978336334, 0.17307403683662415, 0.24637280404567719, 0.25432196259498596, -0.06368643045425415, 0.1570589393377304, 0.21753829717636108, 0.16840115189552307, 0.0034926680382341146, 0.15971091389656067, 0.1737634390592575, -0.1844869703054428, 0.08780500292778015, 0.004873455967754126, 0.03710513189435005, -0.12104734778404236, -0.09131798148155212, 0.2594824433326721, -0.24113433063030243, 0.2538175582885742, -0.1306329220533371, 0.06646022200584412, -0.14152511954307556, 0.14582745730876923, 0.11303494870662689, 0.24018512666225433, 0.051409583538770676, 0.059272609651088715, -0.008062094449996948, -0.0844927653670311, -0.16472013294696808, 0.2527383863925934, -0.05612581595778465, -0.010538548231124878, -0.0813164934515953, 0.2500669062137604, 0.03685669228434563},
	{0.2236771285533905, -0.023685842752456665, -0.08455720543861389, -0.2256654053926468, -0.043706297874450684, -0.21100234985351562, 0.17757751047611237, -0.15254902839660645, -0.1072399765253067, 0.0791165828704834, -0.10062696039676666, 0.18909241259098053, -0.24529409408569336, -0.1723177134990692, -0.06559412181377411, 0.08256811648607254, -0.2136392593383789, 0.00978882610797882, 0.16629448533058167, -0.1334790140390396, 0.2677360475063324, 0.0743793174624443, 0.14882978796958923, 0.22015665471553802, -0.1499835103750229, -0.15127432346343994, -0.15114323794841766, 0.2093050330877304, -0.0906999260187149, -0.05935315415263176, 0.02997651696205139, -0.06872063875198364, -0.10397955775260925, 0.04610668122768402, -0.027613572776317596, 0.19668729603290558, 0.2902512848377228, -0.03019127808511257, 0.23606698215007782, -0.11598869413137436, 0.1965748369693756, 0.06269919872283936, -0.2122717648744583, 0.0900191068649292, 0.1389802247285843, 0.14690516889095306, -0.13051718473434448, -0.035656239837408066, -0.1411990523338318, 0.230916827917099, -0.24770943820476532, -0.24765199422836304, -0.0032479939982295036, -0.30321547389030457, 0.04055437073111534, -0.07579170167446136, 0.1052432581782341, -0.03306283429265022, 0.17451298236846924, -0.2026117444038391, -0.17658725380897522, 0.27444612979888916, -0.048473428934812546, -0.2022721767425537},
	{0.21220344305038452, -0.08540001511573792, 0.2798634469509125, 0.2311372458934784, -0.19185546040534973, 0.10766980051994324, -0.16825732588768005, 0.08466774225234985, -0.18685446679592133, 0.16443371772766113, 0.32685816287994385, -0.14369527995586395, -0.17293910682201385, 0.15011915564537048, -0.1007588803768158, -0.1810133010149002, 0.009420514106750488, 0.24580949544906616, 0.2937370538711548, 0.0165970791131258, -0.23879803717136383, 0.053034983575344086, -0.23750080168247223, 0.13097545504570007, -0.1745392382144928, -0.23583950102329254, -0.08824340254068375, -0.06407159566879272, 0.025281190872192383, 0.19431813061237335, 0.07687673717737198, -0.30124738812446594, -0.0010619761887937784, 0.20717158913612366, 0.14036789536476135, 0.22522033751010895, 0.1747364103794098, 0.2689470052719116, 0.009324234910309315, 0.1828230917453766, 0.041309647262096405, -0.18581147491931915, -0.201175719499588, -0.16633673012256622, 0.2494983971118927, -0.13748255372047424, 0.028225019574165344, 0.023387672379612923, 0.27045565843582153, -0.11553141474723816, 0.04936382919549942, 0.06531655788421631, 0.1863100379705429, -0.14465735852718353, 0.11980795860290527, -0.02511054277420044, -0.1742383986711502, -0.2130364626646042, -0.2654383182525635, -0.07105927914381027, 0.12179362773895264, -0.036075055599212646, -0.20522262156009674, 0.2968558967113495},
	{0.12011536210775375, 0.13498231768608093, 0.1413237750530243, 0.10810577869415283, 0.20307910442352295, 0.26632460951805115, 0.1670839488506317, 0.12794294953346252, 0.22725917398929596, -0.17671403288841248, -0.19645549356937408, 0.16288305819034576, 0.2003108114004135, -0.20330792665481567, 0.08963915705680847, 0.04090258479118347, 0.07014903426170349, -0.22451816499233246, 0.028227299451828003, 0.013887641951441765, -0.23745916783809662, 0.1533510982990265, -0.07011618465185165, -0.10864238440990448, 0.09489163011312485, -0.25511667132377625, -0.09139730781316757, -0.004183926619589329, 0.21311956644058228, 0.2379053235054016, -0.07952474802732468, 0.0009606474777683616, 0.15230663120746613, 0.27289989590644836, 0.1680958867073059, -0.020127490162849426, 0.06665105372667313, -0.1869116872549057, 0.25151804089546204, -0.013332096859812737, -0.24507476389408112, 0.1608555018901825, 0.06619179248809814, 0.2287285178899765, -0.2100331038236618, 0.06367982923984528, -0.21564963459968567, 0.19993381202220917, -0.24522948265075684, 0.19187423586845398, 0.03274567052721977, -0.21976985037326813, 0.12494377791881561, 0.2109455019235611, 0.13414137065410614, 0.15176454186439514, -0.09494654834270477, 0.020226076245307922, 0.14202487468719482, -0.0775635689496994, -0.18099261820316315, 0.2293597161769867, -0.2593684196472168, -0.21220876276493073},
	{-0.009510249830782413, -0.2677662968635559, 0.1591654121875763, -0.2297363430261612, 0.05926069617271423, -0.18965327739715576, -0.2582738995552063, -0.04162377119064331, -0.260555624961853, 0.07341912388801575, -0.13628971576690674, 0.1268806755542755, 0.2272542119026184, -0.14717350900173187, 0.21513032913208008, 0.13671152293682098, 0.1790887415409088, -0.08960223942995071, -0.24583886563777924, -0.05712948739528656, 0.24970686435699463, -0.27059078216552734, 0.01270308718085289, 0.28200826048851013, -0.1376727819442749, -0.2378753423690796, -0.14185689389705658, 0.026280030608177185, 0.09577921032905579, -0.22640863060951233, 0.08735761791467667, 0.20458915829658508, 0.10533404350280762, -0.07376325130462646, -0.17709386348724365, -0.21959009766578674, 0.07080987840890884, -0.2355765551328659, 0.050302889198064804, 0.13045629858970642, 0.19876441359519958, -0.12591953575611115, 0.13775424659252167, -0.11749537289142609, -0.07836713641881943, -0.10503195226192474, -0.12813644111156464, 0.09084393829107285, -0.23401863873004913, 0.10604196786880493, -0.1787945032119751, -0.20059002935886383, -0.17955437302589417, -0.2121117115020752, -0.10231652110815048, -0.038623541593551636, 0.1305670589208603, 0.11865441501140594, -0.2616066336631775, -0.2103295773267746, -0.16232019662857056, -0.17572855949401855, 0.1255740523338318, 0.12607918679714203},
	{-0.16901157796382904, -0.16725724935531616, -0.24164707958698273, -0.08128741383552551, -0.22855442762374878, -0.0991542786359787, 0.15576021373271942, -0.14783664047718048, -0.01551871933043003, -0.22882549464702606, 0.19816292822360992, -0.2649676203727722, 0.21562330424785614, 0.15650349855422974, 0.1052226647734642, 0.08921748399734497, 0.11414089798927307, -0.26981082558631897, -0.009156736545264721, 0.06828510761260986, 0.0940132886171341, -0.1122959777712822, -0.16367465257644653, 0.07137926667928696, -0.14844371378421783, 0.05919426679611206, 0.010826120153069496, 0.28820496797561646, -0.07149393856525421, -0.005536186043173075, 0.2144678831100464, -0.279282808303833, 0.10488717257976532, 0.021444808691740036, 0.2846978008747101, 0.25424277782440186, -0.03125207871198654, -0.13348035514354706, 0.10743681341409683, -0.006957974750548601, -0.2698078453540802, 0.11591874808073044, 0.14732573926448822, 0.27441874146461487, -0.2927858531475067, 0.14253854751586914, -0.02775459550321102, 0.24329696595668793, 0.13396362960338593, -0.05574241280555725, -0.21442759037017822, 0.007878830656409264, 0.12668399512767792, 0.02749234065413475, 0.058830197900533676, 0.079216867685318, -0.04502405226230621, -0.24695611000061035, -0.14680778980255127, 0.036470238119363785, -0.2711193859577179, 0.11046919971704483, -0.032201044261455536, 0.22386398911476135},
	{0.23024344444274902, 0.1152348518371582, 0.21762824058532715, -0.1320001184940338, 0.001067131757736206, -0.18205468356609344, -0.04691801220178604, -0.1490965634584427, 0.24621006846427917, -0.03211475908756256, -0.06443791091442108, 0.010100754909217358, -0.01586420089006424, -0.16273102164268494, -0.1883108764886856, 0.08097444474697113, 0.039689719676971436, 0.10366944223642349, 0.07478105276823044, -0.07718086987733841, 0.15650644898414612, 0.035639673471450806, -0.21102605760097504, 0.09742365032434464, 0.03893975913524628, 0.2462325096130371, -0.27119240164756775, 0.19233807921409607, -0.01920074224472046, -0.062445975840091705, 0.22447767853736877, 0.07942133396863937, -0.1932040899991989, 0.03543234243988991, -0.09960978478193283, 0.16295212507247925, 0.2628186345100403, -0.07390163093805313, 0.18178445100784302, -0.09487321227788925, 0.0061285789124667645, 0.2932257056236267, 0.07395275682210922, -0.2971477210521698, 0.010629926808178425, 0.2738725543022156, -0.17581850290298462, -0.058833640068769455, 0.10287909209728241, -0.24596187472343445, 0.056899990886449814, 0.01563531905412674, -0.17477378249168396, 0.2538889944553375, 0.1716718077659607, -0.1684797704219818, -0.2737715244293213, 0.11442004144191742, -0.06028088927268982, 0.19936442375183105, -0.11690208315849304, 0.2814337909221649, 0.017777834087610245, -0.19619505107402802},
};
const float bias_l1[] =
	{-0.012259316630661488, 0.0, -0.0018169371178373694, 0.0, 0.0, 0.0, -0.0197908952832222, 0.0, 0.019285030663013458, 0.0, 0.006644828245043755, -0.024010585620999336, 0.0013543834211304784, 0.0, 0.004961788188666105, -0.03176582604646683, 0.0, -0.005973291117697954, 0.02266937866806984, 0.0021837365347892046, 0.024745197966694832, 0.02464640513062477, 0.014421507716178894, 0.015703503042459488, -0.013529098592698574, -0.01858936809003353, -0.005086725577712059, 0.017869530245661736, 0.0, 0.0024465410970151424, 0.02291625365614891, -0.01654347963631153, 0.0006511427345685661, 0.007356137968599796, 0.016391044482588768, -0.01713516376912594, 0.024322953075170517, 0.035293083637952805, 0.010384184308350086, 0.019920330494642258, -0.009911342523992062, -0.001656033331528306, 0.02216230519115925, 0.007786054629832506, 0.01755049079656601, 0.017331555485725403, -0.025072146207094193, 0.028423702344298363, 0.019762255251407623, 0.0, -0.00946224108338356, -0.00648499233648181, -0.013633794151246548, -0.007349273189902306, 0.02517596259713173, 0.0, 0.006380889099091291, -0.01924031600356102, 0.0, 0.015990441665053368, 0.0, 0.015790734440088272, -0.0032589733600616455, 0.04060326889157295};

const std::vector<std::vector<float>> weights_l2{
	{0.23731619119644165, -0.09394104033708572, -0.09365838766098022, -0.014271710999310017, -0.23626282811164856, 0.16545824706554413, 0.08190380036830902, 0.2199723720550537, -0.0019378662109375, 0.044552236795425415, -0.22238174080848694, 0.09320563822984695, 0.10837900638580322, 0.14480212330818176, 0.14637097716331482, -0.03456900268793106, 0.21873599290847778, 0.14984095096588135, 0.07776592671871185, -0.16626667976379395, -0.1612721085548401, -0.2088443636894226, -0.01548865158110857, 0.20263686776161194, -0.16737967729568481, 0.01455686241388321, -0.24816083908081055, -0.1207282766699791, -0.23892229795455933, 0.05838198959827423, -0.09850763529539108, -0.06637132912874222},
	{-0.01545494794845581, -0.016991794109344482, -0.022039175033569336, 0.016207754611968994, -0.1732526421546936, -0.20757430791854858, 0.11220121383666992, 0.14219659566879272, 0.11986428499221802, 0.06342393159866333, -0.027320027351379395, 0.05131453275680542, 0.20963507890701294, 0.0995858907699585, 0.20935595035552979, -0.150232195854187, 0.1502971649169922, -0.04157423973083496, 0.1431141495704651, -0.0685802698135376, -0.04342120885848999, -0.1179158091545105, -0.046360909938812256, -0.14414650201797485, -0.06198477745056152, 0.008977115154266357, 0.20684581995010376, 0.16973251104354858, -0.0791890025138855, 0.09511202573776245, 0.04851233959197998, -0.16212445497512817},
	{-0.22336238622665405, -0.08111926913261414, 0.07241592556238174, 0.12215889990329742, 0.0515778511762619, 0.23333176970481873, 0.2173810601234436, -0.16560357809066772, -0.1627306342124939, 0.00757590914145112, 0.05182110145688057, 0.21322669088840485, 0.0976068377494812, -0.12269733846187592, 0.09692201018333435, -0.004738252144306898, 0.13120849430561066, 0.03971606492996216, 0.2179129719734192, 0.009653878398239613, 0.0947803258895874, 0.19289831817150116, -0.08948952704668045, -0.18882225453853607, -0.020455360412597656, 0.08310999721288681, 0.11521751433610916, -0.15624584257602692, -0.03747716546058655, -0.06553609669208527, -0.05669602379202843, 0.01435459591448307},
	{0.1138068437576294, -0.005231380462646484, 0.08626449108123779, -0.009823501110076904, -0.21207672357559204, -0.12333565950393677, -0.10048562288284302, -0.1772584319114685, 0.08632892370223999, -0.12234282493591309, -0.027368783950805664, -0.13013511896133423, 0.10755527019500732, 0.019992411136627197, 0.23049992322921753, 0.23564499616622925, 0.020603418350219727, -0.10243630409240723, 0.1297585368156433, -0.22306716442108154, 0.20210188627243042, -0.04483312368392944, 0.07646191120147705, -0.1051909327507019, -0.17869353294372559, -0.0647929310798645, 0.1201745867729187, -0.1492798924446106, -0.0759316086769104, -0.14966922998428345, -0.15598571300506592, -0.18693208694458008},
	{0.13215988874435425, -0.06233149766921997, 0.23581331968307495, -0.20319992303848267, -0.11900198459625244, 0.06986135244369507, -0.017275571823120117, 0.11153393983840942, 0.10925024747848511, -0.049462318420410156, 0.042462050914764404, -0.17580169439315796, 0.1188575029373169, 0.018328726291656494, 0.07361626625061035, -0.0171777606010437, -0.16269159317016602, 0.2184046506881714, 0.03244870901107788, -0.0330997109413147, 0.06874245405197144, 0.05590379238128662, 0.2380009889602661, 0.06725955009460449, 0.12681978940963745, 0.02748328447341919, 0.1312161684036255, 0.040405869483947754, -0.18077343702316284, -0.1580648422241211, -0.03718423843383789, 0.03912711143493652},
	{0.0005806088447570801, 0.17010217905044556, -0.2486240267753601, -0.05609023571014404, -0.21943479776382446, 0.19186848402023315, 0.1100572943687439, -0.23545384407043457, 0.056023359298706055, -0.14860135316848755, 0.04799705743789673, -0.13458657264709473, 0.009524822235107422, -0.05230355262756348, 0.19313257932662964, -0.23341649770736694, -0.03135126829147339, -0.14974021911621094, -0.22916144132614136, 0.048343122005462646, 0.11321443319320679, 0.10980254411697388, -0.23175817728042603, 0.2016412615776062, -0.10593384504318237, 0.15196973085403442, 0.15951019525527954, 0.18478965759277344, -0.053370118141174316, 0.05742841958999634, -0.026704609394073486, 0.06666451692581177},
	{-0.24773788452148438, 0.05368572100996971, -0.15604877471923828, -0.2217971831560135, -0.08605407178401947, 0.10875122994184494, -0.03323286771774292, -0.10938885062932968, -0.039527714252471924, -0.07271827012300491, 0.16921570897102356, -0.03270920738577843, -0.10041165351867676, 0.149672731757164, -0.020808588713407516, 0.2389630824327469, -0.10616476088762283, -0.0900755524635315, 0.14629411697387695, 0.007631122600287199, 0.027824878692626953, 0.06872203201055527, -0.19542838633060455, -0.018943939357995987, -0.17529749870300293, -0.023888736963272095, -0.19128024578094482, 0.24067004024982452, -0.11006104946136475, -0.19015567004680634, 0.19337202608585358, -0.17050808668136597},
	{0.06001657247543335, 0.22589004039764404, 0.030770957469940186, 0.1748567819595337, 0.19477105140686035, -0.03739511966705322, -0.16930967569351196, -0.07480043172836304, -0.007456719875335693, 0.10717421770095825, -0.0581933856010437, 0.06365907192230225, 0.24499696493148804, 0.09835398197174072, 0.08340275287628174, 0.22965818643569946, -0.13710367679595947, -0.23132044076919556, 0.013262033462524414, -0.07422882318496704, 0.14346253871917725, -0.1605176329612732, -0.03557068109512329, -0.21636652946472168, -0.08012956380844116, 0.20028799772262573, 0.22529882192611694, 0.002272486686706543, 0.20840054750442505, -0.13412559032440186, 0.09289288520812988, -0.033489108085632324},
	{-0.11293566226959229, 0.06792791187763214, 0.06068382039666176, 0.16822870075702667, -0.14124196767807007, 0.23017773032188416, -0.013378793373703957, -0.2263994961977005, -0.0835077166557312, -0.1599767655134201, -0.21972988545894623, -0.17055483162403107, 0.13454020023345947, 0.24599245190620422, -0.0809217020869255, 0.00712245749309659, -0.14217449724674225, 0.16807478666305542, -0.09714321047067642, -0.11369147896766663, -0.10378986597061157, 0.09454715996980667, -0.1914059966802597, 0.20332953333854675, 0.1967363953590393, -0.15808987617492676, -0.2105528712272644, 0.19990359246730804, -0.22062844038009644, -0.10854127258062363, 0.22995136678218842, 0.045808400958776474},
	{-0.11268937587738037, 0.24615341424942017, 0.1259738802909851, -0.13912451267242432, -0.043799519538879395, 0.15748190879821777, 0.09612023830413818, -0.24586021900177002, 0.18993836641311646, -0.21106046438217163, 0.18215429782867432, -0.028159022331237793, -0.15268653631210327, -0.10122066736221313, 0.022041499614715576, 0.09042418003082275, -0.15554076433181763, 0.06865590810775757, 0.004326045513153076, 0.20762944221496582, 0.20963913202285767, 0.049558281898498535, 0.15249431133270264, 0.1107742190361023, -0.037451088428497314, -0.2431756854057312, 0.172623872756958, -0.11995261907577515, 0.013148188591003418, 0.1532319188117981, 0.05487149953842163, 0.2050304412841797},
	{0.18184596300125122, -0.28149542212486267, 0.10659556090831757, -0.05587318539619446, 0.05637287721037865, 0.10859233140945435, -0.1413118839263916, 0.14344532787799835, -0.234136164188385, 0.2658979296684265, -0.2761196792125702, 0.020533496513962746, 0.16566020250320435, 0.07002232223749161, -0.044764116406440735, -0.19350457191467285, 0.2293783277273178, 0.1919010877609253, -0.03208613395690918, -0.03379828482866287, -0.2032068371772766, -0.2952408790588379, -0.03726783022284508, -0.2436889410018921, 0.20310211181640625, 0.03586314991116524, -0.07419297099113464, 0.0539986751973629, -0.2098037600517273, -0.18947313725948334, -0.1978701502084732, 0.0057471334002912045},
	{-0.043518900871276855, -0.0650818943977356, 0.0052690631709992886, -0.04097375646233559, -0.11300050467252731, 0.0954374298453331, -0.05673884600400925, -0.19637149572372437, 0.05172264575958252, 0.19473671913146973, -0.08211106061935425, -0.06197979301214218, -0.13524800539016724, 0.049093570560216904, 0.18097130954265594, -0.17581605911254883, 0.10309264808893204, 0.11614722013473511, 0.15108540654182434, 0.1700611412525177, 0.04576396942138672, 0.10706683248281479, 0.03639557585120201, -0.08030499517917633, -0.07108187675476074, 0.12728866934776306, 0.012496774084866047, -0.05974237248301506, 0.03129693865776062, 0.04552972689270973, 0.11488209664821625, -0.1868715137243271},
	{-0.1885954737663269, -0.09532738476991653, 0.19317679107189178, 0.061029527336359024, 0.08471261709928513, 0.11509135365486145, -0.06900540739297867, -0.13929098844528198, -0.11464309692382812, -0.26276642084121704, -0.06777136772871017, 0.07345297932624817, 0.07737553119659424, 0.1188124343752861, 0.2371554672718048, 0.0678563117980957, -0.11993062496185303, -0.17035967111587524, -0.22537724673748016, 0.19554634392261505, 0.07798188924789429, 0.23031581938266754, 0.2623250186443329, -0.03262917324900627, -0.18592381477355957, -0.16497650742530823, -0.047504063695669174, 0.07790765166282654, -0.08929077535867691, -0.10759910941123962, -0.052164364606142044, 0.10761778056621552},
	{0.1477786898612976, 0.041906535625457764, -0.13118118047714233, -0.21378767490386963, 0.1938508152961731, 0.07842212915420532, -0.054563939571380615, 0.09316998720169067, 0.018328189849853516, 0.0667562484741211, 0.07753336429595947, -0.018238365650177002, -0.1479063630104065, 0.16482013463974, 0.2439931035041809, 0.09439104795455933, -0.07411855459213257, -0.1854650378227234, -0.2365478277206421, 0.1231885552406311, -0.004333853721618652, -0.10773462057113647, 0.041234374046325684, 0.22648632526397705, 0.18912822008132935, -0.18404269218444824, -0.004025936126708984, -0.07615995407104492, -0.24240785837173462, 0.12289255857467651, 0.011799037456512451, -0.24772858619689941},
	{-0.13258707523345947, 0.11326350271701813, -0.09179553389549255, 0.11195619404315948, 0.0558302104473114, -0.17634297907352448, 0.044312894344329834, 0.15361714363098145, -0.05477637052536011, -0.297637939453125, 0.1297849714756012, -0.21314674615859985, -0.009377539157867432, -0.23514136672019958, -0.15323850512504578, 0.16584213078022003, 0.03705006465315819, 0.11071795225143433, 0.22011995315551758, 0.23502691090106964, 0.19140160083770752, 0.252715528011322, 0.2128329873085022, -0.009829610586166382, 0.01675117015838623, -0.11963266134262085, -0.06877502053976059, -0.12885820865631104, -0.06322226673364639, -0.168576180934906, 0.1631176769733429, 0.2786989212036133},
	{0.197160542011261, -0.2050488293170929, -0.026393085718154907, 0.19694633781909943, -0.11294952034950256, 0.053089238703250885, -0.2517537474632263, -0.15610112249851227, -0.22069859504699707, -0.07699573785066605, 0.001708989730104804, 0.14030417799949646, 0.10934978723526001, 0.07341479510068893, -0.20508559048175812, -0.17851407825946808, -0.002886492758989334, 0.23442280292510986, -0.15350133180618286, -0.08009826391935349, 0.2420298457145691, 0.13490401208400726, 0.08867483586072922, 0.2558492422103882, -0.1085018515586853, -0.04719413071870804, 0.0023980995174497366, -0.004595816135406494, -0.22158120572566986, -0.17005670070648193, -0.02662516012787819, -0.21160748600959778},
	{0.10890495777130127, -0.2341427206993103, -0.16261976957321167, 0.13524329662322998, -0.20407015085220337, 0.033197104930877686, -0.02973783016204834, 0.006507396697998047, -0.19595426321029663, -0.1668386459350586, 0.017107725143432617, -0.06469166278839111, 0.008507192134857178, 0.16449570655822754, -0.24998503923416138, 0.11522424221038818, -0.1937408447265625, -0.06992286443710327, -0.026934027671813965, -0.0631948709487915, -0.05302613973617554, 0.13862460851669312, -0.2296428680419922, 0.14789706468582153, -0.07876956462860107, 0.07385218143463135, 0.2293931245803833, -0.07927155494689941, -0.009113430976867676, -0.10674232244491577, -0.021991610527038574, -0.052273452281951904},
	{0.04933065176010132, 0.01663391850888729, 0.17918545007705688, 0.21007299423217773, -0.048802196979522705, 0.0720636248588562, 0.0954132080078125, -0.24494928121566772, 0.17135518789291382, 0.10114717483520508, 0.018047699704766273, 0.07289925962686539, -0.026051580905914307, 0.18536138534545898, -0.01120460219681263, -0.08315861225128174, 0.04266388714313507, -0.09007149934768677, 0.20657336711883545, 0.1951909065246582, 0.06418269872665405, 0.21144099533557892, -0.2158503234386444, -0.11189272999763489, 0.16141432523727417, -0.07275556772947311, -0.07775931805372238, -0.031139561906456947, 0.040728211402893066, -0.22232389450073242, 0.14133350551128387, 0.008653637953102589},
	{0.07151085138320923, 0.23615054786205292, 0.17304804921150208, -0.1311739683151245, -0.05742430314421654, -0.25716254115104675, -0.16562873125076294, 0.0059961238875985146, 0.06739610433578491, -0.06840518862009048, 0.03960827738046646, -0.10587037354707718, 0.08155769109725952, 0.0019332458032295108, 0.18822838366031647, -0.188699871301651, 0.008894155733287334, -0.1313643455505371, 0.06039628013968468, 0.09906144440174103, -0.14125996828079224, -0.017923854291439056, 0.08639193326234818, -0.0962907075881958, 0.05336636304855347, 0.12813498079776764, 0.04283112660050392, 0.204960897564888, 0.21682323515415192, 0.20218797028064728, 0.011070389300584793, 0.04075406491756439},
	{0.14855319261550903, -0.2826208174228668, -0.11407500505447388, -0.10885045677423477, -0.18669404089450836, 0.17273211479187012, -0.11984647065401077, -0.008032143115997314, -0.06938505172729492, -0.10542166233062744, 0.2476816475391388, -0.2860466241836548, 0.21347850561141968, 0.2795470654964447, 0.10183685272932053, -0.08419733494520187, 0.2365722507238388, 0.10145002603530884, -0.2257961630821228, 0.08492471277713776, -0.16859334707260132, 0.07938852161169052, 0.14970555901527405, -0.2358618974685669, -0.05890238285064697, 0.13321493566036224, 0.05478779971599579, 0.24001771211624146, -0.18377035856246948, 0.1531129628419876, 0.0072798519395291805, -0.08962196856737137},
	{-0.23606979846954346, 0.05716969072818756, -0.004651886411011219, -0.2483767569065094, 0.15996496379375458, 0.060724660754203796, -0.18212446570396423, -0.004433579742908478, 0.15713852643966675, 0.12717071175575256, -0.21726611256599426, 0.02279769629240036, 0.22696572542190552, -0.054430730640888214, -0.02038154937326908, -0.05719014257192612, -0.037323299795389175, 0.19315946102142334, 0.19913208484649658, -0.2143765389919281, -0.22611206769943237, 0.1696118861436844, 0.02061447873711586, 0.20989619195461273, -0.12869340181350708, 0.1585613340139389, -0.14221960306167603, 0.005339603405445814, 0.19299694895744324, -0.13880006968975067, 0.10985161364078522, 0.2195235639810562},
	{-0.138047993183136, 0.1368836611509323, -0.022002415731549263, -0.11545977741479874, -0.07679992914199829, -0.21614378690719604, 0.0882425382733345, -0.13871310651302338, 0.16133064031600952, -0.18351928889751434, 0.23545396327972412, -0.27811339497566223, 0.09974712133407593, -0.035309936851263046, 0.2553861439228058, -0.2178514003753662, -0.14758284389972687, -0.14074230194091797, -0.10957396030426025, 0.2246265560388565, 0.13230246305465698, -0.04434404894709587, -0.2646258771419525, -0.06432349234819412, 0.09730225801467896, 0.026981646195054054, 0.016233250498771667, 0.05024803802371025, 0.032362498342990875, 0.06894395500421524, -0.1467512845993042, -0.050616491585969925},
	{0.19720423221588135, 0.09215866774320602, 0.14056850969791412, -0.10401636362075806, -0.08916690200567245, 0.18442410230636597, 0.21763163805007935, 0.22037948668003082, 0.2338634729385376, -0.0750873014330864, -0.17155733704566956, -0.07308058440685272, 0.04525172710418701, 0.0125467199832201, 0.08869403600692749, 0.14556622505187988, 0.08594529330730438, 0.07520925998687744, 0.1979556679725647, -0.22324156761169434, 0.02573847770690918, -0.11642192304134369, 0.10252916067838669, 0.0913630798459053, 0.026022672653198242, -0.024436788633465767, -0.11158530414104462, 0.23435069620609283, -0.0753161758184433, 0.10028079152107239, -0.22488807141780853, 0.14421559870243073},
	{-0.015042424201965332, -0.09290177375078201, 0.12071393430233002, -0.04561121389269829, -0.23763053119182587, -0.23409493267536163, -0.20614275336265564, -0.14617109298706055, -0.08094316720962524, 0.27881142497062683, -0.24725797772407532, 0.15271025896072388, -0.03333193063735962, 0.13320079445838928, 0.023074693977832794, 0.19101040065288544, 0.08154294639825821, -0.15568912029266357, -0.04823857173323631, 0.0876108855009079, -0.16442036628723145, -0.0076022157445549965, 0.1951437145471573, 0.20353487133979797, 0.16298139095306396, -0.1184539720416069, 0.16655980050563812, 0.10676494240760803, 0.2131839394569397, -0.03488883003592491, -0.11405935138463974, 0.06007067859172821},
	{-0.14717209339141846, 0.06361392140388489, 0.17628127336502075, 0.1432265043258667, 0.15544967353343964, -0.10025154054164886, -0.14662037789821625, -0.16231673955917358, -0.02267765998840332, 0.09123837947845459, 0.17494091391563416, 0.038602493703365326, 0.038876354694366455, -0.08063463866710663, -0.006209228187799454, 0.12040302902460098, -0.11730004101991653, 0.12562322616577148, 0.21986502408981323, 0.23129647970199585, -0.019163787364959717, 0.20122990012168884, -0.0018972500693053007, -0.23394185304641724, 0.2319396734237671, -0.21269336342811584, 0.110105499625206, 0.19204974174499512, 0.1343892216682434, 0.17907178401947021, -0.021668896079063416, -0.05382322520017624},
	{-0.16280007362365723, 0.06850747019052505, -0.180635005235672, 0.16951648890972137, -0.06670334935188293, 0.18265856802463531, 0.01902981661260128, -0.03269285336136818, 0.18918299674987793, -0.03086905926465988, -0.2478322833776474, 0.12947578728199005, 0.24895894527435303, 0.04414369538426399, 0.24122664332389832, -0.2279210090637207, 0.06149829551577568, 0.02141857147216797, -0.1160113662481308, -0.025200316682457924, 0.07866322994232178, -0.20939362049102783, -0.13410501182079315, -0.07181426137685776, -0.21715426445007324, 0.04533865302801132, -0.007673754822462797, -0.13597805798053741, 0.08642818033695221, -0.1149907335639, 0.2005123347043991, -0.22389626502990723},
	{-0.2268180251121521, -0.2543068826198578, 0.1585850715637207, -0.1273660659790039, -0.19744816422462463, 0.17807017266750336, 0.0682913064956665, -0.03582064434885979, -0.18119919300079346, -0.02365952730178833, -0.20113731920719147, -0.030217068269848824, -0.1336950659751892, -0.016129376366734505, 0.18723216652870178, 0.03324730694293976, 0.24629226326942444, 0.06368672847747803, -0.10318827629089355, 0.02696859836578369, 0.07579654455184937, -0.04508243873715401, -0.1857266128063202, 0.16028143465518951, -0.08777940273284912, -0.25858286023139954, -0.22663336992263794, 0.20422674715518951, 0.06165808066725731, -0.06293954700231552, 0.1910877376794815, 0.20196591317653656},
	{0.1700735092163086, 0.005630627740174532, -0.15669786930084229, 0.04578142240643501, 0.10010561347007751, -0.1267247498035431, -0.03826507180929184, -0.054848380386829376, -0.2361774444580078, 0.277238130569458, 0.11661037802696228, 0.2103203982114792, 0.1972293257713318, -0.17012919485569, -0.24785064160823822, 0.11257105320692062, 0.059264540672302246, -0.09602463245391846, -0.08760122209787369, 0.12038328498601913, -0.04950839281082153, 0.07667096704244614, 0.152193084359169, 0.08852837979793549, 0.17182612419128418, 0.18066732585430145, 0.12840503454208374, 0.1853804886341095, -0.21949711441993713, -0.005648382939398289, 0.14201927185058594, -0.21041631698608398},
	{-0.054852068424224854, -0.13009166717529297, -0.08468896150588989, 0.06996351480484009, -0.24761360883712769, 0.22607409954071045, 0.07454752922058105, -0.15556412935256958, 0.07320213317871094, -0.14679032564163208, 0.19377833604812622, -0.09459942579269409, -0.1160932183265686, 0.028545260429382324, 0.0232202410697937, -0.029023945331573486, 0.07574701309204102, -0.03636467456817627, 0.20649045705795288, -0.037412166595458984, -0.1436237096786499, 0.23271703720092773, 0.1096574068069458, 0.167840838432312, -0.20971280336380005, -0.20213329792022705, -0.09485131502151489, -0.08939683437347412, 0.007549762725830078, -0.07888323068618774, 0.1710013747215271, -0.20088458061218262},
	{0.07951831817626953, -0.09747469425201416, 0.08320187032222748, -0.18792012333869934, -0.00987926498055458, 0.031163113191723824, -0.14603982865810394, -0.1547471284866333, 0.24040353298187256, 0.22511553764343262, 0.16548289358615875, 0.27105069160461426, -0.12831133604049683, 0.13750557601451874, 0.21954520046710968, -0.09570752829313278, -0.21629245579242706, -0.07216686010360718, 0.08533700555562973, 0.0360184945166111, -0.09277921915054321, 0.13604968786239624, -0.0011308783432468772, -0.15360403060913086, 0.13584637641906738, -0.09580600261688232, 0.20312312245368958, 0.11395912617444992, 0.131036639213562, -0.13001649081707, -0.037455007433891296, 0.2234538048505783},
	{-0.13361555337905884, 0.2608509063720703, 0.10164888948202133, -0.07189445942640305, 0.14552165567874908, -0.02513245679438114, 0.23194563388824463, 0.20078375935554504, 0.12006014585494995, 0.06820257753133774, -0.1465959995985031, 0.09099383652210236, -0.13474321365356445, 0.15803387761116028, 0.19384893774986267, 0.18509653210639954, -0.03378649801015854, -0.17890912294387817, 0.19308868050575256, -0.23675036430358887, -0.06453055143356323, 0.17777812480926514, 0.2420242577791214, 0.247275248169899, 0.10846841335296631, -0.010216346010565758, 0.18678224086761475, -0.045421116054058075, -0.12508274614810944, 0.003168836236000061, 0.16889934241771698, -0.1585809588432312},
	{-0.052018940448760986, 0.022797752171754837, -0.25532451272010803, -0.03703152760863304, 0.18592573702335358, 0.0870622992515564, -0.04604043439030647, -0.08415674418210983, -0.23002290725708008, 0.17505736649036407, -0.08169509470462799, -0.04085393249988556, -0.10196644067764282, -0.12052825093269348, 0.1624475121498108, 0.12835191190242767, 0.0016044500516727567, -0.24377954006195068, 0.07369209825992584, 0.0958813801407814, -0.13928043842315674, 0.06602771580219269, -0.09383230656385422, -0.1479480266571045, 0.23369842767715454, -0.04740272834897041, 0.1554110199213028, -0.11494748294353485, 0.21327240765094757, -0.24116750061511993, 0.042249616235494614, 0.23017041385173798},
	{0.1662021279335022, 0.14724323153495789, 0.20816387236118317, 0.14253489673137665, 0.2729897201061249, -0.19857390224933624, -0.1995796412229538, 0.10670948028564453, -0.04743635654449463, -0.1947840005159378, -0.12385299056768417, 0.05039483681321144, -0.22908902168273926, 0.20033250749111176, -0.01770303212106228, -0.2038373351097107, 0.18683554232120514, -0.136263906955719, -0.15090733766555786, -0.12974344193935394, 0.09693092107772827, 0.17659364640712738, -0.14352431893348694, -0.09479109942913055, 0.20307499170303345, -0.20782405138015747, -0.10960736870765686, -0.25130510330200195, -0.016836166381835938, 0.15318980813026428, -0.11057209968566895, 0.2832632064819336},
	{-0.24599695205688477, 0.11262554675340652, -0.055067941546440125, -0.09016822278499603, 0.11096370220184326, 0.03522072359919548, 0.12421844154596329, 0.14060761034488678, -0.12182438373565674, 0.26394304633140564, -0.0952572450041771, -0.009643618017435074, -0.09137070178985596, -0.21346238255500793, 0.13954637944698334, 0.1241435706615448, 0.18863382935523987, -0.05679130554199219, -0.16164368391036987, -0.22077007591724396, 0.15927273035049438, 0.042002394795417786, 0.21918687224388123, 0.027476824820041656, -0.2210313081741333, 0.04551800340414047, -0.18438979983329773, -0.11626098304986954, 0.07720554620027542, 0.15063437819480896, -0.007563631050288677, -0.16015584766864777},
	{0.008273005485534668, 0.20585612952709198, -0.03146655112504959, 0.1785804033279419, 0.19619280099868774, -0.042964816093444824, 0.0032562126871198416, 0.051688678562641144, -0.026115059852600098, -0.04034113511443138, 0.21581794321537018, -0.21148060262203217, -0.12910085916519165, 0.05743816867470741, -0.09276991337537766, 0.1990746706724167, 0.09709297120571136, 0.14070457220077515, 0.03231823444366455, 0.16235388815402985, 0.03356295824050903, 0.07187890261411667, -0.023309452459216118, -0.0421188622713089, 0.12908494472503662, 0.21606048941612244, -0.14416378736495972, -0.21406090259552002, -0.08112072944641113, -0.2176380455493927, -0.14185811579227448, -0.12461995333433151},
	{0.020560920238494873, -0.13539856672286987, -0.015530092641711235, 0.06782039999961853, -0.13696475327014923, -0.006576884537935257, -0.10781151056289673, 0.17066575586795807, -0.1286107301712036, -0.17979031801223755, 0.21825522184371948, 0.17255404591560364, -0.09369683265686035, 0.23520445823669434, -0.036559175699949265, 0.11765781790018082, -0.07739150524139404, -0.09194797277450562, -0.16322480142116547, 0.12197590619325638, -0.16463923454284668, 0.1858147233724594, -0.23045217990875244, -0.13399994373321533, -0.02837282419204712, 0.18688984215259552, 0.05325194448232651, 0.1619584560394287, -0.022802041843533516, 0.19439837336540222, -0.08146718144416809, -0.08480823040008545},
	{-0.030932843685150146, 0.08051969110965729, 0.2346617728471756, -0.08111423999071121, -0.1560623198747635, -0.0572027713060379, 0.021145282313227654, -0.11767706274986267, 0.02021723985671997, -0.0166091900318861, 0.24222160875797272, -0.21475936472415924, -0.07480353116989136, 0.24919000267982483, 0.160964697599411, -0.186568483710289, -0.09746009856462479, -0.05916804075241089, -0.1075986698269844, -0.016618160530924797, -0.19765549898147583, -0.21100974082946777, -0.01192267332226038, -0.04292572662234306, -0.21078503131866455, 0.17965009808540344, 0.24014878273010254, -0.017465144395828247, 0.17955909669399261, -0.16746453940868378, -0.1831578016281128, 0.22273917496204376},
	{-0.22887122631072998, 0.14322175085544586, -0.08639243990182877, -0.17113986611366272, -0.08180937170982361, -0.23611918091773987, 0.18154075741767883, 0.23464550077915192, 0.04030424356460571, -0.24521178007125854, 0.2168145328760147, 0.23724046349525452, -0.014657139778137207, 0.22229823470115662, -0.24128012359142303, -0.0009994235588237643, 0.07902012765407562, 0.14373409748077393, -0.13752079010009766, -0.1146005392074585, 0.10211038589477539, 0.008594710379838943, 0.15601763129234314, 0.16110540926456451, -0.23565757274627686, 0.2303474098443985, 0.203766331076622, -0.07401688396930695, -0.17309224605560303, 0.24910522997379303, -0.04885466396808624, 0.21019403636455536},
	{-0.19955974817276, 0.19269515573978424, -0.021019864827394485, -0.14402152597904205, -0.061193615198135376, -0.10414963960647583, -0.12965913116931915, -0.13874274492263794, 0.04174613952636719, 0.12754927575588226, 0.03744843602180481, 0.09842631220817566, -0.12265282869338989, 0.032699279487133026, -0.2614710032939911, -0.2443685233592987, 0.013521738350391388, 0.03371882438659668, 0.00493984529748559, -0.20678846538066864, -0.11215454339981079, -0.2834559679031372, 0.21154597401618958, -0.21660475432872772, -0.13624823093414307, 0.015428222715854645, -0.17114675045013428, -0.20700465142726898, -0.02622852474451065, 0.06221666932106018, -0.09636928886175156, 0.03686272352933884},
	{0.08025306463241577, -0.047035280615091324, -0.11870332062244415, 0.06300555169582367, 0.13682928681373596, -0.044931795448064804, -0.11740563064813614, -0.12343088537454605, -0.1189194917678833, 0.20709718763828278, 0.01833699271082878, -0.055685997009277344, 0.2429768443107605, 0.07918670773506165, 0.23566414415836334, -0.08855684846639633, -0.22839394211769104, 0.15776121616363525, -0.03723567724227905, -0.09222075343132019, 0.12780117988586426, 0.2913440763950348, -0.11760975420475006, 0.26759225130081177, 0.06676751375198364, 0.2705337703227997, -0.02883726730942726, 0.07102145999670029, -0.04713140428066254, 0.20539991557598114, -0.03661661967635155, 0.12397483736276627},
	{-0.01566833257675171, 0.1503584235906601, 0.2220655232667923, -0.1527422070503235, -0.23913168907165527, -0.20131613314151764, 0.13864701986312866, -0.19819551706314087, -0.10637533664703369, 0.1010618656873703, -0.19985833764076233, -0.23782584071159363, 0.24059349298477173, -0.22979094088077545, -0.06461111456155777, -0.002785087563097477, 0.00794847309589386, 0.0856199860572815, 0.20284275710582733, 0.181127667427063, 0.17757874727249146, 0.04791870713233948, -0.10051281750202179, 0.054682083427906036, 0.17603957653045654, 0.10359016060829163, 0.07689779996871948, -0.12288489192724228, 0.16840457916259766, 0.17060953378677368, -0.14460504055023193, -0.16060516238212585},
	{-0.10890454053878784, -0.1667027473449707, -0.19334562122821808, 0.05260529741644859, 0.10918581485748291, -0.22854696214199066, 0.0671892836689949, -0.09471380710601807, -0.2345605492591858, -0.07636114209890366, -0.2390846610069275, -0.16086937487125397, 0.21815335750579834, 0.17653053998947144, 0.21336856484413147, 0.23646140098571777, -0.22532813251018524, -0.042448341846466064, 0.03145233169198036, -0.13551999628543854, -0.08934646844863892, -0.13170160353183746, 0.09375282377004623, 0.23514868319034576, -0.23584049940109253, -0.07980744540691376, -0.12141817808151245, 0.026955418288707733, 0.11018116027116776, -0.07585087418556213, 0.18077227473258972, 0.16839872300624847},
	{-0.2105698585510254, 0.05351608991622925, -0.05991244688630104, -0.22815316915512085, 0.13566400110721588, 0.048949990421533585, 0.2531754672527313, -0.15524530410766602, -0.12527257204055786, 0.16354116797447205, -0.11015594750642776, 0.047808725386857986, -0.16639697551727295, 0.21681812405586243, -0.16400986909866333, 0.0004999194061383605, -0.13162338733673096, -0.08179908990859985, 0.09528155624866486, 0.06339287757873535, -0.1665205955505371, -0.10497225821018219, 0.052298061549663544, -0.09906946122646332, 0.2276023030281067, 0.021469149738550186, -0.0322885625064373, -0.11134859919548035, 0.12982070446014404, 0.05948494002223015, -0.18197990953922272, -0.05540779232978821},
	{-0.1684146523475647, -0.10708633810281754, 0.16490702331066132, -0.21909987926483154, -0.21738728880882263, -0.11215779185295105, 0.013224244117736816, 0.1267809271812439, 0.23439908027648926, 0.032556306570768356, 0.11644010990858078, 0.12967178225517273, -0.08656573295593262, -0.19149203598499298, 0.282553106546402, 0.08299621939659119, 0.2793308198451996, 0.09773796796798706, 0.12990933656692505, -0.006075921002775431, 0.06843376159667969, 0.10944254696369171, 0.23008409142494202, -0.11415672302246094, 0.16742730140686035, 0.10556647181510925, -0.2556195557117462, 0.20879782736301422, -0.12427536398172379, 0.08321234583854675, -0.06578894704580307, -0.21417193114757538},
	{0.0278627872467041, 0.22670763731002808, 0.24027079343795776, 0.006543601863086224, -0.043158914893865585, 0.073279470205307, 0.017621003091335297, 0.2419465333223343, 0.1299031376838684, -0.17126235365867615, -0.006398613099008799, 0.11505821347236633, -0.07774883508682251, -0.16488924622535706, -0.00021174881840124726, -0.1583550125360489, 0.1706078201532364, 0.17775052785873413, 0.17711010575294495, 0.041579071432352066, 0.07455551624298096, 0.12480992078781128, 0.17816315591335297, 0.030959688127040863, 0.12956690788269043, -0.05200552940368652, -0.03317941352725029, -0.0004916609032079577, -0.20322008430957794, 0.05826864391565323, 0.029126467183232307, 0.2830963134765625},
	{0.13553649187088013, 0.17925822734832764, -0.18183359503746033, 0.13730904459953308, -0.004178659524768591, 0.03139624744653702, 0.06352821737527847, -0.014510797336697578, -0.07277965545654297, 0.15098322927951813, -0.16686175763607025, 0.18292170763015747, -0.23803311586380005, -0.15277285873889923, -0.15478548407554626, -0.11662168055772781, 0.05965382233262062, -0.20255833864212036, -0.12261403352022171, -0.2322300225496292, 0.22293633222579956, -0.1301799863576889, 0.21180887520313263, 0.15705017745494843, -0.24493902921676636, -0.03063899092376232, 0.22527222335338593, 0.0983843058347702, -0.23603595793247223, -0.09864304959774017, -0.1679592877626419, 0.07085446268320084},
	{-0.11227327585220337, -0.1421390324831009, 0.026211535558104515, 0.1856779307126999, -0.18420782685279846, -0.004597391467541456, 0.14453013241291046, -0.23894333839416504, 0.24102962017059326, 0.15797466039657593, 0.02777060680091381, 0.015930674970149994, 0.12380921840667725, -0.1028294786810875, -0.24897582828998566, 0.17732641100883484, -0.07421903312206268, -0.022049367427825928, -0.14591938257217407, -0.1302872598171234, -0.031047523021697998, 0.06648768484592438, -0.009243945591151714, -0.002725384198129177, -0.17701786756515503, -0.031816285103559494, 0.04761447757482529, -0.1963614523410797, 0.03517773374915123, 0.15088042616844177, 0.20208576321601868, -0.19391684234142303},
	{0.15758979320526123, 0.09141004830598831, 0.16673950850963593, -0.07437916100025177, 0.01965566724538803, -0.03788601979613304, -0.00892626028507948, 0.01676366478204727, -0.06732511520385742, 0.26290085911750793, 0.039865318685770035, -0.11544988304376602, -0.2286461591720581, -0.17698019742965698, 0.06600424647331238, 0.13588593900203705, 0.05521465092897415, -0.10927015542984009, -0.25141268968582153, -0.15071174502372742, 0.04155939817428589, -0.07000618427991867, 0.20829810202121735, 0.20586815476417542, 0.11700409650802612, -0.2254209965467453, 0.02178012952208519, 0.05028838291764259, 0.10464584082365036, 0.2517879903316498, -0.08076805621385574, 0.15502041578292847},
	{-0.1217450499534607, 0.1500004380941391, -0.08471822738647461, -0.07292836904525757, 0.05772418901324272, 0.027383210137486458, 0.062466591596603394, -0.0005344479577615857, -0.038861751556396484, -0.17909583449363708, 0.12568578124046326, 0.03191594034433365, -0.1816960573196411, -0.21583673357963562, 0.0754207894206047, 0.1617090106010437, 0.17427833378314972, 0.14507555961608887, -0.22206445038318634, 0.13261725008487701, -0.21862107515335083, 0.17894545197486877, 0.13087643682956696, 0.15320178866386414, -0.16582292318344116, -0.10302406549453735, 0.00011892992188222706, -0.21363581717014313, -0.05402292683720589, 0.046966999769210815, -0.077726349234581, 0.15207983553409576},
	{0.042024075984954834, 0.019928455352783203, -0.09028691053390503, -0.153436541557312, -0.07154703140258789, -0.13069868087768555, 0.04722553491592407, 0.0706513524055481, -0.10494273900985718, 0.06315958499908447, -0.06053602695465088, -0.09525203704833984, -0.20212942361831665, -0.17350071668624878, -0.01174163818359375, 0.13902103900909424, 0.025995314121246338, -0.20877587795257568, 0.14206790924072266, 0.08867955207824707, -0.24199199676513672, 0.13093608617782593, 0.05409502983093262, 0.07632625102996826, 0.0014743208885192871, -0.1945112943649292, 0.15205597877502441, 0.018012404441833496, 0.15401089191436768, 0.1169053316116333, 0.18991303443908691, -0.01880669593811035},
	{-0.07836306095123291, -0.1853991448879242, -0.23607391119003296, -0.07613570988178253, 0.18385204672813416, -0.023000163957476616, -0.2150128185749054, -0.2547607421875, -0.033220648765563965, 0.17410902678966522, -0.09005589038133621, -0.18907618522644043, 0.2135545015335083, -0.044478628784418106, -0.24600724875926971, -0.23537695407867432, 0.10206077992916107, -0.051744699478149414, -0.14290741086006165, -0.13457848131656647, -0.22684645652770996, 0.04521815478801727, -0.05260360613465309, -0.08426845818758011, 0.1626102328300476, 0.169158473610878, -0.020788973197340965, 0.2010507583618164, 0.13516376912593842, 0.12520122528076172, 0.21353881061077118, -0.18049445748329163},
	{0.02153193950653076, 0.14954976737499237, 0.11693060398101807, 0.12215835601091385, 0.08434072136878967, -0.2424488514661789, -0.21501247584819794, 0.07958352565765381, -0.08501648902893066, -0.2001047134399414, -0.04953751713037491, -0.14189177751541138, -0.2076067328453064, 0.1705690324306488, 0.2105376124382019, -0.05613981559872627, 0.02454274147748947, -0.21354854106903076, 0.004243612289428711, 0.09230384230613708, -0.11553442478179932, -0.21084626019001007, -0.12087896466255188, -0.25606122612953186, 0.028359949588775635, 0.03844473510980606, -0.17824071645736694, -0.022343773394823074, 0.08551549166440964, -0.003122625406831503, 0.255747526884079, -0.027945183217525482},
	{0.08470481634140015, -0.2509528696537018, -0.04077984392642975, 0.23900450766086578, -0.02393599972128868, -0.10936349630355835, -0.09882187843322754, -0.12117010354995728, -0.21307694911956787, -0.09161534905433655, 0.2493283599615097, -0.04370380565524101, -0.1920781135559082, -0.16546624898910522, 0.2318590134382248, 0.17494481801986694, 0.11510404199361801, 0.018614232540130615, 0.07098591327667236, -0.1474989801645279, -0.08079373836517334, -0.2584179639816284, -0.22298011183738708, -0.2083415389060974, 0.06167382001876831, -0.20963755249977112, 0.009861688129603863, 0.1010831892490387, -0.211689293384552, -0.1956302374601364, 0.14100539684295654, -0.1992563009262085},
	{0.11330902576446533, 0.03966820240020752, -0.1956452876329422, 0.005096327979117632, 0.1342189460992813, -0.08546260744333267, 0.14073199033737183, -0.22046875953674316, 0.2293134331703186, 0.12212119996547699, 0.1840582638978958, -0.14343324303627014, -0.1574387550354004, -0.1605801284313202, -0.12216181308031082, -0.0758960023522377, 0.04810316860675812, 0.2279571294784546, -0.10116873681545258, 0.23822803795337677, -0.16528469324111938, 0.026131894439458847, 0.2311389446258545, -0.1350008100271225, -0.02304840087890625, -0.14090712368488312, 0.0904708206653595, 0.12117568403482437, -0.2545785903930664, -0.06890678405761719, 0.0923621729016304, -0.027410708367824554},
	{0.15759778022766113, 0.23874133825302124, 0.06534268707036972, -0.11412446200847626, -0.18940994143486023, 0.058783963322639465, 0.09433509409427643, -0.2328769713640213, 0.2082810401916504, -0.0029689744114875793, 0.2040109485387802, -0.1717752069234848, -0.22338616847991943, 0.20520949363708496, 0.11974756419658661, 0.2115613967180252, -0.21281427145004272, 0.15229111909866333, 0.012930188328027725, -0.046151090413331985, 0.05501455068588257, 0.18905851244926453, 0.18867218494415283, 0.13789783418178558, 0.16540402173995972, 0.20059986412525177, 0.09700489044189453, 0.11523275077342987, -0.12706609070301056, -0.22258858382701874, -0.11859290301799774, 0.05191663280129433},
	{0.1749356985092163, -0.16517114639282227, 0.12861013412475586, 0.1964937448501587, -0.24564695358276367, -0.10063427686691284, -0.18210214376449585, -0.056522369384765625, 0.21423381567001343, -0.003426671028137207, 0.0748106837272644, -0.1743161678314209, -0.18646162748336792, 0.001749277114868164, -0.24953651428222656, -0.04546689987182617, -0.14669710397720337, 0.21597164869308472, 0.2155665159225464, 0.019421100616455078, 0.04614382982254028, 0.19804757833480835, 0.20663702487945557, 0.2066035270690918, -0.23151838779449463, 0.2381228804588318, -0.08209365606307983, 0.2245805859565735, -0.17566096782684326, -0.2341853380203247, -0.06592351198196411, 0.17474067211151123},
	{-0.1691768765449524, -0.14103823900222778, 0.27461037039756775, 0.21574565768241882, 0.12220006436109543, 0.15245887637138367, -0.061762485653162, -0.027664095163345337, 0.2488427758216858, 0.08729647845029831, 0.2120434045791626, 0.09042578935623169, -0.10275405645370483, -0.2694575786590576, 0.022255435585975647, 0.1872008740901947, -0.17752856016159058, 0.007136940956115723, 0.02384507656097412, -0.008897092193365097, 0.06059622764587402, 0.06486419588327408, -0.06996219605207443, -0.00777292950078845, 0.014547884464263916, -0.058245398104190826, -0.18382887542247772, 0.04806102439761162, 0.074771448969841, 0.07158127427101135, 0.09831131249666214, 0.10283160209655762},
	{-0.23980486392974854, 0.014506698586046696, -0.01622103713452816, 0.17800402641296387, -0.04941160976886749, 0.21425074338912964, 0.24511171877384186, 0.12900087237358093, -0.2200034260749817, -0.22841046750545502, -0.06994684040546417, -0.17818744480609894, -0.0017514824867248535, -0.12096240371465683, -0.04902246594429016, 0.25463205575942993, -0.041092224419116974, 0.09875655174255371, 0.21413710713386536, -0.00252377986907959, 0.18471652269363403, -0.00562405725941062, -0.044389184564352036, 0.06441258639097214, -0.12525057792663574, 0.23316729068756104, 0.010303672403097153, -0.15310131013393402, 0.1809455156326294, 0.09423935413360596, 0.0377858467400074, -0.05394822731614113},
	{-0.07390528917312622, 0.08453559875488281, 0.1661577820777893, -0.16953372955322266, 0.1497892141342163, -0.15953004360198975, 0.10863745212554932, 0.06584775447845459, -0.05353885889053345, -0.014030396938323975, 0.17473292350769043, 0.07002878189086914, 0.22716575860977173, 0.05542731285095215, 0.036009252071380615, 0.14618152379989624, 0.14471662044525146, -0.1803741455078125, -0.1865382194519043, -0.15980136394500732, 0.06098663806915283, 0.09621763229370117, 0.15012365579605103, 0.07910716533660889, 0.10746496915817261, 0.19164025783538818, -0.1294633150100708, -0.04326587915420532, 0.223932147026062, 0.09089159965515137, -0.1279388666152954, 0.09324735403060913},
	{0.17509377002716064, 0.11727943271398544, -0.047817569226026535, -0.0008124924497678876, -0.18972207605838776, 0.1502177119255066, 0.09178753942251205, -0.045587360858917236, -0.13673019409179688, -0.07553432136774063, 0.2370416820049286, -0.05163145065307617, -0.07400429248809814, -0.013522502034902573, 0.024015000090003014, -0.08292319625616074, 0.19908425211906433, 0.16995292901992798, 0.09751606732606888, 0.07749835401773453, -0.08157104253768921, -0.05230969190597534, 0.1597052663564682, 0.0007168102310970426, -0.19261670112609863, -0.0948009267449379, -0.0040346370078623295, 0.14075921475887299, 0.18851596117019653, -0.0589301735162735, -0.014127734117209911, -0.28554970026016235},
	{-0.11574763059616089, 0.18759632110595703, 0.11671304702758789, -0.012142658233642578, 0.20927590131759644, 0.2161940336227417, -0.019841909408569336, -0.24197125434875488, 0.099456787109375, 0.17768388986587524, 0.00750356912612915, 0.006451129913330078, 0.16580379009246826, -0.03824132680892944, 0.20704805850982666, -0.16426920890808105, 0.055621564388275146, 0.020280957221984863, 0.09247994422912598, -0.12066727876663208, 0.075161874294281, -0.04913860559463501, 0.20190250873565674, -0.21978437900543213, -0.14654791355133057, 0.1774517297744751, 0.16930395364761353, 0.015029609203338623, 0.1142541766166687, -0.15341293811798096, -0.10283344984054565, 0.09810096025466919},
	{-0.15546947717666626, 0.07954908162355423, -0.052794426679611206, -0.20929157733917236, 0.1864619255065918, -0.012351867742836475, -0.06737607717514038, -0.24983806908130646, -0.1479296088218689, -0.21927417814731598, 0.01835395209491253, 0.11697952449321747, -0.17212438583374023, 0.14611868560314178, -0.25191187858581543, 0.05535019934177399, 0.1851446032524109, -0.173661470413208, 0.049263082444667816, -0.14100313186645508, 0.20997804403305054, 0.21852006018161774, -0.1101650595664978, 0.04338773712515831, 0.16348958015441895, 0.1519746631383896, 0.2203982174396515, 0.24406152963638306, -0.1557430624961853, 0.14205674827098846, 0.19630946218967438, -0.21215321123600006},
	{-0.011565327644348145, -0.2445134073495865, -0.18195508420467377, -0.17818576097488403, -0.2980493903160095, 0.13512997329235077, 0.05502432957291603, -0.23787277936935425, 0.150917649269104, -0.18989984691143036, 0.16998673975467682, 0.024610387161374092, -0.0883936882019043, 0.25652146339416504, 0.14871565997600555, 0.2112933248281479, 0.01909792795777321, 0.21076911687850952, -0.08510476350784302, 0.10900110006332397, 0.19544357061386108, 0.22153033316135406, 0.002169122453778982, -0.1684277206659317, -0.070942223072052, -0.07967205345630646, -0.016315344721078873, 0.003890987951308489, -0.027820073068141937, -0.11337395012378693, -0.10876286029815674, -0.20989391207695007},
	{-0.15321266651153564, 0.07168108224868774, 0.19509996473789215, 0.06697564572095871, -0.033269189298152924, 0.01200014166533947, -0.22676287591457367, 0.04517507553100586, -0.24478942155838013, -0.029861347749829292, 0.1256481558084488, 0.10747663676738739, 0.11040681600570679, -0.2586430013179779, 0.09432646632194519, 0.17447835206985474, 0.18499906361103058, 0.09541308879852295, -0.09678816795349121, 0.14870308339595795, -0.052981793880462646, 0.19353148341178894, 0.05254524201154709, 0.03991929441690445, -0.17643320560455322, -0.004347757436335087, 0.22253860533237457, -0.1767101138830185, 0.051444292068481445, -0.2127774953842163, -0.0875076875090599, -0.10871421545743942},
};
const float bias_l2[] =
	{0.0, 0.02367374300956726, 0.03146398440003395, -0.013384989462792873, 0.01814498007297516, -0.012035876512527466, 0.012547562830150127, -0.005530641879886389, 0.0, 0.015703270211815834, 0.0008287123055197299, 0.01370894443243742, 0.0, 0.00574464863166213, -0.015180056914687157, 0.023471774533391, -0.023867422714829445, 0.0, -0.004321014508605003, -0.017976319417357445, 0.0, -0.009241155348718166, 0.021439993754029274, 0.021147411316633224, 0.0, 0.023702269420027733, 0.01741049811244011, -0.00848750863224268, -0.011407106183469296, 0.022719593718647957, -0.004887740593403578, 0.03416481614112854};

const std::vector<std::vector<float>> weights_l3{
	{0.14335930347442627, 0.1522374153137207, -0.26589974761009216, 0.2475350797176361, 0.2766130268573761, -0.2864535450935364, -0.1903078854084015, 0.17599964141845703, -0.2311241328716278, 0.22122904658317566, 0.07381758093833923, 0.19686368107795715, 0.01526746153831482, -0.12939321994781494, -0.19734951853752136, 0.08015525341033936, -0.06591534614562988, -0.2900729179382324, 0.28086552023887634, 0.22753211855888367, 0.17298099398612976, -0.2679656445980072, -0.13267217576503754, -0.09771567583084106, 0.19773176312446594, -0.18593399226665497, 0.10272088646888733, 0.016053318977355957, 0.014672070741653442, 0.18211913108825684, -0.0719374567270279, -0.19763246178627014},
	{-0.23672525584697723, 0.08683668076992035, 0.024782812222838402, 0.16911637783050537, 0.05009664222598076, 0.03478679805994034, 0.035229504108428955, 0.2966521978378296, -0.03037756308913231, 0.2499162256717682, -0.15874285995960236, 0.11799035221338272, 0.2430696040391922, -0.20960426330566406, -0.034414518624544144, 0.29929056763648987, 0.19834917783737183, -0.17536818981170654, -0.04589471220970154, -0.316543847322464, -0.2791602611541748, 0.22599387168884277, -0.17258864641189575, -0.17110686004161835, -0.09144730865955353, 0.03432643786072731, 0.27075180411338806, 0.0742674469947815, -0.2287963628768921, -0.21385711431503296, -0.014437021687626839, 0.2270297110080719},
	{-0.30963197350502014, -0.021126549690961838, -0.20425103604793549, -0.009149335324764252, 0.1622856855392456, 0.17047572135925293, 0.1778363138437271, 0.2361135184764862, -0.09366769343614578, -0.08840946853160858, 0.10924464464187622, -0.1791168451309204, 0.22162245213985443, -0.14009658992290497, 0.34859633445739746, 0.12364982068538666, 0.28825777769088745, 0.16635560989379883, -0.20124797523021698, -0.24467726051807404, -0.10500428825616837, -0.21690227091312408, 0.22965605556964874, 0.007386326789855957, 0.12470970302820206, 0.23270174860954285, 0.2921396493911743, -0.251149982213974, -0.2003525048494339, 0.18626421689987183, -0.09209117293357849, -0.0994698703289032},
	{0.26037776470184326, 0.28589531779289246, -0.28910407423973083, -0.13577593863010406, 0.17522098124027252, 0.03962349891662598, -0.048572976142168045, -0.07724399864673615, -0.1481236070394516, -0.11892403662204742, 0.2128593623638153, -0.18375465273857117, -0.24357450008392334, -0.07617204636335373, 0.19687438011169434, -0.19503837823867798, 0.23928619921207428, -0.06104935705661774, -0.006721628364175558, 0.14690899848937988, -0.05632626265287399, 0.09777218103408813, 0.0005926960147917271, 0.2821049988269806, 0.25091105699539185, -0.1822197288274765, 0.12527769804000854, 0.29809853434562683, 0.10316289961338043, 0.15217706561088562, -0.080815389752388, -0.14073194563388824},
	{-0.09078744798898697, -0.009608290158212185, 0.07254344969987869, 0.1966225802898407, 0.11140741407871246, 0.19383548200130463, 0.0600329264998436, 0.16080203652381897, 0.029510151594877243, -0.008814758621156216, -0.01793813705444336, 0.24106404185295105, -0.05578270182013512, 0.10542359948158264, -0.07939549535512924, -0.059969544410705566, -0.0749230906367302, 0.01634165644645691, 0.09598991274833679, 0.2093687504529953, 0.00877007283270359, -0.05188852921128273, -0.0426182746887207, -0.2583034634590149, 0.08643417805433273, -0.1734190732240677, 0.297810435295105, -0.0817212387919426, -0.005822904407978058, 0.23028279840946198, -0.19059650599956512, -0.012699812650680542},
	{-0.09283183515071869, 0.08434434980154037, 0.09083330631256104, -0.0512203574180603, 0.18840870261192322, -0.06826785951852798, -0.23291608691215515, 0.1595565229654312, 0.035847052931785583, -0.0971226617693901, 0.29146692156791687, -0.24209900200366974, -0.05997653305530548, 0.27311909198760986, 0.26649826765060425, -0.2746794521808624, -0.22197899222373962, 0.0917297899723053, -0.2580416798591614, 0.09865717589855194, -0.057819340378046036, 0.16199281811714172, 0.14897944033145905, 0.05690264701843262, 0.17011480033397675, 0.2506062090396881, -0.21446065604686737, -0.007315388880670071, 0.13821694254875183, 0.11189509183168411, 0.006006115581840277, 0.12894973158836365},
	{-0.1227935403585434, 0.1968233287334442, -0.028869319707155228, -0.3260441720485687, 0.20515508949756622, 0.0421067476272583, 0.13510996103286743, -0.06322580575942993, -0.061571378260850906, 0.14746256172657013, 0.07907697558403015, -0.23998035490512848, 0.1161496713757515, 0.19308589398860931, -0.2623506486415863, 0.2341039627790451, -0.18687735497951508, -0.20117634534835815, 0.21563833951950073, -0.050463706254959106, 0.28995710611343384, -0.003793090581893921, 0.12620171904563904, -0.13753189146518707, 0.22048524022102356, -0.18106594681739807, -0.22153674066066742, -0.17757655680179596, -0.10969410836696625, 0.11229714751243591, 0.2650221884250641, -0.053945392370224},
	{-0.15599510073661804, -0.22928494215011597, 0.09836073219776154, -0.09951768815517426, 0.1784113496541977, -0.060054514557123184, -0.21229350566864014, -0.0005257574957795441, 0.004448115825653076, -0.07565995305776596, -0.007237493991851807, -0.1427309513092041, 0.21038559079170227, -0.24915608763694763, -0.20032909512519836, 0.17239664494991302, 0.29220879077911377, 0.01318088173866272, -0.19555731117725372, 0.2023785412311554, 0.04403427243232727, 0.1971634179353714, -0.2859056890010834, -0.2806825637817383, 0.045455168932676315, 0.1940111219882965, -0.12676845490932465, 0.17052379250526428, 0.1888580322265625, -0.13481108844280243, 0.10370215773582458, 0.12375766038894653},
	{0.2231394350528717, -0.26195406913757324, 0.20277956128120422, -0.25872108340263367, 0.05365535616874695, -0.22567814588546753, -0.24187448620796204, -0.015338927507400513, -0.011390268802642822, -0.14968428015708923, 0.08705601096153259, -0.0972120463848114, 0.17324328422546387, 0.282982736825943, -0.18783104419708252, 0.28116634488105774, 0.2853640019893646, 0.2558937966823578, -0.02697739005088806, -0.2860577404499054, -0.10255947709083557, 0.20077994465827942, 0.2083132565021515, 0.19651100039482117, 0.07088842988014221, 0.15110033750534058, -0.2777261734008789, -0.027377307415008545, 0.09815841913223267, -0.18053531646728516, -0.12796838581562042, -0.23508864641189575},
	{0.08180981874465942, 0.11318399757146835, -0.056403644382953644, 0.0020591402426362038, -0.16422095894813538, 0.22252662479877472, 0.16401338577270508, -0.37887024879455566, -0.18409359455108643, 0.034781575202941895, 0.2644422948360443, -0.2095918506383896, -0.3347902297973633, 0.20257730782032013, -0.03571797534823418, -0.36377274990081787, -0.2272852659225464, -0.28869858384132385, -0.16832278668880463, 0.19793221354484558, 0.13479864597320557, -0.07924006134271622, -0.26113685965538025, 0.24479618668556213, -0.11472872644662857, 0.03441959246993065, 0.246423602104187, -0.2368156462907791, 0.10273751616477966, 0.311511367559433, 0.11496790498495102, 0.16933324933052063},
	{-0.20596487820148468, -0.03083774261176586, 0.18700732290744781, -0.04457362741231918, 0.03418295830488205, -0.060939475893974304, 0.15965382754802704, -0.12798728048801422, -0.09593428671360016, 0.21473059058189392, -0.10453435778617859, 0.2599552571773529, 0.23595046997070312, 0.13173602521419525, -0.16251510381698608, -0.08154772967100143, 0.2331065684556961, -0.07966017723083496, -0.11377076059579849, 0.17903520166873932, 0.1975266933441162, -0.0011092089116573334, 0.09225782006978989, -0.15612336993217468, 0.2555720806121826, -0.029988987371325493, -0.2634999454021454, -0.008946898393332958, 0.013566139154136181, -0.16081584990024567, 0.2812068462371826, -0.12739314138889313},
	{0.26388585567474365, 0.20336078107357025, 0.19007286429405212, -0.11833540350198746, 0.17093420028686523, 0.2772415578365326, -0.03215605765581131, 0.10698188841342926, 0.18776701390743256, -0.2266639620065689, -0.062311191111803055, 0.01846633106470108, 0.031123854219913483, 0.027421144768595695, 0.252436101436615, 0.20763185620307922, 0.23017491400241852, -0.042497605085372925, 0.18923641741275787, -0.1280832439661026, 0.08071787655353546, -0.23486194014549255, 0.19051100313663483, 0.17508450150489807, 0.231283500790596, -0.2054886817932129, -0.122736357152462, -0.0756949931383133, -0.24469532072544098, 0.06462465226650238, -0.21890905499458313, 0.21482208371162415},
	{-0.06336237490177155, -0.13477276265621185, 0.10675400495529175, -0.11923885345458984, 0.1883927285671234, -0.1580168455839157, 0.09780627489089966, -0.23027798533439636, 0.07147756218910217, 0.06365510821342468, -0.2673088610172272, -0.22730015218257904, -0.0898544043302536, -0.05967658758163452, -0.18209606409072876, -0.12220098078250885, -0.23341816663742065, 0.1594989001750946, -0.2775636911392212, 0.03380045294761658, 0.09444525837898254, -0.2637089192867279, -0.16941215097904205, 0.029372096061706543, -0.1519864946603775, 0.07909238338470459, -0.05881276726722717, -0.17591190338134766, -0.03050866723060608, -0.062189921736717224, -0.1735466867685318, -0.281495064496994},
	{-0.3156713545322418, 0.031305622309446335, -0.017815817147493362, 0.25166192650794983, -0.2670972943305969, 0.009071620181202888, -0.09457916021347046, -0.20617496967315674, 0.012712877243757248, 0.19111478328704834, -0.2935972809791565, -0.11592147499322891, 0.13696789741516113, -0.18591172993183136, -0.17933636903762817, -0.012091577984392643, 0.06963955610990524, -0.21074984967708588, -0.20685166120529175, -0.18129374086856842, -0.13929352164268494, 0.09109193831682205, -0.0970180556178093, -0.21002188324928284, -0.026615435257554054, 0.23974289000034332, 0.22469119727611542, -0.20494723320007324, -0.008725093677639961, -0.13583751022815704, -0.2976667582988739, 0.22993561625480652},
	{0.17763997614383698, 0.15769384801387787, -0.14345331490039825, -0.2671060264110565, -0.21985337138175964, -0.13866911828517914, 0.06889243423938751, 0.23218773305416107, 0.005418689455837011, -0.04071551561355591, 0.08945027738809586, 0.15599210560321808, 0.21378624439239502, 0.06000041589140892, -0.06538011133670807, -0.12317560613155365, -0.10760511457920074, -0.06261718273162842, -0.20734865963459015, -0.06987851113080978, 0.30040082335472107, -0.09135689586400986, -0.1837751716375351, -0.020408660173416138, 0.08861913532018661, 0.2850157916545868, -0.027890924364328384, 0.1631859391927719, -0.128952756524086, -0.09790482372045517, 0.008164748549461365, 0.22579559683799744},
	{-0.013638339005410671, 0.10127199441194534, -0.1655631959438324, 0.0928923636674881, -0.13669905066490173, 0.26996728777885437, 0.18309369683265686, -0.03911904618144035, 0.14368990063667297, 0.037734657526016235, -0.10659085214138031, 0.20968089997768402, 0.1005680114030838, -0.15730899572372437, 0.14899934828281403, 0.0482834130525589, 0.17563103139400482, 0.2703392803668976, 0.23439688980579376, 0.16956008970737457, 0.19260723888874054, -0.27419689297676086, -0.2085767537355423, 0.2133215367794037, -0.12863023579120636, 0.05424356088042259, -0.2265949249267578, 0.12312884628772736, 0.15693524479866028, 0.2310955673456192, -0.139345183968544, -0.09890638291835785},
	{-0.04058123379945755, 0.11828529089689255, 0.0623929388821125, -0.033324234187603, -0.21624544262886047, 0.09855061769485474, -0.17775948345661163, -0.18829882144927979, -0.060240305960178375, 0.26513680815696716, -0.04991546645760536, -0.1473143994808197, -0.009210401214659214, 0.03420698642730713, -0.2588635981082916, -0.02316593937575817, -0.08366133272647858, -0.19329068064689636, -0.10511878877878189, 0.14161553978919983, 0.21755735576152802, -0.13546617329120636, -0.06024213135242462, -0.015064805746078491, 0.2535727024078369, 0.07420246303081512, 0.3162454664707184, -0.012136789038777351, 0.044765904545784, -0.29652002453804016, 0.07665842771530151, -0.30352333188056946},
	{-0.15838754177093506, 0.2251700460910797, -0.06555882096290588, 0.14838385581970215, -0.2332826852798462, -0.21910475194454193, -0.23034295439720154, -0.20333096385002136, 0.2728644907474518, -0.08172842860221863, -0.2432413399219513, -0.30380311608314514, 0.1859532594680786, -0.011317908763885498, 0.01722964644432068, -0.13472801446914673, -0.06335055828094482, 0.2404787242412567, -0.12509188055992126, -0.08531522750854492, 0.0318814218044281, 0.14008238911628723, -0.2563825249671936, 0.0013310909271240234, 0.1504991054534912, -0.2019737958908081, -0.1490028202533722, 0.14104381203651428, 0.18339180946350098, 0.2674156725406647, 0.17611899971961975, 0.1368955373764038},
	{-0.11572293937206268, 0.18327991664409637, 0.20440112054347992, 0.15646040439605713, -0.18721334636211395, 0.23016051948070526, -0.1816190779209137, -0.030997350811958313, -0.22983795404434204, -0.24406027793884277, -0.21029919385910034, 0.22723813354969025, 0.09938468039035797, -0.2550337612628937, 0.05577448010444641, -0.002514684572815895, -0.046403780579566956, -0.2263353019952774, 0.06017656996846199, -0.03280597925186157, 0.25800424814224243, -0.2869294285774231, 0.13339754939079285, -0.11327725648880005, 0.005782358348369598, -0.15763570368289948, -0.15015262365341187, 0.12225306779146194, -0.021727293729782104, 0.08612436056137085, 0.24947687983512878, 0.07737541198730469},
	{-0.0662660226225853, -0.008413970470428467, -0.24353888630867004, -0.2852470576763153, 0.0719076544046402, -0.21743278205394745, 0.08017873764038086, -0.0016094658058136702, 0.29652655124664307, 0.24046733975410461, -0.031749725341796875, 0.005988383665680885, 0.13622431457042694, 0.05809326469898224, -0.05593220144510269, -0.05533554032444954, 0.04737522080540657, 0.05193883180618286, -0.012112518772482872, -0.28419068455696106, -0.2721446454524994, -0.06323032081127167, -0.2809951901435852, 0.2903256118297577, -0.2855275273323059, 0.0380341038107872, -0.18999291956424713, -0.25895771384239197, -0.16405223309993744, -0.04033656790852547, 0.07180210202932358, -0.2732662856578827},
	{0.0024962425231933594, -0.2201557457447052, -0.1686214804649353, 0.09528914093971252, 0.06881815195083618, 0.04293617606163025, -0.16015847027301788, -0.047315627336502075, -0.07622447609901428, 0.25477173924446106, 0.031108945608139038, 0.0625939667224884, -0.10092799365520477, -0.06986147165298462, -0.11833028495311737, -0.14832931756973267, -0.2249157428741455, 0.04263031482696533, 0.08645382523536682, 0.2442546784877777, -0.26211437582969666, -0.1889006495475769, -0.1937137246131897, 0.2742370665073395, 0.07275018095970154, -0.054257094860076904, -0.08221350610256195, -0.07129906117916107, 0.27088460326194763, -0.06456513702869415, -0.13381828367710114, 0.16899195313453674},
	{0.22395363450050354, -0.31933140754699707, -0.0047894748859107494, -0.16676585376262665, 0.16538216173648834, 0.04434281215071678, -0.012950228527188301, -0.23657913506031036, 0.08547499775886536, 0.21349944174289703, 0.03442971408367157, 0.17781274020671844, -0.09363237023353577, 0.06122640147805214, 0.2696748971939087, 0.32553213834762573, -0.08533327281475067, -0.29350247979164124, 0.03655509278178215, -0.14219887554645538, 0.24365900456905365, -0.26851844787597656, 0.21759124100208282, -0.06288707256317139, 0.11742813140153885, 0.1636057049036026, 0.03059217892587185, 0.21728338301181793, 0.07563790678977966, 0.03977322205901146, 0.15939778089523315, -0.003286987543106079},
	{-0.12052399665117264, 0.10071992129087448, -0.08375489711761475, -0.19918504357337952, -0.15457017719745636, 0.20889149606227875, -0.11785850673913956, -0.09392078965902328, 0.2846318781375885, -0.138589546084404, 0.15820229053497314, 0.08269825577735901, 0.04448305815458298, -0.04870311915874481, -0.13210932910442352, 0.18390874564647675, -0.1335097700357437, -0.09021969139575958, 0.17813247442245483, 0.22230958938598633, 0.18337592482566833, -0.2818022072315216, 0.10917104780673981, -0.05617007613182068, 0.056006938219070435, -0.008749338798224926, -0.13763684034347534, 0.21258294582366943, 0.25967153906822205, -0.03908289968967438, -0.05837919935584068, -0.23114807903766632},
	{-0.08270516991615295, 0.0017706322250887752, 0.21455669403076172, 0.2735963761806488, 0.11139949411153793, 0.1623876392841339, -0.28879010677337646, 0.18354277312755585, -0.01354620885103941, -0.2183832824230194, -0.08165411651134491, 0.3033615052700043, 0.2647840976715088, 0.2322423756122589, 0.2258579581975937, -0.12183044850826263, 0.24536573886871338, 0.29606375098228455, -0.1573227196931839, -0.09579169750213623, 0.14527451992034912, 0.09207019954919815, 0.019081203266978264, 0.2651121914386749, -0.16876214742660522, -0.1603696346282959, 0.008535883389413357, 0.034944191575050354, 0.14743195474147797, 0.12179158627986908, -0.006439379416406155, -0.18451857566833496},
	{0.21586963534355164, 0.2555641829967499, -0.2784101366996765, -0.00016301870346069336, 0.0986110270023346, -0.1411951333284378, 0.26901301741600037, 0.2278326451778412, -0.1120852380990982, 0.2572958171367645, 0.12575092911720276, 0.18239274621009827, -0.1253824234008789, 0.009221941232681274, -0.1481335312128067, -0.002153068780899048, -0.2954326868057251, 0.24959483742713928, -0.10930772125720978, -0.03151533007621765, -0.02907872200012207, 0.2764412462711334, -0.09684623777866364, 0.0981263816356659, -0.053718000650405884, 0.24300649762153625, -0.14236123859882355, -0.27731853723526, -0.03043222427368164, 0.11640679836273193, 0.25280722975730896, 0.2175474464893341},
	{-0.2274417132139206, -0.26859965920448303, 0.30528655648231506, -0.18946805596351624, 0.250385046005249, -0.052363935858011246, -0.12530292570590973, -0.10024410486221313, -0.16511653363704681, 0.08390938490629196, 0.1566585749387741, -0.035379230976104736, 0.1758223921060562, 0.028816087171435356, -0.17182517051696777, 0.12680459022521973, -0.02964920736849308, 0.20025554299354553, 0.31037813425064087, 0.15415319800376892, 0.07956277579069138, 0.05835606902837753, -0.06274349987506866, -0.24277770519256592, 0.11256065219640732, 0.11899588257074356, -0.22175954282283783, 0.032017532736063004, -0.28898048400878906, -0.07350029051303864, 0.13224375247955322, -0.22401097416877747},
	{0.23204784095287323, 0.15549154579639435, -0.08795778453350067, -0.0387544222176075, 0.09616120904684067, -0.28513237833976746, 0.11549939960241318, 0.11746170371770859, -0.12366613745689392, 0.2885455787181854, -0.10635673999786377, -0.2241978496313095, 0.30132171511650085, 0.311055451631546, -0.13531556725502014, 0.28380852937698364, -0.2683422267436981, -0.2631080746650696, 0.2145766019821167, -0.07046409696340561, -0.1819758415222168, -0.08337733149528503, -0.3013935983181, -0.1908864974975586, -0.006446626037359238, -0.2244400680065155, -0.045890923589468, -0.1794261485338211, -0.09447167813777924, 0.031650397926568985, 0.1273566484451294, -0.1563253551721573},
	{0.08013937622308731, -0.2714066505432129, 0.2404058426618576, 0.2595183551311493, -0.09340269863605499, -0.2972278594970703, 0.11005128920078278, -0.1325514018535614, -0.1341126561164856, 0.1683434396982193, 0.10404551774263382, 0.19318003952503204, 0.022698087617754936, 0.18190959095954895, -0.016202492639422417, -0.16108551621437073, -0.3118031919002533, 0.06756216287612915, 0.28411370515823364, -0.1713019162416458, -0.004756450653076172, 0.09825050830841064, -0.009677414782345295, -0.24734294414520264, -0.023374617099761963, 0.13348901271820068, -0.1438538134098053, 0.0690048560500145, -0.0495704747736454, -0.31266823410987854, 0.22070108354091644, -0.07785311341285706},
	{0.2696037292480469, -0.20837615430355072, -0.1393343061208725, -0.09155581891536713, -0.2727547287940979, -0.2853071987628937, 0.20396080613136292, 0.23706084489822388, 0.16659288108348846, -0.19748416543006897, -0.18604984879493713, 0.06608165800571442, -0.07553192228078842, -0.2959592044353485, -0.2589259743690491, -0.2373090237379074, 0.0069900150410830975, 0.05986201763153076, 0.09288514405488968, 0.05502377822995186, -0.17375946044921875, -0.2838021516799927, -0.04524083435535431, 0.054851263761520386, 0.04451959580183029, 0.25461071729660034, 0.1272955685853958, -0.12591826915740967, 0.191497802734375, 0.23170438408851624, -0.10778938978910446, 0.005742371082305908},
	{-0.21672458946704865, -0.042213909327983856, -0.08233847469091415, -0.0886053666472435, 0.019810782745480537, 0.028635255992412567, -0.2556033730506897, -0.04268745705485344, 0.18822917342185974, 0.18991819024085999, -0.23914696276187897, -0.10895724594593048, -0.199581116437912, 0.10312145203351974, 0.04837967827916145, 0.08416278660297394, -0.10170920193195343, 0.11949267983436584, 0.21688516438007355, 0.2314222753047943, -0.20270678400993347, 0.002230316400527954, -0.2561410665512085, -0.052198559045791626, -0.15627537667751312, -0.041476767510175705, 0.0957440510392189, -0.27572524547576904, -0.03247401490807533, -0.13439172506332397, 0.08690093457698822, 0.1761215627193451},
	{-0.3172153830528259, 0.055734142661094666, 0.07580813020467758, 0.1633274257183075, 0.04534279182553291, 0.26225849986076355, -0.08800087869167328, -0.05756901577115059, -0.2391093373298645, 0.1914764791727066, -0.14772459864616394, -0.1806175857782364, -0.2646162807941437, 0.01999259926378727, -0.007900552824139595, -0.1012045294046402, -0.2807273268699646, -0.05575603246688843, -0.12026658654212952, -0.012999939732253551, 0.039509017020463943, 0.0224912166595459, 0.12604710459709167, 0.11247840523719788, -0.20261840522289276, 0.028566235676407814, 0.132032573223114, 0.0293137039989233, -0.11410626769065857, -0.06902173906564713, 0.1912994235754013, -0.11585330963134766},
	{0.19444718956947327, -0.03174819052219391, 0.24471278488636017, -0.22560442984104156, 0.2557228207588196, 0.2133881151676178, 0.052433352917432785, 0.039761316031217575, 0.08876694738864899, -0.1116023138165474, -0.1631549894809723, 0.14321480691432953, 0.1953495591878891, 0.2058354765176773, -0.13568995893001556, 0.03869110718369484, 0.234152153134346, -0.07055212557315826, 0.1054200604557991, 0.21510373055934906, 0.05388450622558594, 0.11995348334312439, 0.16294050216674805, 0.03227716684341431, -0.062047891318798065, -0.31908753514289856, 0.27865251898765564, -0.10622420907020569, -0.00035672305966727436, -0.17537319660186768, -0.30718255043029785, 0.23528727889060974},
};
const float bias_l3[] =
	{-0.01877448335289955, -0.009297140873968601, -0.005755523219704628, 0.022431915625929832, 0.025322072207927704, 0.020767929032444954, 0.005587989930063486, 0.020659655332565308, 0.008355101570487022, 0.005850377958267927, -0.00597013346850872, 0.01849938929080963, 0.026867292821407318, 0.020219989120960236, 0.03587294742465019, 0.024900199845433235, 0.011745055206120014, 0.0, 0.021897677332162857, -0.014949235133826733, 0.021354885771870613, -0.02203783392906189, -0.021551981568336487, 0.0, -0.016741648316383362, -0.013180240988731384, 0.011169534176588058, -0.015741096809506416, -0.013282506726682186, -0.020331179723143578, -0.0173349492251873, 0.0};

const std::vector<std::vector<float>> weights_l4{
	{0.1520247757434845, 0.0021460300777107477, -0.31141412258148193, 0.2941957116127014, -0.2780500054359436, -0.29238277673721313, -0.11539177596569061, -0.12699855864048004, 0.024024421349167824, -0.10701893270015717, -0.18533317744731903, 0.22215864062309265, 0.10980336368083954, 0.2359837293624878, -0.2261131852865219, 0.1323932707309723},
	{-0.31037694215774536, 0.13740293681621552, -0.33563005924224854, 0.14259251952171326, -0.07163393497467041, 0.18067900836467743, -0.1837853342294693, 0.23398803174495697, -0.2739928960800171, -0.2785336971282959, 0.12676110863685608, -0.3366212844848633, 0.18119804561138153, -0.13012628257274628, 0.06424427777528763, -0.17307257652282715},
	{0.18575206398963928, -0.32386794686317444, -0.2113041877746582, -0.008062846958637238, -0.09291893243789673, 0.3359951078891754, -0.306024968624115, -0.1813022643327713, -0.12909625470638275, 0.2938237190246582, -0.13321109116077423, 0.29185906052589417, -0.043629374355077744, -0.35091662406921387, 0.2154269963502884, 0.2600313127040863},
	{0.025994090363383293, -0.1515277773141861, -0.03331000730395317, -0.13377995789051056, -0.2304757684469223, 0.33316898345947266, -0.3069404065608978, -0.3704405426979065, 0.15441256761550903, -0.3141927719116211, -0.03825601935386658, 0.2681540548801422, -0.03344428539276123, 0.21948863565921783, -0.398301899433136, -0.25420641899108887},
	{-0.05454517900943756, 0.32744520902633667, 0.3169894516468048, 0.1931123286485672, 0.059458039700984955, 0.2403254359960556, 0.22557632625102997, 0.2655278444290161, -0.0899631604552269, 0.07515152543783188, 0.3318048417568207, -0.11623191088438034, -0.01956995017826557, 0.2803427577018738, -0.15336249768733978, -0.3005126714706421},
	{-0.1707347184419632, 0.3249112665653229, 0.32139191031455994, 0.11516840010881424, 0.30802464485168457, 0.07004950195550919, 0.3356976807117462, 0.353836327791214, -0.2908492684364319, -0.24301780760288239, -0.12815019488334656, -0.35321834683418274, -0.20163875818252563, 0.04102957248687744, 0.14997422695159912, -0.03924816846847534},
	{0.38996508717536926, 0.13934560120105743, -0.2474455088376999, 0.14481142163276672, -0.15736867487430573, -0.049615778028964996, -0.40503937005996704, 0.19622309505939484, 0.10176830738782883, 0.2917490303516388, -0.15450815856456757, 0.2105540782213211, -0.20007015764713287, -0.09387713670730591, 0.21821154654026031, -0.10391709208488464},
	{0.34554436802864075, 0.21978728473186493, 0.2723076641559601, -0.2932826578617096, 0.03272143751382828, -0.18405042588710785, 0.26068273186683655, 0.27774059772491455, 0.2629876434803009, -0.22965691983699799, -0.32904356718063354, -0.24401982128620148, -0.3299313485622406, 0.15828418731689453, 0.07442229986190796, -0.08917665481567383},
	{-0.2224806845188141, -0.13292370736598969, 0.1131121963262558, -0.0502062626183033, -0.15420129895210266, -0.12217215448617935, 0.3296099603176117, -0.05549565702676773, 0.027713453397154808, -0.10563720017671585, -0.0034932196140289307, 0.1389053612947464, -0.041480179876089096, 0.21400178968906403, 0.1505972295999527, 0.3352421820163727},
	{0.034826621413230896, -0.3372601568698883, 0.3195054233074188, -0.22260409593582153, 0.3388717770576477, -0.06271719187498093, -0.3411806523799896, -0.3192090690135956, -0.13572697341442108, -0.09560340642929077, -0.13444262742996216, 0.04881804436445236, -0.1672345995903015, -0.17710524797439575, 0.28011977672576904, -0.2199552059173584},
	{-0.035146042704582214, 0.15405383706092834, 0.00603345176205039, -0.05037052556872368, -0.1853710263967514, -0.1116807758808136, 0.04724055528640747, 0.00881686806678772, 0.1190313994884491, -0.2146201729774475, 0.18662843108177185, -0.17562232911586761, 0.339081346988678, 0.10849687457084656, 0.13531215488910675, -0.21469570696353912},
	{-0.009749024175107479, 0.34302398562431335, 0.36273640394210815, 0.07950828224420547, 0.1377040594816208, 0.15314508974552155, -0.16349323093891144, 0.18109415471553802, -0.14916633069515228, 0.2589249610900879, -0.3337768316268921, -0.15625302493572235, -0.22086769342422485, -0.30110281705856323, -0.1035870909690857, 0.13209596276283264},
	{0.23831813037395477, 0.004655370023101568, 0.3198419213294983, -0.007967840880155563, -0.17055164277553558, 0.3533615469932556, 0.16368113458156586, 0.12483201920986176, 0.059495896100997925, -0.016464298591017723, -0.32317519187927246, 0.26664435863494873, -0.028580626472830772, 0.14150944352149963, -0.3233640193939209, -0.3200500011444092},
	{0.029925230890512466, 0.1707899123430252, 0.20881691575050354, 0.16564476490020752, 0.03294301778078079, -0.022072916850447655, 0.014057395979762077, -0.2651136517524719, -0.24990427494049072, 0.3470873236656189, 0.19849351048469543, -0.07615550607442856, 0.28775501251220703, -0.21696604788303375, 0.228830024600029, -0.20440201461315155},
	{-0.3233211040496826, -0.19815701246261597, 0.20292532444000244, -0.12350103259086609, -0.10631502419710159, -0.034662000834941864, 0.207374706864357, 0.01991439051926136, -0.10095285624265671, 0.05186064541339874, -0.24990114569664001, -0.1322457492351532, 0.026832610368728638, 0.25184616446495056, -0.14657671749591827, -0.18931461870670319},
	{0.3453444838523865, 0.08848711848258972, 0.26277074217796326, 0.031846486032009125, -0.14411306381225586, 0.2740571200847626, 0.2432292103767395, 0.21205390989780426, 0.272215873003006, 0.15972554683685303, -0.1799333244562149, 0.23119889199733734, 0.11899538338184357, 0.20079006254673004, 0.3219662606716156, -0.09583300352096558},
	{0.3371438980102539, 0.2565418481826782, 0.011906965635716915, -0.11320188641548157, 0.19963330030441284, -0.0926768109202385, -0.1147373840212822, 0.2022343873977661, 0.30754974484443665, 0.10655834525823593, 0.15199771523475647, -0.2924032509326935, 0.032009512186050415, -0.11575638502836227, 0.302167147397995, -0.23457950353622437},
	{-0.16976767778396606, 0.29917779564857483, 0.26392897963523865, 0.302979439496994, -0.13951905071735382, 0.24772021174430847, 0.34371671080589294, -0.09378692507743835, 0.235128253698349, -0.30964767932891846, 0.28411105275154114, -0.2572617530822754, -0.02166852355003357, -0.0731884241104126, 0.09111213684082031, 0.32625332474708557},
	{-0.04588131606578827, -0.03362127020955086, -0.23818323016166687, -0.19180910289287567, -0.20955507457256317, 0.16206024587154388, -0.045324210077524185, 0.3535824418067932, -0.10171271115541458, 0.290483295917511, 0.18219348788261414, 0.02382611110806465, -0.09239403158426285, 0.026160482317209244, 0.15824148058891296, -0.21110327541828156},
	{0.2548210620880127, 0.316260427236557, -0.2207460254430771, 0.23091033101081848, 0.3033791184425354, 0.08559106290340424, 0.08934098482131958, 0.26782673597335815, -0.14887547492980957, -0.14750078320503235, -0.31372326612472534, 0.21158435940742493, 0.30990687012672424, -0.17647510766983032, -0.258880615234375, 0.11052346229553223},
	{0.35070231556892395, -0.14973586797714233, 0.3127697706222534, -0.20407970249652863, -0.03627277538180351, -0.21428586542606354, 0.0279946681112051, -0.15365475416183472, -0.18280808627605438, -0.20245157182216644, 0.3264531195163727, -0.2705076336860657, 0.10096374899148941, 0.3506864309310913, -0.22026048600673676, -0.3143646717071533},
	{-0.07449299842119217, 0.0037022139877080917, -0.028253141790628433, 0.0014908313751220703, 0.09307050704956055, 0.3035723865032196, 0.1809169352054596, 0.2885526418685913, 0.37259241938591003, 0.21959775686264038, -0.12557804584503174, 0.2975549101829529, 0.24454686045646667, -0.26759904623031616, 0.16443656384944916, -0.14750874042510986},
	{0.2257329374551773, -0.19843170046806335, -0.04505946487188339, 0.08702803403139114, 0.09361673891544342, 0.005930958315730095, -0.27397486567497253, -0.3308643400669098, 0.1431093066930771, 0.3081258535385132, -0.10573986172676086, 0.11523279547691345, -0.056585729122161865, -0.34563666582107544, -0.2755298316478729, 0.29754218459129333},
	{0.019627630710601807, 0.17688199877738953, -0.014472395181655884, -0.31462469696998596, 0.28071436285972595, -0.16999298334121704, -0.08250591158866882, 0.10581067204475403, 0.35151055455207825, 0.3523399531841278, 0.014206856489181519, -0.11160965263843536, -0.07510662078857422, -0.028162449598312378, -0.1401171088218689, 0.1258050501346588},
	{0.0755288302898407, 0.17581439018249512, -0.035854943096637726, 0.3226947784423828, -0.14117784798145294, -0.018594706431031227, -0.05512157082557678, 0.16262511909008026, 0.23640599846839905, -0.16058126091957092, -0.33476051688194275, 0.2041025608778, -0.347177118062973, 0.05904771760106087, 0.21458129584789276, -0.3346996605396271},
	{-0.25004467368125916, 0.2157556116580963, -0.34962818026542664, 0.2142518162727356, -0.06741178780794144, -0.2020910382270813, -0.056288741528987885, 0.27847054600715637, -0.20395413041114807, -0.08220675587654114, 0.19604572653770447, -0.3545914590358734, -0.18908916413784027, -0.331615149974823, 0.13929064571857452, -0.29010847210884094},
	{-0.19424918293952942, -0.3245335519313812, -0.3019058108329773, -0.10969841480255127, -0.28118082880973816, -0.04069510102272034, 0.37969958782196045, -0.08760999888181686, 0.008305927738547325, 0.30988484621047974, -0.26095354557037354, -0.33132654428482056, 0.20480790734291077, 0.04653654247522354, -0.05698893591761589, 0.28423938155174255},
	{-0.31877022981643677, -9.361663978779688e-05, -0.18979941308498383, -0.25074583292007446, 0.3385705351829529, -0.12793128192424774, -0.3275446891784668, -0.21094158291816711, -0.28527334332466125, -0.08692565560340881, 0.08451437950134277, -0.1310858577489853, 0.30050769448280334, -0.23195143043994904, 0.190717875957489, 0.16539934277534485},
	{0.19339945912361145, -0.2823278307914734, -0.16059289872646332, -0.12400825321674347, 0.24285118281841278, 0.0777297392487526, 0.2344137728214264, -0.09840798377990723, 0.27992939949035645, -0.1652618944644928, 0.3207150995731354, -0.35266444087028503, 0.08930858969688416, -0.3193090558052063, 0.008612238802015781, -0.1027955710887909},
	{-0.18913273513317108, 0.34469345211982727, -0.1460537165403366, 0.15245702862739563, 0.0704193189740181, 0.23457905650138855, -0.21808747947216034, -0.2324589341878891, 0.18989375233650208, -0.0893288105726242, 0.17730841040611267, 0.2773090600967407, 0.2417820394039154, -0.04697852209210396, -0.1802588403224945, -0.15985094010829926},
	{0.1937856525182724, 0.18126428127288818, -0.32411929965019226, 0.30598387122154236, 0.17151744663715363, -0.03777332976460457, -0.31780436635017395, -0.051678795367479324, 0.0969133973121643, -0.1441410630941391, 0.27703770995140076, -0.1896679848432541, 0.013060061261057854, -0.2522895634174347, 0.22105252742767334, 0.23500856757164001},
	{-0.04718509316444397, -0.21530918776988983, -0.23396044969558716, -0.13312436640262604, -0.0228864848613739, 0.3077704608440399, 0.21616390347480774, -0.1444552093744278, -0.020093262195587158, 0.09829843044281006, 0.10078650712966919, 0.34676215052604675, 0.21500667929649353, 0.1450769603252411, 0.17877253890037537, 0.16422316431999207},
};
const float bias_l4[] =
	{0.01432310976088047, 0.01767250895500183, 0.022717664018273354, -0.02163919433951378, -0.014050805009901524, 0.019462546333670616, 0.017447520047426224, 0.021713076159358025, -0.02081720344722271, 0.0224979966878891, 0.0, -0.010775236412882805, -0.0007158225635066628, 0.01341709028929472, 0.017340239137411118, 0.0};

const std::vector<std::vector<float>> weights_l5{
	{0.19394397735595703, 0.12165296077728271, -0.211690753698349, -0.46854040026664734, 0.4870016276836395, 0.232407808303833, -0.2785448431968689, -0.030131088569760323},
	{-0.3525904417037964, -0.18725168704986572, 0.1268703043460846, 0.5134211778640747, 0.14805954694747925, -0.26813197135925293, -0.2752683758735657, 0.17146235704421997},
	{-0.48707115650177, -0.10531413555145264, 0.296042263507843, 0.012955588288605213, -0.12560208141803741, 0.5032769441604614, 0.24602065980434418, 0.3507552742958069},
	{0.09822916984558105, -0.49560725688934326, -0.11135545372962952, -0.42252492904663086, -0.40963563323020935, -0.16868919134140015, 0.10812338441610336, -0.20818592607975006},
	{0.09217286109924316, -0.14004695415496826, 0.12040115147829056, 0.17022979259490967, 0.17450322210788727, 0.29553839564323425, -0.46218135952949524, -0.40119948983192444},
	{-0.4787425994873047, -0.30154502391815186, 0.14089034497737885, 0.47307565808296204, -0.4242420792579651, -0.4250994324684143, -0.4838951826095581, 0.3010358512401581},
	{0.3108243942260742, -0.01581883430480957, 0.1840958446264267, 0.46500325202941895, -0.14402544498443604, 0.24706657230854034, -0.07032980769872665, 0.2927890419960022},
	{-0.20954036712646484, -0.25286900997161865, -0.09947861731052399, -0.2272452712059021, -0.21118628978729248, 0.4031868577003479, 0.3301393985748291, 0.057845983654260635},
	{-0.358892560005188, -0.11913394927978516, -0.2778388559818268, 0.24228785932064056, -0.21662557125091553, -0.25410357117652893, 0.1071820929646492, 0.03547229245305061},
	{-0.42364585399627686, -0.44775688648223877, 0.15268735587596893, 0.14373278617858887, -0.26064741611480713, -0.09730976074934006, -0.21365198493003845, 0.3404371738433838},
