#ifndef _MODEL_H_
#define _MODEL_H_
// clang-format off
#define IN_SHAPE 13

#define SHAPE_L_1 64
#define SHAPE_L_2 32
#define SHAPE_L_3 32
#define SHAPE_L_4 16
#define SHAPE_L_5 8
#define SHAPE_L_6 4
#define SHAPE_L_7 2


const std::vector<std::vector<float>> weights_l1{
	{-0.018959997221827507, -0.2509176731109619, 0.22863398492336273, 0.24310152232646942, 0.14017193019390106, 0.22154726088047028, 0.06518423557281494, 0.1654915064573288, 0.1166629046201706, 0.06429780274629593, 0.11305883526802063, -0.03610149770975113, -0.16661082208156586},
	{0.13629527390003204, 0.16046255826950073, -0.2197713553905487, -0.02478642389178276, 0.26255589723587036, -0.0505019947886467, 0.2779393792152405, -0.11316529661417007, -0.0952780544757843, 0.12321500480175018, 0.19079411029815674, 0.15670615434646606, 0.02394692413508892},
	{0.007096618413925171, -0.01367188710719347, 0.010244157165288925, -0.1377793699502945, -0.2720119059085846, 0.12285873293876648, 0.17113472521305084, -0.20197750627994537, -0.11734430491924286, 0.048327043652534485, -0.24829715490341187, -0.18361859023571014, 0.1860450655221939},
	{-0.053223513066768646, -0.16850928962230682, 0.12019561976194382, 0.0046989331021904945, 0.03292645141482353, -0.14200669527053833, -0.10697725415229797, 0.0059859538450837135, 0.2022193968296051, 0.07011008262634277, 0.11951233446598053, 0.10337122529745102, 0.2751689553260803},
	{-0.21127602458000183, 0.06515271216630936, 0.18649844825267792, -0.019650494679808617, 0.09119459986686707, 0.05907014384865761, 0.29763850569725037, 0.06882314383983612, 0.018266700208187103, -0.0642300546169281, -0.16449840366840363, 0.17384403944015503, -0.024426927790045738},
	{-0.02793254889547825, 0.2436312437057495, -0.054456502199172974, 0.03351934626698494, 0.16896027326583862, -0.01280411146581173, 0.0026479035150259733, -0.17747269570827484, 0.14454029500484467, 0.2751193642616272, 0.14905881881713867, 0.05363974720239639, -0.025349482893943787},
	{-0.20496448874473572, -0.26801061630249023, -0.26616722345352173, -0.13474871218204498, 0.20972806215286255, -0.14623808860778809, -0.2435855120420456, 0.15268677473068237, 0.2627657949924469, -0.13268987834453583, -0.087110236287117, -0.1922006905078888, -0.07122127711772919},
	{0.1126631498336792, 0.26142099499702454, 0.22640743851661682, -0.07311815768480301, -0.16359460353851318, 0.06578808277845383, 0.1897599995136261, -0.05981214717030525, 0.25724050402641296, 0.057056974619627, 0.14969515800476074, -0.12946675717830658, -0.24193277955055237},
	{0.06381764262914658, 0.22462475299835205, 0.015284275636076927, -0.13827002048492432, -0.14003469049930573, -0.00866980291903019, -0.20475971698760986, -0.23761868476867676, -0.2140616923570633, -0.12242507934570312, 0.054993364959955215, 0.20129765570163727, -0.09589951485395432},
	{0.09333417564630508, 0.10844418406486511, -0.057875607162714005, 0.14492908120155334, 0.10403642803430557, -0.24858121573925018, -0.26863110065460205, 0.17890194058418274, -0.01511444989591837, -0.1716354638338089, 0.08794844150543213, 0.18253573775291443, 0.05193951725959778},
	{0.2615002691745758, 0.2442701905965805, -0.11453254520893097, -0.07489633560180664, -0.1884976625442505, 0.1890091747045517, 0.07878532260656357, 0.16625306010246277, -0.02878626249730587, -0.2529108226299286, 0.16888321936130524, 0.15377211570739746, -0.12541328370571136},
	{0.19493943452835083, -0.039292458444833755, -0.0965288057923317, -0.19823899865150452, -0.2133120447397232, 0.04088222607970238, 0.06320890039205551, -0.2364320456981659, 0.07733150571584702, -0.253190279006958, -0.0407356359064579, -0.1355522722005844, -0.16548359394073486},
	{0.2146582007408142, -0.2261902540922165, -0.1625826060771942, 0.24249829351902008, -0.19583912193775177, 0.17419728636741638, 0.00852474756538868, 0.07393895834684372, -0.024531852453947067, 0.22755636274814606, -0.21529491245746613, -0.01302868127822876, 0.03171380236744881},
	{-0.17529715597629547, -0.1426910161972046, 0.22080311179161072, -0.16427940130233765, -0.0019417500589042902, 0.13734625279903412, -0.039152465760707855, -0.10558813065290451, -0.199182391166687, -0.14302967488765717, -0.02066679671406746, 0.016268465667963028, -0.0529300719499588},
	{-0.22504590451717377, 0.0888715609908104, 0.07767041027545929, -0.0333552211523056, -0.23516125977039337, 0.23819607496261597, -0.18245626986026764, 0.14929555356502533, 0.03595246374607086, -0.11855768412351608, -0.03489585593342781, -0.15452516078948975, 0.05128348246216774},
	{-0.20335765182971954, -0.02932223491370678, 0.27667394280433655, -0.1457327902317047, -0.044477678835392, -0.28439581394195557, 0.2282482385635376, 0.18970628082752228, -0.12479662150144577, -0.1335081309080124, 0.13525187969207764, 0.015811951830983162, 0.2076546996831894},
	{-0.17253555357456207, -0.05638753995299339, 0.07628635317087173, 0.2662452757358551, -0.20121511816978455, 0.019140243530273438, 0.06967426091432571, 0.23390348255634308, -0.19486752152442932, -0.10873784124851227, 0.19284182786941528, -0.23964600265026093, 0.04543222486972809},
	{0.058359503746032715, -0.011812955141067505, -0.21554216742515564, -0.16858427226543427, -0.02793899178504944, -0.18169036507606506, -0.18071609735488892, 0.12562158703804016, 0.16270488500595093, -0.13932539522647858, -0.06919358670711517, 0.0031024515628814697, -0.22257772088050842},
	{-0.1993553638458252, -0.18972641229629517, -0.2836690843105316, -0.03441983833909035, -0.17034640908241272, 0.30948159098625183, -0.23352019488811493, -0.07455871999263763, -0.1206902265548706, 0.24056077003479004, -0.19912508130073547, -0.11091778427362442, 0.21162420511245728},
	{0.027011431753635406, 0.2557092607021332, 0.06217890605330467, -0.063478022813797, 0.22561585903167725, 0.25190603733062744, 0.277521014213562, 0.091946542263031, -0.0066960458643734455, -0.04525529220700264, 0.15771125257015228, 0.2872178554534912, -0.1997375786304474},
	{-0.12106472253799438, -0.27743056416511536, -0.21429641544818878, -0.12680934369564056, -0.10825850814580917, 0.26581528782844543, -0.22086872160434723, -0.04872426763176918, 0.059484582394361496, -0.25443294644355774, -0.06580477207899094, 0.03665231168270111, 0.24506135284900665},
	{0.2036413997411728, 0.07864028215408325, -0.012430813163518906, 0.16360734403133392, 0.27339449524879456, -0.18476639688014984, -0.1924913376569748, 0.25549831986427307, -0.07216749340295792, -0.0722099170088768, 0.13264226913452148, -0.02217942848801613, 0.019139595329761505},
	{-0.22954553365707397, 0.00797569751739502, 0.26273587346076965, -0.2221757471561432, 0.1796826422214508, 0.14752671122550964, -0.24033604562282562, 0.121951162815094, -0.08518844842910767, -0.08695018291473389, -0.13006554543972015, -0.0218583345413208, -0.16348853707313538},
	{-0.02605074644088745, -0.0965682715177536, -0.2024802565574646, 0.1584797203540802, -0.124970942735672, -0.24914991855621338, -0.06302055716514587, -0.015549272298812866, 0.23870912194252014, -0.21278458833694458, -0.25232625007629395, -0.2531881630420685, 0.020672887563705444},
	{-0.09591948986053467, 0.06952568143606186, -0.17488603293895721, 0.18445438146591187, -0.031542420387268066, 0.2474435716867447, -0.24808701872825623, 0.2675642967224121, -0.274467408657074, -0.20191195607185364, -0.26503199338912964, 0.0705772116780281, 0.1449921429157257},
	{-0.2745456397533417, -0.118832528591156, -0.11166532337665558, 0.21703821420669556, -0.14013314247131348, 0.1208697259426117, -0.18145263195037842, 0.10135108232498169, 0.020560473203659058, -0.04719223082065582, -0.031081512570381165, -0.06614258885383606, -0.12708508968353271},
	{0.047753650695085526, -0.056228190660476685, -0.23202228546142578, 0.039657410234212875, 0.1793205887079239, 0.236763134598732, -0.16368074715137482, 0.04120663180947304, 0.026383250951766968, 0.11330156773328781, 0.2862945795059204, -0.0703052207827568, -0.0020581285934895277},
	{-0.15972477197647095, -0.1773502379655838, -0.08660580217838287, -0.25143954157829285, -0.062268391251564026, -0.24428856372833252, 0.06073213741183281, 0.24873951077461243, 0.26899272203445435, 0.05955178663134575, 0.03303511068224907, 0.25439584255218506, 0.1616874635219574},
	{-0.07680509984493256, -0.24398884177207947, 0.13657917082309723, -0.15932880342006683, 0.22369559109210968, -0.08089277893304825, -0.16874395310878754, -0.01467988546937704, -0.0315701961517334, -0.17984536290168762, -0.04248825088143349, 0.20118401944637299, 0.19684535264968872},
	{-0.2283569574356079, -0.05452042818069458, -0.1754601001739502, -0.24299831688404083, -0.01422092318534851, 0.043292462825775146, -0.02371823787689209, -0.043670088052749634, 0.1740180253982544, 0.03672829270362854, 0.2714711129665375, -0.07711385190486908, -0.19420060515403748},
	{0.01893758773803711, -0.04734143614768982, 0.1633402705192566, -0.058697059750556946, -0.2550542652606964, -0.09879942238330841, -0.1898442953824997, 0.052039772272109985, 0.12684834003448486, -0.2143288254737854, -0.18915605545043945, -0.0973878800868988, -0.24485614895820618},
	{-0.23458103835582733, -0.23124198615550995, -0.1549961268901825, -0.2122083604335785, -0.11935549974441528, -0.13142968714237213, -0.05810844898223877, 0.06866675615310669, -0.05603891611099243, 0.013284534215927124, 0.23274293541908264, -0.03562644124031067, -0.07710999250411987},
	{0.10920986533164978, -0.14529629051685333, 0.17049899697303772, 0.2744796872138977, -0.19620656967163086, -0.05246565118432045, -0.26765188574790955, 0.27487844228744507, 0.05057591199874878, 0.12977175414562225, 0.17958931624889374, 0.070669986307621, 0.17300252616405487},
	{-0.11570888012647629, 0.12626171112060547, 0.24001796543598175, 0.21226678788661957, 0.04953388497233391, 0.13148701190948486, 0.19291381537914276, -0.07171784341335297, -0.27968931198120117, -0.26422879099845886, -0.11725221574306488, -0.23682324588298798, 0.24884018301963806},
	{-0.07043130695819855, -0.12123420834541321, -0.2511082589626312, 0.07154453545808792, -0.1720597892999649, 0.13891185820102692, 0.09782155603170395, -0.2433038204908371, 0.16028420627117157, -0.01877378299832344, -0.047206003218889236, -0.17305509746074677, 0.2640768885612488},
	{-0.09265074878931046, -0.2608020007610321, -0.07597944885492325, -0.1785096824169159, 0.1533481329679489, 0.14147238433361053, -0.08407784253358841, -0.05398936942219734, 0.173701211810112, -0.15888141095638275, -0.029670972377061844, 0.06054410710930824, -0.054647546261548996},
	{0.21718829870224, -0.11600567400455475, -0.18306489288806915, -0.23956063389778137, 0.006987035274505615, -0.1023324728012085, -0.20062734186649323, -0.07862907648086548, 0.18428188562393188, 0.1120661199092865, -0.08636756241321564, -0.21238219738006592, -0.05814532935619354},
	{-0.14167116582393646, 0.0096972044557333, -0.0204292144626379, -0.20971472561359406, -0.18463748693466187, -0.04039306193590164, 0.2737221121788025, 0.059343669563531876, -0.11945401132106781, 0.1359911412000656, 0.24508465826511383, 0.04683365672826767, 0.17698368430137634},
	{0.10905948281288147, 0.0055881766602396965, 0.009479758329689503, 0.11780425906181335, -0.2586410641670227, 0.12796567380428314, -0.2738586664199829, 0.10457205772399902, 0.07168899476528168, 0.0838458389043808, 0.002936799544841051, -0.0044267321936786175, 0.0487007200717926},
	{0.23874811828136444, 0.23905445635318756, -0.07951436191797256, -0.20771360397338867, 0.014957009814679623, -0.2226463407278061, 0.23532584309577942, -0.030907800421118736, -0.1368323564529419, 0.2558620572090149, -0.14090093970298767, -0.08522827923297882, 0.173121839761734},
	{-0.19456662237644196, -0.1534525454044342, 0.02434004470705986, -0.2214505523443222, -0.07777459174394608, -0.006255541928112507, 0.12742570042610168, 0.04487229883670807, 0.18066567182540894, -0.21463337540626526, 0.21130779385566711, -0.10361499339342117, 0.20350699126720428},
	{0.22130022943019867, 0.08042030781507492, 0.03860609978437424, 0.18839532136917114, 0.08259633928537369, 0.09301060438156128, -0.15978370606899261, -0.09974709153175354, 0.20533950626850128, -0.05841578170657158, -0.18416458368301392, -0.1339578628540039, -0.11734531819820404},
	{0.11614444851875305, 0.11620313674211502, -0.027597881853580475, -0.14740312099456787, -0.0007011846755631268, 0.00390894990414381, -0.026262154802680016, 0.2191186249256134, -0.2495855838060379, -0.18733713030815125, -0.18461953103542328, -0.19096310436725616, 0.14731086790561676},
	{-0.10575617849826813, -0.19786551594734192, -0.0433487743139267, -0.10907426476478577, -0.19398465752601624, -0.07661569118499756, 0.12915462255477905, -0.14412136375904083, 0.2154388129711151, -0.20819559693336487, -0.19882021844387054, 0.023782074451446533, 0.01732945442199707},
	{-0.25436511635780334, 0.23298496007919312, 0.13163720071315765, 0.0981438159942627, 0.2096564620733261, -0.2387993037700653, 0.0350152887403965, -0.02829037792980671, 0.10241114348173141, -0.21391747891902924, -0.022327234968543053, 0.16154202818870544, 0.06676271557807922},
	{0.10156324505805969, 0.04457990452647209, -0.20327885448932648, -0.23925825953483582, 0.05886109545826912, 0.008425777778029442, 0.11842285096645355, 0.20115211606025696, 0.1025942862033844, -0.0494898296892643, -0.0665687769651413, 0.2704833447933197, -0.08796867728233337},
	{0.2018149346113205, 0.08368373662233353, -0.08595932275056839, -0.25007209181785583, 0.029937537387013435, 0.2713368833065033, -0.18632809817790985, -0.16830390691757202, -0.18254098296165466, -0.07511927932500839, 0.31012725830078125, -0.08840848505496979, -0.09831471741199493},
	{0.02320006489753723, -0.12384366989135742, -0.008603304624557495, -0.03598596155643463, 0.18485164642333984, -0.004794895648956299, -0.23788927495479584, -0.05639903247356415, -0.1678776741027832, -0.23313462734222412, -0.09323520958423615, -0.19079500436782837, -0.16718131303787231},
	{-0.04590697959065437, 0.2792417109012604, 0.2847457528114319, 0.1335727870464325, -0.07970152795314789, 0.2385663539171219, -0.12284979224205017, 0.09820359945297241, 0.010959737002849579, -0.10551492124795914, -0.05141524598002434, 0.21356438100337982, -0.25507652759552},
	{0.1729201227426529, -0.09955671429634094, -0.21973790228366852, -0.03036051243543625, 0.13471290469169617, 0.064701609313488, -0.15083418786525726, 0.19967587292194366, -0.22767530381679535, 0.27854785323143005, 0.25811752676963806, 0.16356365382671356, 0.08003179728984833},
	{0.22553755342960358, -0.2879883646965027, -0.2536349594593048, 0.1904875636100769, -0.25479811429977417, 0.10224223881959915, -0.21162956953048706, -0.19961650669574738, -0.043624818325042725, 0.21952225267887115, 0.18257571756839752, -0.14802543818950653, 0.04743983596563339},
	{0.29310867190361023, -0.16357257962226868, 0.2610511779785156, -0.2012709677219391, -0.12656597793102264, -0.07970050722360611, -0.14173103868961334, 0.23661492764949799, -0.11585260182619095, -0.2544727027416229, 0.05936634913086891, -0.20752182602882385, -0.1313696801662445},
	{0.15619541704654694, 0.2488955557346344, 0.002915757242590189, 0.04325777664780617, 0.012768387794494629, -0.11735296249389648, 0.24363388121128082, 0.06571182608604431, -0.22723282873630524, 0.12803156673908234, -0.14330436289310455, -0.07774130254983902, 0.0896327942609787},
	{-0.010141060687601566, 0.05951867625117302, 0.15858368575572968, 0.2977178394794464, 0.038638900965452194, 0.18342937529087067, 0.20674607157707214, -0.036177102476358414, -0.09757240116596222, 0.1356387734413147, 0.07760334014892578, 0.15395916998386383, -0.09058790653944016},
	{-0.23536403477191925, -0.23965713381767273, -0.13486550748348236, 0.17745903134346008, -0.256637305021286, -0.1231682151556015, 0.04494991898536682, -0.2226848155260086, 0.08587414026260376, -0.15264731645584106, -0.2572469413280487, 0.19356289505958557, -0.02860286831855774},
	{-0.2145015150308609, -0.1710643321275711, -0.2589666247367859, 0.06228769198060036, -0.2209438979625702, 0.1781432181596756, 0.22244898974895477, -0.09420562535524368, -0.11815175414085388, 0.08114305883646011, -0.003331584157422185, 0.10568709671497345, 0.09931938350200653},
	{-0.019472986459732056, 0.12355709075927734, -0.13339827954769135, 0.1884276270866394, -0.08762189745903015, -0.24021464586257935, -0.23696285486221313, -0.09621401131153107, -0.18983544409275055, 0.15154194831848145, 0.07226935029029846, -0.033761024475097656, -0.17861014604568481},
	{-0.27095654606819153, -0.07598403096199036, -0.2762417495250702, 0.27754291892051697, -0.1910857856273651, -0.14544478058815002, 0.03354153037071228, 0.2787769138813019, 0.090186208486557, -0.11878633499145508, 0.15628671646118164, -0.18700265884399414, -0.06951890885829926},
	{0.21575286984443665, 0.09713326394557953, -0.24577543139457703, -0.07436121255159378, -0.13960139453411102, 0.04739619791507721, 0.14201365411281586, 0.20873208343982697, 0.05138454586267471, -0.037753067910671234, -0.1750648021697998, 0.10663297772407532, -0.18170541524887085},
	{0.013455773703753948, 0.21955589950084686, 0.2773948609828949, 0.05550645291805267, -0.10716138035058975, -0.15007668733596802, 0.2540748715400696, 0.26749691367149353, 0.12054291367530823, -0.0997011810541153, 0.053277768194675446, -0.03751245141029358, 0.12912210822105408},
	{-0.17265553772449493, -0.05844415724277496, 0.21850520372390747, -0.2309924066066742, -0.20610594749450684, -0.11994895339012146, -0.23128703236579895, -0.14257998764514923, 0.15260446071624756, 0.1351320445537567, 0.13465893268585205, 0.02027517557144165, -0.15294960141181946},
	{-0.10897627472877502, -0.1949373483657837, -0.014502338133752346, 0.13353943824768066, -0.1462414711713791, 0.07590165734291077, -0.11705385893583298, 0.11508288979530334, -0.22351233661174774, -0.02871335856616497, 0.31064796447753906, 0.23349778354167938, -0.07319217175245285},
	{-0.22321166098117828, -0.08825818449258804, -0.014646338298916817, 0.04147057607769966, -0.08369079232215881, -0.30722305178642273, 0.16172833740711212, 0.06152092292904854, 0.18828876316547394, 0.06334082782268524, -0.13896551728248596, -0.24783377349376678, 0.1779373586177826},
	{-0.2089604288339615, 0.19695483148097992, -0.06610622256994247, 0.16469217836856842, -0.032788101583719254, -0.1917785257101059, -0.18494316935539246, -0.20715422928333282, -0.2888451814651489, 0.15036755800247192, 0.19932280480861664, 0.25525644421577454, 0.07334986329078674},
};
const float bias_l1[] =
	{0.025540504604578018, 0.024484578520059586, -0.0230360496789217, 0.01776382513344288, 0.03366934135556221, 0.0037708841264247894, 0.0, 0.016400860622525215, -0.026784149929881096, -0.03418867662549019, 0.008609090931713581, 0.004255759064108133, 0.0031932878773659468, -0.008230247534811497, -0.012043258175253868, 0.006189716514199972, 0.0004958557547070086, 0.0, 0.012458531185984612, 0.025757964700460434, -0.006800143979489803, 0.03227237984538078, 0.0, 0.0, 0.007034205365926027, 0.0, 0.03726784884929657, 0.011741738766431808, 0.007616917137056589, 0.0, 0.0, 0.0, 0.02951718308031559, 0.012443345040082932, -0.005522008519619703, 0.006519552785903215, 0.0, 0.028099680319428444, -0.014175905846059322, -0.011308678425848484, -0.004026349633932114, 0.020876599475741386, -0.004191835876554251, 0.0, 0.002925025997683406, 0.007281278260052204, 0.02683417499065399, 0.0, -0.01617378741502762, 0.016935240477323532, -0.03170536831021309, 0.011064976453781128, 0.021526141092181206, 0.022479671984910965, 0.0, 0.030972016975283623, 0.0, 0.0, -0.02584286406636238, 0.02201961539685726, 0.0, 0.016721846535801888, -0.02907656691968441, -0.01603858172893524};

const std::vector<std::vector<float>> weights_l2{
	{0.025623951107263565, -0.09341581165790558, -0.21588923037052155, 0.03264446556568146, -0.12615296244621277, 0.007337494753301144, 0.11986720561981201, -0.11818057298660278, -0.014358427375555038, 0.21602413058280945, -0.12401479482650757, 0.10708507150411606, 0.023184433579444885, -0.04970785602927208, 0.23262746632099152, -0.23924756050109863, -0.08258489519357681, 0.16767621040344238, -0.23251856863498688, 0.21363505721092224, -0.20766016840934753, 0.15581491589546204, -0.02881038188934326, 0.194530189037323, 0.15494486689567566, 0.20871412754058838, 0.06484329700469971, -0.16398312151432037, 0.22420641779899597, 0.23091012239456177, -0.032826364040374756, 0.005234897136688232, -0.15817810595035553, 0.12616005539894104, -0.13488149642944336, -0.16626398265361786, -0.05515795946121216, -0.23660729825496674, -0.08509144932031631, 0.1058010384440422, 0.16660499572753906, -0.22796785831451416, -0.1453605443239212, -0.2223992943763733, 0.2364843189716339, -0.11668040603399277, -0.14211708307266235, -0.06549835205078125, -0.22653016448020935, 0.022781923413276672, -0.12428919225931168, -0.15549275279045105, 0.08962807059288025, 0.20126017928123474, -0.16945785284042358, 0.09877540171146393, -0.1900639533996582, -0.07808208465576172, 0.1521526724100113, -0.16962233185768127, -0.03665345907211304, -0.012673990800976753, -0.1926727294921875, 0.20341946184635162},
	{-0.24913203716278076, 0.04012172669172287, -0.23801535367965698, -0.06185568869113922, -0.007192075252532959, -0.14815685153007507, 0.05761510133743286, 0.22985172271728516, 0.23479312658309937, -0.041565269231796265, -0.17120490968227386, 0.01485985517501831, 0.14013126492500305, 0.23966622352600098, -0.09632068872451782, 0.14908728003501892, 0.22741945087909698, -0.16598087549209595, 0.06277704238891602, 0.05356219410896301, -0.01397413294762373, 0.1289898157119751, 0.19961625337600708, -0.17114579677581787, -0.1562330722808838, 0.07133597135543823, 0.17607450485229492, 0.21050022542476654, 0.17361067235469818, -0.13051897287368774, -0.0974687933921814, -0.0068912506103515625, 0.1419745236635208, 0.22220167517662048, -0.21833793818950653, -0.22512280941009521, -0.1552559733390808, -0.08968927711248398, -0.21469298005104065, 0.13702555000782013, 0.10066347569227219, -0.24931389093399048, -0.0322406142950058, 0.08490854501724243, -0.05277609825134277, -0.08558552712202072, -0.10971659421920776, -0.07203710079193115, -0.10386830568313599, -0.030932288616895676, 0.09764688462018967, -0.1781565546989441, -0.23425717651844025, -0.2075127512216568, -0.24363213777542114, 0.02717459201812744, 0.048402607440948486, -0.09148520231246948, -0.031744737178087234, -0.2126990556716919, 0.04099005460739136, -0.1475474238395691, 0.09908097982406616, -0.004733681678771973},
	{0.2448539286851883, 0.15227411687374115, 0.04085664823651314, -0.11560516059398651, -0.061624541878700256, 0.14110137522220612, -0.018708884716033936, -0.1997111737728119, -0.0892738401889801, 0.13700735569000244, -0.06021210923790932, -0.0005830243462696671, 0.06890051066875458, -0.15030305087566376, 0.15624557435512543, -0.16421951353549957, 0.21335551142692566, 0.08134686946868896, 0.19581253826618195, 0.21050502359867096, 0.18529260158538818, -0.19551981985569, 0.012634098529815674, 0.05937236547470093, 0.13016511499881744, -0.23780912160873413, 0.1304234117269516, 0.06267151981592178, -0.13164499402046204, 0.21259331703186035, -0.20876336097717285, -0.19263088703155518, 0.02096834033727646, -0.13459040224552155, -0.08419854938983917, -0.21015439927577972, -0.20082086324691772, 0.10150229185819626, -0.15582406520843506, -0.07401306927204132, 0.07126692682504654, -0.04468603804707527, -0.07105034589767456, -0.2080763578414917, -0.1756613850593567, 0.10075811296701431, 0.024200191721320152, 0.23116540908813477, -0.08851442486047745, -0.011795886792242527, 0.11087793111801147, -0.008093610405921936, -0.1438002735376358, 0.21557524800300598, -0.13162261247634888, -0.1968703269958496, -0.22580963373184204, -0.10603773593902588, -0.019715307280421257, 0.014864817261695862, 0.15367871522903442, 0.14194175601005554, 0.17706650495529175, 0.04755169153213501},
	{-0.036678723990917206, -0.24512173235416412, -0.13547083735466003, 0.20202167332172394, -0.23067720234394073, 0.15095075964927673, -0.004239499568939209, -0.08622144162654877, 0.18824657797813416, -0.27214646339416504, -0.09249541163444519, -0.06118761748075485, 0.0577574297785759, 0.15998238325119019, 0.11266639083623886, -0.18026457726955414, 0.05889662727713585, -0.2341831922531128, -0.1500750035047531, 0.13674286007881165, 0.004019475542008877, 0.11685188114643097, 0.2470860481262207, 0.17442286014556885, 0.12004788219928741, 0.11676734685897827, -0.17086519300937653, 0.14982040226459503, 0.04470375180244446, 0.23241746425628662, 0.24898070096969604, -0.11549293994903564, 0.21369865536689758, 0.041302718222141266, 0.05987058952450752, -0.22497287392616272, 0.09694689512252808, -0.17691627144813538, -0.1375049203634262, 0.09424431622028351, -0.025297952815890312, 0.2111085057258606, 0.06646577268838882, -0.18940895795822144, -0.014778382144868374, 0.2074667066335678, 0.22793234884738922, -0.1553630232810974, -0.1656474620103836, -0.25005385279655457, 0.13902859389781952, -0.25522223114967346, -0.11877947300672531, -0.1787625253200531, -0.04188692569732666, -0.2325555980205536, 0.23077940940856934, 0.17902392148971558, -0.1928204596042633, 0.13159869611263275, -0.13099569082260132, -0.23463866114616394, 0.1041293740272522, 0.012664456851780415},
	{0.24590879678726196, 0.20790819823741913, -0.17822498083114624, 0.026125915348529816, 0.06881879270076752, 0.22642897069454193, -0.03464090824127197, -0.18408213555812836, -0.21589256823062897, -0.21517720818519592, 0.25931859016418457, -0.14512887597084045, 0.14352574944496155, 0.09429624676704407, -0.16268107295036316, -0.13918600976467133, -0.03510938212275505, -0.23655486106872559, 0.07558227330446243, -0.16493821144104004, 0.06054610759019852, 0.21419255435466766, -0.14611047506332397, 0.17346924543380737, -0.17806072533130646, 0.021970748901367188, 0.004938642494380474, -0.08055200427770615, -0.14523538947105408, 0.045233726501464844, -0.22924917936325073, -0.21817463636398315, 0.26521530747413635, 0.24125462770462036, -0.19795715808868408, 0.21092258393764496, 0.03908723592758179, -0.10772380232810974, 0.24913983047008514, 0.14616234600543976, 0.14164873957633972, 0.23300810158252716, 0.016377383843064308, 0.2160661220550537, 0.04886498674750328, 0.05790960416197777, -0.0497061088681221, 0.21415328979492188, -0.21750116348266602, 0.025849828496575356, 0.2391134351491928, 0.09976359456777573, 0.1771714687347412, -0.011796553619205952, -0.017076492309570312, 0.187583327293396, -0.18467038869857788, -0.08315473794937134, -0.10421188920736313, 0.024415871128439903, -0.0874524712562561, 0.022977543994784355, 0.015256551094353199, -0.18662503361701965},
	{0.06040874868631363, -0.04038913547992706, -0.0653221383690834, 0.2144269496202469, -0.0869724452495575, -0.11840646713972092, 0.16258281469345093, 0.17180335521697998, 0.13123716413974762, 0.13332104682922363, 0.019638892263174057, 0.10918331146240234, 0.07143556326627731, -0.12213253974914551, -0.21274524927139282, 0.10051450878381729, 0.11306539177894592, -0.1910722851753235, -0.15630263090133667, -0.045691780745983124, -0.16701705753803253, -0.17834848165512085, 0.24217861890792847, 0.0827798843383789, 0.22260308265686035, 0.0504874587059021, 0.06428338587284088, 0.23407424986362457, -0.20891237258911133, -0.22328639030456543, -0.13601762056350708, -0.18978869915008545, -0.06382913887500763, 0.02573646418750286, -0.18692146241664886, -0.016941683366894722, -0.11804389953613281, 0.08474627882242203, 0.07223527133464813, -0.08864293247461319, 0.02065580151975155, -0.12889766693115234, 0.04297512024641037, 0.24797356128692627, 0.21129874885082245, 0.17224706709384918, -0.2512049078941345, 0.02295851707458496, -0.006055566016584635, -0.1469792276620865, -0.22182375192642212, -0.055626627057790756, -0.16027458012104034, -0.027580374851822853, -0.025429487228393555, -0.23571734130382538, -0.00672835111618042, 0.09330785274505615, -0.14968916773796082, -0.0813068151473999, -0.13462138175964355, -0.0385051928460598, -0.13088750839233398, 0.2304408997297287},
	{-0.22701776027679443, 0.015906035900115967, -0.005184471607208252, -0.1795881986618042, -0.11329585313796997, -0.24412953853607178, -0.17386525869369507, -0.23959356546401978, -0.20672816038131714, -0.09350186586380005, -0.21379858255386353, 0.06465667486190796, -0.22558611631393433, 0.109458327293396, -0.061218202114105225, 0.2337314486503601, 0.0191495418548584, 0.24231410026550293, -0.13750898838043213, -0.2273540496826172, 0.028049767017364502, -0.2164015769958496, -0.10805302858352661, -0.04411393404006958, -0.23566871881484985, -0.051524996757507324, -0.022557556629180908, -0.0792309045791626, -0.2113094925880432, 0.15037912130355835, 0.24089854955673218, -0.21419620513916016, 0.1341266632080078, -0.18695193529129028, 0.06062936782836914, -0.12859708070755005, 0.1439826488494873, -0.09462976455688477, 0.03118973970413208, 0.17221474647521973, 0.10092431306838989, -0.00022429227828979492, -0.05105018615722656, 0.002872169017791748, -0.1533726453781128, 0.15625464916229248, -0.1516106128692627, 0.04413121938705444, -0.14084362983703613, 0.12513840198516846, -0.10511249303817749, 0.030815422534942627, -0.13268041610717773, -0.24532294273376465, -0.025958776473999023, -0.10418808460235596, 0.1525244116783142, -0.21598327159881592, 0.014935493469238281, 0.05574929714202881, -0.017608165740966797, -0.12965410947799683, 0.0384291410446167, 0.1675226092338562},
	{0.23285260796546936, 0.17248286306858063, -0.05628019943833351, 0.09699974954128265, 0.22319550812244415, -0.08375686407089233, 0.0029914379119873047, 0.10919443517923355, -0.25605666637420654, -0.03749311342835426, -0.019469410181045532, -0.026484109461307526, 0.13604247570037842, 0.06753967702388763, 0.19625699520111084, -0.2576085031032562, -0.2177213430404663, -0.21133536100387573, -0.09103895723819733, -0.03259088471531868, -0.19881680607795715, -0.12142455577850342, -0.22327357530593872, 0.24675917625427246, 0.2015981674194336, 0.0007821321487426758, -0.10772845894098282, 0.10061915963888168, -0.09549756348133087, -0.16197186708450317, 0.10652774572372437, -0.15846902132034302, -0.1960977166891098, 0.002222770359367132, -0.19322329759597778, -0.26457247138023376, 0.20101022720336914, -0.21027633547782898, -0.13780488073825836, 0.2141352742910385, 0.07190568000078201, 0.17471085488796234, 0.20888464152812958, 0.11937481164932251, 0.14111433923244476, -0.1833389699459076, -0.08331974595785141, 0.1783357858657837, 0.07996911555528641, -0.12877069413661957, -0.22350676357746124, 0.002725582104176283, 0.07289841771125793, 0.04041806608438492, -0.18170273303985596, -0.22406317293643951, 0.24027055501937866, -0.060260772705078125, 0.13758179545402527, -0.1606156826019287, -0.1424849033355713, 0.04996927082538605, -0.24139034748077393, -0.12725569307804108},
	{0.19119992852210999, -0.27281469106674194, -0.08855617046356201, -0.18289591372013092, 0.12283723056316376, -0.13838836550712585, 0.08177411556243896, -0.24818368256092072, -0.2301967889070511, 0.040504395961761475, -0.1981818825006485, -0.17495977878570557, -0.15144076943397522, -0.18439429998397827, 0.09344998002052307, 0.013323426246643066, -0.055247582495212555, -0.015793561935424805, -0.023833034560084343, -0.02498081885278225, 0.21295586228370667, 0.17261791229248047, -0.23981648683547974, -0.05998027324676514, -0.05964081361889839, 0.011556088924407959, 0.055862605571746826, 0.18524286150932312, -0.05949220806360245, 0.21351873874664307, -0.12077856063842773, 0.18451273441314697, 0.1850118488073349, -0.09262990206480026, 0.16302624344825745, 0.17080074548721313, 0.014449119567871094, -0.24845796823501587, 0.14042407274246216, 0.06049688160419464, 0.23211956024169922, 0.11769339442253113, -0.13932126760482788, -0.015568196773529053, -0.18771031498908997, 0.1206180602312088, -0.14482064545154572, 0.19779318571090698, -0.2419155389070511, 0.10196653753519058, -0.09881625324487686, -0.044599033892154694, 0.01113472692668438, 0.06087677553296089, -0.08532851934432983, 0.052468929439783096, -0.201724112033844, 0.1105654239654541, -0.2497919201850891, 0.11012233793735504, -0.142245352268219, -0.22454023361206055, -0.13089963793754578, 0.09225403517484665},
	{0.1449444442987442, 0.16539329290390015, -0.2026924341917038, 0.03005012683570385, 0.0787038579583168, -0.09954831749200821, -0.19077783823013306, 0.17512252926826477, 0.11696246266365051, -0.034326061606407166, -0.014305460266768932, -0.06152600795030594, -0.16646990180015564, 0.01789584569633007, 0.23778797686100006, -0.21659614145755768, -0.031125353649258614, -0.02821052074432373, -0.21027450263500214, 0.22958792746067047, 0.12557116150856018, 0.1080484390258789, 0.0756794810295105, -0.11393582820892334, 0.1317831426858902, -0.0044370293617248535, 0.25786563754081726, 0.07878302037715912, 0.09251011162996292, -0.03743666410446167, -0.0588797926902771, -0.13714730739593506, 0.2338857203722, -0.11073657870292664, -0.0542830154299736, 0.1369272619485855, 0.06875830888748169, 0.11705432087182999, -0.17569054663181305, 0.13564608991146088, -0.13347887992858887, -0.047410998493433, 0.10719522833824158, -0.20814025402069092, 0.05170268937945366, 0.06789074838161469, 0.0958801731467247, 0.06672120094299316, 0.0013942033983767033, 0.23931585252285004, 0.010951358824968338, 0.007265438325703144, 0.10491107404232025, 0.0028725028969347477, 0.006804943084716797, -0.10581689327955246, 0.10379946231842041, 0.012797892093658447, -0.19139401614665985, -0.22637750208377838, 0.22278064489364624, 0.19706420600414276, -0.21823647618293762, -0.23361340165138245},
	{-0.06425976753234863, -0.21510416269302368, -0.17733228206634521, -0.1886749267578125, 0.007411062717437744, 0.04752802848815918, -0.08636313676834106, -0.15389597415924072, 0.06235039234161377, 0.16368764638900757, 0.04310762882232666, 0.1538826823234558, 0.1317887306213379, 0.00901937484741211, -0.065990149974823, 0.10790902376174927, 0.05741244554519653, 0.06052190065383911, -0.13987070322036743, -0.07889622449874878, -0.21783167123794556, -0.16013234853744507, 0.08216595649719238, -0.17612195014953613, 0.03531193733215332, -0.1695525050163269, 0.20511484146118164, 0.07361042499542236, -0.06838095188140869, -0.04407769441604614, -0.10437148809432983, 0.10907936096191406, -0.16712141036987305, 0.158625066280365, -0.04851067066192627, 0.18489831686019897, -0.17107480764389038, -0.24099570512771606, -0.18808919191360474, 0.1401841640472412, 0.21297866106033325, -0.009931206703186035, -0.14196008443832397, 0.11633646488189697, 0.08023500442504883, -0.00037086009979248047, 0.10491693019866943, 0.013030946254730225, 0.10330855846405029, -0.21799325942993164, 0.06249797344207764, 0.20009511709213257, -0.2303810715675354, 0.04718291759490967, 0.1651133894920349, -0.032757341861724854, -0.18022948503494263, -0.08671313524246216, -0.06692087650299072, -0.09572052955627441, 0.11453026533126831, 0.04797041416168213, -0.040901362895965576, 0.09332942962646484},
	{0.029053926467895508, 0.020584702491760254, 0.07348304986953735, -0.14080268144607544, 0.10493528842926025, -0.2333337664604187, -0.06413006782531738, 0.08223295211791992, 0.22065812349319458, -0.013736903667449951, -0.21350306272506714, 0.1358458399772644, 0.12145280838012695, 0.08570384979248047, 0.1704699993133545, -0.09998828172683716, -0.018267929553985596, 0.13376063108444214, 0.011946797370910645, -0.20706486701965332, -0.0685529112815857, 0.2382427453994751, -0.14339125156402588, 0.036855220794677734, 0.08022916316986084, -0.23823165893554688, 0.22282874584197998, -0.015324532985687256, -0.17091894149780273, 0.15531909465789795, -0.1804131269454956, -0.16082972288131714, -0.1864507794380188, -0.10623353719711304, 0.18073147535324097, 0.20094424486160278, -0.09155410528182983, -0.19182151556015015, -0.24538755416870117, -0.1674823760986328, -0.12600743770599365, 0.07625824213027954, 0.2073003649711609, 0.2288210391998291, -0.20271790027618408, 0.02192401885986328, 0.19785237312316895, 0.211655855178833, -0.15230894088745117, -0.1961008906364441, 0.03371715545654297, 0.07598882913589478, -0.030499696731567383, -0.1518484354019165, -0.10895287990570068, 0.16816693544387817, 0.15962380170822144, 0.21165400743484497, -0.0549924373626709, 0.10628360509872437, -0.23146504163742065, 0.02338731288909912, 0.03139150142669678, -0.12279540300369263},
	{-0.10279475152492523, -0.1993689090013504, -0.0032086847350001335, 0.19318290054798126, -0.24373820424079895, -0.11137206852436066, -0.11599522829055786, -0.09815238416194916, 0.219371497631073, 0.004705718252807856, 0.04307139292359352, 0.22828201949596405, 0.17038494348526, 0.03032771497964859, 0.03436170890927315, 0.05226818472146988, 0.16580694913864136, 0.06972390413284302, 0.09817466884851456, 0.2620398700237274, -0.05573893338441849, 0.26838418841362, 0.049726247787475586, 0.15216988325119019, -0.07927776873111725, -0.12070643901824951, 0.14244939386844635, -0.22975143790245056, 0.060438238084316254, 0.24810713529586792, 0.23624616861343384, -0.07455742359161377, -0.014819584786891937, 0.12093755602836609, 0.18930791318416595, -0.1579744964838028, -0.1416195034980774, -0.05875064805150032, 0.18746410310268402, 0.22842904925346375, -0.18529155850410461, -0.17671646177768707, -0.12182677537202835, -0.13124674558639526, -0.13299910724163055, 0.0944424644112587, -0.1535886526107788, -0.14888876676559448, -0.20134615898132324, -0.2096165418624878, 0.04892721772193909, 0.0031742341816425323, -0.10109896957874298, 0.05564066767692566, 0.09546506404876709, -0.033465053886175156, 0.20120221376419067, 0.10767096281051636, -0.049142368137836456, 0.21890345215797424, -0.14966046810150146, -0.03692864999175072, -0.09591282904148102, -0.00590240303426981},
	{-0.0987873524427414, 0.23377446830272675, 0.18679477274417877, -0.23269334435462952, -0.19217142462730408, 0.12617628276348114, 0.22483599185943604, -0.11624223738908768, 0.04600096121430397, -0.10761798918247223, 0.07932372391223907, -0.0789407342672348, -0.036771196871995926, 0.23762184381484985, 0.151295006275177, 0.1200186237692833, 0.2126656323671341, -0.10324472188949585, 0.14361970126628876, 0.08900932967662811, -0.1311432272195816, -0.19829018414020538, -0.024615705013275146, -0.18604105710983276, 0.18739493191242218, -0.11444926261901855, -0.16289348900318146, 0.16142593324184418, 0.23305244743824005, -0.2011966109275818, 0.031278014183044434, -0.11802935600280762, -0.06968127936124802, 0.02849339321255684, 0.11208946257829666, 0.18729381263256073, 0.20683568716049194, 0.1875305026769638, -0.16715262830257416, -0.026257500052452087, -0.1268516480922699, -0.20268481969833374, 0.24313552677631378, -0.19007891416549683, -0.10380885004997253, -0.15035712718963623, 0.12113124877214432, 0.013698875904083252, -0.13029736280441284, -0.18872930109500885, -0.22820055484771729, 0.2261408567428589, -0.17757081985473633, 0.022201284766197205, 0.010903000831604004, -0.25965312123298645, -0.17326337099075317, -0.15319490432739258, -0.20598499476909637, 0.13946452736854553, 0.028623878955841064, -0.024758126586675644, -0.013393012806773186, 0.22940756380558014},
	{0.20575886964797974, 0.11889481544494629, 0.24073100090026855, -0.08223366737365723, 0.143099844455719, -0.049837350845336914, 0.011147618293762207, -0.16987144947052002, 0.13132911920547485, 0.1279888153076172, 0.11038005352020264, -0.22069311141967773, -0.03147369623184204, -0.059918761253356934, -0.17177122831344604, 0.23952984809875488, 0.0015650391578674316, -0.24781233072280884, 0.014788687229156494, -0.20188522338867188, 0.21948236227035522, 0.16764730215072632, 0.17006510496139526, -0.22892343997955322, -0.20339912176132202, -0.10813945531845093, -0.24468153715133667, -0.12471455335617065, -0.21920251846313477, 0.0677863359451294, 0.18114608526229858, 0.24603086709976196, -0.052839577198028564, -0.2220439910888672, -0.14710521697998047, -0.027650654315948486, 0.17473256587982178, -0.015166521072387695, -0.19028598070144653, -0.22735142707824707, 0.11522918939590454, -0.0005002617835998535, 0.02033931016921997, -0.19769001007080078, -0.07442134618759155, -0.11609333753585815, -0.15207791328430176, 0.028002917766571045, -0.009720563888549805, -0.13415628671646118, -0.014878392219543457, -0.1660262942314148, 0.16252875328063965, -0.09276491403579712, -0.060133934020996094, -0.08059865236282349, 0.11329901218414307, -0.20309925079345703, 0.1844126582145691, -0.09050869941711426, -0.11381727457046509, -0.22465574741363525, 0.19124656915664673, 0.24139344692230225},
	{0.28055381774902344, -0.21844938397407532, 0.06311583518981934, -0.07382947206497192, 0.12658582627773285, -0.0034506432712078094, 0.07430964708328247, -0.08045075833797455, -0.13727863132953644, 0.2308874875307083, -0.055625900626182556, 0.14806006848812103, -0.05149824917316437, 0.04740452766418457, -0.22054925560951233, 0.11359549313783646, -0.217680424451828, -0.22899943590164185, 0.11739890277385712, -0.041240144520998, 0.016976110637187958, -0.04534124210476875, 0.17773258686065674, 0.13740915060043335, 0.06051965430378914, -0.22752976417541504, -0.10998784005641937, -0.1864163875579834, 0.024933308362960815, 0.09885597229003906, 0.05091005563735962, 0.1502537727355957, 0.26182132959365845, -0.07136605679988861, 0.13258834183216095, -0.1305435597896576, 0.03515172004699707, -0.011534187011420727, 0.024261044338345528, -0.0027546691708266735, 0.006768971681594849, -0.14844760298728943, 0.20535244047641754, -0.1676294207572937, -0.09534300118684769, 0.16856463253498077, 0.011697596870362759, -0.05271118879318237, -0.2114463597536087, -0.09400266408920288, -0.1483299285173416, 0.08762090653181076, 0.1282210350036621, 0.21921385824680328, 0.11349797248840332, 0.0257708802819252, -0.05885249376296997, -0.2092423439025879, -0.10006027668714523, 0.0503791905939579, 0.04703420400619507, -0.05741048976778984, 0.1148267313838005, -0.024537593126296997},
	{-0.21925359964370728, 0.15188263356685638, -0.056675150990486145, -0.052260421216487885, 0.15581001341342926, 0.24040552973747253, 0.16666561365127563, -0.2019117772579193, -0.010585606098175049, 0.23030515015125275, 0.01876562461256981, -0.08044365048408508, 0.22268465161323547, -0.004290170036256313, 0.20138616859912872, 0.16775548458099365, -0.00721754739060998, 0.23547649383544922, -0.12963055074214935, -0.24091488122940063, 0.18881404399871826, -0.22704151272773743, -0.22242695093154907, -0.1956324577331543, 0.08771052956581116, 0.2041434645652771, -0.08024657517671585, 0.20123879611492157, 0.22923974692821503, -0.1475643515586853, 0.024075627326965332, -0.21782803535461426, 0.21572710573673248, -0.09271205961704254, -0.04767637699842453, 0.033344101160764694, 0.20489490032196045, 0.1911785900592804, 0.10714196413755417, -0.13630902767181396, 0.008072049356997013, -0.15972653031349182, -0.09281302988529205, -0.031512439250946045, -0.09732493758201599, 0.09010084718465805, 0.221940815448761, -0.24776220321655273, 0.07556896656751633, -0.07734636217355728, -0.023665672168135643, 0.1070316880941391, -0.12654832005500793, 0.24543313682079315, -0.1406649947166443, 0.17362383008003235, 0.19689929485321045, 0.1368963122367859, -0.045099690556526184, 0.16055268049240112, -0.20787179470062256, 0.04795430973172188, -0.09584496915340424, -0.0386795811355114},
	{0.1516095995903015, 0.01858191192150116, 0.12838806211948395, 0.24527668952941895, -0.11292411386966705, 0.22364582121372223, -0.05953669548034668, 0.00639559980481863, 0.10082443803548813, 0.03662751242518425, -0.15203894674777985, 0.17814350128173828, -0.12999136745929718, 0.021064622327685356, -0.05943471938371658, 0.07240629196166992, -0.13296891748905182, 0.124972403049469, -0.23464931547641754, 0.18171080946922302, 0.1149311363697052, 0.18774855136871338, -0.10959279537200928, -0.10199534893035889, 0.23685835301876068, -0.21263325214385986, -0.14781807363033295, -0.17087161540985107, -0.12406307458877563, -0.19265538454055786, -0.18488281965255737, -0.18108034133911133, -0.1511370837688446, 0.24174723029136658, -0.2304883450269699, 0.017778590321540833, -0.03591269254684448, 0.1462756097316742, 0.21919754147529602, -0.059008385986089706, 0.08652173727750778, -0.10850595682859421, -0.058289218693971634, -0.13728421926498413, 0.04569346830248833, -0.10467619448900223, -0.2086823582649231, 0.08556479215621948, 0.2290678322315216, -0.23344919085502625, -0.029566578567028046, -0.25622376799583435, -0.1654261201620102, -0.2461090087890625, -0.10318529605865479, -0.05110843479633331, -0.11695808172225952, 0.09492385387420654, 0.14881865680217743, -0.06428810954093933, -0.24094074964523315, -0.0357416532933712, 0.26548531651496887, 0.23951789736747742},
	{-0.005962559022009373, -0.15835821628570557, -0.20440782606601715, -0.13516533374786377, 0.018710266798734665, 0.03076990135014057, 0.1052902340888977, 0.05411801487207413, 0.22809283435344696, 0.231868177652359, 0.1783284991979599, -0.07056577503681183, -0.13611234724521637, -0.05694746971130371, 0.1441372185945511, 0.053733911365270615, 0.21707536280155182, -0.21302306652069092, -0.2517940402030945, 0.17702752351760864, 0.22084011137485504, -0.06663995236158371, -0.016158640384674072, -0.1892363429069519, 0.21390216052532196, 0.0700693130493164, 0.13700328767299652, -0.18703819811344147, 0.15438354015350342, 0.050859808921813965, -0.18336164951324463, 0.18920910358428955, -0.21963126957416534, -0.054369162768125534, 0.11048535257577896, -0.038205526769161224, 0.1328524351119995, -0.21076254546642303, 0.16718575358390808, 0.18287205696105957, 0.2368485927581787, 0.03297686576843262, 0.07691928744316101, -0.0200919508934021, -0.12447874993085861, -0.09513914585113525, -0.1406385898590088, -0.07190161943435669, 0.02251913584768772, -0.2282293438911438, 0.157206192612648, -0.18460270762443542, -0.05630197376012802, -0.045943230390548706, -0.2310294508934021, 0.10106576979160309, -0.14901387691497803, 0.1488957405090332, -0.06160677224397659, 0.02398715727031231, -0.04899042844772339, 0.17071320116519928, 0.016008036211133003, 0.0929935872554779},
	{-0.03660762310028076, 0.14479684829711914, 0.09675046056509018, -0.12008197605609894, -0.061250027269124985, 0.2405267059803009, 0.2445409893989563, -0.17742905020713806, -0.12283650040626526, -0.1857243776321411, 0.035979967564344406, 0.1728256344795227, 0.021841904148459435, -0.12203384935855865, 0.1516006588935852, -0.15146781504154205, -0.1888989955186844, -0.20175933837890625, -0.31283247470855713, 0.14433111250400543, 0.1789681315422058, -0.12649062275886536, 0.16780704259872437, 0.09913307428359985, 0.21483533084392548, -0.07391518354415894, -0.12027956545352936, 0.06980752944946289, 0.18143409490585327, -0.13326770067214966, 0.12228786945343018, 0.09056359529495239, 0.1947518140077591, 0.21206188201904297, -0.09447893500328064, -0.18748076260089874, -0.18605393171310425, 0.21958090364933014, -0.0926714614033699, 0.12753507494926453, -0.16547755897045135, -0.09261105209589005, 0.2407737523317337, 0.0864948034286499, -0.1886398196220398, -0.15785472095012665, 0.06100771203637123, -0.054037392139434814, -0.08777196705341339, 0.2500903606414795, -0.14147275686264038, 0.13311922550201416, 0.22722163796424866, 0.04029684141278267, -0.00033980607986450195, -0.2569483518600464, -0.12190717458724976, 0.08777451515197754, -0.039175841957330704, -0.006120714824646711, -0.09935557842254639, 0.14911717176437378, -0.16967932879924774, -0.0692359134554863},
	{0.2308422029018402, 0.021916672587394714, -0.1354091465473175, -0.05812076851725578, -0.1974986046552658, 0.21664361655712128, -0.1658921241760254, 0.2664337158203125, 0.03622683137655258, -0.09172292053699493, -0.18822318315505981, -0.21201185882091522, -0.1666455715894699, -0.06210064888000488, -0.23742608726024628, 0.23269908130168915, 0.03397177904844284, -0.18242865800857544, -0.1329154074192047, 0.15126994252204895, 0.19857457280158997, -0.21238882839679718, -0.1693088412284851, 0.18423038721084595, 0.1432316154241562, 0.0728154182434082, -0.013447522185742855, -0.062288105487823486, -0.019512169063091278, 0.18095487356185913, -0.04876977205276489, -0.038792967796325684, 0.07088640332221985, 0.13482417166233063, 0.055474307388067245, -0.14451605081558228, 0.04820650815963745, 0.15385884046554565, 0.20390906929969788, 0.1080261692404747, 0.16165147721767426, 0.12412051856517792, 0.061215028166770935, -0.06193763017654419, 0.1112348809838295, -0.049934398382902145, 0.14829905331134796, 0.013796806335449219, -0.1388814002275467, 0.06003059819340706, -0.01421170774847269, -0.02668030746281147, -0.02712608315050602, -0.10185995697975159, 0.10041046142578125, -0.08079027384519577, -0.10562390089035034, 0.2257186770439148, -0.05238637700676918, 0.22944071888923645, -0.07508152723312378, -0.03586966171860695, 0.23372556269168854, 0.23623588681221008},
	{0.12178593873977661, 0.00981450080871582, 0.23547571897506714, -0.19499802589416504, -0.23493117094039917, -0.009798943996429443, 0.20953857898712158, -0.20478302240371704, -0.21526199579238892, -0.22729229927062988, -0.003348052501678467, -0.19378668069839478, 0.15354663133621216, 0.190906822681427, -0.07299631834030151, 0.03009694814682007, 0.20494717359542847, 0.10838276147842407, -0.03073197603225708, -0.054213523864746094, -0.09115028381347656, 0.11282199621200562, -0.2097609043121338, 0.20862990617752075, -0.151408851146698, 0.007249951362609863, -0.013378381729125977, -0.053067803382873535, -0.048614501953125, 0.08327454328536987, 0.020208656787872314, -0.10525339841842651, -0.027156054973602295, -0.18727141618728638, -0.222589373588562, 0.11355668306350708, -0.18777751922607422, -0.004981935024261475, 0.22512012720108032, -0.08289557695388794, -0.2297922968864441, 0.10232877731323242, -0.20507031679153442, -0.2098880410194397, 0.11666464805603027, 0.0268477201461792, 0.20203238725662231, -0.03431195020675659, 0.24272841215133667, -0.15179938077926636, 0.00527423620223999, 0.0679093599319458, -0.22191256284713745, -0.1434209942817688, 0.07790589332580566, -0.05547410249710083, 0.014309406280517578, -0.09467434883117676, -0.2269229292869568, -0.06267958879470825, 0.18183743953704834, 0.23697733879089355, -0.0944632887840271, 0.16578060388565063},
	{0.22081291675567627, 0.20082753896713257, -0.19270117580890656, 0.12034831941127777, 0.21074214577674866, 0.1565631628036499, -0.061892569065093994, -0.014696329832077026, -0.19471749663352966, -0.08388956636190414, 0.19757141172885895, -0.13045072555541992, 0.15912336111068726, -0.17104071378707886, -0.1125967800617218, -0.20397990942001343, 0.1326260268688202, 0.09293663501739502, -0.1339150369167328, 0.13279473781585693, -0.09246369451284409, 0.27080321311950684, -0.08035403490066528, 0.22117340564727783, 0.13654112815856934, 0.05935263633728027, -0.02221684344112873, -0.174419105052948, 0.17208918929100037, -0.23288124799728394, 0.04802507162094116, 0.056583285331726074, 0.058014165610075, -0.01715017482638359, 0.09361010789871216, 0.09516790509223938, 0.0734332799911499, 0.21240639686584473, -0.16650447249412537, -0.15456317365169525, -0.13977296650409698, -0.02848341129720211, -0.07759344577789307, 0.08871585130691528, -0.1225041002035141, -0.1564970165491104, 0.028104327619075775, -0.1937142014503479, 0.01027161255478859, -0.12715889513492584, -0.1962040513753891, -0.1557648628950119, -0.019840789958834648, -0.17344146966934204, 0.05669236183166504, 0.13210871815681458, 0.0036345720291137695, 0.057206928730010986, -0.05388922244310379, 0.1962396800518036, 0.156768798828125, -0.19586215913295746, -0.18649990856647491, 0.1436856985092163},
	{0.1860864907503128, 0.22800539433956146, -0.09773697704076767, 0.04324038326740265, 0.2284374088048935, 0.2160995453596115, -0.24837082624435425, 0.0478280670940876, -0.13056620955467224, -0.10061676055192947, 0.0755494236946106, 0.07866396754980087, -0.028351036831736565, -0.11101028323173523, 0.12132951617240906, -0.16975849866867065, -0.07005789130926132, 0.03631108999252319, 0.1559537947177887, 0.08678346127271652, -0.11790376901626587, 0.24111783504486084, 0.15673726797103882, 0.053066909313201904, 0.15882058441638947, -0.08371990919113159, 0.061329346150159836, 0.08789391070604324, -0.13339708745479584, 0.24852418899536133, 0.19784599542617798, -0.10280108451843262, -0.02245156280696392, 0.19347615540027618, 0.11245501786470413, 0.21989426016807556, 0.023074567317962646, -0.015934990718960762, 0.13727237284183502, 0.21329660713672638, 0.1952211707830429, 0.09939706325531006, 0.07095380127429962, 0.10752683877944946, 0.07925175130367279, -0.20745521783828735, -0.032230786979198456, -0.10031098127365112, 0.009990419261157513, -0.10310739278793335, 0.24804723262786865, 0.2176114022731781, -0.21223025023937225, 0.007025952450931072, 0.11409759521484375, 0.04248618334531784, -0.04050147533416748, 0.21171462535858154, 0.09377052634954453, 0.1850995421409607, -0.011872053146362305, -0.23092882335186005, -0.16236042976379395, 0.26378926634788513},
	{-0.09743078798055649, 0.16314885020256042, 0.05990377441048622, -0.1439754217863083, -0.25198009610176086, 0.1643669307231903, -0.16982990503311157, 0.07432746142148972, -0.023986678570508957, 0.20911869406700134, -0.17249883711338043, 0.045338768512010574, 0.1640414297580719, -0.013304297812283039, 0.17346669733524323, 0.1711801141500473, 0.20604582130908966, 0.15176290273666382, -0.16090768575668335, 0.03638081252574921, 0.012480668723583221, 0.226607546210289, 0.07101023197174072, -0.0027577877044677734, 0.08935326337814331, 0.06075894832611084, 0.1351865530014038, -0.2652391493320465, -0.10857649892568588, 0.09360700845718384, -0.13705778121948242, -0.16077464818954468, -0.10272326320409775, 0.1400686502456665, -0.1310555338859558, -0.030061325058341026, 0.2227933406829834, 0.062386706471443176, -0.11465759575366974, -0.13925209641456604, 0.21470679342746735, 0.1568349003791809, 0.13792367279529572, -0.1901949644088745, -0.06794430315494537, 0.1834653615951538, 0.014620770700275898, 0.2059725522994995, 0.19363820552825928, 0.24388165771961212, -0.08385595679283142, 0.17549096047878265, 0.0957246869802475, 0.17975462973117828, 0.07777571678161621, 0.038719940930604935, 0.13818210363388062, 0.13450253009796143, -0.11431533843278885, 0.2049487829208374, -0.07896751165390015, -0.0861496776342392, -0.011882010847330093, -0.032588738948106766},
	{0.02090517058968544, -0.18578462302684784, 0.08564753830432892, 0.00013237203529570252, 0.18811342120170593, -0.11604040116071701, 0.23622381687164307, -0.11612667888402939, 0.20525692403316498, -0.21222786605358124, 0.07181563228368759, 0.07323317229747772, 0.23091714084148407, 0.16178923845291138, 0.2127711921930313, 0.16088861227035522, 0.08756422251462936, 0.20314186811447144, -0.03661927953362465, -0.055132344365119934, -0.25033003091812134, -0.19881819188594818, -0.13272851705551147, 0.20326018333435059, 0.11328347027301788, -0.0839349627494812, -0.1512449085712433, -0.2026209831237793, -0.03193308785557747, -0.02933579683303833, -0.027309000492095947, 0.12022244930267334, 0.2638004422187805, -0.23214206099510193, 0.1904483288526535, -0.14993055164813995, 0.08648878335952759, -0.09853729605674744, -0.07172046601772308, 0.260389506816864, 0.022606849670410156, -0.11926484107971191, 0.020883454009890556, -0.02760469913482666, 0.14413143694400787, -0.06493283063173294, 0.23110058903694153, 0.2431156039237976, -0.12068045139312744, 0.2538105845451355, 0.19699522852897644, -0.1955977976322174, -0.08951625227928162, -0.12788435816764832, -0.020357966423034668, 0.08264370262622833, -0.16852635145187378, -0.14965099096298218, -0.12599410116672516, 0.08606612682342529, 0.05866628885269165, 0.122129887342453, 0.0614764504134655, -0.21245568990707397},
	{0.08816835284233093, 0.21294432878494263, 0.0650889128446579, -0.08169469237327576, 0.2118903547525406, -0.13593953847885132, 0.010524332523345947, -0.2153359204530716, -0.11088548600673676, -0.17905293405056, 0.04345405846834183, 0.08341804146766663, -0.1264800876379013, 0.2536984384059906, -0.0013924030354246497, 0.1336003988981247, -0.033496640622615814, 0.10158318281173706, -0.26907551288604736, 0.13465437293052673, -0.07567179948091507, -0.07309874147176743, 0.23332756757736206, -0.11282283067703247, -0.2165134847164154, 0.09744447469711304, 0.02265378087759018, -0.20631937682628632, -0.08927864581346512, 0.211814284324646, 0.15265929698944092, 0.017648398876190186, 0.17494501173496246, 0.23512600362300873, 0.24467965960502625, 0.18777364492416382, -0.012846052646636963, 0.08857820928096771, 0.052236881107091904, -0.1599748581647873, -0.21035967767238617, 0.22377538681030273, -0.118614561855793, 0.20164823532104492, -0.1513824611902237, 0.06739255040884018, 0.23350933194160461, 0.06299489736557007, -0.06477123498916626, -0.021580122411251068, -0.2038571536540985, 0.08898907899856567, 0.22778356075286865, 0.04890398681163788, 0.17537546157836914, 0.07519263029098511, 0.14119797945022583, -0.016926825046539307, 0.12922030687332153, 0.21240642666816711, -0.07010257244110107, 0.1978781521320343, -0.18950679898262024, -0.22138461470603943},
	{0.12552891671657562, -0.07046449929475784, -0.008497649803757668, -0.21547453105449677, 0.12013112753629684, 0.09478741884231567, 0.0764506459236145, 0.2204006165266037, -0.11280500888824463, -0.1685258448123932, 0.0010986494598910213, 0.16326022148132324, -0.22602131962776184, -0.21573999524116516, 0.23201541602611542, -0.1207105815410614, 0.09073620289564133, 0.17229127883911133, 0.16402512788772583, 0.23434923589229584, 0.14904938638210297, -0.10838111490011215, -0.18671321868896484, 0.09046530723571777, 0.1133560985326767, 0.17282098531723022, 0.26898255944252014, 0.023198947310447693, 0.1680617481470108, -0.0006638169288635254, -0.03705918788909912, 0.22014659643173218, 0.19227536022663116, 0.19180722534656525, 0.08974136412143707, -0.22908684611320496, 0.06989222764968872, -0.06669389456510544, -0.019362809136509895, -0.06548792123794556, 0.06349063664674759, -0.08207318186759949, 0.09959784895181656, 0.23866546154022217, 0.18612420558929443, -0.015670839697122574, 0.01427867729216814, 0.20261865854263306, -0.206306591629982, -0.24873791635036469, 0.025151539593935013, 0.170841246843338, 0.07527965307235718, -0.09757544100284576, 0.11074882745742798, 0.22550620138645172, 0.22747713327407837, 0.14609819650650024, 0.17595671117305756, -0.02402622438967228, -0.21934163570404053, -0.1192721500992775, -0.05415249615907669, -0.01670597679913044},
	{0.16557061672210693, 0.03390347212553024, 0.1055067628622055, 0.15628738701343536, 0.09499328583478928, 0.1266079843044281, -0.21479743719100952, -0.13031673431396484, -0.047618020325899124, -0.1559494137763977, -0.2130008339881897, -0.0058378856629133224, -0.0882938951253891, -0.047536008059978485, 0.09933362156152725, 0.2224082201719284, -0.05444438010454178, -0.14310085773468018, -0.11061272025108337, -0.08055286109447479, -0.20394328236579895, 0.2695704996585846, -0.09974706172943115, -0.20688122510910034, 0.20028795301914215, -0.03927433490753174, 0.15825966000556946, -0.08031363040208817, 0.1575540006160736, -0.16830605268478394, -0.12433195114135742, 0.12399953603744507, -0.07934179157018661, 0.2231501191854477, 0.003417014377191663, 0.1739204376935959, -0.03679502010345459, -0.16862088441848755, 0.25861892104148865, -0.23801635205745697, -0.13553760945796967, -0.03583241626620293, 0.0022488567046821117, 0.18704825639724731, -0.15371927618980408, -0.05323367938399315, -0.016164109110832214, 0.22027510404586792, -0.1715432107448578, 0.17408664524555206, -0.20019368827342987, 0.1363012194633484, 0.2255900800228119, 0.18410372734069824, 0.12017500400543213, 0.12628987431526184, -0.013405561447143555, 0.12834137678146362, -0.08385471999645233, 0.17371788620948792, -0.22474288940429688, 0.0930752232670784, -0.18063199520111084, 0.23007482290267944},
	{-0.20292605459690094, -0.09450005739927292, 0.0065722037106752396, 0.19705015420913696, -0.102703757584095, -0.18126501142978668, -0.0816805362701416, 0.05362318456172943, -0.22501924633979797, -0.07906602323055267, -0.007233854383230209, 0.028328105807304382, 0.14158235490322113, 0.12326198816299438, 0.023258911445736885, 0.09252357482910156, -0.13688558340072632, 0.2479800581932068, 0.05553986877202988, -0.022410262376070023, 0.06257117539644241, -0.08928876370191574, 0.12274891138076782, -0.18701708316802979, 0.11657988280057907, -0.025746047496795654, -0.22988282144069672, 0.06776615232229233, 0.24167974293231964, 0.06663453578948975, 1.4781951904296875e-05, -0.19628435373306274, -0.21104419231414795, 0.14350248873233795, -0.16486792266368866, 0.02030676230788231, -0.08638668060302734, -0.13071385025978088, -0.15680739283561707, 0.18900153040885925, 0.249043270945549, 0.2485949695110321, 0.252269983291626, -0.04976463317871094, -0.19315743446350098, -0.1666707843542099, -0.1586497724056244, 0.07678145170211792, -0.21568596363067627, -0.2105770856142044, 0.2521687150001526, 0.15342864394187927, 0.12851151823997498, -0.06509853154420853, -0.061071038246154785, -0.11854434758424759, -0.20356625318527222, 0.062330543994903564, 0.0947512686252594, 0.038984742015600204, -0.06867533922195435, -0.03489023447036743, -0.012744967825710773, -0.06157327815890312},
	{0.03089097887277603, -0.1318226158618927, 0.10538405925035477, -0.16080501675605774, 0.17194269597530365, -0.07466171681880951, -0.07188647985458374, -0.06789690256118774, -0.06133120507001877, 0.11527705192565918, 0.2092580944299698, 0.04304705932736397, 0.0006872424855828285, 0.20470938086509705, 0.09101785719394684, 0.04759642854332924, -0.19593174755573273, -0.24730366468429565, -0.06350520253181458, -0.2304638922214508, 0.154031440615654, -0.09492109715938568, -0.24098527431488037, -0.05437105894088745, -0.0933866873383522, -0.15357178449630737, -0.24319304525852203, -0.1294967383146286, -0.1856376826763153, 0.24097079038619995, -0.07890808582305908, -0.1728108525276184, 0.11420995742082596, 0.1331048458814621, -0.14372247457504272, 0.058492835611104965, -0.18418413400650024, -0.21455010771751404, 0.14898543059825897, 0.07040790468454361, -0.18446704745292664, 0.058256614953279495, 0.19704626500606537, -0.14891254901885986, -0.13544733822345734, 0.2006382793188095, -0.1960059553384781, 0.05880469083786011, -0.24987031519412994, 0.20453214645385742, 0.16520607471466064, 0.16540205478668213, -0.24929647147655487, -0.02857467345893383, 0.20154231786727905, 0.08636873215436935, -0.12785810232162476, -0.2146647572517395, -0.041234347969293594, 0.028858622536063194, -0.04469174146652222, 0.06556770205497742, 0.18141745030879974, -0.1514577865600586},
	{0.05214446783065796, -0.19713819026947021, 0.08497470617294312, -0.0362582802772522, -0.10236966609954834, 0.10374033451080322, -0.21404999494552612, -0.2208278775215149, 0.17996728420257568, -0.05979585647583008, -0.0355415940284729, -0.2421489953994751, -0.015886127948760986, 0.2172755002975464, -0.1386115550994873, -0.2385268211364746, -0.20714837312698364, 0.02961575984954834, 0.056125521659851074, 0.02720111608505249, -0.02149111032485962, -0.0013281702995300293, 0.19240963459014893, -0.07052886486053467, -0.13474375009536743, 0.14153927564620972, -0.10424524545669556, -0.22551816701889038, -0.16339027881622314, -0.14294379949569702, 0.17661064863204956, -0.0910521149635315, 0.17353898286819458, -0.0160672664642334, 0.097506582736969, -0.06588518619537354, -0.20434248447418213, 0.2416367530822754, -0.22801756858825684, -0.18637269735336304, -0.08694154024124146, -0.14535975456237793, 0.055647194385528564, 0.23997920751571655, -0.2366396188735962, -0.21975278854370117, 0.15515750646591187, 0.23812347650527954, 0.003583073616027832, -0.1403835415840149, 0.05176186561584473, 0.23894953727722168, 0.15519177913665771, -0.08540856838226318, -0.21182793378829956, 0.17418783903121948, 0.08825820684432983, -0.06439381837844849, -0.19090873003005981, -0.005369842052459717, 0.024944663047790527, -0.13138610124588013, 0.16362804174423218, -0.22187447547912598},
};
const float bias_l2[] =
	{0.005381510592997074, -0.017129944637417793, -0.002969752298668027, -0.02549956925213337, 0.02572396770119667, -0.016286326572299004, 0.0, -0.015793565660715103, -0.022203680127859116, 0.027054334059357643, 0.0, 0.0, 0.026292085647583008, 0.011874191462993622, 0.0, 0.03861227631568909, 0.0001707432238617912, 0.012002291157841682, -0.017069494351744652, 0.013072988949716091, -0.009088864549994469, 0.0, 0.023174984380602837, 0.026990875601768494, 0.02607172727584839, 0.011053348891437054, 0.03461239114403725, -0.01655314490199089, 0.011862875893712044, 0.01415733527392149, -0.019000109285116196, 0.0};

const std::vector<std::vector<float>> weights_l3{
	{0.15396198630332947, 0.02507534809410572, 0.07143562287092209, 0.27313390374183655, -0.23980221152305603, 0.01893449015915394, 0.23097404837608337, -0.18496504426002502, 0.06045561283826828, -0.1478421837091446, -0.2752232849597931, 0.10298877954483032, 0.17259645462036133, 0.19349230825901031, 0.055165380239486694, -0.3168054223060608, -0.26292935013771057, -0.2967265844345093, 0.011550279334187508, 0.3031025528907776, 0.004936594516038895, -0.2216258943080902, 0.016010470688343048, 0.10774108022451401, 0.08773671090602875, 0.042152032256126404, 0.18317319452762604, 0.04092002660036087, 0.23389407992362976, -0.03973252326250076, -0.27984097599983215, -0.1382809579372406},
	{-0.06776559352874756, -0.29925283789634705, 0.1657824069261551, -0.09075430035591125, 0.032014939934015274, 0.2953081727027893, 0.24802574515342712, -0.1887744516134262, 0.1840004026889801, 0.2724096477031708, -0.22331228852272034, 0.04798212647438049, 0.2015528529882431, 0.07821603864431381, -0.20292361080646515, 0.07750643789768219, -0.03617069125175476, -0.024361461400985718, -0.10886275768280029, 0.06012052297592163, -0.16041943430900574, -0.07372136414051056, 0.2565571367740631, 0.13746628165245056, 0.2292502224445343, 0.3329926133155823, 0.04440024122595787, -0.2878933548927307, -0.08969990909099579, -0.19652700424194336, 0.2723592519760132, 0.2436535656452179},
	{0.037278641015291214, -0.024855047464370728, 0.1647164523601532, -0.14405937492847443, 0.09950131177902222, 0.2740088999271393, 0.1700533926486969, -0.14598974585533142, 0.19493547081947327, -0.23266328871250153, 0.025961607694625854, -0.21032360196113586, -0.27287936210632324, -0.2309909164905548, 0.02474147081375122, 0.002500861883163452, 0.13829217851161957, -0.1633368879556656, 0.1524108201265335, -0.06084170937538147, 0.030451901257038116, 0.15420499444007874, 0.034551721066236496, -0.2813705801963806, -0.15431344509124756, -0.11794976145029068, 0.08270625025033951, 0.004292512312531471, -0.2516030967235565, 0.2281370460987091, -0.1865682750940323, -0.0231475830078125},
	{0.2264423370361328, -0.2553158700466156, -0.1812671422958374, -0.1538788080215454, 0.16569849848747253, 0.25187715888023376, -0.06775036454200745, -0.10701406747102737, -0.1980590522289276, 0.1897275447845459, -0.11822910606861115, -0.11515571177005768, -0.11485618352890015, 0.1321897804737091, 0.2905731499195099, 0.2735595703125, 0.1929529756307602, 0.08791288733482361, 0.24937430024147034, 0.10300029069185257, -0.027878524735569954, 0.03856104612350464, 0.019459495320916176, 0.17814616858959198, 0.06789222359657288, 0.09112843126058578, 0.011886085383594036, -0.2027663141489029, 0.004656200762838125, 0.21864503622055054, 0.0651877373456955, -0.20351965725421906},
	{0.1915726214647293, -0.04886600375175476, -0.1129535511136055, -0.1490444540977478, -0.08654871582984924, -0.2709931433200836, 0.24560657143592834, 0.17711074650287628, -0.29087257385253906, -0.1423233151435852, 0.20700964331626892, 0.1807701587677002, 0.21178428828716278, -0.11860097199678421, -0.08876559138298035, -0.19459201395511627, 0.11322815716266632, 0.2691805064678192, 0.20231893658638, -0.10194215923547745, -0.046798642724752426, 0.016694486141204834, 0.10269097238779068, -0.29114827513694763, 0.1574101597070694, 0.05519631877541542, 0.08788967877626419, -0.13111791014671326, -0.1961016207933426, -0.3137497305870056, 0.28041353821754456, -0.09315124154090881},
	{0.28621309995651245, -0.015178603120148182, 0.2404501885175705, -0.2230253964662552, -0.10826294124126434, -0.036571480333805084, -0.1769368201494217, -0.25027284026145935, 0.19225963950157166, -0.17820057272911072, 0.1374349594116211, 0.007464587688446045, 0.18461960554122925, 0.0007261208374984562, 0.07833215594291687, -0.265815407037735, -0.0139852873980999, -0.2816043496131897, -0.2099808156490326, 0.17833095788955688, -0.19176453351974487, -0.09632742404937744, -0.08517041802406311, -0.11453599482774734, -0.1610555350780487, 0.09750289469957352, -0.20545780658721924, 0.19772298634052277, 0.16067905724048615, -0.07568628340959549, 0.19346022605895996, 0.226805180311203},
	{0.14379578828811646, 0.12643390893936157, -0.12726019322872162, -0.07464664429426193, -0.20474009215831757, 0.20320522785186768, -0.13204175233840942, 0.02989034168422222, 0.06550586968660355, 0.279512882232666, -0.2518159747123718, -0.09878052771091461, -0.1950155347585678, -0.2115451693534851, 0.04724380373954773, 0.23641620576381683, -0.3004802465438843, 0.20029538869857788, 0.17566756904125214, 0.19076400995254517, -0.3007296323776245, -0.27287983894348145, -0.18861687183380127, -0.18037161231040955, 0.07017582654953003, -0.06107816845178604, -0.06682669371366501, 0.10693282634019852, 0.12093489617109299, -0.20652896165847778, 0.24467411637306213, 0.19328653812408447},
	{-0.27419883012771606, -0.1829236000776291, 0.07975859940052032, -0.244831845164299, 0.2950095236301422, -0.19269010424613953, 0.2755940854549408, -0.25877296924591064, -0.2231908142566681, 0.1743098944425583, 0.19850239157676697, -0.17927080392837524, 0.11385912448167801, -0.00859227403998375, -0.1833134889602661, 0.26146000623703003, -0.28131216764450073, 0.19443416595458984, -0.022100374102592468, 0.1624845415353775, 0.08423212915658951, -0.24289998412132263, 0.2282789796590805, -0.05240205302834511, 0.07980886846780777, -0.13303960859775543, 0.1778729259967804, -0.04797317087650299, 0.10747479647397995, 0.13539078831672668, -0.20265252888202667, -0.22183656692504883},
	{-0.10107094049453735, 0.1774497926235199, 0.18159572780132294, -0.2918754816055298, -0.2683655321598053, 0.08296968042850494, 0.0035670101642608643, -0.0030072233639657497, 0.0918884351849556, 0.24832022190093994, -0.1825847327709198, -0.2804548740386963, -0.11623066663742065, 0.04616272822022438, 0.29375919699668884, -0.2836644947528839, 0.0963624119758606, -0.10077665001153946, -0.18198522925376892, 0.02357402816414833, -0.12972642481327057, -0.2617781460285187, -0.09164923429489136, -0.24562722444534302, 0.12265689671039581, 0.2201521247625351, -0.22324714064598083, 0.2645041346549988, -0.15254703164100647, 0.1492842733860016, -0.1075483188033104, -0.009939610958099365},
	{0.09058602899312973, 0.003775864839553833, 0.027815505862236023, -0.006302068941295147, 0.30158761143684387, -0.20056316256523132, 0.22739550471305847, 0.033819444477558136, 0.29837551712989807, 0.3150319457054138, -0.002224832773208618, 0.19855472445487976, -0.24781882762908936, -0.11177905648946762, 0.18480074405670166, 0.04729769378900528, 0.10619313269853592, -0.19413453340530396, 0.08797425031661987, -0.27684664726257324, -0.24776901304721832, 0.11510753631591797, -0.00891429465264082, -0.2535319924354553, 0.09863006323575974, 0.036335289478302, -0.23430155217647552, -0.10202224552631378, 0.0007453965372405946, -0.018532177433371544, -0.10319479554891586, -0.1403658390045166},
	{-0.12294632196426392, 0.013552457094192505, 0.06428605318069458, 0.16047638654708862, -0.30432310700416565, -0.19050762057304382, 0.012567698955535889, -0.03807494044303894, -0.2016458809375763, -0.1708105504512787, -0.24636927247047424, 0.3061572015285492, -0.14640671014785767, -0.18028834462165833, 0.09451717138290405, -0.0943954735994339, -0.3031783998012543, 0.1262044906616211, 0.1918591558933258, -0.12765930593013763, 0.24135330319404602, -0.14663971960544586, -0.30264249444007874, -0.090934157371521, -0.2318653166294098, -0.03049609065055847, 0.01661190390586853, -0.2996847331523895, -0.16379600763320923, -0.2621203660964966, -0.27473965287208557, -0.2514982223510742},
	{0.2522919178009033, -0.1664590984582901, -0.05925094336271286, -0.06689358502626419, 0.20641392469406128, 0.1279977262020111, 0.11977079510688782, 0.13372060656547546, 0.23202189803123474, 0.24401980638504028, -0.22279119491577148, -0.024515748023986816, 0.04059617593884468, 0.289047509431839, -0.09537994861602783, -0.29140517115592957, 0.06618186086416245, 0.20318880677223206, -0.1486796885728836, 0.30258235335350037, -0.22014378011226654, -0.09048417210578918, 0.07165291905403137, -0.10750903189182281, 0.2760002017021179, -0.18357467651367188, -0.2796068787574768, 0.003952918574213982, 0.22755275666713715, 0.19402363896369934, 0.0013551502488553524, 0.30206456780433655},
	{0.2778172194957733, 0.08551627397537231, -0.019894961267709732, 0.04599865898489952, -0.31362730264663696, -0.16224773228168488, -0.10745160281658173, -0.28670358657836914, 0.2343229204416275, 0.08193523436784744, 0.25439098477363586, -0.28162887692451477, 0.16033171117305756, -0.027272280305624008, -0.16633708775043488, -0.19732271134853363, 0.2791350185871124, 0.07665694504976273, -0.3162018954753876, -0.06800565123558044, 0.2716231048107147, 0.14278295636177063, -0.2908676564693451, 0.21024645864963531, -0.1602911800146103, -0.31940364837646484, -0.13218185305595398, 0.2565878629684448, -0.2494279146194458, 0.12964889407157898, 0.2591816484928131, -0.25278374552726746},
	{-0.22496050596237183, 0.30131247639656067, 0.2914154827594757, -0.26110726594924927, -0.012588276527822018, 0.06033732742071152, 0.1421785056591034, 0.11171549558639526, 0.25786545872688293, -0.2083238810300827, 0.005990564823150635, -0.17857809364795685, -0.25684654712677, -0.28545162081718445, 0.0510580837726593, -0.214821457862854, -0.3111611604690552, -0.15480950474739075, -0.10274221748113632, 0.0632915273308754, 0.2799938917160034, -0.2647726237773895, 0.1711834967136383, -0.12048937380313873, -0.15967604517936707, -0.14502981305122375, -0.013473610393702984, -0.30106475949287415, -0.1884974241256714, -0.29183411598205566, 0.1832563728094101, -0.2924931049346924},
	{0.014086037874221802, 0.1167680025100708, 0.0740668773651123, 0.2221059501171112, -0.2846129834651947, 0.26647618412971497, 0.2715316116809845, -0.16907313466072083, 0.12571662664413452, -0.22292311489582062, 0.21975788474082947, -0.023641198873519897, -0.01004055142402649, 0.24802324175834656, 0.02107328176498413, 0.05975380539894104, -0.034057289361953735, 0.13912352919578552, 0.03496447205543518, 0.1752924919128418, -0.1874983161687851, 0.12697359919548035, -0.004861027002334595, -0.08472684025764465, -0.30466753244400024, -0.25723057985305786, 0.041564494371414185, -0.13978366553783417, -0.24390652775764465, -0.19978326559066772, -0.025078147649765015, -0.2290891706943512},
	{0.1134461835026741, -0.21864989399909973, 0.17159879207611084, -0.10528295487165451, 0.2314005196094513, 0.14434672892093658, 0.14612537622451782, -0.11974512785673141, 0.15502731502056122, -0.09980931878089905, -0.16566744446754456, 0.01086801290512085, -0.20268377661705017, 0.2335365116596222, 0.25863131880760193, 0.0812346562743187, -0.1120893806219101, 0.02961423620581627, -0.03336479514837265, 0.11171172559261322, -0.14080652594566345, 0.21959224343299866, 0.1192324161529541, -0.03163711354136467, 0.04161520674824715, -0.1747637838125229, -0.14321650564670563, -0.22004878520965576, -0.07189993560314178, -0.009006286971271038, 0.05816629156470299, 0.17068186402320862},
	{0.22013629972934723, -0.07738972455263138, 0.05963031202554703, 0.15543654561042786, 0.2556561231613159, -0.0017185512697324157, 0.1442444920539856, -0.29062822461128235, 0.14577268064022064, 0.02973615564405918, 0.28903231024742126, -0.003919243812561035, -0.29688405990600586, 0.045245878398418427, 0.05900576710700989, -0.1973613202571869, 0.04312563315033913, 0.1579790562391281, 0.22148603200912476, -0.027983833104372025, 0.10718145221471786, -0.01251673698425293, -0.06194842606782913, 0.0536634735763073, -0.17456991970539093, -0.21749283373355865, -0.3188658356666565, 0.2732470631599426, -0.13699385523796082, 0.10750894248485565, 0.07962839305400848, -0.2471088320016861},
	{-0.016391823068261147, 0.20954369008541107, 0.3280419707298279, 0.30476638674736023, 0.10684390366077423, -0.06274323165416718, -0.12592802941799164, 0.2106402963399887, -0.03396187350153923, -0.2657964527606964, -0.22711050510406494, 0.10724633932113647, -0.006470572669059038, 0.04439930245280266, 0.23266038298606873, 0.03827458992600441, 0.2654758095741272, -0.1356879025697708, -0.17673714458942413, -0.20071391761302948, 0.01120716705918312, -0.24178965389728546, -0.03647320345044136, -0.22443737089633942, 0.1343269795179367, 0.21403971314430237, 0.32795262336730957, -0.22160954773426056, 0.16709177196025848, 0.08475952595472336, -0.18282461166381836, 0.21510103344917297},
	{0.2800963521003723, 0.3121602535247803, 0.18593423068523407, -0.13064131140708923, -0.051852136850357056, -0.14699815213680267, 0.1628936529159546, 0.16250886023044586, 0.013933232054114342, 0.25028085708618164, -0.05282971262931824, 0.21977737545967102, 0.12981270253658295, 0.07326170057058334, -0.17020384967327118, 0.25207459926605225, 0.16845624148845673, -0.17928126454353333, -0.12423272430896759, -0.06452620029449463, 0.1990000307559967, -0.30278870463371277, 0.11698493361473083, 0.0820302739739418, -0.2030339241027832, -0.16591258347034454, 0.23287928104400635, 0.1994071900844574, 0.09023483097553253, -0.08155524730682373, 0.20047476887702942, -0.23386172950267792},
	{-0.16466020047664642, 0.257905513048172, 0.2769632935523987, -0.2526393532752991, -0.21374920010566711, 0.15005970001220703, 0.03008553385734558, 0.11311867088079453, 0.1776587814092636, -0.2632405459880829, -0.28944581747055054, -0.19982057809829712, 0.1160358190536499, 0.1467534452676773, 0.14494743943214417, 0.23138228058815002, -0.1475757360458374, -0.23040969669818878, -0.10430951416492462, -0.0770193487405777, 0.19219790399074554, 0.020893901586532593, 0.14058008790016174, -0.14309678971767426, 0.27784714102745056, -0.22734101116657257, -0.2826618254184723, -0.09800313413143158, 0.041596319526433945, 0.19192080199718475, 0.09059968590736389, 0.12450596690177917},
	{-0.2469179779291153, -0.16125191748142242, -0.274668425321579, 0.1611189991235733, -0.08002173155546188, 0.06848087161779404, -0.20765455067157745, -0.1231791153550148, 0.006221024319529533, -0.31566518545150757, -0.167056143283844, -0.27730533480644226, 0.04014541208744049, 0.0379306897521019, 0.09497305750846863, 0.25590014457702637, 0.20311623811721802, -0.2823987901210785, -0.004280556924641132, -0.31853920221328735, 0.03766225650906563, -0.19960275292396545, 0.08756702393293381, 0.07186711579561234, -0.07452834397554398, 0.17522111535072327, 0.016258766874670982, 0.1442125141620636, 0.2697634994983673, -0.02616216614842415, -0.23707449436187744, 0.05201846361160278},
	{0.244956836104393, -0.2989208698272705, 0.2872283458709717, 0.004834489896893501, 0.15675097703933716, 0.1636483520269394, -0.14738556742668152, -0.27055421471595764, -0.22217173874378204, 0.11260861903429031, -0.3010994791984558, 0.09077849984169006, 0.3259848654270172, 0.10855324566364288, -0.2654366195201874, -0.048230599611997604, -0.26792287826538086, -0.23666290938854218, -0.22650519013404846, 0.23971949517726898, -0.2649238407611847, 0.2491041123867035, -0.1551242172718048, 0.18691536784172058, -0.046616822481155396, -0.15590302646160126, 0.22508233785629272, -0.15289601683616638, -0.26758939027786255, 0.269050657749176, -0.03901998698711395, -0.2974834144115448},
	{-0.18998032808303833, 0.14753523468971252, 0.10900798439979553, -0.049654990434646606, -0.2756737768650055, -0.11906430125236511, 0.023080557584762573, -0.20441646873950958, -0.05587947368621826, 0.056839555501937866, 0.06113967299461365, 0.0928514301776886, -0.1569453477859497, 0.13673532009124756, 0.24377408623695374, 0.17331302165985107, 0.2100357711315155, 0.2385304868221283, -0.024430572986602783, -0.19933336973190308, -0.19633707404136658, -0.22171801328659058, -0.258171409368515, 0.173195481300354, -0.29784849286079407, -0.1937844604253769, 0.07872730493545532, 0.20094355940818787, 0.19315454363822937, -0.19175241887569427, -0.17113876342773438, 0.287340372800827},
	{-0.21291899681091309, -0.06655143201351166, -0.2283226102590561, -0.2829381823539734, 0.084408700466156, 0.20958402752876282, -0.009829431772232056, 0.06444250047206879, -0.05413049831986427, 0.12667524814605713, 0.04903712868690491, 0.2607755959033966, 0.151519775390625, -0.038897570222616196, 0.09613296389579773, -0.30643463134765625, 0.03361593931913376, -0.15546657145023346, 0.21614030003547668, 0.28179821372032166, 0.1931077092885971, 0.051834940910339355, 0.13015787303447723, -0.22727429866790771, -0.1550201028585434, -0.06130582466721535, 0.04059022665023804, -0.04097286984324455, 0.3182809054851532, 0.12030288577079773, -0.022261567413806915, 0.17028430104255676},
	{-0.19045136868953705, -0.04141009598970413, 0.2849191725254059, -0.32764628529548645, 0.14876015484333038, 0.28776171803474426, -0.23860326409339905, -0.22702492773532867, -0.07245572656393051, -0.12869778275489807, 0.1248396635055542, 0.036738812923431396, -0.3125283718109131, 0.044621676206588745, 0.09250694513320923, -0.05893280357122421, 0.11491745710372925, -0.046268243342638016, 0.04160069674253464, 0.23270919919013977, -0.00017375726019963622, -0.2959771752357483, 0.010214637964963913, 0.2323833405971527, -0.2143416404724121, -0.30004364252090454, -0.08537639677524567, -0.07002177089452744, 0.021057818084955215, 0.09322196990251541, 0.18567238748073578, -0.1831052303314209},
	{0.2050693780183792, 0.04428509622812271, 0.2464102953672409, -0.25785189867019653, -0.040842533111572266, -0.26799649000167847, 0.10888388752937317, 0.003099854104220867, -0.14478282630443573, 0.1588614583015442, -0.06306417286396027, 0.28621819615364075, 0.19161708652973175, 0.08190781623125076, -0.18701228499412537, 0.07502605766057968, -0.2717921733856201, -0.2685718536376953, 0.17503036558628082, -0.01527413446456194, 0.24740584194660187, -0.07414191961288452, 0.15924634039402008, 0.03745076060295105, -0.2941437065601349, -0.04687507450580597, -0.04803760349750519, 0.05137878656387329, 0.034799724817276, -0.12813857197761536, 0.25941357016563416, 0.10295754671096802},
	{-0.2637993097305298, 0.18050289154052734, -0.190344899892807, -0.17854531109333038, -0.12497587502002716, 0.19894841313362122, -0.04431954026222229, -0.25746971368789673, -0.07401664555072784, -0.25088828802108765, -0.007978290319442749, -0.03056427836418152, -0.23964840173721313, -0.053962767124176025, 0.1431346833705902, 0.22489014267921448, -0.003954499959945679, -0.2319849580526352, 0.23257103562355042, -0.14837801456451416, 0.013916969299316406, 0.2826005518436432, 0.2847459018230438, 0.15717706084251404, 0.08040469884872437, 0.2413405478000641, -0.18460340797901154, -0.2172338217496872, -0.03169336915016174, -0.16018226742744446, -0.2037723958492279, -0.29525643587112427},
	{0.0198614951223135, -0.07721158862113953, -0.034864600747823715, -0.15849938988685608, -0.28052273392677307, 0.1702747792005539, 0.17729386687278748, 0.19991299510002136, 0.11212208867073059, 0.07679645717144012, -0.14042679965496063, -0.2989097535610199, 0.13854444026947021, -0.282843679189682, -0.03320544958114624, -0.15357966721057892, 0.2459867298603058, 0.31198862195014954, 0.2869938910007477, -0.2011864185333252, -0.14418134093284607, -0.09144844114780426, 0.2160930335521698, -0.04169893637299538, -0.23371389508247375, 0.1745748221874237, -0.108435720205307, -0.12631134688854218, -0.040973249822854996, 0.035529255867004395, -0.28269845247268677, 0.09732335805892944},
	{-0.1847909688949585, 0.11172083020210266, 0.15692703425884247, -0.19444118440151215, 0.02818983606994152, -0.2924501597881317, 0.20779892802238464, -0.12143363803625107, 0.24373826384544373, 0.23196788132190704, 0.2921575605869293, 0.18746036291122437, -0.2049551159143448, 0.2734176814556122, -0.019158095121383667, -0.3062876760959625, -0.1383284032344818, 0.20006981492042542, 0.004149044398218393, -0.10325825214385986, -0.2476237267255783, -0.08723112940788269, 0.054117556661367416, -0.227045938372612, -0.0815102756023407, -0.09177649766206741, 0.13445459306240082, -0.19245286285877228, 0.2943953573703766, -0.07380431145429611, -0.0030394860077649355, 0.05156147480010986},
	{-0.1920900195837021, 0.07635551691055298, 0.24246536195278168, 0.07780011743307114, 0.3151494860649109, -0.19917988777160645, -0.10948948562145233, -0.1735713928937912, -0.015617610886693, 0.15735860168933868, -0.05686372518539429, 0.09936666488647461, 0.036832552403211594, -0.2276032716035843, 0.26326408982276917, 0.02866959758102894, 0.0662679672241211, 0.1976408213376999, 0.16520026326179504, -0.15950506925582886, 0.026572374626994133, -0.13921310007572174, -0.1468977928161621, 0.30672022700309753, -0.07762502878904343, 0.1391768455505371, 0.302386999130249, -0.129386305809021, 0.07725583016872406, -0.04641635715961456, 0.1435779184103012, 0.3028601109981537},
	{0.1912008821964264, -0.23209431767463684, 0.034344885498285294, -0.18063855171203613, -0.0978199765086174, -0.2223803997039795, -0.26368585228919983, -0.305889755487442, 0.2940526008605957, 0.24232999980449677, 0.26340726017951965, 0.1860445737838745, -0.18619009852409363, 0.07829578965902328, 0.24877509474754333, 0.07887877523899078, 0.17720872163772583, 0.20159655809402466, 0.04784424230456352, 0.021698126569390297, 0.2687886357307434, 0.10086935758590698, 0.048831719905138016, 0.17737257480621338, 0.2710236608982086, -0.1691889613866806, 0.29050034284591675, -0.08988673985004425, 0.30154865980148315, 0.2246924489736557, -0.09808438271284103, -0.09925700724124908},
	{-0.057224929332733154, -0.2549547851085663, -0.09210588037967682, 0.079100102186203, 0.1634664237499237, 0.1588473916053772, 0.24106696248054504, -0.1113741397857666, -0.2437017560005188, 0.005922526121139526, -0.10874998569488525, -0.3025837242603302, -0.15450946986675262, -0.11502313613891602, 0.17239218950271606, 0.29522189497947693, 0.19874325394630432, 0.20275309681892395, -0.15687687695026398, -0.06620573997497559, -0.1537131816148758, -0.2774817943572998, -0.14908531308174133, -0.0957992672920227, -0.1987159252166748, -0.14336265623569489, 0.09715992212295532, 0.2871221601963043, -0.27102160453796387, -0.07092902064323425, -0.2659323811531067, -0.1781783401966095},
};
const float bias_l3[] =
	{0.009147647768259048, 0.03189646452665329, -0.013863318599760532, 0.022694990038871765, -0.01693352684378624, -0.007980451919138432, -0.019474990665912628, 0.02485831081867218, -0.017694473266601562, 0.029151370748877525, 0.0, 0.019189421087503433, -0.016840018332004547, -0.008588566444814205, 0.0, -0.02566133812069893, -0.0037052968982607126, 0.046156059950590134, 0.026793062686920166, -0.016284387558698654, -0.013603677041828632, 0.030563943088054657, 0.0, 0.01776222512125969, -0.029117630794644356, -0.024220850318670273, 0.0, 0.014004639349877834, 0.004175432957708836, 0.04272862896323204, 0.01730593666434288, 0.0};

const std::vector<std::vector<float>> weights_l4{
	{0.05438954010605812, -0.06508827954530716, 0.3023833930492401, -0.03274804353713989, -0.2102339118719101, -0.31794244050979614, 0.05644305422902107, -0.3659639060497284, 0.02979995682835579, -0.032669536769390106, -0.16086137294769287, 0.030015913769602776, 0.3401245176792145, 0.00766141340136528, 0.020095378160476685, -0.019345777109265327, 0.18220269680023193, -0.06765169650316238, -0.1911352574825287, -0.054450519382953644, 0.005099073518067598, -0.26141008734703064, 0.02031409740447998, 0.3125058114528656, -0.14531326293945312, 0.1504940539598465, 0.20950379967689514, 0.13079296052455902, -0.23856571316719055, 0.22956408560276031, 0.23497046530246735, -0.00899699330329895},
	{0.23902371525764465, 0.02965494990348816, -0.1273941546678543, 0.04187920689582825, -0.14061950147151947, -0.27124178409576416, 0.2558816969394684, -0.2151789665222168, 0.05280494689941406, -0.34491607546806335, -0.016681820154190063, -0.00036785006523132324, 0.2391292154788971, -0.037603914737701416, 0.020000040531158447, -0.2653461694717407, 0.03486579656600952, -0.26021808385849, -0.18143366277217865, 0.12106099724769592, -0.08714830875396729, -0.2698609530925751, -0.0837288498878479, -0.2432529777288437, -0.12301349639892578, 0.13308972120285034, -0.24604764580726624, -0.32450494170188904, 0.01943829655647278, -0.18910515308380127, -0.3169572651386261, 0.14647319912910461},
	{0.126999169588089, 0.3424546718597412, -0.3306633532047272, 0.2972935736179352, -0.27752798795700073, -0.08483152836561203, 0.021257875487208366, 0.2598910629749298, -0.33692121505737305, 0.1511644870042801, 0.24989858269691467, 0.27628153562545776, -0.27234598994255066, -0.148725688457489, 0.055166780948638916, 0.05619854852557182, 0.11931894719600677, -0.02669038064777851, 0.3114604949951172, -0.19153223931789398, -0.24469351768493652, 0.09293004125356674, -0.07131338119506836, 0.30074602365493774, -0.15423433482646942, -0.25523385405540466, 0.17224320769309998, 0.16182386875152588, 0.20641405880451202, 0.19866728782653809, -0.26688772439956665, 0.17751064896583557},
	{0.012785684317350388, -0.010321035049855709, 0.029259853065013885, 0.3903011381626129, 0.04971815273165703, -0.10684584081172943, -0.24119757115840912, 0.09005998075008392, -0.0789184719324112, 0.10866975784301758, -0.22549912333488464, 0.21888305246829987, 0.11025513708591461, -0.16362901031970978, 0.13035565614700317, -0.19120030105113983, 0.14829809963703156, 0.30993181467056274, -0.04477866366505623, 0.005499225575476885, -0.23100261390209198, -0.0517328642308712, -0.26229560375213623, 0.012887918390333652, -0.2588448226451874, -0.1322651356458664, -0.29307764768600464, 0.051855750381946564, -0.1718551069498062, 0.3256514370441437, 0.08335711061954498, -0.1896158903837204},
	{-0.040257010608911514, -0.0353018082678318, -0.274506539106369, -0.35977602005004883, 0.11025705933570862, 0.13501901924610138, 0.32281866669654846, 0.019795509055256844, -0.2842862904071808, -0.33449888229370117, 0.3390519917011261, 0.07688118517398834, 0.09330744296312332, 0.15014347434043884, 0.16599461436271667, -0.09980686753988266, 0.122920460999012, -0.3134325444698334, -0.21784809231758118, 0.07301387190818787, 0.2871891260147095, -0.11612492054700851, -0.01665171980857849, -0.27916255593299866, -0.13864026963710785, 0.21804825961589813, -0.11153784394264221, 0.2591371536254883, -0.22898723185062408, 0.149478018283844, 0.13029037415981293, -0.08909842371940613},
	{0.30740293860435486, -0.31120583415031433, 0.17032389342784882, 0.29267776012420654, 0.06379914283752441, -0.20091736316680908, -0.10314017534255981, -0.011122897267341614, -0.08056195825338364, 0.1850564032793045, 0.11539730429649353, 0.32378822565078735, -0.307793527841568, -0.1635851413011551, 0.056827008724212646, 0.1791040152311325, -0.03842201828956604, -0.1660972684621811, 0.18614374101161957, -0.2855137586593628, 0.07505226135253906, 0.01886630989611149, -0.04443389177322388, -0.0807616263628006, -0.2355627566576004, 0.0755540058016777, -0.01992163062095642, 0.17501483857631683, -0.11727560311555862, 0.04236595332622528, -0.2283567637205124, -0.26897192001342773},
	{0.18073512613773346, 0.3462354242801666, 0.03144495561718941, 0.3406004011631012, -0.02824578620493412, 0.08896195143461227, -0.2614603340625763, 0.3525606095790863, -0.12780649960041046, 0.10901577025651932, -0.067543625831604, 0.23365986347198486, -0.30913203954696655, -0.2366386204957962, 0.016960978507995605, 0.2817282974720001, 0.07490668445825577, -0.04707764834165573, -0.18335825204849243, -0.32767677307128906, -0.09508466720581055, 0.24341590702533722, 0.2229386866092682, -0.07957278192043304, -0.223227858543396, -0.21048060059547424, 0.023586809635162354, 0.18357685208320618, 0.2384585738182068, -0.16733071208000183, -0.06463145464658737, -0.32089969515800476},
	{-0.3615410625934601, 0.3246384263038635, 0.12467595189809799, 0.065374456346035, 0.2677249014377594, 0.2786547541618347, -0.21636860072612762, -0.1362927258014679, -0.14368917047977448, -0.08092796057462692, 0.26429376006126404, 0.17746034264564514, 0.12449014186859131, -0.11260746419429779, -0.12997151911258698, 0.1067732647061348, -0.11927749961614609, 0.08737795799970627, 0.05588696524500847, 0.282209575176239, -0.35515713691711426, -0.06078670173883438, 0.13781866431236267, -0.2727809548377991, -0.15765057504177094, 0.06144886463880539, -0.24893006682395935, 0.17490780353546143, -0.14084969460964203, 0.10652968287467957, -0.01430643443018198, 0.2315252125263214},
	{0.13754524290561676, 0.011773720383644104, 0.22285880148410797, -0.037465400993824005, -0.249299094080925, 0.24545562267303467, 0.140793576836586, -0.040933117270469666, 0.21013738214969635, 0.05132745951414108, -0.3380298614501953, 0.2393789440393448, 0.1351069062948227, 0.2091059684753418, -0.26337212324142456, 0.0560484454035759, -0.16018687188625336, -0.3109079599380493, -0.1764509677886963, 0.28927481174468994, -0.005533997435122728, 0.035361215472221375, 0.06696096062660217, -0.1371503621339798, 0.2752434015274048, -0.34626874327659607, 0.2912493050098419, 0.08536054939031601, -0.14439287781715393, 0.005465870723128319, -0.22695520520210266, -0.33258432149887085},
	{-0.16418877243995667, -0.121342733502388, 0.33633503317832947, -0.3081526458263397, 0.11339510977268219, 0.3398270606994629, -0.1592731773853302, 0.13976755738258362, -0.305550217628479, -0.27797555923461914, 0.16576632857322693, -0.23768369853496552, 0.18656855821609497, 0.10609498620033264, 0.29230836033821106, -0.09921955317258835, 0.2438451051712036, 0.16632696986198425, -0.03605923801660538, 0.0862380862236023, -0.12281961739063263, -0.01994118094444275, -0.29860949516296387, -0.2506926953792572, -0.10727550834417343, 0.3184521496295929, -0.004303097724914551, -0.08087018132209778, -0.24124687910079956, -0.3016565144062042, -0.10049830377101898, 0.04353633522987366},
	{0.123715341091156, 0.35064247250556946, -0.17477808892726898, 0.32713454961776733, 0.2247798591852188, 0.0720234364271164, 0.014859492890536785, 0.30553925037384033, -0.12134978920221329, 0.31442785263061523, 0.3472653329372406, 0.24360717833042145, 0.3629949986934662, 0.07945504039525986, -0.3382161557674408, -0.04038748890161514, 0.13554120063781738, 0.15497688949108124, -0.1444520503282547, -0.2471410483121872, -0.13125166296958923, 0.341214656829834, -0.25639697909355164, -0.1826210618019104, 0.27770358324050903, 0.1258256435394287, 0.2854297459125519, 0.325527548789978, 0.26795366406440735, -0.21258926391601562, 0.1630968451499939, 0.3237186372280121},
	{-0.05470995977520943, 0.03377574682235718, -0.2790939509868622, 0.20101702213287354, -0.021982531994581223, -0.32796797156333923, 0.3536897599697113, -0.19570110738277435, 0.06612181663513184, -0.2605718672275543, 0.07065919041633606, -0.2909758985042572, 0.013516247272491455, -0.17343871295452118, 0.3349967896938324, 0.15546318888664246, -0.253149151802063, -0.18726050853729248, 0.2043202519416809, -0.2936716377735138, -0.05916878581047058, -0.13388143479824066, 0.14022669196128845, 0.14188717305660248, -0.1722295731306076, -0.16932840645313263, -0.20207777619361877, -0.17790871858596802, 0.07352105528116226, 0.20007818937301636, -0.17846979200839996, 0.2777385413646698},
	{-0.018727585673332214, -0.35317158699035645, -0.0288032628595829, 0.17618456482887268, -0.20658737421035767, -0.17236573994159698, 0.3178650736808777, -0.1053299754858017, 0.27798810601234436, -0.28838813304901123, 0.31221047043800354, 0.26080697774887085, -0.22556664049625397, 0.20043668150901794, 0.1823025643825531, -0.25965169072151184, -0.1289961338043213, -0.27700912952423096, -0.3405403196811676, -0.1897900253534317, -0.13216745853424072, -0.22922645509243011, -0.06851434707641602, -0.18303446471691132, 0.1024027094244957, 0.15081579983234406, -0.33135977387428284, 0.11468254029750824, 0.13533975183963776, -0.19899459183216095, -0.018417034298181534, 0.3425222337245941},
	{-0.06617653369903564, -0.37871766090393066, -0.0134363304823637, 0.3175930380821228, -0.3306455612182617, -0.12938904762268066, -0.2847104072570801, 0.2223125547170639, 0.2120923548936844, -0.11000299453735352, 0.08826309442520142, 0.23654304444789886, -0.14101099967956543, 0.039132826030254364, -0.09779316186904907, -0.01600128971040249, 0.3329811692237854, -0.29746100306510925, -0.1304006725549698, 0.2782290577888489, -0.23555004596710205, -0.2315000593662262, -0.04178100824356079, 0.13738521933555603, -0.10826626420021057, -0.2133835405111313, 0.10211870074272156, -0.2522570490837097, 0.019600337371230125, -0.2351442277431488, -0.04639352858066559, -0.14109711349010468},
	{-0.19101166725158691, 0.24451914429664612, -0.08748741447925568, 0.03917529433965683, -0.262119323015213, 0.3104826509952545, -0.2485750913619995, 0.2948029935359955, -0.22312413156032562, 0.3886478543281555, -0.3219320476055145, 0.05344134941697121, -0.29914000630378723, -0.13079480826854706, -0.06918001174926758, -0.00785383116453886, -0.17833726108074188, -0.09252788126468658, 0.29414093494415283, 0.2938741445541382, 0.36913996934890747, 0.12005208432674408, 0.24218860268592834, 0.35662055015563965, -0.11233171075582504, -0.1366029530763626, -0.12413132190704346, 0.03842209279537201, 0.27974799275398254, 0.03331119194626808, 0.23640140891075134, 0.03442487120628357},
	{-0.23886428773403168, 0.04461226239800453, 0.20618075132369995, -0.022711114957928658, -0.10243472456932068, -0.10645008832216263, 0.08652707934379578, -0.20093414187431335, -0.08450725674629211, -0.22790364921092987, -0.26817938685417175, -0.22089427709579468, 0.22399646043777466, 0.25949621200561523, 0.22675922513008118, 0.1880222111940384, 0.15684774518013, 0.10675907135009766, -0.3437398672103882, -0.2934139668941498, -0.3078552484512329, 0.06674858182668686, -0.015028804540634155, -0.35259419679641724, 0.15083102881908417, 0.260625958442688, -0.011266708374023438, -0.012189962901175022, 0.0819503515958786, 0.15406033396720886, -0.04807278886437416, 0.11461952328681946},
};
const float bias_l4[] =
	{-0.006791359279304743, 0.0, 0.03229646012187004, 0.03479785472154617, -0.0076488167978823185, 0.00918878149241209, 0.024809474125504494, -0.017277609556913376, -0.026244809851050377, -0.0059973858296871185, 0.01689380221068859, 0.003321986645460129, -0.013976025395095348, -0.031040696427226067, 0.024072343483567238, -0.01396528072655201};

const std::vector<std::vector<float>> weights_l5{
	{0.35476064682006836, -0.18013226985931396, 0.10271476209163666, -0.3861329257488251, 0.23547764122486115, 0.059925347566604614, -0.485882967710495, -0.21790936589241028, -0.39610031247138977, 0.36852213740348816, 0.2772590219974518, 0.006095739547163248, -0.41487106680870056, -0.36858922243118286, -0.22520527243614197, -0.4840453565120697},
	{0.1184961199760437, 0.34941351413726807, -0.48766762018203735, 0.1673877239227295, 0.1731697916984558, 0.310112327337265, 0.12787356972694397, -0.23043759167194366, -0.14484046399593353, -0.22027075290679932, -0.21995025873184204, 0.4619714021682739, -0.3912278711795807, -0.07511233538389206, 0.3654243052005768, -0.4076281785964966},
	{0.26346373558044434, 0.2606685161590576, 0.04851865768432617, -0.4267207384109497, 0.21016526222229004, -0.38345134258270264, 0.3339095115661621, -0.4739168882369995, 0.20917856693267822, 0.39671552181243896, -0.35281240940093994, 0.08379244804382324, 0.052380919456481934, -0.2551194429397583, -0.1431354284286499, -0.039264798164367676},
	{0.04749631509184837, -0.31367433071136475, 0.45179426670074463, -0.08004985749721527, -0.4437229633331299, 0.2157161831855774, -0.10732316970825195, -0.38421154022216797, 0.10996556282043457, -0.047122739255428314, 0.2472866028547287, 0.4210626780986786, -0.13499411940574646, 0.4528118669986725, -0.0261064562946558, 0.3717217445373535},
	{-0.4567995071411133, -0.2615339756011963, -0.07677897065877914, 0.15192270278930664, 0.3399895429611206, 0.050890445709228516, -0.34760451316833496, 0.04480486363172531, -0.060566481202840805, 0.3703296184539795, -0.08547845482826233, 0.31997811794281006, -0.49593794345855713, 0.03869736194610596, 0.13862483203411102, 0.23211191594600677},
