#ifndef _MODEL_H_
#define _MODEL_H_

#define IN_SHAPE 14

#define SHAPE_L_1 64
#define SHAPE_L_2 32
#define SHAPE_L_3 32
#define SHAPE_L_4 16
#define SHAPE_L_5 8
#define SHAPE_L_6 4
#define SHAPE_L_7 2


const std::vector<std::vector<float>> weights_l1{
	{0.17818406224250793, -0.026482658460736275, -0.252813458442688, -0.2753002643585205, 0.11041554808616638, -0.15220953524112701, -0.10160685330629349, 0.17002320289611816, -0.151103213429451, -0.011571754701435566, 0.00732825743034482, 0.2327786386013031, -0.06763384491205215, 0.2673874795436859, -0.026777364313602448, -0.17555272579193115, 0.1336386650800705, 0.03892526030540466, -0.18888917565345764, 0.09190019965171814, -0.17672216892242432, 0.16704508662223816, -0.12133723497390747, -0.1272348165512085, 0.07229040563106537, 0.27309340238571167, 0.3441565930843353, 0.12065601348876953, 0.0059923529624938965, -0.07886748760938644, 0.2902892231941223, -0.02164238691329956, 0.24409446120262146, -0.061567649245262146, 0.24339589476585388, 0.13080520927906036, 0.06501604616641998, -0.22937339544296265, -0.15728524327278137, 0.11466321349143982, 0.09223345667123795, 0.03904370591044426, -0.09786614775657654, -0.18305788934230804, 0.09397837519645691, -0.3346490263938904, -0.08639311790466309, -0.13611797988414764, 0.2673886716365814, 0.3019040822982788, 0.05007927864789963, 0.14166907966136932, -0.0157918743789196, -0.17679303884506226, 0.22878436744213104, 0.27588951587677, 0.11820866167545319, 0.125225231051445, 0.2092326432466507, -0.17964285612106323, -0.16874781250953674, -0.24934743344783783, 0.07467112690210342, -0.11164639890193939},
	{-0.010113194584846497, 0.1950709968805313, -0.13076379895210266, 0.04731571674346924, -0.07136161625385284, -0.08306959271430969, -0.0792451873421669, -0.21710045635700226, -0.09443939477205276, -0.08080940693616867, -0.1322437971830368, -0.21788787841796875, 0.15894880890846252, -0.11261157691478729, 0.3071235418319702, -0.02114960551261902, 0.2876485288143158, -0.2173478901386261, -0.2730317711830139, -0.31972524523735046, -0.1771618276834488, 0.11135751008987427, -0.25053372979164124, 0.10461477190256119, -0.0588933527469635, 0.2929881513118744, 0.2539753317832947, -0.20150695741176605, -0.22702978551387787, 0.20074713230133057, -0.06779032200574875, -0.17427530884742737, -0.2064426839351654, -0.21315541863441467, 0.01438412070274353, 0.08840660005807877, 0.16232794523239136, 0.16987884044647217, -0.01186990737915039, -0.30131983757019043, 0.12609755992889404, 0.3141035735607147, 0.16730326414108276, -0.25840112566947937, 0.08404183387756348, 0.013144131749868393, 0.0341467559337616, -0.10267528146505356, -0.18506936728954315, 0.18532392382621765, -0.114177405834198, 0.2387503683567047, 0.24001021683216095, -0.24834591150283813, -0.12594309449195862, -0.10850602388381958, -0.07406822592020035, 0.34875211119651794, 0.023502107709646225, 0.15080153942108154, -0.11285722255706787, -0.006427973508834839, -0.013252582401037216, 0.16608276963233948},
	{-0.15069827437400818, 0.20104412734508514, 0.17875617742538452, -0.10792765021324158, 0.09645509719848633, -0.145624041557312, -0.18537718057632446, -0.2289203703403473, 0.09000778198242188, -0.14307452738285065, 0.026605645194649696, -0.2132570445537567, -0.2173270434141159, 0.14214229583740234, -0.12399747967720032, -0.2234053760766983, 0.18064044415950775, 0.135822594165802, -0.10933956503868103, -0.2812022566795349, 0.0693260133266449, -0.12867291271686554, -0.07732468843460083, -0.08386287838220596, 0.22165153920650482, -0.24660874903202057, 0.22997356951236725, -0.052817344665527344, 0.11493471264839172, 0.17949357628822327, 0.02412874810397625, -0.1358378678560257, -0.006363242864608765, 0.07650929689407349, 0.17267468571662903, 0.17954713106155396, -0.11588063836097717, 0.25651368498802185, -0.09678955376148224, 0.0938488319516182, -0.26596498489379883, -0.15400482714176178, -0.1513039767742157, -0.20815224945545197, -0.23520314693450928, -0.20591945946216583, -0.1626994013786316, 0.17629374563694, 0.14240524172782898, 0.0010346209164708853, -0.3268633782863617, 0.16875547170639038, -0.057850565761327744, -0.177239328622818, 0.035665906965732574, -0.21584074199199677, -0.1540486067533493, -0.08745744824409485, 0.050842106342315674, 0.11217865347862244, -0.05527983605861664, -0.09154210984706879, 0.10185039788484573, -0.18254058063030243},
	{0.0058779302053153515, 0.13856017589569092, -0.06165236234664917, -0.08959200978279114, -0.0005930662155151367, -0.20570313930511475, 0.061544835567474365, -0.0597294420003891, 0.055063650012016296, 0.20335495471954346, 0.28136903047561646, -0.14102217555046082, 0.10406097769737244, 0.19367854297161102, 0.25879737734794617, -0.0409245640039444, 0.10229063779115677, -0.2744119465351105, -0.2678992450237274, 0.09112431854009628, -0.16274535655975342, -0.0919485092163086, -0.22645415365695953, 0.2253955602645874, 0.2360336184501648, -0.0015888065099716187, 0.27109494805336, -0.2615547776222229, -0.13762503862380981, 0.11638010293245316, 0.16346503794193268, -0.0999077707529068, -0.1392393559217453, -0.11168688535690308, -0.0879306048154831, 0.16972173750400543, 0.01969875581562519, -0.07040095329284668, -0.2437150776386261, -0.04944396764039993, -0.15021571516990662, 0.0515882782638073, 0.08836019784212112, 0.23627346754074097, -0.26608556509017944, 0.20065425336360931, -0.2236952781677246, 0.2601355314254761, -0.08441133797168732, 0.23038260638713837, 0.10176078975200653, 0.26393622159957886, 0.04139957204461098, -0.09273825585842133, 0.21681858599185944, -0.025779355317354202, 0.04578383266925812, 0.2062729448080063, 0.03570837527513504, -0.024333953857421875, 0.19820202887058258, -0.1864171326160431, 0.03600355237722397, 0.056196704506874084},
	{-0.09947960078716278, -0.18753673136234283, -0.1884286105632782, 0.24262556433677673, 0.13149309158325195, -0.08071750402450562, -0.13644586503505707, -0.15415632724761963, -0.0065513006411492825, 0.03550664335489273, -0.15296059846878052, 0.03713405132293701, -0.12472490966320038, 0.21036450564861298, -0.048766784369945526, 0.22027724981307983, 0.05775101110339165, -0.017597615718841553, 0.2654518187046051, -0.1563459187746048, 0.020898818969726562, 0.05462592840194702, -0.2668093740940094, 0.3432852625846863, 0.31630080938339233, 0.16284896433353424, -0.07458262145519257, -0.0730571448802948, -0.12682141363620758, -0.2452947497367859, -0.176627978682518, -0.14885981380939484, -0.04456469416618347, -0.06147652864456177, -0.10431283712387085, -0.08378866314888, 0.20626266300678253, 0.07591277360916138, -0.1677759885787964, -0.018837682902812958, -0.09953625500202179, 0.3095680773258209, -0.12932784855365753, -0.1680203527212143, -0.1225675642490387, -0.1261262595653534, -0.2725847065448761, -0.16965582966804504, 0.24466952681541443, -0.13281656801700592, 0.14388442039489746, 0.04383271932601929, -0.16765357553958893, 0.1450430452823639, -0.28557631373405457, 0.24410952627658844, 0.08965146541595459, 0.18268664181232452, 0.19606851041316986, 0.027757465839385986, 0.00037329160841181874, -0.04043543338775635, -0.0630527213215828, 0.24683502316474915},
	{-0.08944185823202133, 0.0840824693441391, 0.24699005484580994, -0.1561732292175293, -0.14635881781578064, -0.16062842309474945, 0.2876431941986084, 0.022504538297653198, -0.2456199675798416, 0.14630882441997528, 0.06679507344961166, 0.15777933597564697, 0.1825275868177414, 0.22389036417007446, 0.19309066236019135, -0.1686951220035553, -0.2352016568183899, 0.14605271816253662, -0.10121288895606995, 0.010950197465717793, -0.09309360384941101, -0.11965955793857574, -0.18209624290466309, -0.08477798849344254, 0.2900017499923706, 0.21759645640850067, -0.18932101130485535, -0.010006815195083618, -0.027548640966415405, -0.31351396441459656, 0.29240646958351135, -0.038114890456199646, 0.046756356954574585, -0.27120837569236755, 0.09793722629547119, -0.17159722745418549, -0.0019790390506386757, 0.1618586778640747, -0.24321940541267395, -0.2741236388683319, 0.19631579518318176, 0.2639837861061096, -0.11623065918684006, -0.012331766076385975, 0.2576765716075897, -0.1838175356388092, -0.09589250385761261, 0.02448113262653351, 0.05095526576042175, 0.007246864959597588, -0.27558863162994385, -0.02330259047448635, 0.003174298210069537, -0.01016247272491455, -0.21549484133720398, 0.03532535210251808, -0.08527112752199173, -0.1542898267507553, 0.3371061384677887, -0.1381642371416092, -0.045946426689624786, 0.27421024441719055, 0.24062073230743408, 0.10682962834835052},
	{-0.2558235228061676, 0.09253650903701782, 0.0994051992893219, -0.20796582102775574, 0.24146011471748352, -0.09340505301952362, -0.23191624879837036, -0.20926451683044434, 0.09332110732793808, -0.08123578876256943, 0.20107460021972656, 0.2039538025856018, 0.11446742713451385, -0.0028128947596997023, 0.31398963928222656, 0.028742194175720215, 0.22002020478248596, -0.019373148679733276, 0.11309781670570374, 0.009085267782211304, 0.25876477360725403, 0.13510799407958984, 0.03268307447433472, 0.1682051718235016, -0.05365746095776558, -0.2363852560520172, 0.15361171960830688, -0.11436919867992401, -0.00407254695892334, -0.10338141769170761, 0.03967234864830971, 0.14214935898780823, -0.26379314064979553, -0.19728821516036987, 0.0017119348049163818, 0.3434402048587799, 0.1267254799604416, -0.08738414943218231, 0.2460213601589203, 0.034750811755657196, 0.031013019382953644, -0.1785583347082138, -0.052776798605918884, 0.003992803394794464, -0.09595213830471039, 0.1324607878923416, -0.24332618713378906, 0.12152869999408722, 0.16942965984344482, 0.10752933472394943, -0.33165058493614197, -0.10637085139751434, 0.1669907122850418, -0.1701814979314804, 0.17831583321094513, -0.10741227120161057, 0.3638792634010315, 0.14878201484680176, 0.016312414780259132, -0.11003619432449341, 0.27897730469703674, -0.04627034068107605, -0.11820685863494873, 0.09183015674352646},
	{-0.1352962851524353, 0.2928817570209503, 0.17434793710708618, 0.27466312050819397, -0.2045448273420334, 0.10983556509017944, 0.08942371606826782, -0.16405457258224487, 0.21099619567394257, -0.015509017743170261, 0.12438316643238068, 0.2099188268184662, 0.17377303540706635, 0.18524035811424255, 0.14812779426574707, 0.1451769769191742, 0.10149387270212173, 0.1593632996082306, -0.18826064467430115, -0.16192060708999634, 0.13741323351860046, 0.09846147894859314, -0.02635347843170166, -0.040941089391708374, 0.008082636632025242, -0.18568046391010284, -0.056676510721445084, 0.03012794256210327, -0.10155165195465088, -0.26945197582244873, 0.12368373572826385, -0.004627197980880737, 0.09453713893890381, -0.04114997386932373, 0.1867184042930603, 0.1403137892484665, 0.03976329788565636, -0.2658346891403198, -0.09049475193023682, 0.2031875103712082, 0.055787526071071625, 0.09136974811553955, 0.11767647415399551, 0.06180263310670853, 0.17014002799987793, -0.13794782757759094, 0.04472339153289795, 0.20367230474948883, -0.1755891740322113, 0.22157086431980133, 0.09048029780387878, -0.12937790155410767, 0.03941849246621132, -0.10515502095222473, -0.15253521502017975, -0.17442502081394196, -0.09701278805732727, 0.08542610704898834, 0.1374020278453827, -0.004777282476425171, 0.2293107509613037, 0.08140191435813904, 0.23114000260829926, -0.07968196272850037},
	{-0.002071264199912548, 0.005311953369528055, -0.22339096665382385, -0.11978460848331451, -0.11557088792324066, -0.22116538882255554, 0.12112424522638321, 0.05668860673904419, -0.22314922511577606, -0.10357705503702164, 0.09520190209150314, -0.04066534340381622, 0.02240784466266632, -0.04153325408697128, 0.12571628391742706, -0.26963505148887634, -0.15060006082057953, -0.02879047393798828, 0.20947030186653137, 0.14038662612438202, 0.07883292436599731, 0.21335762739181519, 0.09653973579406738, 0.0008593236561864614, 0.07723484188318253, -0.21978168189525604, 0.06975894421339035, -0.14743918180465698, -0.1032332181930542, 0.12689104676246643, 0.11367655545473099, -0.2317502796649933, 0.25958356261253357, 0.23173537850379944, -0.07985834777355194, 0.2727053463459015, -0.21100561320781708, -0.23932898044586182, 0.1449950635433197, -0.0616794154047966, -0.06715483963489532, 0.10747341811656952, 0.08848768472671509, 0.06932324916124344, 0.1374913454055786, -0.2977951765060425, 0.1298377811908722, 0.2264862358570099, -0.1481315791606903, 0.35939279198646545, -0.16800250113010406, -0.21790556609630585, 0.061791934072971344, -0.0735485851764679, -0.27370399236679077, 0.14942044019699097, -0.15353035926818848, -0.127225860953331, 0.17144577205181122, 0.16365471482276917, -0.031282901763916016, -0.26457566022872925, 0.019422559067606926, -0.22624865174293518},
	{0.18630202114582062, 0.060206539928913116, 0.2574533522129059, -0.09212268888950348, -0.2284615933895111, 0.14886993169784546, -0.30283936858177185, -0.2736768424510956, 0.1491474211215973, -0.15989558398723602, 0.16266970336437225, 0.00576704740524292, -0.02193736843764782, -0.09832476824522018, -0.20238158106803894, -0.1571647822856903, 0.2297368049621582, -0.10586321353912354, -0.22574211657047272, 0.1670110672712326, 0.14528632164001465, 0.2670046389102936, -0.24566775560379028, 0.16201555728912354, 0.24994587898254395, 0.24214737117290497, 0.23268374800682068, -0.09689792990684509, -0.029757291078567505, -0.2575559914112091, 0.02517663687467575, 0.1336919069290161, 0.07405102252960205, -0.1373002976179123, -0.024129360914230347, -0.01735152117908001, 0.03714596480131149, -0.05357031524181366, -0.11471067368984222, 0.14793099462985992, -0.054348014295101166, 0.13449618220329285, 0.2522960603237152, -0.27879634499549866, 0.1845945119857788, -0.05692736804485321, -0.06865933537483215, -0.14583854377269745, 0.27389249205589294, 0.20090359449386597, 0.18625102937221527, 0.312804639339447, 0.17301328480243683, -0.15597161650657654, -0.10264967381954193, 0.12892086803913116, 0.2931828498840332, 0.253149151802063, 0.09227123856544495, -0.22677631676197052, -0.18518251180648804, 0.042784810066223145, -0.03672162815928459, -0.11083409935235977},
	{0.08976317942142487, 0.12747420370578766, 0.0845896303653717, 0.24326834082603455, -0.17630094289779663, -0.04443773627281189, -0.06848713755607605, -0.09935939311981201, 0.27050867676734924, 0.30689090490341187, -0.10615375638008118, 0.06085622310638428, -0.08983027189970016, 0.03722643107175827, 0.27628931403160095, 0.06407982110977173, -0.16411913931369781, 0.135298490524292, 0.09503856301307678, -0.24166999757289886, -0.0015739798545837402, -0.06813211739063263, -0.013696759939193726, 0.034061845391988754, 0.27489152550697327, -0.16385982930660248, 0.11557655781507492, -0.010538548231124878, -0.1669527292251587, -0.08864837884902954, 0.13098037242889404, 0.15996551513671875, 0.06383973360061646, 0.17635276913642883, -0.20195674896240234, 0.20811361074447632, 0.004776473622769117, 0.03960925340652466, 0.27676698565483093, -0.013921717181801796, -0.1658892035484314, 0.009209833107888699, -0.23746266961097717, -0.07713817805051804, 0.14843100309371948, -0.18982140719890594, -0.1698925942182541, 0.1258043795824051, 0.19730257987976074, -0.14118938148021698, 0.06278877705335617, 0.29951173067092896, -0.18914732336997986, -0.24706347286701202, -0.0393831841647625, -0.17725718021392822, 0.21190515160560608, 0.10165145993232727, -0.03445279225707054, 0.25509658455848694, -0.13483785092830658, 0.05866837501525879, -0.10776479542255402, 0.03881654143333435},
	{-0.06532209366559982, -0.1365831345319748, 0.18255621194839478, 0.16866549849510193, -0.07318377494812012, -0.2461971640586853, 0.07883951812982559, 0.03165233135223389, 0.012563117779791355, 0.17537976801395416, 0.16272610425949097, 0.06865960359573364, 0.038630761206150055, 0.27125898003578186, -0.06829358637332916, -0.009442061185836792, -0.06994251161813736, 0.07677009701728821, 0.1220446527004242, -0.14413994550704956, 0.18193376064300537, -0.11300238966941833, -0.13171805441379547, -0.18049456179141998, 0.1119682639837265, -0.04512707516551018, -0.13121218979358673, 0.16472944617271423, -0.020291566848754883, -0.27933013439178467, 0.24947825074195862, -0.09430786967277527, 0.2220463752746582, 0.1853146255016327, -0.14028017222881317, -0.15219947695732117, 0.13342387974262238, -0.1366192102432251, 0.25378718972206116, 0.1422891616821289, -0.07909910380840302, 0.08836785703897476, 0.21240338683128357, -0.06488165259361267, -0.18909581005573273, -0.31460607051849365, 0.09700876474380493, -0.04703260585665703, 0.1537228226661682, 0.33206048607826233, 0.11953234672546387, -0.007101598661392927, 0.17476633191108704, -0.2702769339084625, 0.17564740777015686, 0.033905383199453354, -0.032530270516872406, 0.31225335597991943, 0.09866265952587128, 0.27444157004356384, 0.18512079119682312, 0.03682801127433777, -0.07282625138759613, -0.1653786301612854},
	{0.16329649090766907, -0.07846958935260773, 0.16218185424804688, 0.023067444562911987, -0.2503120005130768, -0.16964475810527802, -0.26870521903038025, -0.21705125272274017, -0.14396359026432037, 0.2643720209598541, -0.16025841236114502, 0.14050638675689697, -0.2934938669204712, 0.03592570498585701, 0.18576045334339142, -0.05950963497161865, -0.1718713641166687, 0.12977728247642517, 0.20954284071922302, 0.21176883578300476, -0.19505921006202698, -0.2251049280166626, 0.0576876699924469, 0.22079861164093018, 0.09739158302545547, 0.084365114569664, -0.057550475001335144, 0.08934944868087769, -0.23586055636405945, -0.30325913429260254, 0.2711848318576813, -0.2501218914985657, 0.2513541281223297, 0.012237221002578735, -0.07105810940265656, -0.11651856452226639, -0.02694970741868019, 0.23555096983909607, -0.13967837393283844, 0.05774605646729469, 0.22501780092716217, 0.30376526713371277, -0.11233352869749069, -0.04815126582980156, 1.7404556274414062e-05, -0.010852918028831482, 0.2724280059337616, -0.031923893839120865, -0.01910051703453064, 0.33831095695495605, 0.18038365244865417, 0.18432027101516724, 0.3511402904987335, 0.020134806632995605, -0.20627103745937347, 0.1316755712032318, -0.14000064134597778, 0.2707955837249756, 0.13274788856506348, -0.00604015588760376, 0.0750487670302391, -0.2548920512199402, 0.0029635184910148382, 0.23807625472545624},
	{-0.3199865520000458, -0.09766564518213272, -0.2615853250026703, -0.271689772605896, 0.1718134582042694, -0.26460734009742737, -0.26386329531669617, 0.09279882907867432, -0.06715361028909683, -0.15079627931118011, 0.05070158839225769, 0.15056386590003967, 0.09930514544248581, -0.12437623739242554, -0.02818646840751171, -0.044038400053977966, 0.13245749473571777, -0.11686305701732635, 0.11608302593231201, -0.03850644826889038, 0.20458120107650757, 0.051733940839767456, -0.2232132852077484, 0.0692652091383934, -0.16545487940311432, 0.11541886627674103, -0.0739918127655983, -0.161135733127594, 0.2383265197277069, -0.20251181721687317, 0.2300845980644226, 0.16083142161369324, -0.2536255419254303, -0.023802250623703003, 0.08986958861351013, 0.1486402451992035, -0.07544220983982086, -0.24192121624946594, -0.05097931623458862, 0.10501983016729355, 0.1736636608839035, -0.21959646046161652, 0.22905880212783813, -0.08246578276157379, 0.07558155059814453, -0.2474680244922638, 0.08959895372390747, 0.20649489760398865, -0.18918514251708984, -0.13722121715545654, -0.19395507872104645, 0.024300776422023773, 0.03685489669442177, -0.13784253597259521, 0.050222642719745636, -0.025251289829611778, 0.08275400847196579, -0.144576758146286, -0.007493254262953997, 0.12157097458839417, -0.22235074639320374, 0.016552656888961792, 0.12284639477729797, 0.18385402858257294},
};
const float bias_l1[] =
	{-0.07066701352596283, 0.07451089471578598, 0.0, 0.0, 0.0, 0.0, -0.0029806927777826786, 0.0, -0.0014620235888287425, 0.10480278730392456, 0.07401671260595322, 0.0, -0.04382919520139694, 0.04972977936267853, 0.056260984390974045, 0.0, 0.02603345923125744, 0.0, 0.0, -0.02646256424486637, 0.0, 0.0, 0.0, 0.07818709313869476, 0.061515286564826965, 0.015299719758331776, 0.08623814582824707, 0.0, 0.0, -0.06493057310581207, 0.0618266835808754, 0.0, 0.0, 0.0, 0.0, 0.07756934314966202, 0.03367307037115097, 0.0, 0.0, -0.034012455493211746, -0.011228221468627453, 0.04781677946448326, 0.02430601418018341, -0.03836273401975632, 0.0, -0.08946454524993896, 0.0, 0.038084059953689575, 0.0, 0.10625528544187546, -0.07212021201848984, 0.04916562885046005, 0.09807887673377991, 0.0, -0.032789189368486404, 0.013106487691402435, 0.09090084582567215, 0.10707461833953857, 0.09372185915708542, 0.0, 0.029109535738825798, 0.0, 0.004436912015080452, -0.02207300439476967};

const std::vector<std::vector<float>> weights_l2{
	{0.20018653571605682, -0.041711822152137756, -0.16490209102630615, 0.0833512544631958, -0.1179993748664856, 0.10099177062511444, 0.07669922709465027, 0.04157770052552223, -0.19590799510478973, 0.09993579983711243, 0.2397308349609375, 0.15001720190048218, -0.028881266713142395, -0.22113370895385742, 0.2679390609264374, 0.0015154560096561909, -0.05398976057767868, 0.07107377052307129, 0.04619067907333374, 0.10926128178834915, 0.12374049425125122, -0.19423672556877136, -0.2124607115983963, 0.03566908836364746, -0.12459056079387665, 0.11484700441360474, 0.19679976999759674, -0.02921563945710659, 0.040679141879081726, -0.1865394115447998, 0.0826398953795433, 0.19313639402389526},
	{0.2409914880990982, 0.10522441565990448, -0.0966343879699707, 0.21595042943954468, 0.07034200429916382, 0.012103349901735783, 0.07896649837493896, 0.1103677973151207, -0.12492309510707855, -0.10782021284103394, -0.03655099868774414, 0.04191422462463379, -0.1585283726453781, 0.10035059601068497, -0.0759589821100235, -0.023273108527064323, -0.19611747562885284, 0.138979971408844, -0.21541357040405273, -0.06152885779738426, -0.14062261581420898, 0.17882771790027618, 0.13052524626255035, -0.18374288082122803, -0.19678716361522675, -0.22793728113174438, -0.22716902196407318, 0.16940832138061523, 0.004268811084330082, 0.20769266784191132, -0.13297726213932037, 0.22324587404727936},
	{0.07493025064468384, -0.1504858136177063, 0.020821809768676758, 0.04708993434906006, -0.09902238845825195, -0.022669851779937744, -0.10881531238555908, 0.05899345874786377, -0.09819310903549194, 0.22979366779327393, 0.07566952705383301, 0.036057889461517334, 0.013312697410583496, -0.1105339527130127, 0.13813358545303345, -0.12469643354415894, -0.07935678958892822, 0.21680837869644165, -0.241862952709198, 0.08142828941345215, 0.22739076614379883, -0.20857810974121094, -0.1943489909172058, 0.14571434259414673, -0.04713636636734009, 0.19556671380996704, 0.17300480604171753, 0.10812258720397949, 0.09483784437179565, 0.019281506538391113, 0.23317062854766846, -0.19054073095321655},
	{-0.21581482887268066, -0.06235623359680176, 0.19200700521469116, -0.21539002656936646, 0.08398926258087158, -0.09233152866363525, -0.08255761861801147, 0.03167319297790527, 0.239635169506073, 0.221061110496521, 0.01817113161087036, 0.22634994983673096, 0.18802624940872192, -0.059878408908843994, -0.11025494337081909, 0.10742825269699097, -0.2414206862449646, 0.218092143535614, 0.1882556676864624, -0.13649505376815796, -0.2239500880241394, -0.1320483684539795, 0.15514755249023438, -0.12102985382080078, -0.22804218530654907, 0.1769079566001892, 0.07614105939865112, -0.09547996520996094, -0.07447946071624756, -0.018154382705688477, 0.14906185865402222, -0.24058419466018677},
	{0.059172630310058594, 0.2119702696800232, 0.09510517120361328, -0.027271568775177002, 0.04929882287979126, -0.14989149570465088, -0.24085688591003418, 0.05548018217086792, 0.23574793338775635, 0.10259902477264404, 0.08420431613922119, -0.1909695863723755, -0.24431389570236206, -0.14230626821517944, -0.044667720794677734, -0.2245662808418274, 0.050418734550476074, 0.12744271755218506, -0.06686222553253174, 0.004417121410369873, -0.041960060596466064, 0.2295120358467102, 0.23941940069198608, 0.11823654174804688, -0.009343862533569336, 0.21043729782104492, 0.03936201333999634, -0.22161197662353516, -0.0076212286949157715, 0.21905863285064697, 0.012150347232818604, 0.15498626232147217},
	{-0.06937634944915771, 0.09305578470230103, -0.10233414173126221, 0.14864683151245117, 0.17691773176193237, -0.04753381013870239, -0.08276337385177612, 0.020597517490386963, -0.025480985641479492, -0.10893136262893677, 0.24388957023620605, -0.04651588201522827, 0.16954189538955688, -0.1015172004699707, 0.195947527885437, 0.2186095118522644, 0.08327776193618774, 0.23256856203079224, -0.23313575983047485, -0.19673919677734375, -0.15755409002304077, -0.09968972206115723, 0.1532820463180542, -0.20712435245513916, 0.12924396991729736, 0.1563085913658142, -0.20300567150115967, 0.09104281663894653, 0.14671677350997925, -0.09046220779418945, -0.1655225157737732, -0.1988629698753357},
	{-0.22421421110630035, -0.3112143278121948, 0.2007995843887329, 0.20928478240966797, 0.07274800539016724, -0.09609529376029968, -0.006981568410992622, -0.1919209212064743, -0.18017350137233734, -0.06938495486974716, -0.15979796648025513, 0.10177284479141235, 0.14170245826244354, -0.23403997719287872, -0.1245628222823143, 0.011926953680813313, 0.008572757244110107, 0.22124773263931274, 0.1607952117919922, 0.2731517553329468, 0.20140331983566284, 0.14295226335525513, -0.16122305393218994, 0.07013416290283203, 0.1705765277147293, -0.012344717979431152, -0.06080878898501396, 0.07779266685247421, -0.14181071519851685, 0.12553852796554565, 0.2220785766839981, 0.05276503786444664},
	{-0.12899816036224365, -0.11240118741989136, 0.05416882038116455, -0.07743829488754272, 0.11788773536682129, 0.16293740272521973, 0.10619866847991943, 0.015720725059509277, 0.11227232217788696, 0.18294191360473633, -0.1553783416748047, 0.0978471040725708, -0.06951665878295898, -0.23250943422317505, 0.008228659629821777, 0.04424697160720825, -0.09137547016143799, -0.04763263463973999, -0.16957390308380127, 0.03668200969696045, 0.2043730616569519, 0.17072629928588867, 0.011572659015655518, -0.0038741230964660645, 0.12969553470611572, 0.2093077301979065, -0.005066215991973877, 0.004102885723114014, 0.03250730037689209, -0.2316935658454895, 0.09321248531341553, 0.04795747995376587},
	{-0.02918531931936741, -0.10478014498949051, 0.16821569204330444, 0.04341864585876465, -0.13897621631622314, -0.2611372172832489, -0.004845627583563328, -0.10720571130514145, -0.041089676320552826, 0.1228456199169159, 0.060947299003601074, 0.07397806644439697, -0.07562118768692017, 0.14057861268520355, 0.21373072266578674, -0.09154702723026276, -0.09806840121746063, 0.07335346937179565, 0.15016746520996094, 0.15758593380451202, -0.005815088748931885, 0.17790283262729645, -0.062248777598142624, 0.16174745559692383, -0.1478838473558426, -0.24967217445373535, -0.2425152063369751, 0.07686904817819595, 0.09972085058689117, -0.1630844920873642, 0.052080970257520676, 0.06233024597167969},
	{0.05840005725622177, 0.18848669528961182, 0.043345868587493896, 0.15942394733428955, -0.08425676822662354, -0.22176042199134827, -0.15984764695167542, 0.20750519633293152, -0.028618602082133293, -0.02375231310725212, 0.03813624382019043, -0.03255331516265869, -0.15257596969604492, 0.03795420750975609, -0.16769926249980927, 0.07038233429193497, -0.15956395864486694, 0.1284642219543457, -0.09076893329620361, 0.17489652335643768, 0.20366668701171875, -0.1745641678571701, 0.057895537465810776, 0.21034514904022217, 0.04920259118080139, -0.24940276145935059, 0.11426111310720444, 0.2703072130680084, -0.0376938059926033, -0.10574112087488174, 0.12925726175308228, 0.2543243169784546},
	{-0.033891621977090836, 0.17264509201049805, -0.16944611072540283, -0.16263079643249512, -0.1561848521232605, -0.07255332916975021, 0.07666002213954926, -0.07703397423028946, 0.030189264565706253, -0.09942280501127243, 0.057650983333587646, 0.243896484375, 0.16003432869911194, 0.13427063822746277, 0.2737874388694763, 0.11387209594249725, 0.2284935563802719, -0.08934980630874634, -0.16858679056167603, -0.08948440849781036, -0.2400478720664978, 0.03524530678987503, -0.14542953670024872, -0.1358664631843567, -0.01171341072767973, -0.2404676079750061, 0.20255859196186066, 0.05367333069443703, 0.04985304921865463, 0.0747833400964737, 0.15973013639450073, 0.1753668189048767},
	{-0.06233835220336914, 0.07195019721984863, 0.11006438732147217, -0.080288827419281, -0.061660945415496826, 0.24762028455734253, 0.13091272115707397, -0.11427891254425049, -0.07398158311843872, -0.0689738392829895, -0.11933791637420654, 0.13710254430770874, -0.05193835496902466, -0.09484142065048218, 0.010659396648406982, -0.019587397575378418, -0.10733866691589355, -0.19675475358963013, 0.15342700481414795, 0.16492903232574463, -0.13051557540893555, 0.19300442934036255, 0.07466673851013184, -0.19962716102600098, 0.167555034160614, 0.1498633623123169, 0.09370231628417969, -0.21549659967422485, 0.1066521406173706, -0.1896599531173706, -0.1114618182182312, -0.23282521963119507},
	{-0.026777755469083786, -0.22847241163253784, -0.24326109886169434, 0.12311023473739624, -0.09803885221481323, -0.1196749284863472, -0.19557762145996094, -0.05804751440882683, -0.06497403979301453, 0.22783896327018738, 0.0983572006225586, 0.1365361213684082, 0.08720942586660385, -0.12290772050619125, 0.09266483038663864, -0.06269391626119614, -0.0599684976041317, 0.022821426391601562, 0.2246142029762268, -0.02798735722899437, -0.21742117404937744, 0.1843688040971756, 0.1657511293888092, -0.08766692876815796, 0.15557101368904114, -0.15964579582214355, 0.0572824627161026, -0.07539772242307663, -0.1330261528491974, 0.21346785128116608, 0.11092529445886612, -0.06656942516565323},
	{-0.14167144894599915, -0.0704156905412674, -0.20782232284545898, -0.0591588020324707, -0.07740682363510132, -0.24870258569717407, 0.1653165966272354, 0.2031482458114624, 0.0344354622066021, 0.04520493000745773, 0.0638929009437561, -0.1560981273651123, 0.20922306180000305, 0.21571004390716553, 0.06406763195991516, -0.23175737261772156, -0.08702833205461502, 0.10175317525863647, 0.11939406394958496, 0.17179788649082184, -0.24488502740859985, -0.06961769610643387, -0.030703525990247726, -0.02024942636489868, -0.03689134493470192, 0.1014326810836792, -0.07937751710414886, -0.11431891471147537, -0.18416836857795715, 0.0608101524412632, -0.12455660104751587, 0.25239792466163635},
	{0.14375975728034973, -0.014570086263120174, -0.2333248257637024, 0.19684737920761108, -0.11232870817184448, -0.0661640390753746, -0.025410974398255348, 0.25992071628570557, 0.05693397298455238, 0.09819795936346054, 0.2455514669418335, -0.19442075490951538, -0.21011312305927277, -0.10593809187412262, -0.065572589635849, -0.14816412329673767, 0.11206566542387009, 0.036341726779937744, 0.12741416692733765, -0.08667570352554321, -0.11419212818145752, 0.003659872803837061, -0.09569447487592697, 0.17063480615615845, 0.19457043707370758, -0.04529702663421631, 0.19033078849315643, -0.1140698567032814, 0.1075766384601593, 0.17521706223487854, 0.14910824596881866, 0.0637257918715477},
	{-0.08925110101699829, 0.13049066066741943, 0.04476088285446167, -0.10659492015838623, -0.07540017366409302, -0.0030050277709960938, -0.003893256187438965, 0.15597987174987793, 0.23306900262832642, 0.07100242376327515, 0.07902383804321289, -0.020454108715057373, -0.12337017059326172, -0.1536039113998413, -0.13409334421157837, -0.025538265705108643, -0.17741549015045166, 0.030279695987701416, 0.187025249004364, 0.1471124291419983, -0.21939951181411743, -0.22355717420578003, -0.23794597387313843, 0.16021740436553955, 0.13143986463546753, 0.20983707904815674, -0.018851280212402344, 0.17583948373794556, -0.15237849950790405, -0.17980092763900757, -0.17156195640563965, -0.05203354358673096},
	{0.2691786587238312, 0.129448801279068, 0.16852641105651855, -0.03148847818374634, 0.24637728929519653, -0.10320433229207993, 0.23176218569278717, 0.07102096080780029, -0.07601313292980194, -0.07577762007713318, -0.15414124727249146, -0.018774211406707764, -0.23281113803386688, 0.2588905990123749, -0.04384767636656761, -0.08074405044317245, 0.08989742398262024, -0.07434052228927612, 0.23667621612548828, -0.01379197183996439, 0.1103442907333374, 0.09283437579870224, -0.08631689101457596, -0.15697741508483887, 0.07799185067415237, 0.0100632905960083, -0.07887384295463562, -0.18925711512565613, -0.03941640257835388, 0.22628235816955566, -0.009590680710971355, -0.18787303566932678},
	{-0.24327343702316284, 0.18077683448791504, 0.020620405673980713, 0.06802874803543091, 0.12505578994750977, 0.04635566473007202, 0.11973220109939575, 0.028614938259124756, -0.2217118740081787, 0.16452449560165405, 0.00903785228729248, 0.22099238634109497, -0.2336086630821228, 0.22791659832000732, 0.07830828428268433, -0.04891490936279297, -0.169153094291687, 0.20295476913452148, -0.2389848232269287, -0.24888068437576294, -0.12763506174087524, 0.04856389760971069, 0.21708232164382935, -0.07775205373764038, -0.14942848682403564, -0.03432351350784302, -0.09161257743835449, -0.03970855474472046, 0.2076985239982605, 0.12281262874603271, 0.14557385444641113, 0.23936313390731812},
	{-0.15261250734329224, -0.19542574882507324, -0.23908007144927979, -0.019569754600524902, -0.21948492527008057, 0.23059684038162231, 0.09037303924560547, -0.07756966352462769, -0.17777800559997559, 0.07539886236190796, -0.19841086864471436, -0.011568009853363037, 0.16398024559020996, 0.1527925729751587, -0.09555453062057495, -0.12592482566833496, 0.20501118898391724, 0.008427321910858154, -0.17821532487869263, -0.0002173781394958496, -0.14897727966308594, -0.2387344241142273, 0.04037606716156006, 0.17679446935653687, -0.14738363027572632, 0.028972327709197998, 0.059364259243011475, 0.06804913282394409, 0.12846475839614868, 0.08447295427322388, -0.14867055416107178, -0.1624354124069214},
	{0.11714638769626617, 0.19756275415420532, 0.08330726623535156, 0.13270264863967896, -0.09359318017959595, -0.05535025894641876, 0.12201409786939621, 0.06250873953104019, -0.059899426996707916, 0.03969061002135277, 0.03228425979614258, 0.24019712209701538, -0.21331734955310822, -0.06536507606506348, 0.18498638272285461, -0.21343716979026794, -0.10110043734312057, 0.005795657634735107, 0.08627510070800781, -0.07920460402965546, 0.19517040252685547, -0.1320938616991043, -0.19070684909820557, -0.12218844890594482, -0.044040367007255554, 0.001718282699584961, 0.010833431035280228, -0.19755840301513672, 0.05034096911549568, -0.015916239470243454, -0.05712432041764259, 0.19903776049613953},
	{-0.13669854402542114, -0.1593339443206787, 0.12760978937149048, 0.061793744564056396, -0.185713529586792, 0.0334165096282959, -0.23965513706207275, 0.19276726245880127, 0.0569225549697876, -0.029345333576202393, -0.21254658699035645, -0.15289241075515747, 0.18941926956176758, -0.10310178995132446, 0.24175971746444702, 0.21927177906036377, -0.12787413597106934, 0.11367380619049072, 0.06317406892776489, 0.20145553350448608, -0.06463730335235596, 0.08837950229644775, 0.07070189714431763, -0.020840942859649658, 0.12491744756698608, -0.12192702293395996, -0.06133085489273071, 0.09907209873199463, 0.07684969902038574, 0.22945666313171387, 0.01335078477859497, 0.17776042222976685},
	{-0.0493621826171875, -0.21737515926361084, 0.22705376148223877, -0.1757967472076416, -0.0665164589881897, -0.08833807706832886, -0.12408602237701416, -0.07021182775497437, 0.034012675285339355, 0.09108626842498779, 0.2446368932723999, -0.05090963840484619, -0.1026046872138977, 0.1119152307510376, 0.1683470606803894, -0.2473229169845581, 0.17554205656051636, -0.17358887195587158, -0.16277801990509033, 0.16749870777130127, 0.23820912837982178, 0.13348376750946045, 0.02546107769012451, -0.08955305814743042, 0.22644829750061035, -0.0671185851097107, -0.005542159080505371, 0.15354496240615845, -0.09740984439849854, -0.11290234327316284, 0.023793399333953857, -0.09553956985473633},
	{0.09631389379501343, -0.026374757289886475, -0.022175133228302002, -0.20133447647094727, 0.1090158224105835, 0.18954724073410034, 0.1857241988182068, -0.2301984429359436, -0.06562662124633789, -0.16070783138275146, 0.07221424579620361, -0.08969902992248535, -0.15806394815444946, 0.23377954959869385, 0.004443228244781494, -0.18790006637573242, 0.2315548062324524, 0.1129191517829895, 0.07798677682876587, -0.2017573118209839, -0.24632036685943604, -0.19942378997802734, -0.24282079935073853, 0.14164280891418457, 0.0787498950958252, -0.17996728420257568, 0.022380828857421875, -0.1925460696220398, -0.027431488037109375, 0.22369343042373657, 0.09420561790466309, 0.22322756052017212},
	{0.07587207853794098, -0.04419976472854614, -0.10530692338943481, 0.1189759373664856, -0.014471113681793213, -0.20379839837551117, -0.1546856015920639, 0.15591758489608765, 0.0266623143106699, -0.20004652440547943, 0.12249058485031128, 0.11359268426895142, 0.26489874720573425, -0.13402414321899414, 0.2631179094314575, -0.0409792922437191, -0.0854695588350296, -0.1613028645515442, 0.24455910921096802, -0.1343051791191101, -0.10219091176986694, 0.23067273199558258, 0.2604720890522003, -0.1848735213279724, -0.15830513834953308, -0.08010798692703247, 0.1272667497396469, 0.07301000505685806, 0.10519139468669891, -0.24564090371131897, -0.03277372568845749, -0.1996062994003296},
	{0.1832493096590042, 0.0881914272904396, 0.0987318754196167, -0.028091609477996826, 0.2475840449333191, -0.038707468658685684, -0.09323269873857498, 0.1937783658504486, -0.1415480524301529, -0.10923172533512115, 0.13667792081832886, 0.06617718935012817, 0.19084428250789642, -0.12357566505670547, 0.2678344249725342, 0.007277973927557468, 0.04780267924070358, 0.09792512655258179, 0.0903964638710022, 0.15590505301952362, 0.03682833909988403, 0.2007773071527481, 0.19128575921058655, -0.2406967282295227, 0.20371127128601074, -0.22115027904510498, 0.02009136788547039, 0.2543516755104065, -0.1580289751291275, -0.22416940331459045, 0.06320750713348389, -0.1897771656513214},
	{0.0006899350555613637, 0.24782240390777588, -0.12803155183792114, 0.1631367802619934, 0.22193294763565063, -0.1245189681649208, 0.1335054636001587, -0.041875969618558884, -0.09126515686511993, -0.24735794961452484, 0.10563600063323975, 0.0918458104133606, -0.04448869451880455, 0.04524790123105049, -0.15382350981235504, -0.08658452332019806, 0.23679424822330475, -0.12432718276977539, -0.12760019302368164, 0.15649352967739105, -0.06349533796310425, -0.08622157573699951, 0.30791527032852173, 0.017235159873962402, 0.20410384237766266, -0.24846363067626953, 0.017384717240929604, 0.18996450304985046, 0.2694549560546875, -0.07341459393501282, 0.06744160503149033, -0.060798123478889465},
	{0.17137755453586578, -0.054267946630716324, 0.1626172661781311, -0.18229889869689941, -0.16473829746246338, -0.14340335130691528, 0.10797882080078125, 0.16916042566299438, 0.007231222465634346, -0.23639273643493652, -0.1330866813659668, -0.11012476682662964, 0.26182523369789124, 0.11235419660806656, -0.06012168526649475, 0.23493167757987976, -0.09046545624732971, 0.06789398193359375, -0.0890238881111145, -0.11809401959180832, 0.05586850643157959, -0.005599034484475851, 0.16720031201839447, 0.08284741640090942, 0.238745778799057, -0.0680464506149292, -0.15434423089027405, -0.0981699675321579, -0.023568836972117424, 0.08429333567619324, -0.10182078927755356, 0.20919916033744812},
	{-0.15179169178009033, 0.2103855013847351, 0.005655944347381592, -0.19600772857666016, 0.16393333673477173, -0.16109883785247803, -0.12139970064163208, 0.06687325239181519, 0.034855544567108154, 0.21293944120407104, 0.22257524728775024, -0.24659615755081177, -0.2393074631690979, 0.14709573984146118, 0.2323322892189026, 0.07931715250015259, 0.11915993690490723, -0.16606688499450684, -0.12911230325698853, 0.0915611982345581, 0.03413766622543335, -0.027208566665649414, -0.09503072500228882, 0.05144906044006348, 0.18235933780670166, 0.074351966381073, -0.10570180416107178, 0.20975226163864136, -0.04344511032104492, 0.013002276420593262, -0.005903303623199463, 0.00875324010848999},
	{0.24464654922485352, 0.016353845596313477, 0.06264692544937134, 0.21197271347045898, -0.2063659429550171, -0.12265485525131226, -0.1370450258255005, -0.06975215673446655, 0.09912902116775513, 0.21682202816009521, 0.1700076460838318, 0.1055554747581482, 0.21482080221176147, -0.22197860479354858, -0.23180615901947021, -0.20680588483810425, 0.12093120813369751, -0.07649004459381104, 0.006084024906158447, 0.22440367937088013, 0.11407411098480225, -0.12318724393844604, -0.1071510910987854, -0.11524826288223267, 0.16321539878845215, -0.14917534589767456, -0.018916666507720947, 0.13380944728851318, 0.018194854259490967, 0.23223328590393066, 0.07131761312484741, 0.16328847408294678},
	{0.11755697429180145, -0.21756082773208618, -0.1687355637550354, -0.22025299072265625, 0.21103310585021973, 0.10786528140306473, 0.17979513108730316, -0.1418202966451645, -0.2481757253408432, 0.0010395166464149952, 0.034265756607055664, -0.08265423774719238, -0.12644939124584198, 0.14586791396141052, 0.15924237668514252, -0.008453779853880405, 0.1687885969877243, 0.22195273637771606, 0.16481995582580566, 0.19826656579971313, -0.18156445026397705, -0.1212444007396698, -0.011005232110619545, -0.0401613712310791, 0.15090520679950714, 0.1100548505783081, -0.08828405290842056, 0.006487512495368719, -0.2262844741344452, 0.01696731522679329, -0.13330332934856415, -0.008227787911891937},
	{-0.08047816157341003, 0.22530445456504822, -0.1306149959564209, -0.23466253280639648, -0.18809974193572998, 0.17383994162082672, 0.12476468086242676, 0.1794598251581192, -0.15442322194576263, -0.21739047765731812, -0.11142551898956299, -0.030871689319610596, -0.10163790732622147, -0.05225954204797745, -0.021075904369354248, -0.13723555207252502, -0.020771607756614685, 0.01865285634994507, -0.20863044261932373, -0.12500931322574615, 0.023149847984313965, -0.24713082611560822, 0.0466727539896965, -0.11112689971923828, 0.23006731271743774, 0.22819530963897705, -0.1654418259859085, 0.2704715430736542, -0.1536494493484497, -0.22698794305324554, -0.014819194562733173, -0.2083435356616974},
	{-0.027758359909057617, 0.053509652614593506, -0.04428833723068237, -0.12056106328964233, -0.0060272216796875, 0.14934110641479492, -0.2344323992729187, 0.14871901273727417, 0.11135303974151611, -0.16517019271850586, 0.09263592958450317, 0.09350109100341797, -0.16614127159118652, 0.146328866481781, 0.14646446704864502, -0.09558677673339844, 0.20885103940963745, -0.21060597896575928, -0.014748156070709229, 0.08125770092010498, -0.05659419298171997, 0.09795832633972168, -0.16469210386276245, -0.1304875612258911, 0.0947147011756897, -0.23760998249053955, -0.19561469554901123, 0.12947577238082886, -0.23839789628982544, -0.05737459659576416, 0.15226590633392334, 0.20625436305999756},
	{0.21893060207366943, -0.001767873764038086, -0.20016151666641235, -0.19839543104171753, -0.18905150890350342, 0.15830892324447632, -0.03598499298095703, 0.13262003660202026, 0.05005723237991333, 0.14739513397216797, 0.16420221328735352, 0.04519307613372803, 0.2139626145362854, 0.22976458072662354, -0.06870734691619873, 0.1740792989730835, 0.2295609712600708, -0.06913477182388306, 0.01379084587097168, 0.013643741607666016, 0.01677262783050537, -0.07403069734573364, 0.0364643931388855, 0.05038559436798096, 0.020689666271209717, 0.15777862071990967, 0.01447969675064087, 0.23817205429077148, -0.017673492431640625, -0.09095299243927002, 0.2053849697113037, 0.1546573042869568},
	{-0.04462641477584839, -0.19050300121307373, -0.020052850246429443, 0.04341667890548706, -0.10807615518569946, -0.17751479148864746, 0.22678738832473755, -0.20957159996032715, 0.057085514068603516, 0.183338463306427, -0.2233932614326477, 0.025533556938171387, 0.08167344331741333, -0.1458231806755066, -0.2139878273010254, -0.07555460929870605, 0.10533314943313599, 0.15924721956253052, -0.21983611583709717, -0.05805855989456177, -0.24173223972320557, -0.10878437757492065, -0.008640289306640625, 0.16207349300384521, 0.07453393936157227, 0.22983741760253906, -0.1043616533279419, 0.03020191192626953, 0.08921539783477783, -0.18416166305541992, 0.13064241409301758, 0.12028318643569946},
	{0.13336896896362305, -0.08310651779174805, 0.06706821918487549, 0.09381872415542603, -0.09220761060714722, -0.08754110336303711, -0.24044448137283325, 0.14462274312973022, -0.2151411771774292, -0.07193225622177124, 0.2197427749633789, 0.14007025957107544, -0.13523513078689575, 0.08022540807723999, -0.127113938331604, -0.11442941427230835, 0.04427969455718994, 0.03582191467285156, 0.1770343780517578, 0.2052912712097168, -0.15574771165847778, -0.1725304126739502, -0.23511803150177002, 0.23758620023727417, -0.18587982654571533, 0.11793863773345947, -0.24039322137832642, 0.20605063438415527, -0.09188389778137207, 0.11508876085281372, -0.11353164911270142, -0.044937729835510254},
	{-0.1273559331893921, 0.24976526200771332, 0.0775335431098938, -0.1867085099220276, 0.1484842300415039, 0.2122378647327423, 0.12962456047534943, -0.11536099761724472, 0.20115607976913452, 0.003786286571994424, -0.24359780550003052, -0.1372894048690796, 0.048615142703056335, 0.25071051716804504, 0.1717134565114975, -0.06634577363729477, -0.03431691601872444, 0.18795770406723022, 0.020080208778381348, -0.14943617582321167, -0.2118859887123108, 0.20028091967105865, 0.0952727198600769, -0.23917287588119507, 0.239041268825531, 0.07784277200698853, -0.21900992095470428, 0.20998208224773407, -0.09262501448392868, -0.231796532869339, 0.24291692674160004, -0.07439352571964264},
	{-0.1443944126367569, -0.18303614854812622, 0.24564671516418457, 0.1632441282272339, -0.06920433044433594, 0.22667858004570007, -0.18225499987602234, 0.05368269607424736, 0.17301048338413239, 0.021264564245939255, -0.04825448989868164, 0.15767407417297363, -0.06949956715106964, -0.10657867044210434, 0.2095145434141159, 0.007945843040943146, 0.23334762454032898, 0.0711776614189148, 0.23942875862121582, -0.16584837436676025, 0.01855367422103882, 0.19832733273506165, 0.12248598784208298, 0.16060733795166016, 0.054496776312589645, -0.03547501564025879, 0.16896137595176697, 0.008950326591730118, 0.22521989047527313, -0.07830415666103363, 0.041545964777469635, -0.2176637053489685},
	{0.05840069055557251, 0.018545567989349365, 0.11733424663543701, 0.19012808799743652, -0.193992018699646, 0.05969470739364624, 0.14931493997573853, 0.19903278350830078, 0.04980111122131348, 0.24029994010925293, -0.08876907825469971, -0.09372657537460327, 0.04808986186981201, -0.10115694999694824, 0.10694468021392822, 0.10188591480255127, -0.07868748903274536, -0.04942584037780762, -0.00047338008880615234, -0.21842139959335327, 0.23506873846054077, -0.23236441612243652, -0.04024934768676758, -0.13536441326141357, 0.0662606954574585, 0.05837142467498779, 0.037420034408569336, -0.022385478019714355, 0.1523381471633911, -0.14545470476150513, -0.1804155707359314, 0.20283830165863037},
	{-0.1977025270462036, -0.0526161789894104, -0.15909552574157715, -0.07510489225387573, 0.24218982458114624, 0.02637845277786255, -0.13356536626815796, -0.07281428575515747, -0.19876492023468018, 0.24933797121047974, -0.20509761571884155, 0.08218991756439209, -0.15568500757217407, 0.12307459115982056, -0.16590994596481323, -0.21165108680725098, -0.05197256803512573, 0.020237505435943604, -0.005483567714691162, 0.01861470937728882, 0.16098403930664062, -0.19567811489105225, 0.14581453800201416, 0.11210650205612183, 0.13442695140838623, 0.08383578062057495, -0.24447262287139893, 0.1430373191833496, 0.2425992488861084, -0.039751410484313965, -0.05313771963119507, 0.2383103370666504},
	{-0.04696306586265564, 0.04864046722650528, 0.1253882646560669, 0.04150921106338501, -0.15788865089416504, 0.15707769989967346, 0.04598270356655121, -0.08725112676620483, 0.11155372858047485, 0.19646574556827545, -0.2457185983657837, -0.03670471906661987, -0.12021934241056442, -0.10210422426462173, 0.03022594377398491, -0.0006548762321472168, 0.061850108206272125, 0.015914559364318848, 0.07118850946426392, -0.11644859611988068, -0.2456676959991455, -0.23319655656814575, 0.1276366263628006, 0.005234360694885254, -0.13562175631523132, 0.07918798923492432, 0.18171322345733643, -0.09202654659748077, 0.15405230224132538, -0.1913013905286789, 0.1689140349626541, 0.09676779061555862},
	{-0.05623123049736023, 0.04439536854624748, 0.2355523705482483, 0.08204936981201172, 0.19415384531021118, 0.07343840599060059, -0.0672648474574089, -0.07227906584739685, -0.1651812195777893, -0.21555940806865692, -0.16789793968200684, 0.21132880449295044, -0.11896936595439911, 0.07853066921234131, -0.05836509168148041, 0.06995350122451782, -0.19501681625843048, -0.060337603092193604, 0.24525105953216553, -0.014909207820892334, -0.05872821807861328, 0.015604197978973389, -0.02815938927233219, 0.16992956399917603, -0.11772125214338303, 0.22345739603042603, 0.09202387183904648, -0.1963246762752533, 0.022545333951711655, 0.17784440517425537, 0.019715670496225357, 0.13273827731609344},
	{-0.20186132192611694, -0.05755041912198067, -0.01795518398284912, -0.028133094310760498, -0.17324072122573853, 0.20413817465305328, 0.14533191919326782, -0.08694839477539062, 0.2551119923591614, 0.12983205914497375, 0.08895951509475708, 0.1681821346282959, -6.55093535897322e-05, 0.05475299432873726, 0.22081080079078674, 0.04974231496453285, 0.14319345355033875, 0.04260659217834473, 0.06323307752609253, -0.17314709722995758, 0.17300045490264893, -0.0754709392786026, 0.11684858053922653, 0.24387025833129883, 0.12617994844913483, 0.2233814001083374, -0.21733134984970093, 0.269377738237381, -0.0940500870347023, 0.03991743177175522, -0.22150462865829468, 0.11370649188756943},
	{0.2763882577419281, 0.1318572461605072, -0.17385852336883545, 0.05087637901306152, -0.17934703826904297, 0.04261249303817749, -0.08211620897054672, 0.09512221068143845, 0.05251064896583557, 0.23388320207595825, -0.01725834608078003, 0.08666270971298218, -0.07478545606136322, -0.13870958983898163, -0.17866352200508118, 0.1477808803319931, -0.14135056734085083, -0.18331390619277954, 0.014501214027404785, 0.12712045013904572, 0.026263713836669922, 0.23509488999843597, 0.021571703255176544, 0.1506650447845459, 0.20493832230567932, 0.17732876539230347, -0.22622337937355042, -0.11161487549543381, 0.21893049776554108, -0.09186557680368423, 0.2353566586971283, 0.2560541033744812},
	{0.26668882369995117, 0.15379959344863892, 0.016340315341949463, 0.22247445583343506, -0.23709070682525635, 0.05318107083439827, 0.1831524521112442, -0.08078710734844208, -0.0035125676076859236, 0.04369809105992317, 0.10825061798095703, -0.14385581016540527, 0.21188487112522125, -0.15596827864646912, -0.07388798892498016, -0.05745091661810875, -0.08351147174835205, -0.15151464939117432, -0.06358987092971802, 0.06380311399698257, 0.022577404975891113, 0.16793231666088104, 0.1496107578277588, 0.023729801177978516, -0.12799936532974243, 0.024925053119659424, -0.24433143436908722, -0.028966573998332024, -0.13426156342029572, 0.15704284608364105, -0.0105556296184659, 0.2203516662120819},
	{-0.07928216457366943, 0.13546305894851685, 0.184223473072052, 0.20989912748336792, 0.24737262725830078, 0.03548872470855713, 0.09416806697845459, -0.20278501510620117, 0.24244248867034912, -0.022677719593048096, 0.005934715270996094, -0.06012362241744995, 0.045949578285217285, 0.14284110069274902, 0.1564289927482605, 0.16899478435516357, -0.09095460176467896, 0.13162219524383545, 0.04017728567123413, 0.20674186944961548, -0.19468790292739868, -0.174516499042511, -0.08464795351028442, 0.04164612293243408, -0.20042508840560913, -0.13512253761291504, 0.06457507610321045, -0.10644525289535522, 0.22187596559524536, -0.15344715118408203, 0.17146527767181396, 0.20081675052642822},
	{-0.14250428974628448, 0.06832673400640488, -0.24707961082458496, 0.043910086154937744, -0.03716021776199341, -0.24586883187294006, 0.1564866155385971, 0.027446916326880455, 0.19668824970722198, 0.09934354573488235, 0.040611982345581055, -0.16292661428451538, 0.16969668865203857, -0.15180064737796783, 0.2281636744737625, 0.021133961156010628, -0.13721582293510437, -0.034002721309661865, -0.03310209512710571, 0.12422005832195282, -0.22041535377502441, -0.07545199245214462, -0.08321592956781387, -0.20904815196990967, -0.14522625505924225, 0.18550944328308105, 0.2043408304452896, 0.053689487278461456, -0.17402775585651398, 0.06856276839971542, -0.06727319955825806, 0.09975321590900421},
	{0.09373289346694946, 0.21311140060424805, -0.15769535303115845, -0.24671614170074463, 0.20028036832809448, -0.07447320222854614, 0.1785198450088501, 0.191292405128479, 0.22431111335754395, 0.08127087354660034, -0.09786385297775269, 0.24800145626068115, -0.13235485553741455, -0.14467889070510864, 0.16558343172073364, -0.2033177614212036, -0.21629273891448975, -0.19012975692749023, -0.052433550357818604, -0.06473487615585327, 0.007404208183288574, 0.05931496620178223, -0.13837462663650513, -0.03877413272857666, -0.006422698497772217, 0.052791595458984375, -0.001844644546508789, -0.08505403995513916, 0.06111299991607666, -0.10081136226654053, -0.23235094547271729, -0.04136848449707031},
	{-0.04310964047908783, 0.16702474653720856, 0.17395418882369995, -0.14706313610076904, 0.0980825424194336, 0.14508089423179626, -0.05348626896739006, -0.0345558226108551, -0.095047727227211, 0.0450141578912735, -0.23745793104171753, -0.17265784740447998, -0.027438992634415627, 0.18346087634563446, 0.0888860821723938, -0.2146359384059906, -0.12959420680999756, 0.026723802089691162, -0.24052655696868896, 0.13723881542682648, 0.07399392127990723, -0.21718937158584595, 0.2526470720767975, 0.01913660764694214, 0.1854211837053299, 0.0019864439964294434, -0.13980934023857117, -0.1796043962240219, 0.05699233338236809, -0.24666139483451843, 0.07826543599367142, 0.20410028100013733},
	{0.0732010006904602, -0.2242366075515747, 0.005705714225769043, -0.10670006275177002, 0.18311339616775513, 0.040031492710113525, -0.06522351503372192, -0.10324645042419434, -0.04547971487045288, 0.18836140632629395, -0.1194387674331665, -0.06402039527893066, -0.18802136182785034, 0.18185991048812866, 0.193092942237854, -0.1334834098815918, 0.0994463562965393, -0.1066809892654419, -0.13538575172424316, 0.17474281787872314, 0.10592931509017944, -0.23103094100952148, -0.15101206302642822, 0.13620525598526, -0.016676366329193115, -0.2308371663093567, -0.22325009107589722, -0.1269841194152832, 0.2436448335647583, -0.16566717624664307, -0.2375609278678894, -0.21431976556777954},
	{0.07279014587402344, 0.2381768822669983, -0.04990929365158081, 0.019295454025268555, -0.21018493175506592, 0.147254079580307, -0.10124782472848892, -0.08901850879192352, 0.22222796082496643, -0.03804060444235802, -0.06238657236099243, 0.10743141174316406, -0.16493071615695953, -0.03374091535806656, 0.1117834746837616, 0.21650931239128113, -0.20950359106063843, -0.17295140027999878, -0.03493398427963257, -0.14788635075092316, -0.24819141626358032, 0.16125039756298065, 0.1516723930835724, -0.03357881307601929, 0.1709408462047577, -0.04376018047332764, -0.0443427637219429, 0.1993180513381958, 0.0460372269153595, -0.09297851473093033, 0.22016344964504242, 0.2099861055612564},
	{0.1577373743057251, -0.11914107203483582, -0.22838014364242554, -0.2494555115699768, -0.04421103000640869, 0.11377555876970291, 0.12163729965686798, 0.07231926172971725, 0.2516692578792572, 0.019260790199041367, -0.2022247314453125, 0.0687175989151001, 0.23201382160186768, -0.02906675823032856, 0.10614211112260818, -0.1984201818704605, 0.14712592959403992, -0.20854663848876953, -0.13516902923583984, -0.08890081942081451, -0.13164395093917847, -0.25168076157569885, -0.1891690045595169, 0.24629026651382446, -0.14962847530841827, 0.10653913021087646, -0.13141252100467682, -0.10260787606239319, 0.1357070654630661, 0.08471457660198212, 0.20904605090618134, -0.009881429374217987},
	{0.08865635097026825, -0.12488815188407898, -0.034535348415374756, -0.04961287975311279, -0.06178748607635498, 0.17929497361183167, 0.22431471943855286, -0.18400989472866058, 0.21455903351306915, 0.0926603302359581, -0.23385107517242432, -0.2118481993675232, -0.00929956417530775, 0.15371596813201904, -0.14031703770160675, -0.06373019516468048, 0.08838410675525665, -0.1453169584274292, -0.0170629620552063, 0.05849270522594452, -0.1624961495399475, 0.026215018704533577, 0.024659298360347748, -0.19447702169418335, -0.04012703150510788, 0.17859667539596558, 0.1986306607723236, 0.2767622172832489, 0.11975184082984924, -0.03824162483215332, -0.20300088822841644, -0.09849661588668823},
	{-0.12553462386131287, -0.16734056174755096, -0.135905921459198, 0.044302940368652344, 0.09154808521270752, -0.1974959820508957, -0.14811763167381287, 0.12385862320661545, 0.07424439489841461, -0.15784002840518951, -0.06520378589630127, 0.10847163200378418, 0.06816866993904114, 0.0861421525478363, -0.08905638754367828, 0.10901448875665665, 0.020730039104819298, -0.18061423301696777, 0.029180586338043213, -0.02562873438000679, 0.055130720138549805, 0.23472335934638977, 0.11978939920663834, 0.12560713291168213, 0.1885744035243988, -0.03539085388183594, 0.08946461975574493, -0.026303067803382874, 0.20355136692523956, 0.1784219890832901, 0.041371509432792664, 0.25226637721061707},
	{-0.15299487113952637, 0.03581732511520386, -0.06452953815460205, 0.04912763833999634, 0.2405567765235901, 0.08332675695419312, 0.07122147083282471, -0.1997523307800293, -0.029505431652069092, 0.234849750995636, 0.01269543170928955, 0.057662367820739746, -0.18228304386138916, 0.13588428497314453, 0.20611470937728882, -0.07422024011611938, -0.11617147922515869, -0.1681230664253235, 0.04498600959777832, 0.12086278200149536, 0.17421382665634155, -0.16817855834960938, 0.0775708556175232, 0.09496641159057617, -0.07899653911590576, -0.03812861442565918, -0.2413266897201538, -0.1348179578781128, 0.24868887662887573, 0.2449650764465332, 0.02617281675338745, 0.09369015693664551},
	{-0.17819935083389282, -0.19598299264907837, -0.05573242902755737, -0.0005271434783935547, -0.026301681995391846, 0.1537562608718872, 0.09258168190717697, 0.21366995573043823, 0.15812353789806366, 0.18726179003715515, 0.07446622848510742, 0.21219909191131592, 0.1687227189540863, -0.09329333901405334, -0.1085752546787262, 0.07935880124568939, 0.23700034618377686, -0.16875481605529785, -0.074252188205719, -0.09240326285362244, -0.057403504848480225, -0.23373878002166748, 0.058518197387456894, 0.10371726751327515, 0.03599849343299866, -0.21633636951446533, 0.04580330103635788, -0.21456412971019745, 0.14137205481529236, 0.044779494404792786, 0.02533545158803463, -0.08195378631353378},
	{0.11475754529237747, 0.16545763611793518, -0.07931077480316162, -0.030503034591674805, -0.03416848182678223, 0.07726586610078812, -0.2024036943912506, 0.05188453197479248, -0.060255855321884155, -0.1440049707889557, -0.07908916473388672, 0.0020076632499694824, 0.03975176811218262, 0.2567952573299408, 0.22584077715873718, -0.2211320996284485, -0.08680101484060287, 0.1315874457359314, -0.06470996141433716, -0.10123386234045029, 0.12445789575576782, -0.12164497375488281, 0.19757682085037231, -0.21382367610931396, 0.07229873538017273, -0.1015242338180542, 0.11182252317667007, -0.05915643274784088, 0.24044470489025116, 0.21584023535251617, 0.07787331938743591, -0.16225893795490265},
	{0.24493859708309174, 0.137475848197937, -0.07538723945617676, -0.08486050367355347, 0.12854331731796265, 0.19137988984584808, 0.1315775066614151, 0.09949810802936554, 0.09361038357019424, 0.23682288825511932, -0.17793750762939453, 0.015961885452270508, -0.17064878344535828, 0.19018974900245667, 0.07659576088190079, 0.05111614242196083, -0.19802051782608032, -0.040600597858428955, 0.06811517477035522, 0.18150541186332703, 0.14835792779922485, 0.2237323820590973, 0.19560912251472473, -0.06026780605316162, -0.025446567684412003, -0.17145884037017822, -0.15723827481269836, -0.07721656560897827, -0.19379964470863342, 0.16677255928516388, 0.1077921912074089, 0.0985015407204628},
	{0.06609571725130081, -0.19218003749847412, 0.20314687490463257, 0.20396465063095093, 0.16246986389160156, -0.04910581186413765, -0.25618499517440796, 0.2380431592464447, 0.13570378720760345, -0.15513081848621368, -0.1393166184425354, 0.04550272226333618, -0.03889256343245506, 0.24635319411754608, -0.20631465315818787, 0.05847785621881485, 0.07612095773220062, 0.23884981870651245, 0.04573202133178711, 0.1728895902633667, 0.16874712705612183, -0.2489597201347351, 0.08189675956964493, 0.18508219718933105, 0.19825637340545654, -0.15721619129180908, 0.08591137081384659, 0.0786617323756218, -0.019976159557700157, 0.11787312477827072, 0.2250722497701645, 0.13381369411945343},
	{-0.10891249030828476, 0.1616596281528473, -0.24762892723083496, -0.05248445272445679, 0.17570394277572632, 0.06979335099458694, -0.25654518604278564, 0.1600685715675354, 0.013624065555632114, 0.1726374477148056, 0.19008558988571167, 0.004219174385070801, 0.017269078642129898, 0.12384339421987534, -0.07834141701459885, -0.03555842861533165, 0.07621951401233673, 0.050922930240631104, -0.03724682331085205, -0.08623373508453369, -0.13808095455169678, 0.18075186014175415, -0.08574888855218887, 0.010383784770965576, 0.08313818275928497, -0.18660080432891846, -0.21504533290863037, 0.03346230462193489, 0.1863250732421875, -0.07433608919382095, -0.22393454611301422, 0.05911704897880554},
	{-0.0852968692779541, -0.020302236080169678, -0.17222321033477783, 0.04494953155517578, 0.0911746621131897, 0.2403653860092163, 0.24391412734985352, -0.16855329275131226, 0.0952863097190857, -0.1091299057006836, -0.18773114681243896, -0.14340955018997192, 0.11635905504226685, -0.06691503524780273, -0.17845970392227173, -0.18853813409805298, 0.2215701937675476, 0.18840306997299194, 0.16210860013961792, -0.21879208087921143, -0.24614626169204712, 0.16310155391693115, 0.10584217309951782, -0.07785534858703613, -0.06571149826049805, -0.16064822673797607, -0.1747267246246338, 0.01658153533935547, 0.09875679016113281, 0.09275776147842407, -0.008737564086914062, 0.14011305570602417},
	{-0.06241001561284065, -0.01607903465628624, -0.0036547183990478516, -0.1609576940536499, -0.07775324583053589, -0.009787745773792267, -0.2184046506881714, -0.0005895032081753016, 0.08331196010112762, 0.027519717812538147, -0.22644901275634766, 0.10753917694091797, -0.06544500589370728, -0.07958407700061798, -0.01973920688033104, 0.15637603402137756, -0.06581608951091766, 0.15811395645141602, 0.125749409198761, 0.07115057855844498, -0.24384313821792603, -0.1601964384317398, 0.22837701439857483, 0.029822945594787598, 0.023661088198423386, 0.036579668521881104, -0.0800338014960289, -0.03052872233092785, 0.0845140889286995, 0.04809451848268509, 0.07951023429632187, 0.15742440521717072},
	{-0.07103836536407471, 0.19243735074996948, -0.20232802629470825, -0.07445752620697021, 0.07552719116210938, 0.15362560749053955, 0.05900758504867554, 0.06717324256896973, 0.08353930711746216, 0.17850947380065918, 0.14786773920059204, -0.13721686601638794, 0.002432107925415039, 0.1939394474029541, -0.15420454740524292, 0.05857628583908081, 0.12275856733322144, 0.08941936492919922, -0.12023669481277466, -0.17812579870224, 0.10680919885635376, 0.23782187700271606, 0.1332036852836609, -0.06493359804153442, -0.08960044384002686, 0.20083540678024292, 0.16490274667739868, 0.09922075271606445, 0.11585479974746704, -0.07769763469696045, -0.06839656829833984, -0.037306010723114014},
	{0.07505661249160767, -0.09488951414823532, -0.17644232511520386, -0.19991827011108398, 0.22692608833312988, -0.15868210792541504, -0.08777721226215363, -0.028986208140850067, -0.06518526375293732, -0.22721800208091736, 0.1745680570602417, -0.12575924396514893, -0.1800791472196579, 0.27713948488235474, -0.012960199266672134, 0.15581688284873962, 0.11025220155715942, 0.02259725332260132, 0.13384437561035156, 0.16446416079998016, 0.05058431625366211, 0.1541842520236969, 0.11245602369308472, -0.0950888991355896, -0.14990709722042084, -0.17738938331604004, -0.02847142703831196, -0.03695424646139145, 0.12144655734300613, -0.2469821572303772, -0.08948003500699997, -0.22094257175922394},
	{-0.023775354027748108, -0.19486203789710999, 0.14414560794830322, -0.13608968257904053, 0.2384781837463379, 0.12259982526302338, 0.22200706601142883, -0.005837693810462952, -0.03022507019340992, 0.151884987950325, 0.15094012022018433, -0.05532485246658325, -0.17373815178871155, -0.010301675647497177, 0.02797216922044754, 0.03490910306572914, 0.11643151938915253, -0.19597601890563965, -0.1704235076904297, 0.035045914351940155, 0.11069560050964355, -0.1715424358844757, -0.06320715695619583, 0.08285719156265259, 0.12569184601306915, -0.22583258152008057, 0.04834669455885887, 0.21250693500041962, 0.2112501710653305, 0.05535183474421501, 0.001604009186848998, -0.19799008965492249},
};
const float bias_l2[] =
	{0.060920700430870056, 0.04811947047710419, 0.0, 0.0, 0.0, -0.018939925357699394, -0.04943794384598732, 0.07687114924192429, 0.0796331837773323, -0.004960541147738695, 0.0, 0.0, 0.004909502808004618, 0.08581974357366562, 0.03192732110619545, -0.0059767779894173145, 0.00411994056776166, 0.0, 0.0, -0.02435842528939247, 0.0, -0.011731620877981186, 0.06520834565162659, 0.0, 0.06572405993938446, 0.0, -0.008474993519484997, 0.11214051395654678, 0.034578751772642136, -0.014136218465864658, -0.03498048707842827, 0.07276443392038345};

const std::vector<std::vector<float>> weights_l3{
	{0.14831721782684326, -0.26425859332084656, 0.24908706545829773, 0.09249524027109146, 0.09328621625900269, 0.259189248085022, -0.006157577037811279, -0.13586382567882538, 0.24163416028022766, 0.11507372558116913, 0.18815378844738007, 0.22591261565685272, -0.14330075681209564, -0.29666250944137573, 0.17759723961353302, -0.2430083453655243, 0.05584724619984627, 0.21348588168621063, 0.10972041636705399, 0.30301210284233093, 0.027809470891952515, -0.018699675798416138, -0.21930170059204102, -0.013129981234669685, -0.034545209258794785, 0.1807762086391449, -0.13412168622016907, 0.21995046734809875, 0.020474784076213837, -0.1896567940711975, 0.04054892063140869, 0.29510003328323364},
	{-0.29153022170066833, 0.24220938980579376, -0.09012646973133087, -0.047612305730581284, -0.01917088031768799, 0.06132902950048447, 0.28990158438682556, -0.1494755744934082, -0.2086234986782074, 0.0021696691401302814, 0.20965580642223358, 0.2099205106496811, -0.16506804525852203, 0.2949208617210388, 0.008781438693404198, 0.02027611993253231, -0.07653935998678207, 0.2897670269012451, -0.27261653542518616, 0.200767382979393, 0.039324551820755005, 0.12344254553318024, 0.08233076333999634, 0.3049776256084442, 0.29175707697868347, 0.23446276783943176, -0.250745952129364, -0.22249744832515717, 0.19652928411960602, -0.1011747270822525, 0.07050223648548126, 0.12968330085277557},
	{-0.22377058863639832, -0.18471574783325195, 0.268919974565506, -0.2327146679162979, 0.14216113090515137, 0.2540145814418793, 0.0476377010345459, 0.2813274562358856, 0.09725883603096008, 0.27392473816871643, 0.2098275125026703, 0.09701362252235413, -0.2774195969104767, 0.13198861479759216, 0.12006828188896179, -0.30109912157058716, -0.058066412806510925, -0.09435808658599854, -0.14616259932518005, 0.17387458682060242, -0.30287280678749084, -0.2449367791414261, 0.25395438075065613, -0.06911759078502655, -0.14188848435878754, -0.1714281290769577, 0.02934408187866211, -0.12555667757987976, -0.23815444111824036, 0.10706433653831482, 0.18661275506019592, 0.22132346034049988},
	{0.2858830988407135, -0.2773965299129486, 0.287445992231369, 0.028738677501678467, 0.18458232283592224, 0.2711133062839508, 0.29716113209724426, -0.2432723045349121, 0.2759341895580292, 0.09142595529556274, -0.1578071266412735, -0.050772637128829956, 0.03649631142616272, -0.18398867547512054, 0.0033696889877319336, -0.2557184398174286, -0.02002739906311035, -0.29482829570770264, -0.02562156319618225, -0.1943156123161316, 0.11019694805145264, 0.03065064549446106, 0.2676142156124115, -0.05296418070793152, -0.16020365059375763, 0.1938246190547943, -0.26815474033355713, -0.1210751086473465, -0.24005785584449768, -0.1721956580877304, 0.15089544653892517, -0.19186221063137054},
	{-0.30201447010040283, 0.17917057871818542, -0.0769457221031189, 0.15872561931610107, -0.13339312374591827, -0.1848168671131134, 0.019218266010284424, -0.19978809356689453, 0.1216428279876709, -0.24006618559360504, -0.05852244794368744, 0.28535202145576477, -0.15017017722129822, -0.04935270547866821, -0.09988707304000854, 0.16092154383659363, 0.09145838022232056, 0.13100966811180115, 0.08513572812080383, 0.034173429012298584, -0.1760246902704239, 0.0637974739074707, -0.2331131100654602, -0.2727801203727722, -0.22307422757148743, -0.2688532769680023, 0.06727060675621033, 0.19507935643196106, 0.07838669419288635, 0.03554117679595947, -0.22889405488967896, -0.2704790532588959},
	{0.10362565517425537, -0.07577639073133469, 0.06786695122718811, -0.2549753785133362, 0.0648374855518341, -0.24116507172584534, 0.2173016369342804, -0.06368781626224518, -0.22055059671401978, 0.2882327437400818, -0.1180194541811943, -0.22395463287830353, 0.06208167225122452, 0.1183617040514946, 0.1073218435049057, 0.14611467719078064, 0.09402565658092499, 0.14593122899532318, 0.1590762436389923, 0.14152568578720093, -0.10577033460140228, -0.15740999579429626, -0.00822824239730835, 0.1909923404455185, -0.12157441675662994, 0.005096882581710815, 0.06622650474309921, 0.1928248107433319, 0.13355040550231934, 0.11560618877410889, 0.03975202143192291, -0.17621035873889923},
	{-0.30074068903923035, -0.004392485599964857, 0.16459208726882935, 0.15171410143375397, -0.11819340288639069, -0.2551882863044739, -0.1533687710762024, -0.058107733726501465, -0.22215157747268677, 0.2853431701660156, -0.08206208050251007, -0.2289482206106186, -0.060037851333618164, -0.22531212866306305, 0.10129502415657043, 0.22687193751335144, 0.05000839754939079, -0.058242857456207275, -0.05381295084953308, 0.15426050126552582, -0.07756651937961578, -0.12205246835947037, -0.047712743282318115, 0.07732920348644257, 0.05620188266038895, -0.09234772622585297, -0.2695486545562744, -0.27871352434158325, 0.0676264539361, -0.22171327471733093, 0.0783580020070076, 0.06315416842699051},
	{0.056819796562194824, 0.22603082656860352, -0.00655287504196167, 0.06686705350875854, -0.2766195833683014, 0.22865818440914154, -0.15321415662765503, 0.02552315592765808, -0.048440635204315186, 0.1826220452785492, -0.16914227604866028, 0.20179733633995056, 0.20382922887802124, 0.2725299000740051, 0.030873456969857216, -0.24837133288383484, 0.2910747230052948, -0.30509141087532043, -0.1213952824473381, 0.21003231406211853, 0.07220995426177979, 0.32294777035713196, -0.09381803870201111, 0.0652104914188385, 0.26878851652145386, 0.13286840915679932, 0.006065635941922665, -0.06061653792858124, 0.036654479801654816, 0.045118242502212524, 0.10371385514736176, -0.24117498099803925},
	{-0.13236382603645325, -0.12185441702604294, 0.03102695941925049, -0.19612900912761688, -0.09891821444034576, -0.1677895039319992, -0.11538858711719513, 0.21711507439613342, -0.042055875062942505, 0.08586829900741577, 0.01786886900663376, 0.32457849383354187, 0.0753852128982544, -0.1893681436777115, -0.04965704679489136, -0.052721019834280014, -0.0972185805439949, 0.24190692603588104, -0.2325545996427536, 0.09879518300294876, 0.09248781204223633, -0.05040077120065689, -0.1461646407842636, 0.2663092017173767, -0.04726544767618179, -0.06756311655044556, 0.06362991780042648, -0.2520694434642792, -0.20723427832126617, -0.18799909949302673, -0.2981303334236145, 0.18519219756126404},
	{-0.0810641199350357, 0.1474025845527649, -0.1549539715051651, 0.15511183440685272, -0.1389096975326538, 0.23834285140037537, 0.24684879183769226, -0.007572472095489502, 0.2948612868785858, 0.2309766709804535, 0.1435399204492569, -0.13837780058383942, 0.03702879324555397, 0.19615088403224945, 0.00924467109143734, -0.13282252848148346, -0.2596897482872009, 0.007483909837901592, 0.14594191312789917, -0.03105650283396244, -0.014391690492630005, -0.2957652807235718, -0.15806372463703156, 0.15169815719127655, 0.02526586875319481, -0.11634956300258636, -0.04442070052027702, -0.26159074902534485, -0.032718438655138016, -0.01104116439819336, -0.1110762432217598, -0.07672066986560822},
	{0.07370209693908691, -0.018031835556030273, 0.02455085515975952, 0.07152214646339417, -0.01978495717048645, 0.27630165219306946, 0.22467657923698425, -0.21457324922084808, 0.07067680358886719, 0.05677714943885803, -0.13726361095905304, 0.06571686267852783, 0.2942182123661041, -0.25585758686065674, 0.304775208234787, -0.2870588004589081, -0.21120601892471313, -0.23840688169002533, -0.176266610622406, -0.03845357894897461, -0.25873568654060364, -0.1523200422525406, 0.27115288376808167, 0.018438011407852173, -0.28806567192077637, 0.1980026662349701, 0.01601332426071167, -0.12375107407569885, -0.2945582866668701, -0.2632543444633484, 0.16507598757743835, 0.17997393012046814},
	{-0.2727702558040619, -0.21595507860183716, -0.11274537444114685, 0.2293367087841034, 0.05982127785682678, 0.2532574236392975, 0.1956234872341156, -0.12968595325946808, 0.04694253206253052, -0.19762873649597168, -0.20868663489818573, 0.05670362710952759, -0.29659587144851685, 0.012796193361282349, 0.03376850485801697, 0.043001532554626465, -0.1527455598115921, -0.17479266226291656, -0.2514630854129791, 0.21540430188179016, 0.19528469443321228, -0.10783267021179199, -0.22545120120048523, -0.11704570055007935, -0.10116457939147949, 0.09719723463058472, -0.11579914391040802, 0.03142276406288147, -0.05408015847206116, -0.24108827114105225, -0.07981960475444794, -0.09236051142215729},
	{-0.1741628795862198, 0.2542886734008789, -0.1925632357597351, 0.09853334724903107, -0.03380987048149109, 0.1896391659975052, -0.2418408989906311, 0.10740327835083008, 0.21654215455055237, -0.19811567664146423, 0.18922068178653717, 0.31987565755844116, -0.14428476989269257, 0.25036969780921936, 0.14696554839611053, -0.2233540415763855, -0.26763078570365906, -0.13519258797168732, 0.01990450918674469, 0.015583888627588749, 0.1774330735206604, 0.1868988275527954, 0.1310243308544159, 0.275502473115921, -0.1706714928150177, 0.014671117067337036, -0.07295086979866028, 0.19214347004890442, 0.24529196321964264, 0.21735820174217224, 0.29845482110977173, -0.24600809812545776},
	{-0.1862405240535736, -0.25760167837142944, -0.3004313111305237, 0.027082137763500214, -0.23098024725914001, 0.1072179451584816, 0.007437795400619507, -0.3024956285953522, -0.17421077191829681, -0.009389466606080532, -0.2412092089653015, 0.06969282776117325, 0.14959388971328735, 0.06392994523048401, -0.26670193672180176, 0.22633671760559082, -0.08118528127670288, -0.16449031233787537, 0.14962553977966309, 0.19828422367572784, -0.23829497396945953, 0.1335592269897461, 0.01682683825492859, 0.22486171126365662, 0.0390169583261013, -0.07055532932281494, -0.23280048370361328, 0.054934173822402954, -0.2798755466938019, -0.06451381742954254, 0.2878444790840149, 0.22245687246322632},
	{0.2549237310886383, -0.02665683813393116, -0.24031203985214233, 0.22099541127681732, 0.2945376932621002, -0.2421526163816452, 0.10138651728630066, 0.18676480650901794, 0.22472527623176575, -0.0566800981760025, -0.034871406853199005, 0.11326383799314499, -0.1611183136701584, -0.3109946846961975, 0.168431356549263, 0.1746550053358078, 0.061232030391693115, -0.011619322001934052, 0.10615698993206024, 0.15800756216049194, -0.13820146024227142, 0.16017195582389832, -0.30280908942222595, -0.14741089940071106, -0.24248479306697845, 0.0004970729351043701, -0.2464650720357895, -0.18512922525405884, -0.14272184669971466, -0.06123119592666626, -0.17092746496200562, 0.04533642902970314},
	{-0.18499767780303955, -0.227624773979187, -0.17111167311668396, 0.1469227373600006, -0.30011820793151855, 0.060075968503952026, -0.209682434797287, 0.2060185968875885, 0.10341936349868774, 0.0786389708518982, 0.26343846321105957, 0.24660001695156097, 0.22067199647426605, -0.2801315486431122, -0.1423254907131195, -0.1683369278907776, -0.28203335404396057, -0.017601097002625465, -0.18145492672920227, 0.09636707603931427, 0.0892316997051239, -0.13992063701152802, -0.2841145396232605, -0.03696182742714882, -0.21384260058403015, 0.13333281874656677, -0.07548242807388306, 0.17194774746894836, 0.089689701795578, -0.1482866108417511, -0.26913759112358093, 0.12134779989719391},
	{-0.05797639489173889, 0.1547168493270874, -0.09387731552124023, 0.2823646664619446, 0.04690200090408325, 0.11497145891189575, 0.21861472725868225, 0.02669087052345276, -0.06873148679733276, 0.22793172299861908, -0.1901775747537613, 0.04834764450788498, -0.012138758786022663, -0.2829013168811798, 0.26011019945144653, -0.2784265875816345, 0.011646527796983719, -0.26429370045661926, -0.2954119145870209, -0.1056831106543541, 0.05284541845321655, 0.16322383284568787, -0.11617961525917053, 0.09584390372037888, 0.08060184866189957, 0.19759318232536316, 0.09918442368507385, 0.12245824933052063, 0.2710137963294983, -0.2885380685329437, 0.2732762098312378, 0.09039107710123062},
	{0.20610317587852478, -0.13593894243240356, -0.036146700382232666, 0.12973594665527344, -0.1630781888961792, 0.09483316540718079, -0.10854412615299225, -0.2693704068660736, -0.1429743766784668, 0.0691133439540863, -0.2299925535917282, -0.21078021824359894, 0.01968216896057129, 0.05578288435935974, 0.1426248550415039, -0.05032333731651306, 0.23678335547447205, -0.04463949799537659, 0.0044629573822021484, -0.2079581618309021, 0.144020676612854, 0.2618410885334015, -0.0980328619480133, 0.22242024540901184, -0.05583435297012329, 0.19553110003471375, -0.008621931076049805, 0.2769078314304352, -0.049381107091903687, 0.002352803945541382, -0.048598676919937134, 0.07553520798683167},
	{0.1705949902534485, -0.09396213293075562, -0.1582760065793991, 0.13431373238563538, 0.19010961055755615, -0.22353464365005493, -0.15661662817001343, 0.14527630805969238, 0.06154671311378479, 0.1811750829219818, 0.1754595935344696, 0.11100175976753235, 0.2776202857494354, -0.06267638504505157, -0.13654528558254242, -0.00445440411567688, 0.24788185954093933, -0.24508459866046906, 0.19981339573860168, 0.2711084187030792, 0.11302885413169861, -0.08097696304321289, -0.30260980129241943, -0.047029316425323486, -0.23560798168182373, -0.10906119644641876, -0.22430142760276794, 0.04937708377838135, -0.19543594121932983, -0.27921903133392334, 0.025133907794952393, -0.01879251003265381},
	{0.2584541141986847, 0.20423167943954468, -0.16826830804347992, 0.27023643255233765, -0.22346149384975433, -0.2488701194524765, 0.30079367756843567, 0.0492253303527832, 0.25953301787376404, -0.09385770559310913, 0.12909995019435883, -0.15342538058757782, 0.04049304127693176, 0.21029600501060486, -0.14569374918937683, -0.30012091994285583, -0.26740729808807373, 0.06832965463399887, 0.09572279453277588, 0.04963412880897522, -0.13531756401062012, 0.06967806071043015, -0.08695358037948608, -0.20624105632305145, -0.12091928720474243, 0.28291055560112, -0.04659918695688248, -0.0957891196012497, 0.08876612037420273, 0.1578468382358551, -0.23641592264175415, 0.02095450833439827},
	{-0.04533672332763672, -0.04715371131896973, -0.1592213660478592, -0.21588973701000214, 0.24466046690940857, -0.15971140563488007, -0.07438836991786957, -0.28908345103263855, -0.038301825523376465, -0.17003433406352997, -0.22927343845367432, 0.03109017014503479, -0.2277102768421173, -0.22434385120868683, -0.2752419114112854, -0.28028813004493713, -0.14076004922389984, 0.1224680244922638, -0.18090994656085968, 0.23943820595741272, -0.16740413010120392, 0.2722060978412628, 0.08186370134353638, -0.22857224941253662, 0.12660744786262512, -0.18510127067565918, 0.16779890656471252, -0.23221184313297272, 0.009327858686447144, 0.03431183099746704, -0.21330077946186066, 0.21166595816612244},
	{0.24310657382011414, -0.05873676761984825, -0.03311273455619812, 0.012281269766390324, 0.07481417059898376, -0.23353752493858337, 0.254082053899765, 0.06785944104194641, 0.2639886438846588, 0.27936694025993347, 0.2556106746196747, 0.17396216094493866, -0.2129048854112625, 0.0029855668544769287, 0.047014396637678146, 0.13496600091457367, 0.07871417701244354, -0.04512356221675873, -0.22048822045326233, -0.22716939449310303, -0.2117641121149063, -0.278398334980011, 0.21550187468528748, -0.013009898364543915, -0.11998629570007324, -0.010001510381698608, 0.03609195351600647, -0.02627047896385193, 0.14678163826465607, -0.002436399459838867, 0.05123062804341316, 0.0013804413611069322},
	{-0.021318107843399048, 0.2569146156311035, 0.1449345052242279, 0.1439892202615738, 0.12730884552001953, -0.19591818749904633, -0.2128518968820572, 0.2550966441631317, -0.1519189029932022, -0.2515219748020172, 0.2747533619403839, 0.2670685350894928, 0.24284455180168152, -0.1516771912574768, -0.07469984889030457, 0.23363769054412842, 0.04104359447956085, 0.24948576092720032, -0.0970597192645073, 0.10173773765563965, 0.045326948165893555, 0.3128373622894287, 0.05734771490097046, 0.22707803547382355, -0.0338960625231266, -0.0687987208366394, 0.15795662999153137, 0.11605915427207947, -0.14016714692115784, -0.30289047956466675, 0.2087089717388153, 0.16373513638973236},
	{-0.01987314224243164, -0.15285147726535797, -0.2990702986717224, -0.12104086577892303, -0.2323499619960785, 0.2651169002056122, -0.1872500479221344, 0.0828227698802948, 0.17207461595535278, 0.11348414421081543, 0.0770730972290039, -0.26922279596328735, 0.08671990036964417, -0.16690458357334137, -0.04167357087135315, -0.0361657440662384, -0.2610229551792145, 0.01045176386833191, 0.06978195905685425, -0.1790662556886673, -0.28414562344551086, -0.25801998376846313, 0.15689951181411743, 0.13002869486808777, 0.23527422547340393, -0.0414484441280365, 0.11531791090965271, 0.3002154529094696, 0.15942677855491638, 0.2576831877231598, 0.2608914077281952, -0.28012514114379883},
	{0.24631854891777039, 0.07133124768733978, -0.25595349073410034, 0.1996915638446808, -0.20794406533241272, -0.08678006380796432, -0.13078497350215912, -0.201804518699646, -0.011744529008865356, -0.07882925122976303, 0.10788322240114212, 0.3121119439601898, 0.18288147449493408, 0.26991790533065796, -0.12060339003801346, 0.17300225794315338, -0.008124087937176228, 0.2226179838180542, 0.23292700946331024, -0.009458191692829132, -0.0537104606628418, 0.21942920982837677, -0.2371601164340973, 0.2465834617614746, -0.06497462838888168, -0.28920960426330566, 0.0864214077591896, -0.09336301684379578, -0.207250714302063, -0.110242560505867, 0.21984587609767914, 0.18110601603984833},
	{0.07026326656341553, -0.188622385263443, -0.17778480052947998, 0.22140595316886902, 0.2650006115436554, -0.18065787851810455, 0.2883100211620331, -0.14430604875087738, -0.14816302061080933, 0.28907814621925354, 0.30264487862586975, 0.0893658697605133, 0.015169501304626465, -0.04424595832824707, 0.1897275447845459, 0.1837453544139862, 0.2127598226070404, -0.23925244808197021, -0.18560351431369781, 0.08287549018859863, -0.15334613621234894, -0.1597050577402115, -0.015312641859054565, 0.1792353093624115, 0.282012015581131, 0.23494157195091248, 0.26811179518699646, 0.08760562539100647, 0.08468568325042725, 0.027035295963287354, -0.12876693904399872, -0.19879740476608276},
	{-0.20960316061973572, -0.2799024283885956, -0.026525676250457764, -0.11544696986675262, 0.27857235074043274, 0.19813600182533264, 0.2526789605617523, -0.02153235673904419, 0.11478930711746216, 0.15931592881679535, 0.2967231273651123, -0.16734635829925537, -0.07838734984397888, 0.19919799268245697, -0.28773975372314453, 0.026464449241757393, 0.02310909330844879, -0.07070047408342361, -0.22959843277931213, 0.12667767703533173, 0.008865535259246826, 0.23760999739170074, -0.2761420011520386, -0.1602534055709839, -0.1488470584154129, -0.19970005750656128, 0.2921261787414551, -0.17974938452243805, -0.19489286839962006, 0.2768256366252899, 0.12324867397546768, -0.21678069233894348},
	{0.10578164458274841, 0.20957253873348236, -0.2422654628753662, -0.2227952778339386, -0.280291348695755, 0.15372887253761292, 0.2663414776325226, -0.20818351209163666, -0.17072047293186188, -0.1508261114358902, 0.05138455331325531, 0.3006981313228607, 0.026783932000398636, -0.28421834111213684, -0.2723751962184906, -0.13338680565357208, 0.12169211357831955, -0.06866036355495453, -0.19368037581443787, 0.19638864696025848, -0.06272704899311066, 0.1783301681280136, 0.15136972069740295, 0.30988723039627075, 0.3198172152042389, -0.008019089698791504, 0.09882211685180664, -0.0895862728357315, -0.28639569878578186, -0.055019378662109375, 0.09297733753919601, -0.11000284552574158},
	{0.026479750871658325, 0.21901452541351318, -0.23873531818389893, 0.134224072098732, 0.2967623174190521, 0.3068791925907135, 0.0423964262008667, -0.07295362651348114, 0.11276736855506897, -0.05642655864357948, 0.09546273201704025, 0.16252095997333527, 0.24835476279258728, 0.08209937065839767, -0.2897941470146179, 0.10267378389835358, 0.18365438282489777, -0.011500805616378784, 0.05587095767259598, -0.19313138723373413, -0.00034549832344055176, 0.23094488680362701, -0.2643969655036926, -0.033922262489795685, -0.1680641770362854, 0.03886362910270691, 0.21535877883434296, -0.2062506079673767, 0.2500362992286682, 0.21896913647651672, -0.1503421515226364, 0.04801984131336212},
	{-0.25344032049179077, -0.0474870391190052, 0.06955930590629578, 0.26533785462379456, 0.08830460906028748, 0.22394445538520813, -0.2640710175037384, 0.07014024257659912, 0.05150032043457031, -0.045671433210372925, -0.10374521464109421, 0.056815508753061295, 0.12510891258716583, 0.2731195390224457, 0.038299478590488434, 0.19690407812595367, -0.27287012338638306, -0.12173778563737869, 0.05530204251408577, -0.1689460724592209, 0.10285994410514832, 0.020998362451791763, -0.007907569408416748, 0.06735382229089737, 0.239650160074234, -0.23272401094436646, -0.14522893726825714, 0.18943998217582703, 0.07654130458831787, 0.17780297994613647, -0.09686505049467087, 0.049301646649837494},
	{-0.12651276588439941, 0.13968537747859955, -0.11522367596626282, 0.09515243768692017, -0.2941794693470001, -0.08337371051311493, 0.023388177156448364, -0.09653539955615997, 0.03739085793495178, 0.015606469474732876, 0.24049687385559082, -0.12331618368625641, 0.07706933468580246, 0.03769892454147339, -0.005915892776101828, -0.17254140973091125, -0.2344958782196045, -0.28602898120880127, 0.12033772468566895, -0.1487637311220169, -0.260861337184906, 0.07188093662261963, -0.2967364490032196, -0.21518221497535706, -0.0013710869243368506, -0.2335580438375473, 0.23610566556453705, -0.03145831823348999, 0.18841104209423065, 0.19800981879234314, -0.022688768804073334, 0.1403529942035675},
	{-0.22589001059532166, 0.09787943959236145, -0.10617117583751678, 0.19144651293754578, 0.23597881197929382, 0.1169109046459198, 0.09904208779335022, -0.2595502436161041, -0.0881718099117279, -0.2721337378025055, -0.27233386039733887, -0.06678862124681473, 0.004171119537204504, -0.2812739908695221, 0.14769990742206573, -0.032195694744586945, 0.1520308256149292, 0.22070568799972534, 0.2672474980354309, -0.13409200310707092, 0.05520179867744446, 0.20016153156757355, -0.23126459121704102, -0.13257639110088348, 0.03319810330867767, -0.09950330853462219, -0.09148797392845154, 0.12876299023628235, 0.23092854022979736, 0.0446857213973999, 0.0014022826217114925, 0.24878312647342682},
};
const float bias_l3[] =
	{0.0, -0.025593215599656105, 0.0, -0.025010759010910988, 0.0, 0.09843182563781738, 0.0, 0.0, 0.0, 0.001394043443724513, -0.028332984074950218, 0.06455589085817337, -0.004812024999409914, -0.005558478645980358, -0.013863712549209595, -0.02239927463233471, 0.048719748854637146, -0.044780246913433075, 0.01594896800816059, 0.006896667182445526, 0.0, 0.08148703724145889, 0.0, 0.03604257106781006, 0.09369061887264252, 0.0, -0.012049970217049122, 0.0, -0.014417476952075958, 0.0, -0.014047685079276562, 0.10388989746570587};

const std::vector<std::vector<float>> weights_l4{
	{-0.20751194655895233, -0.31250935792922974, -0.08947142958641052, -0.32158559560775757, -0.12591682374477386, -0.01984846591949463, 0.1807972490787506, 0.06560671329498291, 0.026338666677474976, 0.11593475937843323, 0.07381448149681091, 0.2311224639415741, -0.004969865083694458, -0.06629598140716553, -0.08276611566543579, -0.28912627696990967},
	{-0.2977275252342224, 0.2153577208518982, -0.13219474256038666, 0.05807042121887207, -0.2674581706523895, 0.18152639269828796, -0.045481376349925995, 0.31866952776908875, 0.2830299139022827, -0.338692307472229, 0.1388568878173828, -0.288085013628006, -0.2331511378288269, 0.1514776051044464, 0.16985079646110535, -0.3453538119792938},
	{-0.018192172050476074, -0.13468590378761292, -0.2691541612148285, -0.28154414892196655, -0.32560470700263977, 0.0015978813171386719, 0.10318568348884583, -0.22769851982593536, 0.13335278630256653, -0.24249053001403809, 0.24515309929847717, -0.18600432574748993, 0.3221801221370697, -0.04413565993309021, -0.2894556224346161, -0.005555957555770874},
	{-0.23239080607891083, 0.16731451451778412, 0.09300291538238525, -0.3367229700088501, -0.20469637215137482, 0.026797473430633545, 0.007568221539258957, -0.2171405553817749, 0.26889005303382874, -0.1936952769756317, -0.2705466151237488, 0.03519058600068092, -0.3119391202926636, -0.08870318531990051, -0.3442872166633606, 0.23728111386299133},
	{-0.14752197265625, -0.1396741420030594, -0.2173023223876953, 0.3282133638858795, -0.2447490245103836, 0.13031738996505737, -0.26756757497787476, -0.058680981397628784, -0.06505492329597473, -0.3204028606414795, 0.05396980047225952, -0.2806550860404968, 0.0676800012588501, -0.11357033252716064, -0.12989860773086548, 0.1431037187576294},
	{-0.35033825039863586, 0.21309198439121246, 0.13931497931480408, 0.2085951864719391, 0.15401604771614075, 0.1809740960597992, -0.04076063632965088, 0.20167747139930725, -0.14965324103832245, -0.34459835290908813, -0.2844696044921875, 0.3818776309490204, 0.15999391674995422, -0.012671798467636108, -0.30344727635383606, 0.3284764587879181},
	{0.09616166353225708, -0.21935343742370605, -0.2674611210823059, -0.15879179537296295, 0.030615568161010742, 0.33736106753349304, 0.31841108202934265, -0.10037854313850403, 0.0929003357887268, -0.2943544387817383, -0.11244349181652069, -0.34594234824180603, 0.33155468106269836, -0.24646076560020447, -0.11206905543804169, -0.2608010768890381},
	{0.23279449343681335, 0.3209708631038666, 0.3385216295719147, -0.18728263676166534, 0.32632920145988464, -0.2792067527770996, -0.09810453653335571, 0.2876379191875458, 0.09433087706565857, -0.2590040862560272, -0.33462169766426086, -0.12571780383586884, -0.15584057569503784, 0.32141926884651184, -0.02359086275100708, 0.26514092087745667},
	{0.010007262229919434, -0.16288314759731293, -0.261447936296463, -0.18903560936450958, -0.3227577805519104, -0.15036234259605408, -0.1116625964641571, 0.2916876971721649, -0.3203154504299164, -0.25146883726119995, 0.08696597814559937, -0.19330592453479767, 0.15342852473258972, -0.08447998762130737, 0.2348889410495758, 0.2860250174999237},
	{0.2453450858592987, 0.024750495329499245, -0.09633404016494751, -0.09510428458452225, 0.16483953595161438, -0.3176451027393341, 0.1439182013273239, 0.1564272940158844, -0.1313299834728241, 0.31357523798942566, -0.015032758936285973, 0.18255554139614105, 0.012603580951690674, 0.22332999110221863, 0.010414570569992065, -0.030702054500579834},
	{0.31825515627861023, 0.16195270419120789, -0.3421386182308197, -0.038577452301979065, -0.1882217526435852, -0.2879105806350708, 0.045752573758363724, -0.05771169066429138, 0.03229283168911934, -0.2931631803512573, -0.2416849285364151, -0.02524670772254467, -0.13303567469120026, -0.0392434298992157, -0.2993563413619995, -0.16785800457000732},
	{-0.05110624432563782, 0.29215139150619507, -0.34474724531173706, -0.033814139664173126, -0.2979413866996765, -0.3022736608982086, -0.23294980823993683, -0.10682412981987, 0.2770027816295624, 0.055251479148864746, -0.10397514700889587, 0.28512638807296753, 0.21992400288581848, -0.07854950428009033, 0.03160002827644348, -0.20667017996311188},
	{-0.20206917822360992, -0.2780311703681946, -0.010098929516971111, 0.3061361312866211, 0.06783255934715271, -0.14972978830337524, -0.14958900213241577, -0.09037169814109802, -0.2111133635044098, -0.29477497935295105, 0.07472939044237137, 0.07137671113014221, 0.019677430391311646, -0.3000336289405823, 0.24010905623435974, -0.27162158489227295},
	{0.16079285740852356, 0.154784694314003, 0.2368311583995819, 0.27651822566986084, -0.3069647550582886, -0.2752772569656372, 0.02446373924612999, -0.030355840921401978, -0.1724219173192978, 0.27299222350120544, 0.014041992835700512, 0.030114110559225082, 0.08805191516876221, -0.23384453356266022, 0.14844903349876404, 0.08154740929603577},
	{-0.24732032418251038, -0.2521728277206421, 0.1739795058965683, -0.03450901806354523, 0.061684370040893555, 0.28145530819892883, -0.16369126737117767, -0.011537522077560425, -0.31167224049568176, 0.035592079162597656, 0.3488219678401947, -0.245734304189682, 0.1886170208454132, -0.24358458817005157, -0.03505200147628784, 0.2621205151081085},
	{0.23258057236671448, -0.09853334724903107, 0.04093484580516815, -0.15442870557308197, 0.2638076841831207, -0.043568700551986694, 0.3384518623352051, -0.33786988258361816, -0.04869098588824272, 0.21084406971931458, 0.026812337338924408, -0.1788257360458374, 0.13685181736946106, 0.08776187896728516, -0.25967228412628174, 0.35296937823295593},
	{0.01862737536430359, -0.13144640624523163, -0.0402500182390213, 0.09623221307992935, 0.061802446842193604, 0.2752661406993866, 0.2589462697505951, 0.11636558175086975, -0.20666973292827606, 0.25814589858055115, 0.19579467177391052, 0.3573381304740906, 0.24385657906532288, 0.1306467056274414, 0.2837575376033783, 0.254667192697525},
	{-0.06192517280578613, 0.22850699722766876, 0.34411314129829407, -0.08345773071050644, -0.06400251388549805, 0.23547282814979553, -0.2187555879354477, 0.06961622834205627, 0.06385064870119095, -0.20139382779598236, -0.059435971081256866, -0.31323370337486267, -0.11972090601921082, 0.2261684238910675, 0.15302494168281555, -0.2425077259540558},
	{-0.260592520236969, 0.03407780081033707, -0.06812256574630737, 0.2878897786140442, -0.33092406392097473, -0.2301350235939026, 0.14737237989902496, 0.08261421322822571, 0.16012561321258545, -0.10632528364658356, -0.09922726452350616, 0.15968868136405945, -0.01873999834060669, 0.08970046043395996, 0.04646739363670349, -0.1356687694787979},
	{-0.25338196754455566, 0.13167090713977814, 0.07966259121894836, 0.06329766660928726, -0.22503921389579773, -0.07094055414199829, -0.13153116405010223, -0.16770398616790771, 0.33588889241218567, 0.14873006939888, -0.22994489967823029, 0.2627321779727936, 0.23571357131004333, -0.07373961806297302, 0.08948609232902527, 0.0918794572353363},
	{-0.10435180366039276, -0.265539288520813, -0.02378261089324951, 0.25244876742362976, 0.3339953124523163, -0.31571707129478455, -0.2516515851020813, -0.035804420709609985, 0.15219250321388245, -0.11510388553142548, -0.2256966233253479, 0.06469869613647461, -0.23908987641334534, 0.014403671026229858, 0.0996517539024353, -0.17334139347076416},
	{-0.05423194169998169, 0.23348867893218994, -0.2837265431880951, 0.14493975043296814, 0.00833427906036377, -0.17782647907733917, -0.0008828179561533034, -0.24770748615264893, 0.01047748327255249, 0.23512908816337585, 0.30853772163391113, 0.3192678987979889, -0.01776176691055298, -0.2573222517967224, -0.2179289609193802, -0.22361119091510773},
	{-0.019900977611541748, -0.27308669686317444, 0.3222890794277191, -0.0912548303604126, -0.1143854558467865, -0.1929367184638977, -0.019861191511154175, -0.14374089241027832, 0.29408273100852966, 0.10921597480773926, 0.11340883374214172, 0.05939796566963196, -0.1615271270275116, 0.3274236023426056, 0.15655359625816345, -0.21837294101715088},
	{0.043619781732559204, 0.11340491473674774, 0.23215405642986298, -0.28546372056007385, -0.06418660283088684, 0.14453518390655518, 0.2466399222612381, -0.002203434705734253, -0.049081891775131226, 0.1501615345478058, 0.300981730222702, -0.08590780943632126, -0.3462127447128296, -0.0028467774391174316, 0.09681972861289978, -0.18278759717941284},
	{0.3493026793003082, -0.09625273197889328, -0.014151271432638168, 0.19312509894371033, 0.06063556671142578, -0.22238589823246002, 0.03499474748969078, 0.08444628119468689, 0.11133716255426407, 0.06265702843666077, 0.08810991793870926, 0.32613644003868103, -0.013795256614685059, 0.0996306836605072, 0.0612177848815918, 0.20937636494636536},
	{0.19903728365898132, -0.13921761512756348, 0.2610599100589752, 0.06497171521186829, 0.31616827845573425, 0.29832980036735535, 0.2911965548992157, 0.29329344630241394, 0.014484018087387085, -0.31222662329673767, -0.16451002657413483, 0.31298932433128357, -0.04803696274757385, 0.1536884605884552, -0.1565602868795395, 0.24506023526191711},
	{-0.13028685748577118, -0.06351721286773682, -0.24749988317489624, 0.09651797264814377, -0.09738871455192566, 0.3274478614330292, 0.30477774143218994, 0.22624656558036804, 0.3409559726715088, 0.13380292057991028, -0.1944580227136612, -0.1406470090150833, 0.05653467774391174, 0.2402302324771881, -0.30417582392692566, -0.11161825060844421},
	{0.20791199803352356, -0.042317867279052734, -0.07839497923851013, 0.35304853320121765, -0.12813526391983032, -0.05295625329017639, -0.10457982122898102, 0.0419522225856781, 0.08027103543281555, -0.003108084201812744, 0.29328176379203796, -0.0896366536617279, -0.222561314702034, 0.30105099081993103, -0.13084277510643005, 0.275572270154953},
	{-0.2544608414173126, 0.034966591745615005, 0.22461406886577606, 0.21311986446380615, -0.1274360567331314, 0.02392861247062683, 0.22996081411838531, 0.08589291572570801, -0.28521406650543213, -0.14257629215717316, -0.016345500946044922, -0.20621395111083984, 0.01543736457824707, -0.07325863838195801, 0.1254383623600006, -0.13838167488574982},
	{0.13445931673049927, 0.23882737755775452, 0.33889296650886536, -0.3246628940105438, -0.06444185972213745, -0.16778002679347992, -0.1893269270658493, 0.23035451769828796, 0.28091809153556824, -0.22597530484199524, 0.1445738971233368, -0.24827654659748077, 0.3499181568622589, -0.016044706106185913, 0.29908695816993713, 0.024739116430282593},
	{0.06633290648460388, 0.011718622408807278, 0.19439922273159027, -0.32183438539505005, -0.16653820872306824, -0.24132417142391205, 0.2292090207338333, -0.291733056306839, 0.12357757240533829, -0.21909095346927643, -0.045476749539375305, 0.05208513140678406, -0.06257423758506775, 0.33561190962791443, -0.10768097639083862, 0.15166053175926208},
	{-0.03967273235321045, 0.0055429753847420216, -0.07929966598749161, 0.07795415073633194, -0.21285675466060638, -0.045727819204330444, -0.11199654638767242, -0.042406558990478516, 0.2696695625782013, -0.045637696981430054, 0.23827610909938812, 0.24588505923748016, 0.20898714661598206, 0.3034387528896332, -0.15329264104366302, 0.3155956566333771},
};
const float bias_l4[] =
	{0.0, 0.086038738489151, -0.006005463656038046, 0.000860086118336767, 0.0, 0.0, 0.015166152268648148, 0.0, -0.025917572900652885, 0.0, 0.047741055488586426, 0.07315851747989655, 0.0, 0.0, 0.0, 0.0};

const std::vector<std::vector<float>> weights_l5{
	{0.41602134704589844, 0.15269863605499268, -0.36464715003967285, -0.43294990062713623, -0.35083580017089844, 0.042421579360961914, 0.24048852920532227, 0.10014259815216064},
	{0.13319800794124603, -0.4572068452835083, 0.2731111943721771, 0.2312978357076645, -0.23633646965026855, 0.10681243240833282, -0.017328493297100067, 0.15486569702625275},
	{-0.15012226998806, 0.1725785732269287, -0.24542070925235748, -0.2789463996887207, 0.05884706974029541, -0.13347172737121582, -0.33098316192626953, -0.29917657375335693},
	{-0.05851493030786514, 0.03169667720794678, 0.15978987514972687, -0.40585002303123474, -0.48800206184387207, -0.1289593130350113, -0.39161133766174316, 0.2265923172235489},
	{-0.1059640645980835, 0.37969934940338135, -0.020951151847839355, -0.30916786193847656, 0.18201327323913574, -0.48573946952819824, -0.247430682182312, 0.49578046798706055},
	{0.4475061893463135, -0.19046449661254883, -0.2987746000289917, 0.053578734397888184, 0.46691036224365234, -0.08522117137908936, 0.09720945358276367, 0.4688960313796997},
