#ifndef _MODEL_H_
#define _MODEL_H_

#define IN_SHAPE 13

#define SHAPE_L_1 64
#define SHAPE_L_2 32
#define SHAPE_L_3 16
#define SHAPE_L_4 8
#define SHAPE_L_5 4
#define SHAPE_L_6 2


const std::vector<std::vector<float>> weights_l1{
	{0.05831843614578247, 0.017811598256230354, 0.012454578652977943, -0.0013749123318120837, 0.17773430049419403, 0.01592223159968853, -0.08100105822086334, 0.25607967376708984, 0.139719620347023, 0.15403994917869568, -0.20886582136154175, -0.24638794362545013, 0.31276774406433105},
	{0.11370797455310822, -0.1249391958117485, -0.12933368980884552, 0.024623233824968338, 0.2617728114128113, -0.2084578275680542, 0.03714718297123909, -0.11330912262201309, -0.1045956015586853, -0.06690677255392075, -0.196543350815773, 0.10593494027853012, -0.12677942216396332},
	{0.11992575973272324, -0.14179891347885132, -0.2262684404850006, 0.024235974997282028, 0.26240840554237366, 0.2179490029811859, -0.10012040287256241, -0.0394321046769619, 0.0029881480149924755, 0.2397693693637848, -0.07337453961372375, 0.15260618925094604, -0.026491984724998474},
	{0.022820917889475822, 0.030283411964774132, 0.1453995555639267, -0.26118776202201843, -0.26589155197143555, 0.07340608537197113, -0.21796689927577972, -0.19062720239162445, 0.07506755739450455, -0.2821499705314636, -0.10463947057723999, -0.392537385225296, 0.23721221089363098},
	{0.023979337885975838, 0.4419792890548706, 0.32439836859703064, 0.08253711462020874, 0.099773108959198, -0.017953619360923767, -0.15806779265403748, 0.31938865780830383, -0.012224266305565834, 0.5016830563545227, -0.1695898324251175, -0.04387957602739334, -0.2371351569890976},
	{0.05915704742074013, 0.3819688856601715, 0.09493269771337509, 0.29797300696372986, 0.029918378219008446, -0.23484599590301514, 0.026902448385953903, -0.07093449681997299, -0.14626625180244446, -0.16353866457939148, 0.1872570514678955, -0.14231152832508087, 0.26392415165901184},
	{0.0036577254068106413, 0.2843817174434662, -0.012825352139770985, 0.1310162991285324, -0.09611525386571884, 0.02147369645535946, -0.10360676795244217, 0.28063732385635376, -0.0629291832447052, -0.02115144394338131, -0.1197047308087349, -0.12009576708078384, 0.2767868936061859},
	{-0.17703285813331604, 0.23500406742095947, 0.1635838747024536, -0.03573216125369072, 0.18346507847309113, 0.22545784711837769, -0.10285717993974686, -0.1575252115726471, -0.16975916922092438, -0.09269507229328156, -0.3361428380012512, -0.13587412238121033, 0.21719032526016235},
	{-0.054743748158216476, -0.3507864475250244, 0.07833387702703476, 0.021176384761929512, 0.2643813192844391, 0.31243380904197693, 0.14501607418060303, 0.006928153336048126, 0.14505355060100555, 0.10681848973035812, -0.17520564794540405, 0.06033453345298767, -0.08227524161338806},
	{0.11963111907243729, -0.36205437779426575, -0.08597768843173981, 0.2580885589122772, -0.1275348663330078, 0.23795680701732635, 0.1787872612476349, 0.1627533882856369, 0.017426984384655952, 0.09899850189685822, 0.08698615431785583, -0.14864328503608704, -0.23643271625041962},
	{0.011384690180420876, 0.21016278862953186, 0.1864752620458603, -0.09690173715353012, -0.04839852452278137, 0.061446964740753174, 0.16621945798397064, -0.34761643409729004, -0.21839174628257751, -0.10713615268468857, 0.0187919270247221, 0.2026994228363037, -0.09486805647611618},
	{-0.0668359100818634, -0.08836831897497177, 0.3306578993797302, -0.06148279830813408, 0.012079582549631596, -0.06718138605356216, -0.14191007614135742, 0.2629961371421814, -0.033054418861866, -0.04157043248414993, -0.11741321533918381, 0.2881779372692108, -0.42183488607406616},
	{-0.022017892450094223, -0.21354463696479797, -0.0638715997338295, -0.025850269943475723, -0.05618248134851456, -0.03548719733953476, -0.08914405107498169, 0.3812066316604614, -0.20637047290802002, -0.15776464343070984, 0.14836812019348145, 0.20272211730480194, -0.1385914534330368},
	{0.25576719641685486, -0.3960082232952118, 0.28948405385017395, -0.09798917919397354, 0.02164315991103649, -0.01984620839357376, 0.19130849838256836, -0.2380681335926056, 0.162919819355011, 0.052510395646095276, -0.05741454288363457, -0.2583640515804291, -0.2714856266975403},
	{-0.0850243791937828, 0.026523137465119362, -0.04999998211860657, 0.011709824204444885, -0.2874082624912262, 0.15749600529670715, 0.1960325837135315, 0.12073768675327301, 0.3006807267665863, -0.1924896538257599, 0.26006558537483215, 0.1310604065656662, -0.2255234569311142},
	{0.018075745552778244, -0.09575676172971725, -0.07956484705209732, 0.15878111124038696, -0.1082364171743393, -0.25943657755851746, -0.06321693956851959, -0.3312247097492218, 0.21633359789848328, -0.3766205310821533, 0.12858499586582184, 0.12307225912809372, 0.1788802295923233},
	{-0.04404987767338753, -0.27398523688316345, 0.25006377696990967, -0.056612588465213776, -0.07050633430480957, -0.22815196216106415, 0.2552104890346527, -0.25520092248916626, -0.2891230881214142, -0.19140826165676117, -0.2150728702545166, -0.019975915551185608, -0.18488159775733948},
	{0.1837865114212036, 0.07388871163129807, 0.29168468713760376, 0.17280587553977966, -0.44352832436561584, 0.02635490894317627, -0.1813974827528, 0.07778806984424591, 0.026865897700190544, 0.42527735233306885, -0.06843073666095734, -0.1291027069091797, -0.1885843276977539},
	{-0.05415874347090721, 0.3414411246776581, -0.1180596873164177, -0.3016507625579834, -0.34289857745170593, -0.010730918496847153, -0.07747437059879303, -0.013197082094848156, 0.07907427102327347, 0.03673992678523064, -0.03906159847974777, 0.2385871559381485, 0.2277366667985916},
	{0.2607290744781494, -0.08763118833303452, 0.08009036630392075, 0.29301348328590393, 0.32545843720436096, -0.16295665502548218, 0.13210570812225342, 0.19932422041893005, -0.21955759823322296, 0.08154544234275818, 0.06777854263782501, -0.07592956721782684, -0.19702060520648956},
	{0.1356196254491806, 0.1160454973578453, 0.05274954065680504, 0.12291809916496277, -0.19175757467746735, -0.12730887532234192, 0.181754469871521, -0.0470789410173893, -0.08157330006361008, 0.23889657855033875, 0.07082206755876541, 0.2763269543647766, -0.13007532060146332},
	{0.1644260734319687, 0.12149302661418915, -0.18711726367473602, 0.08497563004493713, -0.059488993138074875, 0.1600515991449356, 0.09580780565738678, 0.004431146662682295, -0.21544696390628815, 0.2917928397655487, 0.27492550015449524, -0.20263583958148956, -0.25876280665397644},
	{0.06938773393630981, 0.06969421356916428, -0.2072206437587738, 0.25885099172592163, 0.15336857736110687, -0.14276030659675598, -0.2291499525308609, 0.1486975997686386, -0.31471073627471924, 0.38049277663230896, -0.11085479706525803, 0.07269930839538574, -0.09216080605983734},
	{0.07506360858678818, 0.04101825878024101, -0.11434252560138702, -0.12103184312582016, 0.1701861023902893, -0.12207188457250595, -0.4164464771747589, 0.21227511763572693, -0.27457985281944275, 0.13702358305454254, -0.12739728391170502, -0.09663353860378265, 0.05748271942138672},
	{0.2509315609931946, -0.13203327357769012, -0.10547330230474472, 0.008705507032573223, -0.1877516657114029, -0.1141541600227356, 0.2548576593399048, 0.2146124690771103, 0.12971946597099304, -0.04546383395791054, -0.20363688468933105, -0.04779127612709999, -0.19605909287929535},
	{0.03397613763809204, -0.1788473278284073, -0.17189326882362366, -0.03787441924214363, 0.19753290712833405, -0.016312407329678535, -0.1845797896385193, 0.3661904036998749, -0.1759130209684372, -0.21585965156555176, 0.09371344745159149, -0.18382327258586884, 0.12344493716955185},
	{-0.2172720730304718, -0.17267747223377228, 0.05388270691037178, 0.23915217816829681, -0.1118621975183487, -0.17715534567832947, -0.15450912714004517, -0.1259841024875641, 0.12551267445087433, -0.05796312913298607, -0.08782186359167099, 0.03051859512925148, 0.14143310487270355},
	{-0.1948091685771942, 0.040821731090545654, -0.062159568071365356, -0.11222104728221893, -0.2540973722934723, -0.26063284277915955, -0.20746996998786926, -0.24851685762405396, 0.03381067514419556, 0.18300926685333252, -0.15781918168067932, 0.009338438510894775, -0.23764902353286743},
	{-0.12874610722064972, 0.2841207981109619, 0.2833698093891144, 0.04624384269118309, -0.17973504960536957, -0.12904144823551178, -0.047093942761421204, -0.11942072212696075, -0.034691404551267624, 0.23902392387390137, 0.0011828908463940024, -0.20205512642860413, -0.08718086779117584},
	{-0.09780345857143402, 0.12343965470790863, 0.23135581612586975, -0.10415948182344437, 0.05917920917272568, -0.2620745003223419, 0.11842121183872223, -0.054589733481407166, 0.2884460985660553, -0.020446255803108215, 0.27953213453292847, 0.22485069930553436, 0.08765171468257904},
	{0.03721807897090912, 0.23078300058841705, -0.24131102859973907, 0.1896219253540039, 0.0857299268245697, 0.23457622528076172, -0.2530498802661896, 0.04449867829680443, -0.33138659596443176, -0.15601477026939392, -0.17540302872657776, -0.24631929397583008, 0.002353225601837039},
	{0.13750503957271576, 0.29820868372917175, -0.10764911025762558, -0.07285866886377335, 0.07990039139986038, 0.2452661693096161, 0.06679694354534149, 0.18700271844863892, -0.0770474374294281, 0.09967591613531113, -0.06639350205659866, -0.1401621252298355, -0.07038088142871857},
	{-0.29464149475097656, 0.04694630205631256, 0.07400144636631012, 0.311786413192749, -0.26960909366607666, 0.06035726144909859, -0.05034260079264641, -0.27882859110832214, 0.22022131085395813, -0.17588858306407928, -0.013000234961509705, 0.035346247255802155, 0.0815773606300354},
	{-0.15636910498142242, 0.22739340364933014, 0.083583302795887, -0.029104968532919884, -0.103680819272995, 0.04595959931612015, 0.1555151641368866, -0.03003443032503128, 0.1040092259645462, -0.012021866627037525, 0.08156013488769531, 0.12385419011116028, 0.10210027545690536},
	{-0.12996454536914825, -0.21285781264305115, -0.3771708309650421, 0.19971120357513428, 0.14413127303123474, 0.1047673299908638, -0.2634289264678955, -0.3600512742996216, -0.07912063598632812, 0.05795089155435562, -0.00909700058400631, -0.04209291934967041, 0.2797625958919525},
	{-0.2004212737083435, -0.234506756067276, -0.13224463164806366, 0.20093214511871338, -0.03545592725276947, -0.15962372720241547, -0.0761759951710701, -0.11851075291633606, 0.07873956114053726, -0.27144479751586914, -0.04473630711436272, -0.20089176297187805, -0.10443241894245148},
	{-0.06880968809127808, -0.008520415984094143, 0.03981027379631996, -0.19736526906490326, -0.1091020256280899, 0.07952789962291718, 0.09300614148378372, -0.18194279074668884, 0.23525448143482208, 0.048065315932035446, 0.20379650592803955, 0.07758084684610367, 0.23363268375396729},
	{0.13938872516155243, -0.17596875131130219, 0.2238541692495346, 0.11887355148792267, 0.1652589738368988, 0.11401806771755219, -0.2581806778907776, 0.1952928900718689, -0.20030713081359863, -0.08596722781658173, -0.28929534554481506, 0.0855860561132431, -0.1682959645986557},
	{-0.14129649102687836, -0.021508967503905296, -0.2776075601577759, 0.3094659745693207, -0.07496731728315353, 0.11343362182378769, -0.042161937803030014, 0.1812075972557068, 0.2359032779932022, -0.03542878478765488, 0.05726978927850723, -0.06953364610671997, -0.2029060423374176},
	{0.14710725843906403, 0.020675696432590485, -0.25512197613716125, 0.15506303310394287, 0.10007887333631516, 0.15850646793842316, 0.21957650780677795, -0.26408955454826355, -0.3984423279762268, 0.03272482380270958, -0.08093013614416122, 0.1671382039785385, -0.17494934797286987},
	{-0.11822105199098587, -0.10423215478658676, -0.29784566164016724, 0.22562821209430695, -0.0064296964555978775, -0.2135808765888214, -0.0030492928344756365, 0.005435468629002571, -0.1563434898853302, 0.05211186408996582, -0.094993457198143, 0.13449139893054962, -0.0490959957242012},
	{-0.058371420949697495, 0.062388934195041656, 0.039727527648210526, -0.21895718574523926, -0.08401688188314438, 0.03691529110074043, 0.2609674036502838, -0.2819031774997711, -0.003858598880469799, -0.12165764719247818, -0.15268287062644958, -0.124559186398983, 0.22558823227882385},
	{-0.2674844264984131, 0.11080223321914673, -0.2704905867576599, -0.2843071520328522, 0.316755473613739, 0.05478088930249214, -0.20094026625156403, -0.12687399983406067, 0.11506219953298569, 0.0999646931886673, 0.2493707835674286, -0.10511451959609985, 0.16967055201530457},
	{0.2590848207473755, -0.19089588522911072, 0.16166235506534576, 0.004586057271808386, -0.28423693776130676, 0.20921555161476135, 0.11114311963319778, 0.08413251489400864, 0.2716399133205414, -0.32665255665779114, 0.1834389865398407, 0.12621080875396729, 0.17551162838935852},
	{-0.18199439346790314, -0.02096177637577057, -0.08563541620969772, -0.07681604474782944, 0.05879805237054825, 0.2035319060087204, -0.08621618896722794, 0.19189764559268951, 0.014702316373586655, 0.057488568127155304, 0.10558115690946579, 0.2133863866329193, 0.1405031532049179},
	{0.1704152673482895, -0.013837473466992378, 0.1144082099199295, -0.08877231925725937, 0.03675273060798645, -0.16970503330230713, -0.07385844737291336, 0.21448250114917755, 0.05955177918076515, 0.16760127246379852, 0.01985979825258255, -0.04059052839875221, 0.26343464851379395},
	{0.25081801414489746, 0.1330314427614212, 0.1752290278673172, -0.13793106377124786, -0.08604985475540161, -0.1270471215248108, 0.2078905999660492, -0.2471524477005005, -0.07065600156784058, 0.023653216660022736, -0.26213276386260986, 0.13810914754867554, 0.24137036502361298},
	{0.3266012966632843, -0.293609619140625, 0.18916764855384827, 0.10004185140132904, -0.04574013501405716, 0.14195893704891205, 0.010305901058018208, 0.20401771366596222, -0.0844619870185852, -0.06303166598081589, 0.058550987392663956, -0.020619388669729233, -0.20544037222862244},
	{-0.028072694316506386, -0.22283032536506653, 0.12122175097465515, 0.12137816846370697, -0.1751350462436676, -0.030954796820878983, 0.1067880168557167, 0.08905185759067535, 0.019206086173653603, -0.18960388004779816, 0.19388291239738464, -0.1601242572069168, -0.2034219205379486},
	{0.045432090759277344, -0.1316777914762497, -0.17706939578056335, 0.2315582036972046, 0.1386694312095642, 0.31000077724456787, 0.12897129356861115, 0.26164448261260986, 0.1743917018175125, 0.383217990398407, 0.11894002556800842, 0.014845297671854496, -0.2514936327934265},
	{0.01978813298046589, 0.1570928394794464, -0.30523401498794556, -0.31761470437049866, 0.1082717701792717, -0.24390889704227448, 0.24608880281448364, -0.050243306905031204, -0.06007276475429535, -0.5007376670837402, 0.127206951379776, 0.019222810864448547, 0.2041773945093155},
	{0.08745184540748596, -0.03231467679142952, 0.09405366331338882, 0.057362381368875504, -0.041417453438043594, -0.16977906227111816, -0.1774469017982483, 0.048272572457790375, 0.04757329076528549, -0.24717256426811218, 0.02905648946762085, 0.23938415944576263, -0.005885337013751268},
	{0.2568177580833435, -0.02102435752749443, 0.11202956736087799, -0.09711908549070358, 0.16382761299610138, 0.22805197536945343, 0.16988295316696167, -0.003182149725034833, -0.24299851059913635, 0.010407593101263046, -0.1244787946343422, -0.20469267666339874, -0.03903888911008835},
	{-0.025163695216178894, -0.38775745034217834, -0.19684454798698425, -0.04558197408914566, -0.13194289803504944, 0.042577214539051056, 0.16531187295913696, 0.178726464509964, -0.06401511281728745, 0.11723855137825012, -0.06303304433822632, 0.17785198986530304, 0.2741010785102844},
	{0.20406574010849, -0.17874716222286224, 0.20681925117969513, 0.011831399984657764, -0.06323175877332687, 0.08548238128423691, -0.12111296504735947, -0.1010734885931015, 0.11771532893180847, 0.022290537133812904, -0.016750728711485863, -0.25276583433151245, 0.2586106061935425},
	{-0.09735752642154694, 0.23668286204338074, -0.13923151791095734, 0.051049862056970596, 0.2086953967809677, -0.2888668179512024, 0.18490271270275116, -0.24356934428215027, 0.12104073166847229, 0.014107149094343185, -0.07730508595705032, -0.2564193904399872, 0.09423493593931198},
	{-0.21365271508693695, 0.2325485646724701, -0.20686732232570648, 0.05163481831550598, -0.023344606161117554, -0.052080705761909485, -0.07002098858356476, 0.031321436166763306, 0.20282593369483948, -0.2784155011177063, 0.22030937671661377, -0.16979314386844635, 0.0015959441661834717},
	{-0.17816859483718872, 0.23836027085781097, -0.21800164878368378, -0.17481762170791626, -0.030053768306970596, 0.02687663957476616, 0.1448417454957962, -0.1311776340007782, 0.07013668864965439, 0.007447371259331703, 0.0940409004688263, -0.12241736054420471, 0.3413763642311096},
	{-0.091848224401474, 0.1745290756225586, -0.06649690866470337, 0.027452616021037102, -0.2564776539802551, 0.1750304251909256, 0.11924795061349869, -0.15578414499759674, 0.18214575946331024, 0.2563435435295105, 0.17008009552955627, -0.10653164237737656, -0.04511813074350357},
	{0.1337636560201645, 0.08285747468471527, 0.15832778811454773, 0.15773622691631317, -0.07713466137647629, 0.04957062005996704, -0.007584935985505581, -0.13843543827533722, 0.021328365430235863, 0.16602571308612823, 0.12237369269132614, 0.23212386667728424, -0.11555526405572891},
	{-0.10735897719860077, -0.18750333786010742, 0.14018139243125916, 0.13254278898239136, -0.02871161699295044, 0.06698209047317505, -0.23468166589736938, -0.1938713788986206, -0.08206155896186829, -0.2409832775592804, 0.22882500290870667, -0.1814574897289276, -0.2593236565589905},
	{-0.2628120183944702, -0.0044908300042152405, -0.25791868567466736, 0.2984762489795685, -0.015533885918557644, -0.2024005502462387, -0.0796022117137909, 0.007239774335175753, -0.13646408915519714, 0.16415272653102875, 0.028872855007648468, -0.1282627433538437, 0.21374879777431488},
	{-0.26683035492897034, 0.23612439632415771, -0.228777676820755, 0.10206908732652664, 0.1445143222808838, 0.026332246139645576, -0.21489597856998444, 0.025589874014258385, 0.16659097373485565, 0.23209334909915924, -0.10615275055170059, -0.19777226448059082, -0.02005849964916706},
	{0.21746347844600677, -0.08058372139930725, -0.17285682260990143, 0.1633421778678894, -0.012500571087002754, 0.002187577076256275, -0.1701410710811615, -0.152513787150383, 0.18418867886066437, -0.10637078434228897, 0.3033428192138672, -0.2750258147716522, 0.1462366282939911},
};
const float bias_l1[] =
	{-0.03109806962311268, 0.026657987385988235, 0.02681795507669449, -0.053923338651657104, 0.061005961149930954, 0.05445074290037155, 0.013680133037269115, -0.049117863178253174, 0.04204513132572174, 0.061021558940410614, 0.02579537406563759, -0.07873979955911636, -0.04545512795448303, 0.006491407286375761, 0.013200701214373112, -0.012243586592376232, -0.013423558324575424, 0.030757585540413857, -0.04171626642346382, 0.06957028806209564, 0.04426587373018265, 0.06952430307865143, 0.042972464114427567, 0.04263685643672943, 0.061263326555490494, 0.02318895049393177, -0.006959194783121347, 0.0, 0.005371431820094585, -0.02040991559624672, -0.007984002120792866, 0.02818404510617256, -0.003887960221618414, 0.028962796553969383, -0.01976286619901657, -0.027846379205584526, 0.03247740492224693, 0.034994084388017654, -0.009311054833233356, -0.02419372648000717, 0.033828698098659515, -0.04254579544067383, 0.1059907078742981, -0.028182895854115486, -0.017770977690815926, 0.0008767335675656796, 0.01766674779355526, 0.0035942986141890287, -0.0004588676383718848, 0.03347884118556976, -0.023024117574095726, 0.0016124437097460032, 0.038324035704135895, -0.02146949991583824, 0.01037628948688507, -0.02351129800081253, 0.0, 0.012079753912985325, 0.014738449826836586, 0.010657861828804016, 0.0, -0.017009494826197624, -0.006001215893775225, 0.04678530618548393};

const std::vector<std::vector<float>> weights_l2{
	{0.2098812311887741, -0.16640973091125488, 0.2096361368894577, 0.05571784824132919, -0.11402253806591034, -0.07654210180044174, 0.21007463335990906, 0.1397392600774765, 0.21289891004562378, -0.39017197489738464, 0.1485660970211029, -0.17920571565628052, -0.04792514443397522, 0.15784792602062225, -0.16944530606269836, 0.34431329369544983, 0.15350233018398285, -0.21890154480934143, 0.05111311376094818, -0.4238753020763397, -0.10972536355257034, -0.29199808835983276, 0.13138359785079956, -0.23588447272777557, -0.339780330657959, -0.36836862564086914, -0.2041565179824829, 0.08101969957351685, 0.026075005531311035, -0.14935165643692017, 0.021346261724829674, 0.0030590526293963194, -0.09881807863712311, 0.16753849387168884, 0.025470754131674767, 0.17963320016860962, 0.1789388805627823, -0.22001928091049194, -0.03642379865050316, 0.07613854110240936, -0.12138322740793228, 0.05513507127761841, -0.38240641355514526, -0.038990844041109085, 0.24548204243183136, -0.028430933132767677, -0.180550217628479, 0.13942568004131317, 0.23262517154216766, -0.005272204056382179, -0.09715298563241959, -0.17015457153320312, -0.033802032470703125, 0.25040969252586365, -0.046570029109716415, -0.006580876652151346, -0.1083458662033081, 0.10945647954940796, -0.17466606199741364, -0.02653493359684944, 0.11109256744384766, -0.039767272770404816, -0.17964182794094086, -0.15193438529968262},
	{-0.036240577697753906, 0.04134941101074219, -0.20013171434402466, -0.1518964171409607, 0.03332686424255371, -0.07212436199188232, -0.15303748846054077, 0.1621686816215515, 0.17598038911819458, 0.16975975036621094, -0.18598872423171997, 0.23982197046279907, -0.22664594650268555, -0.025546252727508545, -0.11113500595092773, 0.13884109258651733, 0.19391393661499023, -0.031176388263702393, 0.1584872007369995, -0.24161863327026367, -0.08735251426696777, -0.2329820990562439, -0.16489392518997192, -0.07234054803848267, -0.0028783679008483887, -0.12946206331253052, -0.16470789909362793, 0.008410394191741943, -0.07772505283355713, -0.17208904027938843, -0.09095948934555054, 0.2106238603591919, 0.11143803596496582, -0.0935065746307373, 0.15270644426345825, 0.18940389156341553, 0.002675175666809082, 0.06918704509735107, -0.20947688817977905, -0.113517165184021, 0.061867713928222656, -0.079292893409729, 0.18939965963363647, -0.19919556379318237, 0.10186487436294556, 0.08050990104675293, -0.24468284845352173, -0.1523309350013733, -0.23441410064697266, 0.017445683479309082, -0.23813676834106445, -0.09195494651794434, 0.0751299262046814, 0.21005713939666748, -0.042930543422698975, 0.06001514196395874, 0.14474350214004517, -0.012383043766021729, 0.004764080047607422, -0.22938430309295654, 0.12549597024917603, -0.04769539833068848, 0.00019812583923339844, 0.09855049848556519},
	{0.12023021280765533, -0.40098318457603455, -0.08924122899770737, 0.45303404331207275, -0.20080573856830597, -0.08277284353971481, -0.06789800524711609, -0.18453975021839142, 0.2857266366481781, -0.10940348356962204, -0.04627782851457596, -0.33693888783454895, -0.023951968178153038, 0.3272421658039093, 0.2888830602169037, -0.03221820294857025, -0.12416291236877441, -0.041999924927949905, -0.30801430344581604, 0.25166022777557373, -0.046672750264406204, 0.09024664014577866, -0.3375043272972107, -0.5516418218612671, 0.041256219148635864, 0.0066899508237838745, 0.1588701456785202, -0.20273423194885254, 0.11816181987524033, -0.3691931366920471, -0.2205151468515396, -0.029188023880124092, -0.1096944510936737, -0.13155630230903625, -0.09230662137269974, -0.1499013751745224, -0.07549101114273071, -0.11404279619455338, 0.2186146080493927, -0.12374968826770782, -0.00787969958037138, -0.23115219175815582, 0.47913858294487, -0.011815217323601246, 0.01394964661449194, -0.0904856026172638, -0.015404587611556053, 0.10124508291482925, 0.18344971537590027, 0.11590714752674103, 0.17912253737449646, -0.06554017961025238, 0.22095373272895813, -0.1953904926776886, 0.19808362424373627, -0.20272161066532135, -0.11149561405181885, 0.13520382344722748, 0.07925951480865479, 0.1411748230457306, -0.168268620967865, 0.006758691277354956, 0.10760849714279175, 0.03646358847618103},
	{0.0036606884095817804, -0.3058791756629944, 0.014198620803654194, 0.16184589266777039, -0.47555026412010193, -0.2525014579296112, -0.24748067557811737, -0.05690177157521248, 0.24815620481967926, -0.0780128687620163, 0.1708936095237732, -0.3790610730648041, -0.08272784948348999, 0.01931578479707241, 0.02230055443942547, 0.10978469997644424, 0.13000288605690002, -0.16349266469478607, -0.23156043887138367, 0.28665971755981445, -0.0042883302085101604, 0.009327745996415615, -0.11902273446321487, -0.41479164361953735, 0.11268827319145203, 0.04948541522026062, -0.030783768743276596, -0.23627150058746338, -0.27096885442733765, -0.040428292006254196, 0.17699000239372253, 0.24846968054771423, 0.3012810945510864, 0.08657944202423096, -0.06693408638238907, 0.059814538806676865, 0.22881707549095154, 0.31834739446640015, 0.21084310114383698, -0.2021152675151825, 0.13223916292190552, -0.1874990463256836, 0.34557193517684937, 0.11154477298259735, 0.008677748031914234, -0.15482854843139648, -0.00022364099277183414, 0.230597585439682, -0.09635669738054276, 0.0654124841094017, -0.12559643387794495, -0.0245851781219244, 0.08157005906105042, 0.1391134113073349, -0.12952952086925507, 0.03876033425331116, 0.16814637184143066, -0.25256240367889404, 0.2920179069042206, 0.10781674832105637, -0.053804099559783936, 0.17847202718257904, -0.09058558940887451, -0.07647489011287689},
	{-0.10727154463529587, 0.2779046297073364, 0.005335683934390545, -0.22381693124771118, 0.45625245571136475, -0.02660825103521347, -0.10536571592092514, -0.1674531102180481, 0.20838485658168793, -0.15566544234752655, 0.031989358365535736, 0.2528533637523651, 0.09862963855266571, 0.07652977854013443, 0.031884171068668365, -0.2837633788585663, -0.06284224987030029, -0.1567658931016922, -0.0338749997317791, 0.33842822909355164, 0.08036567270755768, 0.2823576033115387, 0.1607610136270523, -0.4806682765483856, -0.13897782564163208, -0.672675371170044, 0.02868746779859066, -0.033146023750305176, 0.21244221925735474, 0.04168494790792465, -0.3347151279449463, 0.2829342186450958, -0.12181597948074341, -0.029560457915067673, -0.36532342433929443, 0.0971810519695282, 0.009486975148320198, 0.2700060307979584, 0.05233987048268318, 0.20600594580173492, -0.08296564966440201, -0.29288041591644287, -0.074378602206707, -0.06218189001083374, 0.1620977818965912, -0.15641042590141296, -0.13508714735507965, -0.1614145189523697, -0.1753353625535965, 0.2475988119840622, -0.4835037887096405, -0.02126060239970684, 0.1623898595571518, -0.23915992677211761, -0.1309642493724823, 0.06169319152832031, -0.060089111328125, -0.22010649740695953, -0.17497266829013824, -0.08152049779891968, 0.2288767695426941, -0.19249244034290314, -0.04482966661453247, -0.20307277143001556},
	{-0.18267789483070374, -0.03147327899932861, -0.15335553884506226, 0.14514589309692383, -0.21856456995010376, -0.08260685950517654, 0.14381812512874603, -0.20488882064819336, 0.2212306261062622, -0.16266193985939026, -0.18175429105758667, 0.10668706893920898, -0.24442803859710693, 0.19747453927993774, -0.08835116028785706, 0.08604539930820465, 0.22596228122711182, -0.2142585963010788, -0.11894863843917847, 0.19802720844745636, -0.1900375634431839, 0.1422557532787323, -0.200056791305542, 0.011732697486877441, 0.144522562623024, 0.04992859810590744, 0.08672799915075302, 0.06146383285522461, -0.20742040872573853, -0.018610060214996338, -0.16909247636795044, -0.24887993931770325, 0.16441386938095093, -0.19159787893295288, -0.14147137105464935, 0.05458150804042816, -0.14467954635620117, -0.20430436730384827, -0.028610069304704666, -0.08438534289598465, 0.1724793016910553, 0.12529510259628296, 0.047940075397491455, -0.05645549297332764, -0.028360307216644287, -0.18148010969161987, -0.18749770522117615, 0.05940929800271988, -0.20212556421756744, 0.1620946079492569, 0.21722716093063354, 0.2359442114830017, 0.18394312262535095, -0.21977448463439941, 0.09845537692308426, -0.10398995876312256, -0.09829401969909668, 0.12311232089996338, 0.05275994539260864, 0.11706551909446716, -0.16974496841430664, 0.16705374419689178, 0.08341491222381592, -0.11140748113393784},
	{-0.25173255801200867, -0.2762112021446228, 0.23334650695323944, -0.10456424951553345, -0.05981884151697159, -0.2913817763328552, 0.09787033498287201, 0.07450255006551743, 0.0906769186258316, 0.2789541780948639, -0.18647781014442444, -0.07805993407964706, -0.08313949406147003, 0.24992477893829346, -0.1119142696261406, -0.03928520157933235, -0.23630891740322113, 0.33698412775993347, 0.033374279737472534, 0.2206925004720688, 0.13789284229278564, 0.024735214188694954, 0.25351235270500183, 0.2145927995443344, 0.15478003025054932, 0.05976397544145584, -0.23933754861354828, 0.24980562925338745, -0.015911784023046494, 0.03519834205508232, 0.02761264331638813, 0.13169825077056885, -0.09917467832565308, 0.16626349091529846, 0.17073170840740204, 0.23651139438152313, -0.11582701653242111, 0.18029090762138367, -0.11548960208892822, 0.04809918999671936, 0.03818381205201149, -0.20653094351291656, -0.357757568359375, 0.05801619961857796, 0.021127182990312576, 0.04671140015125275, -0.042359381914138794, 0.2841825485229492, 0.10203828662633896, 0.25909003615379333, -0.20240193605422974, 0.05053750053048134, 0.05175205320119858, -0.1396462321281433, 0.23873519897460938, -0.09659301489591599, 0.0840919017791748, -0.07941322028636932, -0.15555746853351593, 0.00039298093179240823, -0.2310250997543335, 0.20794954895973206, 0.028027355670928955, 0.17887285351753235},
	{0.18710261583328247, 0.3663637936115265, 0.20150324702262878, -0.2923833429813385, 0.22661806643009186, 0.2775455117225647, -0.03540993481874466, 0.14358466863632202, -0.13258439302444458, -0.2411171942949295, -0.09555350244045258, 0.2670258581638336, 0.3518770635128021, -0.31727609038352966, 0.035933416336774826, 0.15681171417236328, 0.06768425554037094, 0.12133555859327316, 0.2305900901556015, -0.028920214623212814, 0.07211989909410477, -0.05003738030791283, -0.11487466096878052, 0.530919075012207, -0.1791260540485382, -0.13147825002670288, 0.04619337245821953, 0.17382001876831055, 0.014620432630181313, 0.20888537168502808, 0.2287444919347763, 0.042800530791282654, -0.24493125081062317, 0.04868544638156891, 0.23505651950836182, 0.18634414672851562, -0.055411938577890396, -0.30325767397880554, -0.008584808558225632, 0.1879923939704895, -0.2129030078649521, 0.2879469096660614, -0.4760393798351288, 0.21292749047279358, 0.12922023236751556, -0.14884419739246368, -0.21088501811027527, -0.11613063514232635, -0.2411932647228241, 0.016200285404920578, -0.005658977199345827, 0.06500189751386642, -0.06864599883556366, 0.06641591340303421, -0.1832818239927292, 0.11722332239151001, 0.08020287752151489, 0.19788716733455658, -0.09917757660150528, 0.22112388908863068, 0.0029011964797973633, 0.22708241641521454, 0.20248101651668549, 0.1706496775150299},
	{0.03796791285276413, 0.0619342066347599, 0.10153340548276901, 0.18259410560131073, -0.32302677631378174, 0.09675027430057526, 0.13897281885147095, 0.2894735038280487, 0.18953143060207367, 0.026051366701722145, 0.1634736955165863, -0.0902450755238533, -0.055969033390283585, 0.1461840569972992, 0.15971551835536957, -0.28754669427871704, -0.008950739167630672, -0.2794695198535919, -0.1864742934703827, -0.1122431680560112, -0.20490042865276337, -0.27518314123153687, -0.07815828174352646, -0.07054566591978073, 0.08524905890226364, 0.3354429006576538, -0.26385003328323364, 0.20808351039886475, -0.23442398011684418, -0.07755012065172195, 0.2545916438102722, 0.19752776622772217, -0.16276328265666962, 0.05889828875660896, 0.07458259165287018, -0.16441217064857483, -0.015558697283267975, 0.02033941261470318, -0.19255895912647247, 0.11632032692432404, -0.09405123442411423, 0.0578150749206543, 0.546901285648346, -0.1885376274585724, 0.26037850975990295, 0.13533581793308258, -0.027775874361395836, -0.0970081016421318, -0.005537296645343304, 0.1940283477306366, -0.24025177955627441, 0.06953021138906479, 0.1514078974723816, -0.11226370930671692, -0.10246925801038742, 0.13512101769447327, 0.04549747705459595, 0.19439424574375153, 0.3279561698436737, 0.10254596918821335, 0.017531514167785645, -0.10650932788848877, -0.09696072340011597, 0.1933269202709198},
	{-0.21460255980491638, -0.11739595234394073, 0.15412186086177826, 0.11693160235881805, -0.21186339855194092, -0.09468699246644974, 0.04423582926392555, -0.328158438205719, 0.13801299035549164, 0.24395865201950073, -0.17670127749443054, -0.26166313886642456, -0.4351367950439453, 0.09263299405574799, 0.1628190129995346, -0.3590531051158905, -0.19468992948532104, -0.36581310629844666, -0.1056467816233635, 0.006886250805109739, -0.15319648385047913, -0.6165066361427307, -0.23220275342464447, -0.33970919251441956, -0.17364926636219025, 0.10734540224075317, 0.023522157222032547, 0.11358404159545898, -0.17930863797664642, 0.003444149624556303, -0.3602563738822937, -0.0804256722331047, 0.11305337399244308, 0.21647875010967255, -0.26342329382896423, -0.11918044090270996, 0.09586108475923538, 0.03653770312666893, 0.09126300364732742, -0.23037083446979523, 0.08940325677394867, -0.17016753554344177, 0.2309146523475647, -0.1095631793141365, -0.09487820416688919, 0.17544879019260406, -0.05551459640264511, -0.06954581290483475, -0.009075568057596684, -0.07168956845998764, -0.16939368844032288, 0.16410063207149506, -0.007356314919888973, 0.17951154708862305, 0.11765388399362564, 0.16147202253341675, 0.17554807662963867, 0.04263460636138916, 0.32470738887786865, 0.20206090807914734, -0.1984807848930359, 0.03250197693705559, 0.05219221115112305, -0.034642815589904785},
	{0.10787979513406754, 0.09112872183322906, 0.11633196473121643, -0.14409755170345306, -0.09823620319366455, -0.18486328423023224, -0.08584202826023102, 0.02988787740468979, -0.038782574236392975, 0.1340661644935608, -0.19392099976539612, -0.251396507024765, 0.23369312286376953, 0.09447980672121048, 0.12377553433179855, 0.05069030076265335, 0.11928340047597885, -0.2253084033727646, 0.020938176661729813, 0.07831845432519913, 0.14800487458705902, 0.2343602180480957, -0.231075257062912, 0.19268572330474854, -0.14334310591220856, 0.13920344412326813, -0.22814276814460754, 0.1536666750907898, -0.24155545234680176, 0.21277391910552979, 0.08449403196573257, -0.15792644023895264, -0.23375189304351807, -0.24193145334720612, 0.1294487565755844, -0.08615565299987793, -0.10898615419864655, 0.04343464598059654, -0.20107394456863403, 0.1601453423500061, -0.1996597796678543, 0.06718352437019348, -0.24161618947982788, -0.22849048674106598, 0.10059857368469238, 0.11472482979297638, -0.0244368314743042, -0.20319105684757233, -0.08396965265274048, -0.23272739350795746, -0.1863100528717041, -0.05914625898003578, 0.11721514165401459, 0.13966016471385956, -0.22489644587039948, 0.1472567617893219, 0.04941028356552124, -0.09635978192090988, 0.21828366816043854, -0.08809160441160202, 0.2153785228729248, 0.12781524658203125, -0.20849478244781494, 0.23141080141067505},
	{-0.09952714294195175, 0.043242309242486954, -0.20190225541591644, -0.4286143183708191, 0.08560831844806671, -0.1210101768374443, 0.14183272421360016, -0.03548181429505348, 0.2016596645116806, 0.17576296627521515, 0.04218309372663498, 0.3306385576725006, 0.3193484842777252, -0.030838657170534134, 0.07279413193464279, 0.22982552647590637, 0.21448251605033875, 0.10346069931983948, 0.05416810140013695, -0.04573586955666542, -0.04029183089733124, 0.13423259556293488, -0.07814303785562515, -0.09899307787418365, -0.07967698574066162, -0.43280836939811707, -0.2588883638381958, -0.04119974374771118, -0.011080334894359112, 0.13240261375904083, 0.1899913102388382, -0.03764213249087334, -0.06675475835800171, 0.2982756495475769, -0.19969360530376434, -0.11371567845344543, -0.0882803425192833, -0.20935793220996857, -0.028377365320920944, -0.04947884380817413, -0.25104308128356934, 0.3128814697265625, -0.35357239842414856, -0.1552961766719818, 0.05671100690960884, 0.18582309782505035, 0.09310053288936615, 0.2380330115556717, -0.32079386711120605, 0.1532452255487442, 0.2640526294708252, 0.051297493278980255, 0.10109664499759674, 0.03118075244128704, -0.17680206894874573, 0.24085097014904022, 0.1281130313873291, 0.14438530802726746, 0.022075576707720757, 0.2761751115322113, -0.15074610710144043, -0.15799640119075775, -0.14245885610580444, -0.05217133089900017},
	{0.09945137053728104, 0.07278947532176971, 0.10730338096618652, 0.016579747200012207, -0.01412193663418293, -0.30285733938217163, 0.05102407932281494, 0.2262512445449829, -0.04605378955602646, -0.2537120580673218, 0.11806874722242355, -0.2638019621372223, 0.07903832942247391, -0.14578822255134583, -0.015106488019227982, -0.0962756872177124, 0.06211203336715698, -0.026853742077946663, 0.2192016988992691, -0.34767502546310425, -0.025432169437408447, 0.178676575422287, -0.2858923077583313, -0.34430545568466187, 0.09072542190551758, 0.21928395330905914, -0.12093619257211685, 0.2128811478614807, -0.16518568992614746, 0.16976679861545563, -0.05763200670480728, -0.13026435673236847, 0.04424116387963295, 0.07035352289676666, -0.04768140986561775, 0.20998412370681763, 0.049637578427791595, 0.09059785306453705, -0.20796626806259155, -0.1673673540353775, 0.08443479984998703, 0.15703175961971283, 0.18664662539958954, -0.08095505088567734, 0.16034680604934692, -0.1707335114479065, 0.027478007599711418, -0.2487548589706421, -0.052371084690093994, 0.09428722411394119, -0.1485123187303543, 0.0686924010515213, -0.27616098523139954, 0.07971629500389099, -0.10474485158920288, 0.22863399982452393, 0.06554633378982544, 0.1521739959716797, 0.11110865324735641, -0.022993270307779312, 0.1118541955947876, 0.25303754210472107, -0.08474899083375931, -0.17383062839508057},
	{-0.12372288107872009, -0.059852685779333115, 0.20645904541015625, 0.22811800241470337, -0.07181984931230545, 0.09673445671796799, -0.2900722622871399, 0.14169517159461975, 0.07991182804107666, 0.22328223288059235, 0.02215573377907276, -0.21339663863182068, 0.11611954867839813, -0.083846814930439, -0.09756629168987274, -0.005794884636998177, 0.1266472041606903, 0.3359834551811218, 0.07684025168418884, 0.051608674228191376, -0.0025347433984279633, -0.0081209447234869, -0.16491326689720154, -0.23503494262695312, 0.24858513474464417, 0.09478968381881714, 0.23482435941696167, -0.13120359182357788, -0.04134957492351532, -0.15283599495887756, -0.17442946135997772, 0.09370327740907669, 0.15074671804904938, 0.1876678764820099, -0.32287317514419556, 0.2380746603012085, 0.1424279361963272, 0.23197172582149506, 0.08642341941595078, 0.02217893861234188, -0.0019318171544000506, -0.34346306324005127, -0.030067766085267067, 0.09331649541854858, 0.2226511389017105, -0.03630034998059273, -0.16428954899311066, -0.006355696823447943, 0.037268172949552536, 0.24935688078403473, 0.0705862045288086, 0.045873481780290604, 0.04896680265665054, 0.1839551031589508, 0.0021005263552069664, 0.006492036394774914, -0.212011456489563, -0.05497021973133087, 0.04864637926220894, -0.14589621126651764, -0.1763266921043396, 0.21508954465389252, -0.10185990482568741, -0.1681700199842453},
	{-0.14926287531852722, -0.014730923809111118, 0.0564662329852581, 0.17362545430660248, -0.23873330652713776, 0.1278112828731537, -0.17770549654960632, 0.19844773411750793, 0.054507095366716385, 0.21309779584407806, -0.12404798716306686, -0.1484992802143097, -0.11299441754817963, -0.13962936401367188, -0.1410389244556427, -0.017767388373613358, -0.14678138494491577, 0.13741999864578247, -0.24879275262355804, 0.1848338395357132, -0.2260325402021408, 0.0734579786658287, -0.2297198325395584, -0.039061445742845535, -0.10440101474523544, 0.02764529548585415, 0.18082529306411743, 0.10850173234939575, 0.07231758534908295, 0.09212438762187958, -0.16044911742210388, 0.08355037868022919, 0.16193652153015137, -0.2995511293411255, -0.3130863606929779, 0.12501202523708344, 0.06994405388832092, 0.04406740516424179, 0.2510652244091034, 0.161726176738739, 0.17377233505249023, 0.02461811900138855, 0.0665317177772522, 0.16810287535190582, -0.2485904097557068, 0.1445968896150589, 0.006321122404187918, 0.0930926725268364, 0.09386231005191803, -0.13560160994529724, -0.09136272221803665, -0.0449705608189106, 0.2137243151664734, -0.11362560093402863, 0.14847058057785034, 0.22838997840881348, 0.23250705003738403, -0.025262244045734406, 0.3412122428417206, -0.023047680035233498, -0.12562161684036255, 0.08841720223426819, -0.031051620841026306, -0.2368464171886444},
	{-0.04199029877781868, -0.09814195334911346, 0.18507535755634308, 0.05094178020954132, -0.26748210191726685, -0.1952175796031952, 0.19438068568706512, -0.20264403522014618, -0.08474167436361313, 0.15784461796283722, -0.1940351128578186, -0.28295597434043884, -0.2549704313278198, 0.14579728245735168, -0.15575306117534637, -0.23441918194293976, 0.16071203351020813, -0.08356517553329468, 0.11962388455867767, 0.1247987300157547, 0.041124142706394196, -0.30630579590797424, -0.29875949025154114, -0.5162508487701416, 0.24838459491729736, 0.2378537505865097, -0.13495327532291412, -0.004321634769439697, -0.20047439634799957, 0.0550328753888607, 0.016470976173877716, 0.10134771466255188, -0.11515287309885025, -0.29231780767440796, -0.3603728413581848, 0.11212485283613205, 0.015496909618377686, -0.04360806569457054, 0.21836069226264954, -0.013992397114634514, 0.08961047977209091, 0.0746844932436943, -0.046655066311359406, -0.05515115708112717, -0.1741642951965332, 0.08059413731098175, 0.07753781974315643, 0.07202872633934021, -0.14103370904922485, 0.275276780128479, -0.2976790964603424, 0.2419373244047165, 0.047660183161497116, 0.11650010198354721, -0.21487469971179962, 0.17457889020442963, 0.153844952583313, -0.14303410053253174, -0.0359102264046669, 0.1306774765253067, -0.191253662109375, 0.07320862263441086, 0.07947957515716553, -0.2546845078468323},
	{-0.1415311098098755, -0.051373958587646484, -0.18057358264923096, 0.0617297887802124, 0.17268633842468262, -0.24742382764816284, -0.1669478416442871, -0.20565342903137207, 0.10526067018508911, -0.129644513130188, 0.0018575191497802734, 0.11569905281066895, -0.23880690336227417, -0.23602038621902466, -0.0646016001701355, 0.1133156418800354, -0.1305028796195984, 0.12288773059844971, -0.15573275089263916, -0.1618221402168274, 0.21176087856292725, -0.10378646850585938, 0.058123648166656494, -0.24237263202667236, 0.24528288841247559, 0.1622505784034729, -0.15304505825042725, -0.17324531078338623, -0.15265685319900513, -0.001304328441619873, -0.023713767528533936, -0.0060918331146240234, 0.19247758388519287, 0.22976988554000854, 0.1443852186203003, -0.21616023778915405, -0.17217206954956055, -0.04549133777618408, -0.17894643545150757, -0.14582455158233643, 0.14392608404159546, 0.07915711402893066, -0.11822766065597534, -0.05299133062362671, -0.03252255916595459, -0.24602144956588745, -0.15259605646133423, -0.10436743497848511, -0.017230451107025146, 0.07104378938674927, -0.15681606531143188, 0.10280013084411621, -0.15931349992752075, -0.03446096181869507, -0.03661376237869263, 0.21284598112106323, 0.20121854543685913, -0.03260993957519531, 0.016615748405456543, -0.10726499557495117, 0.2084774374961853, -0.21054953336715698, 0.22532254457473755, 0.0773724913597107},
	{-0.10528954863548279, -0.18536826968193054, 0.02644851803779602, 0.07759987562894821, 0.29737380146980286, 0.08725446462631226, -0.2429516315460205, 0.125885471701622, -0.16123495995998383, 0.1634352207183838, 0.259768009185791, -0.026249783113598824, 0.14248019456863403, 0.19464635848999023, 0.20762109756469727, 0.1330774575471878, 0.22966572642326355, -0.01015485543757677, 0.25807610154151917, 0.15323279798030853, 0.1785801351070404, 0.21651871502399445, -0.13825015723705292, -0.291460782289505, 0.21312786638736725, -0.18767201900482178, 0.06432522088289261, 0.2251768708229065, 0.08902487903833389, -0.17736193537712097, -0.177154079079628, -0.1264192759990692, 0.19804345071315765, -0.14564186334609985, -0.0941038727760315, 0.16543114185333252, -0.2155161201953888, 0.14841347932815552, 0.16608162224292755, 0.184239462018013, -0.2181987464427948, 0.08811154961585999, -0.08380937576293945, 0.15265516936779022, -0.1352877914905548, -0.21608753502368927, -0.10985555499792099, -0.026093650609254837, -0.2606741487979889, 0.1585979163646698, -0.415385365486145, 0.24252259731292725, 0.09785211086273193, -0.2616249620914459, -0.019405391067266464, -0.12545058131217957, -0.2380537986755371, -0.005933333653956652, -0.2503030002117157, 0.006144763436168432, 0.1421757936477661, 0.003662235103547573, -0.09851926565170288, -0.16220347583293915},
	{0.06905658543109894, 0.16949230432510376, -0.09122681617736816, 0.33791258931159973, -0.09668935835361481, 0.1974823772907257, 0.2048151195049286, 0.0031193408649414778, 0.0772969201207161, -0.1110619455575943, -0.07649347931146622, 0.13503658771514893, -0.26581254601478577, 0.21500690281391144, 0.05535237863659859, 0.07665906846523285, 0.008120862767100334, -0.1376333087682724, -0.2147933542728424, 0.17561018466949463, -0.024188365787267685, -0.14840058982372284, 0.033132247626781464, -0.032042909413576126, 0.23768119513988495, -0.05966528505086899, -0.16726303100585938, -0.12499356269836426, -0.058807622641325, -0.01631944254040718, -0.04682272672653198, -0.11001341789960861, 0.1873905509710312, 0.21180500090122223, 0.07726635038852692, -0.20671653747558594, 0.2659294903278351, 0.08458713442087173, 0.17078329622745514, -0.26968154311180115, 0.1158231645822525, 0.33151260018348694, 0.1084558293223381, 0.15487173199653625, -0.10019297152757645, 0.16963590681552887, -0.18972988426685333, -0.2075696736574173, -0.07911865413188934, 0.14326052367687225, -0.11586521565914154, -0.08194354921579361, 0.10031668841838837, 0.14269860088825226, -0.17894911766052246, 0.16035766899585724, -0.16316205263137817, 0.16711732745170593, 0.1037769466638565, 0.05315270647406578, -0.1409662961959839, -0.17150664329528809, 0.05319249629974365, 0.20925858616828918},
	{-0.22430092096328735, -0.2916405200958252, 0.22949837148189545, 0.0213173720985651, -0.18982943892478943, 0.02925819903612137, -0.22551532089710236, 0.030540231615304947, 0.2186804562807083, 0.24182546138763428, -0.023475857451558113, -0.02057446911931038, -0.4491131901741028, 0.001230363268405199, 0.18581710755825043, -0.24164056777954102, -0.15779335796833038, -0.24631367623806, 0.22091726958751678, 0.13008001446723938, 0.24067184329032898, -0.031076500192284584, -0.07963194698095322, -0.12591712176799774, 0.06258997321128845, 0.1871870458126068, 0.09650548547506332, 0.071563720703125, 0.08588449656963348, 0.08367633074522018, -0.30128851532936096, -0.18681322038173676, 0.16991877555847168, 0.1835198551416397, -0.2328740656375885, -0.04899156093597412, -0.010534429922699928, 0.023590361699461937, 0.15338686108589172, -0.18823283910751343, 0.048498447984457016, -0.3452679514884949, -0.04900695011019707, -0.1421075463294983, -0.024129308760166168, 0.05905710905790329, 0.12829147279262543, -0.13920263946056366, -0.2000882476568222, -0.05635234713554382, 0.104154571890831, 0.28743836283683777, 0.14743252098560333, 0.17330069839954376, -0.2183225452899933, 0.04348170757293701, -0.0260850191116333, 0.025763461366295815, 0.2505134642124176, 0.10024118423461914, -0.21142292022705078, -0.0848240926861763, 0.13131049275398254, -0.09763945639133453},
	{0.13956224918365479, -0.18945527076721191, 0.02580677717924118, 0.062352605164051056, 0.007404143922030926, -0.1197914183139801, -0.10179617255926132, -0.12918879091739655, 0.033211734145879745, 0.11923900246620178, 0.011158069595694542, 0.07611322402954102, 0.00919633824378252, -0.10825299471616745, -0.19202791154384613, 0.2597634792327881, -0.02400508150458336, 0.18671438097953796, -0.15545232594013214, 0.21852421760559082, -0.04240601509809494, -0.05527450516819954, 0.1914188712835312, -0.12420691549777985, -0.11809331178665161, 0.03933946043252945, -0.035441476851701736, -0.11746728420257568, 0.15002818405628204, -0.19098976254463196, -0.09221138805150986, 0.18514926731586456, 0.201238214969635, -0.0887954905629158, 0.08809098601341248, 0.218769833445549, 0.10809417068958282, 0.20579631626605988, 0.22476516664028168, 0.0018870625644922256, 0.007150682620704174, 0.18585801124572754, 0.015629323199391365, 0.23018841445446014, 0.09491391479969025, 0.1007031798362732, 0.1111408919095993, 0.21430402994155884, -0.11324135959148407, -0.0435381717979908, 0.17313355207443237, 0.25464051961898804, 0.006785213015973568, 0.12588724493980408, 0.0723978653550148, 0.20246197283267975, -0.03405708074569702, -0.07483445852994919, 0.19027291238307953, -0.1868768036365509, -0.19008946418762207, -0.22519825398921967, -0.12710034847259521, 0.10351484268903732},
	{-0.1440167874097824, 0.03717191517353058, 0.14732743799686432, -0.21532031893730164, -0.2105947881937027, -0.16193760931491852, -0.1100936010479927, -0.15856719017028809, -0.15438850224018097, -0.12364806979894638, 0.002347477711737156, -0.3680293560028076, -0.3094370365142822, 0.12389933317899704, 0.26015761494636536, -0.1589478701353073, 0.03940718621015549, -0.11830209940671921, -0.1464422047138214, 0.09330248087644577, 0.24147634208202362, 0.08553781360387802, -0.04367576166987419, 0.22093842923641205, -0.313762903213501, -0.0939045175909996, -0.11559855192899704, -0.029661715030670166, -0.015156583860516548, 0.10850615799427032, -0.08904366195201874, -0.11423682421445847, 0.24741590023040771, -0.18893255293369293, -0.29505959153175354, 0.05155685171484947, 0.07026099413633347, 0.30810821056365967, -0.17344409227371216, 0.010294316336512566, 0.2890717387199402, -0.13749615848064423, 0.013598030433058739, 0.117560476064682, 0.24637611210346222, -0.24714460968971252, 0.1974448412656784, -0.085358627140522, 0.2782067656517029, 0.2690403163433075, -0.027729138731956482, 0.2592468559741974, -0.14818787574768066, 0.029481273144483566, 0.005122622940689325, 0.16593368351459503, 0.10696375370025635, -0.0893908441066742, 0.34801924228668213, 0.28028857707977295, 0.14115041494369507, 0.20453979074954987, 0.0927736759185791, -0.19997906684875488},
	{-0.13438069820404053, -0.06661977618932724, 0.11967135220766068, 0.1427433341741562, -0.20459681749343872, -0.17616575956344604, -0.1665184497833252, 0.0883152186870575, 0.13221992552280426, 0.0873282253742218, 0.23269733786582947, -0.3307265341281891, 0.03871878236532211, 0.3259110152721405, 0.12155875563621521, -0.050918541848659515, -0.14114731550216675, 0.09942036867141724, -0.019876476377248764, 0.0011022849939763546, -0.01989099755883217, -0.2576586604118347, -0.18219254910945892, 0.15104326605796814, 0.14599473774433136, -0.1735585778951645, -0.11425018310546875, -0.10218262672424316, 0.19426901638507843, 0.022809728980064392, -0.05851030722260475, 0.1676519364118576, 0.0806785374879837, -0.09921672195196152, -0.2022419571876526, -0.11584317684173584, -0.10709261894226074, -0.0825447216629982, -0.0746985599398613, 0.16170838475227356, 0.02169102430343628, -0.4417113959789276, 0.016999846324324608, -0.06744181364774704, -0.20231473445892334, 0.19769345223903656, -0.010076811537146568, 0.2851302921772003, -0.13477447628974915, -0.1698310673236847, -0.4740382730960846, 0.1353268176317215, 0.12220507115125656, -0.028960291296243668, -0.01393002551048994, -0.030596746131777763, 0.0011758208274841309, -0.5045425891876221, 0.1860317885875702, 0.23712195456027985, 0.0839729905128479, -0.10231389105319977, -0.15432578325271606, -0.16138216853141785},
	{-0.054691605269908905, -0.207367405295372, 0.23906730115413666, -0.03325549140572548, -0.23543287813663483, -0.09328199923038483, -0.06416074931621552, 0.20093263685703278, -0.2152784913778305, 0.17443817853927612, -0.13865630328655243, -0.17408466339111328, -0.18955141305923462, -0.06198984012007713, 0.008751239627599716, 0.15599913895130157, 0.08828854560852051, 0.03299376368522644, 0.031968653202056885, 0.11053997278213501, 0.05398629233241081, 0.1960611492395401, 0.23614558577537537, 0.2320157289505005, -0.22822049260139465, -0.031198425218462944, 0.16421587765216827, -0.2220894694328308, 0.19580772519111633, -0.22354356944561005, -0.008349423296749592, 0.17773555219173431, -0.08336369693279266, 0.02632586844265461, 0.0376264788210392, -0.04289928823709488, -0.04559251293540001, -0.17936094105243683, 0.0678592249751091, 0.06605283915996552, -0.22731077671051025, 0.15199986100196838, -0.06897604465484619, 0.06561336666345596, 0.033632807433605194, 0.06847076117992401, 0.005194122437387705, -0.24891643226146698, -0.14048713445663452, -0.03386976942420006, 0.055007610470056534, -0.10294552147388458, -0.1919761300086975, -0.09435515105724335, -0.21834871172904968, 0.19260816276073456, 0.1715722680091858, -0.10618670284748077, 0.04575269669294357, -0.0429920069873333, -0.008804798126220703, -0.09050784260034561, -0.21074843406677246, -0.17323091626167297},
	{-0.007335081696510315, -0.04424409195780754, 0.028568390756845474, -0.29929259419441223, -0.09144198894500732, 0.0127987926825881, 0.07771579921245575, 0.1616797000169754, -0.03488968685269356, 0.2400745302438736, -0.1274287849664688, 0.32858413457870483, 0.15553933382034302, 0.2120877206325531, -0.028208784759044647, -0.030831219628453255, 0.05840606614947319, 0.1141454353928566, 0.22587718069553375, -0.24493469297885895, 0.004701236728578806, -0.28269171714782715, 0.09860538691282272, -0.2177949994802475, 0.10623577982187271, 0.13457097113132477, 0.006708827801048756, 0.10325300693511963, -0.2456369400024414, 0.16112007200717926, 0.1968415379524231, -0.1429470330476761, -0.16027502715587616, -0.06617175787687302, -0.03200647979974747, 0.05975314974784851, 0.2441026121377945, 0.03761103004217148, -0.2785927951335907, 0.20122875273227692, -0.21532361209392548, -0.12937988340854645, -0.02469250187277794, 0.24116960167884827, -0.15318897366523743, 0.20334309339523315, -0.17322571575641632, -0.23635773360729218, 0.11488580703735352, 0.1996174454689026, -0.17914001643657684, -0.2537326514720917, 0.1453578770160675, 0.23914869129657745, -0.07242073118686676, -0.07505017518997192, -0.06460529565811157, 0.24850602447986603, -0.349212646484375, 0.2004951387643814, -0.09719949960708618, -0.0016151671297848225, -0.13955388963222504, 0.1672249585390091},
	{0.13602013885974884, -0.11438968777656555, 0.20421873033046722, -0.1620432585477829, -0.036945853382349014, 0.13322535157203674, 0.07351017743349075, 0.08330941200256348, 0.08956741541624069, -0.1933690905570984, 0.27903881669044495, -0.14955851435661316, 0.25915825366973877, 0.08483368903398514, -0.1252007782459259, 0.15012116730213165, 0.2341526299715042, 0.08531547337770462, -0.13396532833576202, 0.09639149159193039, 0.03184588998556137, -0.0952756479382515, 0.14925946295261383, 0.025478390976786613, 0.24987655878067017, -0.25373101234436035, 0.10195036232471466, -0.1809348464012146, 0.1641906201839447, 0.1241774633526802, 0.04798988252878189, 0.07268232852220535, 0.25071150064468384, 0.10666551440954208, -0.05231329798698425, 0.05867499113082886, 0.15683476626873016, -0.04211201146245003, 0.11395687609910965, 0.009694584645330906, -0.06898634880781174, -0.146360382437706, -0.46971428394317627, 0.26175522804260254, 0.21858946979045868, -0.2391587495803833, -0.03989045321941376, 0.19277450442314148, 0.11369699984788895, 0.19510161876678467, -0.12141481786966324, -0.17569217085838318, 0.22370325028896332, -0.031262319535017014, 0.01778835617005825, -0.08265858143568039, -0.18083512783050537, -0.010173777118325233, -0.0160658061504364, -0.12947198748588562, 0.11381244659423828, 0.16457654535770416, -0.040301721543073654, -0.0357910618185997},
	{0.015379291027784348, -0.17993894219398499, 0.02554587833583355, -0.15517935156822205, 0.21407246589660645, 0.04808709770441055, -0.21542800962924957, -0.08508303016424179, -0.07629770785570145, -0.13969621062278748, -0.033570896834135056, 0.035691022872924805, 0.10119003057479858, 0.14445380866527557, 0.018859928473830223, 0.03857537731528282, 0.20907092094421387, -0.1767335832118988, -0.009646412916481495, -0.20959998667240143, 0.28208252787590027, -0.05814468115568161, -0.15429745614528656, -0.22192922234535217, -0.11533467471599579, 0.005343462340533733, -0.2033693790435791, 0.14872723817825317, 0.06380563974380493, 0.22660622000694275, -0.19477933645248413, -0.25745561718940735, -0.1808180958032608, 0.07508592307567596, 0.01973722316324711, 0.0228918194770813, 0.2556815445423126, -0.2758108675479889, -0.04540050029754639, 0.19229647517204285, 0.16459788382053375, -0.23320089280605316, -0.023628031834959984, -0.12319882959127426, 0.12575267255306244, -0.15299957990646362, -0.0010372172109782696, -0.040403176099061966, 0.21099787950515747, -0.08485692739486694, -0.04927720129489899, 0.052986279129981995, -0.15187719464302063, 0.12951765954494476, -0.1271166056394577, -0.23962900042533875, -0.13364773988723755, -0.18177011609077454, 0.03821447864174843, -0.1279166042804718, 0.21397680044174194, 0.10110548883676529, -0.028596818447113037, -0.03969229385256767},
	{0.14405278861522675, 0.2381194829940796, -0.1296103149652481, -0.21101516485214233, -0.1865372210741043, -0.020249711349606514, 0.09073296189308167, -0.23407331109046936, -0.07475119829177856, 0.1993495225906372, 0.21485455334186554, 0.07379359006881714, 0.2412571907043457, -0.17343497276306152, 0.19513854384422302, -0.11801058053970337, 0.07014846801757812, -0.15691328048706055, -0.03248671442270279, 0.002565897535532713, 0.15382026135921478, 0.17565500736236572, 0.08622930943965912, 0.18800389766693115, 0.17252308130264282, 0.027422010898590088, 0.02210867404937744, -0.09906411170959473, -0.04303208366036415, -0.06921704113483429, -0.03410027548670769, -0.02594423107802868, 0.17230618000030518, -0.0030938279815018177, -0.22736454010009766, 0.1014356017112732, -0.11038411408662796, -0.10704263299703598, -0.08120936155319214, -0.15006163716316223, -0.10535001754760742, -0.18845456838607788, -0.06676137447357178, -0.23051731288433075, 0.11856874078512192, -0.13129203021526337, 0.1187191754579544, -0.25629952549934387, -0.1469782590866089, 0.08739419281482697, -0.14356541633605957, 0.22165405750274658, 0.09518355131149292, -0.1183968335390091, 0.13540321588516235, -0.0948234498500824, -0.005128383636474609, 0.13722237944602966, 0.09911084175109863, -0.2243320196866989, 0.06545406579971313, 0.09959191083908081, 0.17660611867904663, -0.19924598932266235},
	{0.19832341372966766, 0.08574465662240982, -0.09234967082738876, 0.14328555762767792, -0.19348447024822235, -0.18844673037528992, 0.11164429038763046, 0.06219116970896721, -0.1935805231332779, 0.05390331521630287, -0.053809113800525665, -0.17322708666324615, -0.006460904143750668, 0.03873271867632866, -0.06766854971647263, 0.006686368491500616, 0.06829631328582764, 0.22408436238765717, 0.03639525920152664, 0.09415438771247864, 0.004062977619469166, 0.19593383371829987, -0.044013191014528275, -0.11237217485904694, -0.03588739037513733, -0.04767667129635811, 0.17477035522460938, 0.18495237827301025, 0.18834346532821655, -0.049733683466911316, -0.1537533700466156, 0.19959016144275665, 0.22458849847316742, -0.13582871854305267, 0.1615278571844101, -0.22208991646766663, -0.24165934324264526, 0.11623763293027878, 0.030621539801359177, 0.19467569887638092, 0.05542345717549324, -0.15231285989284515, -0.11080099642276764, -0.1922849714756012, 0.161384716629982, -0.16997668147087097, 0.05152092128992081, 0.008577605709433556, 0.17265644669532776, -0.1023019328713417, 0.071390300989151, 0.15095847845077515, -0.19010348618030548, 0.07393422722816467, -0.1114271804690361, -0.09088193625211716, -0.0030465126037597656, -0.1719103902578354, -0.29052865505218506, -0.12650927901268005, 0.23825693130493164, 0.015107886865735054, 0.11196473985910416, 0.1390082985162735},
	{-0.13172109425067902, 0.09283313155174255, 0.18223358690738678, 0.15524940192699432, 0.40213897824287415, -0.0301938708871603, 0.15804274380207062, 0.23668219149112701, 0.13259513676166534, 0.07200198620557785, -0.04647379368543625, -0.05882546305656433, 0.3273659646511078, -0.24343754351139069, 0.09162935614585876, -0.20037339627742767, -0.07050782442092896, -0.11104533076286316, -0.19495899975299835, -0.08893034607172012, -0.08037664741277695, -0.04883110523223877, -0.09291915595531464, 0.18066146969795227, -0.12709765136241913, -0.20709306001663208, 0.0011967628961429, -0.1693171262741089, -0.030636131763458252, -0.20237964391708374, -0.0389452762901783, 0.26704171299934387, -0.007699816953390837, 0.027181977406144142, 0.1632060557603836, -0.028419554233551025, -0.19157439470291138, -0.12792296707630157, -0.015362240374088287, -0.26651448011398315, 0.1029614806175232, -0.22749589383602142, 0.031795255839824677, -0.043388742953538895, 0.23301032185554504, 0.061045438051223755, -0.2700226306915283, 0.1244957447052002, -0.12420300394296646, -0.012931108474731445, -0.06585375964641571, 0.305198609828949, 0.024050485342741013, 0.10644649714231491, 0.13559456169605255, -0.20217831432819366, 0.06488651037216187, -0.1848006546497345, -0.014114177785813808, -0.060181982815265656, 0.13799023628234863, 0.17744150757789612, 0.15991537272930145, -0.1696072816848755},
	{0.2570180594921112, 0.2755308449268341, 0.18914949893951416, 0.14166079461574554, 0.20389233529567719, 0.14985361695289612, -0.039963092654943466, 0.17519313097000122, 0.18514952063560486, 0.15142349898815155, 0.04484102874994278, 0.1459178328514099, 0.39162230491638184, -0.21184605360031128, -0.03969961777329445, -0.07045924663543701, -0.23692218959331512, -0.23788432776927948, 0.1409718096256256, 0.0495135597884655, 0.1657034158706665, 0.1623857468366623, -0.0657387524843216, 0.16020792722702026, 0.26539188623428345, 0.011098633520305157, -0.2632748484611511, 0.022015154361724854, -0.013965247198939323, 0.00745359156280756, -0.20970965921878815, 0.058858223259449005, -0.17842049896717072, 0.020205475389957428, 0.19456243515014648, -0.24200475215911865, 0.20298269391059875, 0.04291558638215065, -0.03059815801680088, 0.22239471971988678, -0.1568431705236435, 0.19416724145412445, -0.1840895414352417, -0.181539848446846, -0.16777974367141724, 0.17821823060512543, -0.15828363597393036, 0.19814203679561615, -0.10184141993522644, -0.012886437587440014, 0.19972489774227142, -0.2202247977256775, 0.2366187423467636, -0.0731683298945427, 0.02218402735888958, 0.052826546132564545, 0.14467978477478027, 0.3368323743343353, 0.04620591551065445, 0.0748225748538971, 0.035943686962127686, 0.06880135089159012, -0.20584377646446228, 0.24870680272579193},
	{-0.1683146059513092, 0.08312147110700607, 0.08543778955936432, 0.028613610193133354, 0.15111538767814636, -0.22115027904510498, -0.26026687026023865, -0.053442832082509995, -0.10300969332456589, 0.162669837474823, 0.2663494050502777, 0.14479336142539978, 0.38352271914482117, -0.14036019146442413, 0.094127357006073, -0.17051514983177185, -0.14638304710388184, 0.21267163753509521, 0.23548421263694763, -0.21535512804985046, -0.06359802186489105, 0.38861918449401855, 0.15203166007995605, 0.11931400001049042, -0.1382117122411728, -0.08185731619596481, -0.32108423113822937, 0.09863996505737305, 0.0906958281993866, -0.1933932602405548, 0.061906225979328156, 0.18417516350746155, -0.30888423323631287, 0.2080855816602707, 0.33554768562316895, -0.03916399925947189, 0.045524079352617264, 0.2348925620317459, -0.3273363411426544, 0.28638702630996704, -0.061587147414684296, -0.1694437563419342, -0.2737928032875061, 0.10911460220813751, 0.04637884348630905, 0.19228029251098633, -0.022037962451577187, 0.18398819863796234, 0.0538901649415493, 0.18115992844104767, -0.27543550729751587, -0.1929459422826767, 0.1711413562297821, -0.20443008840084076, -0.010824761353433132, -0.24540086090564728, -0.11631244421005249, -0.20884311199188232, 0.08136173337697983, -0.046181097626686096, -0.14885085821151733, -0.29616957902908325, 0.05409663915634155, 0.22407832741737366},
};
const float bias_l2[] =
	{-0.05277073010802269, 0.0, 0.04717503488063812, 0.049498118460178375, -0.010480995289981365, -0.005641300696879625, 0.033164750784635544, -0.032275788486003876, 0.056862395256757736, 0.06414369493722916, -0.008063158020377159, -0.03675297647714615, 0.017596671357750893, 0.009648884646594524, -0.011572347022593021, 0.018312325701117516, 0.0, -0.0018305998528376222, -0.009311401285231113, 0.032540276646614075, 0.006270875222980976, 0.03443002700805664, 0.034847442060709, -0.010237123817205429, 0.031087815761566162, 0.03447423875331879, 0.026845473796129227, -0.01755182258784771, -0.013831696473062038, 0.004445601254701614, -0.007063303608447313, 0.059300944209098816};

const std::vector<std::vector<float>> weights_l3{
	{-0.38496890664100647, -0.17319320142269135, 0.19822171330451965, 0.11717657744884491, -0.013316829688847065, 0.1173149049282074, -0.2922379970550537, -0.35301387310028076, 0.40689146518707275, 0.39598724246025085, -0.181405171751976, -0.07026533037424088, 0.47947442531585693, 0.06826337426900864, 0.010307944379746914, -0.16184408962726593, 0.07798650860786438, -0.16883327066898346, 0.39212775230407715, 0.13472706079483032, -0.29425185918807983, 0.3929426074028015, 0.14633001387119293, -0.18549467623233795, 0.31270402669906616, -0.13383974134922028, -0.002542282920330763, 0.2092403620481491, -0.13348691165447235, 0.3916468918323517, 0.006968972738832235, -0.2375647872686386},
	{0.2615412473678589, -0.19115297496318817, -0.2517251968383789, -0.140035942196846, 0.17970408499240875, -0.3262292444705963, 0.34057530760765076, 0.2135496884584427, 0.07394473254680634, -0.07952246069908142, -0.29593563079833984, 0.17025455832481384, 0.2910778522491455, 0.22004170715808868, -0.3524613380432129, -0.02381656877696514, 0.1048966646194458, 0.1912902146577835, -0.11645129323005676, 0.03500083088874817, 0.30722519755363464, -0.2714100778102875, -0.3065411150455475, -0.08238127082586288, 0.2588402032852173, 0.2543058395385742, 0.09091594815254211, -0.25580596923828125, 0.1600555181503296, -0.3306148052215576, 0.28941282629966736, 0.12334435433149338},
	{-0.2813967168331146, 0.19110271334648132, 0.1465078890323639, 0.22132423520088196, 0.0693180188536644, 0.27782586216926575, -0.2619379758834839, -0.008530853316187859, 0.37460044026374817, 0.4075775742530823, 0.11528515815734863, -0.34866049885749817, -0.1978914588689804, -0.17589277029037476, -0.21038255095481873, 0.3993232846260071, -0.15398022532463074, 0.08755572885274887, 0.18538358807563782, -0.004303402733057737, -0.1755567193031311, -0.00840687658637762, 0.31713584065437317, 0.23195290565490723, 0.12261654436588287, -0.04826640337705612, 0.30855217576026917, -0.0060096425004303455, -0.06180253624916077, 0.284416139125824, 0.10118094831705093, -0.3442161977291107},
	{-0.0028251574840396643, -0.17195534706115723, -0.37925824522972107, -0.35987329483032227, 0.5012071132659912, 0.018831850960850716, 0.09686475992202759, 0.3868052065372467, -0.3015728294849396, -0.11300782859325409, 0.00350151932798326, 0.4144341051578522, 0.029493015259504318, 0.18545334041118622, 0.026870474219322205, -0.1434086412191391, 0.1679493486881256, 0.28719788789749146, 0.02779279462993145, -0.27370312809944153, 0.11011964082717896, -0.36186492443084717, -0.30104681849479675, -0.32840484380722046, 0.1960383802652359, 0.22015151381492615, -0.2858821153640747, -0.020304517820477486, -0.2717936635017395, -0.11181622743606567, 0.08009860664606094, 0.3186950981616974},
	{-0.4928238093852997, -0.07108277082443237, 0.5088448524475098, 0.3031403720378876, -0.35032641887664795, 0.15056827664375305, 0.3620532155036926, -0.4112938642501831, 0.06344041973352432, 0.5402055382728577, 0.08203920722007751, -0.35953980684280396, 0.35361048579216003, 0.24906839430332184, 0.2198200672864914, 0.3795836567878723, 0.22469362616539001, -0.10371961444616318, -0.3282586634159088, 0.3909108638763428, 0.19414184987545013, 0.24839727580547333, 0.4647925794124603, 0.080473892390728, -0.005438674706965685, 0.197477325797081, 0.5105933547019958, 0.24589265882968903, 0.07998490333557129, 0.24731308221817017, -0.15781675279140472, 0.3504384458065033},
	{0.3045506179332733, -0.1294025331735611, -0.08073879778385162, -0.17153047025203705, -0.06404870003461838, 0.0807771235704422, 0.2539656460285187, -0.2111436426639557, -0.0982891395688057, -0.37739524245262146, -0.24998125433921814, 0.10952083766460419, 0.041292667388916016, 0.21259096264839172, 0.08402203768491745, -0.17029236257076263, -0.22871863842010498, -0.027864592149853706, -0.012611357495188713, -0.1133987158536911, 0.10124645382165909, 0.12104058265686035, 0.15488560497760773, 0.3535896837711334, 0.004384403582662344, -0.06476345658302307, -0.1463911384344101, -0.285293310880661, 0.0257415734231472, 0.17500106990337372, 0.048622481524944305, 0.034635864198207855},
	{0.21042920649051666, 0.2882203161716461, 0.21822109818458557, 0.1281963735818863, -0.24664071202278137, 0.02471819519996643, -0.23076596856117249, 0.33635953068733215, -0.18546047806739807, 0.0028606748674064875, 0.024641893804073334, 0.12225211411714554, 0.2990128695964813, -0.30673453211784363, 0.1151089072227478, -0.14440350234508514, -0.10738468170166016, -0.016147557646036148, 0.15850085020065308, 0.12082066386938095, -0.28967419266700745, 0.10642345994710922, -0.23513567447662354, 0.3392163813114166, -0.21961566805839539, -0.3435628116130829, -0.07120447605848312, -0.29527390003204346, -0.27507105469703674, 0.3168448507785797, -0.0816831886768341, 0.0979970172047615},
	{-0.15020357072353363, -0.02190953493118286, -0.10914380848407745, -0.32158687710762024, 0.20263966917991638, -0.04125300049781799, -0.16449962556362152, -0.13473428785800934, 0.22939999401569366, 0.25522008538246155, 0.3434729278087616, -0.24324336647987366, 0.0374576635658741, 0.09618570655584335, 0.3478333652019501, -0.3459269404411316, -0.034007370471954346, 0.21915067732334137, 0.14827512204647064, -0.13016068935394287, 0.13926850259304047, 0.1071898490190506, 0.22769813239574432, 0.06716135144233704, -0.2633518576622009, -0.05774988234043121, 0.017337709665298462, -0.2120504081249237, 0.09050127118825912, 0.07901706546545029, -0.2682238221168518, -0.18984454870224},
	{-0.2530251741409302, -0.03471222519874573, 0.2734837234020233, -0.4536290466785431, -0.19020973145961761, -0.2771075963973999, 0.14262625575065613, 0.041564103215932846, -0.25420498847961426, 0.2904664874076843, 0.1422429084777832, -0.10832027345895767, 0.40576067566871643, -0.3069654107093811, -0.33528491854667664, 0.14736922085285187, -0.3121189773082733, -0.10421187430620193, 0.3089846968650818, -0.2621499300003052, -0.25088056921958923, -0.41163334250450134, 0.21570131182670593, -0.16232150793075562, 0.34204450249671936, 0.2086438536643982, 0.08842432498931885, 0.3247426450252533, 0.23078817129135132, -0.2988368272781372, -0.23263143002986908, -0.21800333261489868},
	{0.0795743465423584, -0.2418665885925293, -0.2587791979312897, -0.025777757167816162, -0.347644567489624, 0.08899062871932983, -0.01822531223297119, -0.21161460876464844, 0.34192386269569397, -0.2385644018650055, -0.24279087781906128, -0.24594329297542572, 0.1262449026107788, -0.29478079080581665, -0.2652062475681305, 0.23205676674842834, -0.3267061710357666, -0.12988191843032837, -0.33669766783714294, 0.2081165611743927, -0.2928576171398163, -0.10398073494434357, -0.1624184399843216, -0.30951499938964844, -0.3352571725845337, -0.333109974861145, -0.16741015017032623, 0.31255826354026794, -0.002080202102661133, 0.24014386534690857, 0.2797195017337799, -0.20740817487239838},
	{0.23466670513153076, -0.25216981768608093, 0.2650122344493866, -0.2355281561613083, 0.21292360126972198, -0.23506224155426025, 0.07562553137540817, 0.26819464564323425, -0.3549359440803528, 0.005101531744003296, -0.13030824065208435, -0.20236007869243622, -0.08506491035223007, 0.1867474466562271, -0.12793785333633423, -0.11492615193128586, 0.2507580816745758, -0.049463313072919846, -0.32379716634750366, 0.039710525423288345, -0.20239226520061493, 0.006723512429744005, 0.21040165424346924, 0.1036967933177948, 0.14899073541164398, -0.34784168004989624, 0.1995329111814499, -0.01472263690084219, 0.1458064466714859, 0.267833948135376, 0.21732132136821747, -0.3341570198535919},
	{-0.07265810668468475, -0.3040367364883423, -0.05597490072250366, 0.17794252932071686, 0.44118350744247437, 0.07768657803535461, 0.0618007555603981, 0.28458940982818604, 0.3943915367126465, -0.11433711647987366, 0.2477366179227829, 0.15941570699214935, 0.20737414062023163, -0.21415914595127106, -0.39921045303344727, -0.10593993216753006, 0.19848188757896423, 0.1957312375307083, -0.2915310263633728, -0.2834692597389221, -0.13889122009277344, -0.36212775111198425, -0.2111385464668274, -0.2773357927799225, 0.28147464990615845, -0.06308315694332123, -0.10431922972202301, 0.011005818843841553, 0.04486402869224548, -0.1694321632385254, 0.09097446501255035, 0.3023594319820404},
	{0.10417525470256805, -0.10395318269729614, 0.1439564973115921, -0.02702677994966507, -0.18410849571228027, -0.1446475386619568, -0.3300001621246338, 0.2790559232234955, 0.2140360325574875, 0.23285706341266632, 0.1298394352197647, 0.23314015567302704, -0.10069209337234497, 0.16506409645080566, 0.06039607524871826, -0.185186967253685, 0.11526522040367126, 0.12648795545101166, -0.08464416116476059, 0.13032521307468414, 0.019530877470970154, 0.3272002339363098, -0.3602522909641266, 0.17101192474365234, -0.252069890499115, 0.3634938597679138, 0.3909749388694763, 0.019515104591846466, 0.2708892822265625, 0.2139974981546402, -0.10003572702407837, 0.3425350785255432},
	{-0.23522451519966125, -0.25327008962631226, 0.2021314799785614, -0.058514147996902466, -0.2689099609851837, 0.3199908435344696, 0.16316881775856018, -0.23567312955856323, 0.28501710295677185, -0.2094167321920395, 0.11028945446014404, 0.344863623380661, 0.3234085142612457, -0.351144015789032, -0.208106130361557, 0.01465657353401184, 0.30935338139533997, 0.05244895815849304, 0.21656879782676697, -0.33156344294548035, -0.06621852517127991, 0.011710584163665771, -0.06588402390480042, -0.0487438440322876, -0.2602347135543823, -0.1223391443490982, 0.3090643584728241, -0.34798663854599, 0.042648911476135254, -0.057657212018966675, -0.29166924953460693, 0.25463244318962097},
	{-0.34945037961006165, 0.11958679556846619, -0.00338886515237391, 0.2044537514448166, -0.09133404493331909, 0.2065928876399994, -0.3102562129497528, 0.2608725130558014, -0.3593752086162567, -0.2623629570007324, -0.0855860784649849, 0.2638627290725708, 0.200386181473732, 0.038363296538591385, 0.17639698088169098, -0.07134225219488144, 0.3485119640827179, -0.22268082201480865, -0.030328640714287758, 0.23123221099376678, 0.1502087265253067, -0.28346291184425354, -0.13209716975688934, -0.3530033230781555, -0.1521671861410141, 0.16268253326416016, 0.2833092212677002, -0.2209000587463379, -0.0234421044588089, 0.14892150461673737, -0.30813050270080566, 0.08777763694524765},
	{0.3380809426307678, 0.1964552104473114, -0.19536897540092468, -0.20845559239387512, 0.3036729097366333, -0.21630507707595825, 0.23290115594863892, 0.26794812083244324, -0.18710312247276306, -0.024586528539657593, -0.31336063146591187, -0.027393359690904617, -0.3027019500732422, -0.3113040626049042, 0.09161655604839325, 0.335647851228714, -0.13324472308158875, 0.27667102217674255, -0.32625848054885864, 0.015629678964614868, -0.31028419733047485, -0.22865289449691772, 0.01263340748846531, 0.1784413754940033, 0.178127259016037, -0.34700503945350647, 0.2901632487773895, -0.3196973204612732, 0.31488144397735596, -0.15987546741962433, -0.1931970864534378, 0.21916618943214417},
};
const float bias_l3[] =
	{0.05584446340799332, 0.01336601935327053, 0.04409726709127426, 0.004596304148435593, 0.029650377109646797, 0.02077704668045044, -0.002397707896307111, 0.011291678994894028, 0.008241127245128155, 0.0, -0.009094350971281528, 0.005795810837298632, 0.01610460877418518, 0.0, -0.0026874199975281954, -0.008226532489061356};

const std::vector<std::vector<float>> weights_l4{
	{0.1624910980463028, 0.19538046419620514, -0.1208915188908577, 0.26476386189460754, 0.022755170240998268, 0.28432127833366394, -0.39087027311325073, -0.20077106356620789, 0.48275619745254517, 0.18900203704833984, -0.1971362978219986, 0.0890440121293068, -0.3146195411682129, 0.24939095973968506, 0.22600260376930237, 0.25192272663116455},
	{0.05367815122008324, 0.4736899435520172, 0.8461881279945374, -0.03865703567862511, 0.5902573466300964, -0.37775760889053345, 0.21476805210113525, -0.2507511377334595, -0.5389155149459839, 0.1359041929244995, -0.3657979369163513, -0.7314354777336121, 0.348053514957428, -0.08049929141998291, -0.03335321322083473, -0.43714505434036255},
	{-0.2821357548236847, 0.1517178863286972, -0.36141297221183777, 0.3100297451019287, -0.29163241386413574, 0.399270623922348, -0.24321088194847107, 0.4134606420993805, 0.7407357096672058, -0.05446815490722656, -0.46567216515541077, 0.45925724506378174, 0.20766861736774445, 0.290851354598999, -0.11442858725786209, -0.19679372012615204},
	{-0.40245306491851807, -0.14970701932907104, -0.2607083320617676, -0.1306029111146927, -0.44849103689193726, 0.26522138714790344, 0.27805033326148987, 0.4400057792663574, -0.38626039028167725, -0.17285001277923584, 0.4675217568874359, -0.051473166793584824, 0.2413310706615448, -0.4240978956222534, 0.023678362369537354, -0.12655913829803467},
	{0.3225055932998657, -0.35936975479125977, -0.1200491189956665, 0.1354156732559204, -0.24051785469055176, 0.49824798107147217, 0.2261122465133667, -0.04091358184814453, 0.400898814201355, -0.047447800636291504, -0.010858416557312012, 0.2972813844680786, -0.47484540939331055, 0.47812092304229736, -0.2900885343551636, 0.3773503303527832},
	{-0.4094322919845581, -0.3050476610660553, 0.15750685334205627, -0.17880868911743164, 0.07230205833911896, -0.06163877621293068, 0.04010725021362305, 0.11650204658508301, 0.260012149810791, -0.26638710498809814, 0.12326860427856445, 0.4632594585418701, -0.23886939883232117, -0.3602294921875, -0.14775292575359344, 0.09491622447967529},
	{0.07964659482240677, -0.22821243107318878, 0.6528705954551697, 0.006133133079856634, 0.4016789495944977, -0.04159446060657501, -0.1175067201256752, -0.30757370591163635, -0.24912212789058685, 0.4324021339416504, -0.09427490830421448, -0.28964024782180786, 0.20740610361099243, 0.47372233867645264, 0.4690128564834595, 0.4271089434623718},
	{-0.7316807508468628, 0.3244447708129883, -0.633895993232727, 0.5464786887168884, -0.12127736955881119, -0.5089253187179565, 0.28492486476898193, -0.3042788803577423, 0.6354185342788696, 0.24500322341918945, 0.1483856737613678, 0.3224407434463501, 0.3977721631526947, 0.18872404098510742, -0.11464561522006989, -0.07663322985172272},
};
const float bias_l4[] =
	{0.004588894546031952, 0.02734488621354103, 0.0361655168235302, -0.00952707976102829, 0.0, -0.020770734176039696, 0.02174225077033043, -0.018916098400950432};

const std::vector<std::vector<float>> weights_l5{
	{-0.0745009109377861, 0.5659576058387756, -0.5103245973587036, 0.05151712894439697, -0.6783524751663208, -0.1898048222064972, 0.5758970379829407, -0.7096592783927917},
	{-0.24496108293533325, -0.008681010454893112, -0.05814991146326065, -0.45677775144577026, -0.6568183302879333, -0.42387107014656067, 0.23126418888568878, -0.14030560851097107},
	{-0.2420409917831421, -0.5170577764511108, 0.425639808177948, 0.4695214629173279, 0.32270461320877075, -0.15499335527420044, -0.3135506212711334, -0.16643646359443665},
	{-0.4800003170967102, -0.3273748457431793, -0.31685671210289, 0.22509320080280304, -0.5222638249397278, -0.36177369952201843, 0.47725242376327515, 0.36195769906044006},
};
const float bias_l5[] =
	{0.03201065957546234, -0.02646520920097828, -0.023987220600247383, -0.00979860033839941};

const std::vector<std::vector<float>> weights_l6{
	{1.2063063383102417, -0.02397879585623741, -0.24112200736999512, -0.29025477170944214},
	{-0.16854000091552734, -0.01913984678685665, 5.756127848144388e-06, -0.15512269735336304},
};
const float bias_l6[] =
	{0.1915297955274582, 0.40837496519088745};

#endif