#ifndef _MODEL_H_
#define _MODEL_H_

#define IN_SHAPE 13

#define SHAPE_L_1 32
#define SHAPE_L_2 32
#define SHAPE_L_3 16
#define SHAPE_L_4 8
#define SHAPE_L_5 4
#define SHAPE_L_6 2


const std::vector<std::vector<float>> weights_l1{
	{0.11426617950201035, -0.0931820198893547, -0.4548856019973755, 0.29295840859413147, 0.05759651958942413, -0.14797711372375488, -0.22269906103610992, 0.06494585424661636, -0.2135920375585556, -0.2761267423629761, -0.23127201199531555, 0.14900179207324982, -0.03160461038351059},
	{-0.07524740695953369, 0.35367870330810547, -0.10711230337619781, -0.028314219787716866, -0.5046041011810303, -0.26203516125679016, -0.3315645158290863, 0.17887327075004578, -0.18335464596748352, 0.06099855527281761, 0.34115779399871826, -0.09098293632268906, -0.21664968132972717},
	{0.18345367908477783, -0.18803726136684418, -0.19351759552955627, 0.236005038022995, -0.3309735059738159, -0.003092763479799032, 0.017926255241036415, 0.018653536215424538, -0.014253426343202591, 0.24306780099868774, 0.2905507981777191, -0.21262213587760925, -0.015577407553792},
	{0.3601233661174774, -0.06973525136709213, 0.28711798787117004, -0.14696060121059418, 0.17722834646701813, 0.09435077011585236, -0.19330093264579773, -0.016336999833583832, 0.037900250405073166, 0.2222343236207962, 0.2485344111919403, -0.32845184206962585, -0.13617023825645447},
	{-0.219841867685318, -0.3348504602909088, 0.21520143747329712, 0.23193837702274323, 0.27134940028190613, 0.1339111030101776, 0.21662025153636932, 0.515823245048523, -0.333295613527298, -0.07069841027259827, 0.15792186558246613, -0.037772323936223984, 0.21473662555217743},
	{-0.019842805340886116, 0.3069126009941101, 0.39073553681373596, -0.03561937436461449, 0.2305241972208023, 0.31681984663009644, 0.05771561339497566, 0.06663743406534195, 0.3442975878715515, -0.09298208355903625, 0.17266829311847687, 0.31892409920692444, 0.018437467515468597},
	{0.06962218880653381, -0.14274291694164276, -0.19125978648662567, 0.3150671422481537, -0.3967367708683014, 0.18626347184181213, 0.11411675065755844, 0.21136212348937988, 0.3061034679412842, 0.13187280297279358, 0.16056717932224274, -0.42029958963394165, 0.3743993639945984},
	{-0.38540470600128174, -0.3429255187511444, -0.35154154896736145, -0.209703266620636, -0.008777986280620098, 0.438366174697876, 0.11357191950082779, -0.2733246088027954, 0.11919663101434708, 0.26935848593711853, 0.20020359754562378, 0.3176930844783783, -0.3063437044620514},
	{0.11682937294244766, 0.018458478152751923, 0.1196664571762085, 0.035383060574531555, 0.21023306250572205, 0.27314555644989014, -0.43643882870674133, -0.2977667450904846, -0.043684665113687515, -0.1381908506155014, 0.24183186888694763, -0.10997894406318665, 0.37813690304756165},
	{0.01701212488114834, 0.005564817693084478, 0.07968579232692719, 0.02573021501302719, -0.3621214032173157, -0.03197108581662178, 0.10777591168880463, 0.21327844262123108, -0.6068069934844971, 0.05124710127711296, 0.019352680072188377, 0.29730451107025146, -0.3167678117752075},
	{-0.2987881004810333, 0.46821632981300354, -0.27448853850364685, 0.0341380275785923, -0.14080001413822174, -0.012923351489007473, -0.03882306441664696, -0.19512169063091278, -0.03348261117935181, 0.17012560367584229, 0.3654155433177948, 0.401836097240448, 0.16490647196769714},
	{0.2870318591594696, 0.2385178506374359, 0.28391748666763306, 0.22401641309261322, -0.06749303638935089, 0.06167055293917656, -0.10794094949960709, -0.01839248277246952, 0.2566804587841034, 0.13022612035274506, 0.0843387171626091, 0.1475905179977417, 0.175734281539917},
	{-0.2573917806148529, -0.2703510820865631, -0.1054195985198021, 0.35251203179359436, 0.18405301868915558, 0.10479392111301422, -0.21560119092464447, -0.17343315482139587, 0.17862120270729065, 0.015989011153578758, 0.3548642694950104, 0.20966888964176178, -0.0593983419239521},
	{0.35051441192626953, 0.039037857204675674, 0.08605282008647919, -0.20365537703037262, 0.028185678645968437, 0.1854904294013977, -0.18550898134708405, -0.8944309949874878, -0.2140505611896515, -0.027706151828169823, -0.24028578400611877, 0.037650324404239655, -0.04689907655119896},
	{0.0997057780623436, 0.2715870440006256, -0.04688846319913864, 0.1908535212278366, -0.3608029782772064, -0.21826381981372833, 0.495192289352417, 0.603447675704956, 0.11898190528154373, -0.12790215015411377, -0.10808845609426498, 0.19714705646038055, 0.32563892006874084},
	{0.25372275710105896, 0.1849842071533203, -0.2264113426208496, 0.16975919902324677, -0.4554680287837982, -0.1864827424287796, -0.27034780383110046, -0.11301762610673904, 0.021715309470891953, -0.24083758890628815, 0.1724434792995453, 0.11548128724098206, -0.12738046050071716},
	{-0.03239593654870987, 0.20874643325805664, 0.045643288642168045, 0.09978631138801575, -0.19094550609588623, -0.02765681780874729, 0.1251257210969925, 0.0669102892279625, -0.0004090429865755141, -0.233598530292511, -0.4022001326084137, -0.3612557053565979, 0.2916419506072998},
	{0.3543965518474579, 0.1380753070116043, -0.15080632269382477, 0.03557930886745453, -0.4389362633228302, -0.10794544965028763, 0.02679409459233284, -0.09927774965763092, -0.23315291106700897, 0.12471596151590347, -0.23155756294727325, 0.08178821951150894, -0.24814553558826447},
	{-0.1219426691532135, 0.38018468022346497, 0.06736863404512405, 0.26078394055366516, 0.09226209670305252, -0.17748115956783295, 0.26664799451828003, -0.28390464186668396, -0.47180837392807007, 0.14852234721183777, -0.1439729928970337, -0.03290637955069542, -0.21681442856788635},
	{-0.19331030547618866, 0.2716010510921478, -0.07344628870487213, -0.29159417748451233, -0.39740684628486633, 0.3546326756477356, 0.3330104649066925, 0.18329839408397675, 0.03455967456102371, -0.06014670431613922, 0.2820490300655365, -0.08085426688194275, 0.20847347378730774},
	{0.23882268369197845, 0.2888887822628021, 0.40018534660339355, -0.2967767119407654, -0.07853720337152481, 0.32323798537254333, 0.18320995569229126, 0.2615891695022583, -0.06004844233393669, -0.013079329393804073, -0.15763293206691742, -0.2944258153438568, -0.37707942724227905},
	{0.3563607335090637, 0.20508447289466858, 0.26569366455078125, 0.1416579931974411, -0.1355261653661728, -0.26014024019241333, 0.11514127999544144, 0.25535115599632263, 0.017011703923344612, -0.3699256181716919, -0.029246727004647255, 0.13397471606731415, 0.15314321219921112},
	{-0.26468706130981445, -0.2695394456386566, -0.1653018593788147, 0.2947821617126465, 0.003411418991163373, 0.30357685685157776, 0.19125013053417206, 0.44913482666015625, 0.002647656248882413, -0.017095422372221947, 0.19333627820014954, -0.08144955337047577, -0.07932227849960327},
	{0.17107267677783966, -0.4941278398036957, 0.1742555797100067, 0.07257850468158722, 0.4215921461582184, -0.41878390312194824, 0.27870064973831177, 0.5015305876731873, -0.08500697463750839, 0.35361114144325256, -0.22415806353092194, 0.13877809047698975, 0.3480421304702759},
	{0.14318206906318665, 0.13057541847229004, 0.2552970349788666, -0.22330991923809052, -0.8002023100852966, -0.424629807472229, 0.09044227749109268, 0.2910115420818329, -0.3720833659172058, -0.08867569267749786, 0.22513368725776672, -0.2766721248626709, -0.00022643001284450293},
	{-0.3956460952758789, -0.22872132062911987, -0.15599404275417328, 0.18127480149269104, 0.11049798876047134, 0.21111920475959778, 0.40596702694892883, 0.07665280252695084, 0.1104954406619072, 0.03641851991415024, 0.14458757638931274, -0.1887623518705368, -0.1656825691461563},
	{-0.42471233010292053, 0.038864921778440475, -0.23713280260562897, -0.08679187297821045, -0.16464096307754517, 0.21500833332538605, -0.1783970445394516, -0.21219724416732788, -0.37520521879196167, -0.031055212020874023, 0.2983537018299103, 0.2949519157409668, -0.16453926265239716},
	{-0.37964963912963867, 0.053639449179172516, -0.31288576126098633, 0.10634152591228485, -0.03957780450582504, 0.021287918090820312, 0.1275658756494522, -0.04627154394984245, -0.02156226709485054, -0.0016599373193457723, -0.5235329270362854, -0.3403192162513733, 0.1441005915403366},
	{-0.13708680868148804, -0.18900597095489502, -0.22192704677581787, 0.3453018367290497, -0.25765928626060486, 0.02035633474588394, 0.03242180123925209, -0.2938774526119232, -0.10560403764247894, 0.2969074547290802, -0.27880534529685974, 0.2943558692932129, 0.25075268745422363},
	{0.08681079745292664, -0.02448761835694313, -0.21767732501029968, -0.3960450291633606, 0.43916183710098267, -0.07056267559528351, 0.5301080942153931, 0.13201062381267548, 0.03588201105594635, 0.030109310522675514, 0.042654648423194885, 0.03156007453799248, -0.1594776213169098},
	{0.25945693254470825, -0.18049591779708862, -0.20041485130786896, -0.09386426955461502, 0.08180014789104462, 0.36931687593460083, 0.18061502277851105, 0.14189231395721436, 0.01201521698385477, -0.08825643360614777, -0.32265985012054443, 0.20366445183753967, 0.2466011941432953},
	{-0.02042742446064949, -0.13823439180850983, -0.38167914748191833, 0.17850658297538757, 0.0024823490530252457, 0.37414976954460144, 0.11342086642980576, 0.2316361367702484, -0.3217245042324066, -0.23495924472808838, 0.2934248149394989, -0.35252645611763, -0.47706571221351624},
};
const float bias_l1[] =
	{-0.03751062974333763, 0.07280705124139786, 0.0494208000600338, 0.010160687379539013, 0.05200645327568054, 0.02438250742852688, 0.022096095606684685, 0.010635435581207275, -0.06218627467751503, -0.12429007887840271, 0.03194476664066315, -0.03083714470267296, -0.0319889634847641, -0.02404915727674961, 0.06828054040670395, -0.022125650197267532, -0.04934860020875931, 0.08725561201572418, -0.007481652311980724, 0.06650076806545258, 0.062408365309238434, -0.003024138743057847, 0.007415536791086197, 0.09947428107261658, 0.028630003333091736, 0.002495002932846546, -0.051412954926490784, 0.00801112875342369, 0.06097530201077461, -0.0056951395235955715, 0.10237595438957214, -0.08579535782337189};

const std::vector<std::vector<float>> weights_l2{
	{0.14717362821102142, -0.343021959066391, -0.10607412457466125, -0.0782514363527298, 0.2586315870285034, -0.18293893337249756, -0.10336122661828995, 0.13747210800647736, 0.13905955851078033, 0.6549836993217468, 0.039321236312389374, -0.16017290949821472, 0.280750036239624, -0.48372122645378113, 0.3362998962402344, 0.2596500813961029, 0.0017075695795938373, -0.15332765877246857, -0.30274641513824463, -0.003614014247432351, -0.24574211239814758, 0.008520442992448807, -0.003642207710072398, 0.45169365406036377, -1.039068341255188, -0.3037262260913849, 0.18823669850826263, 0.3213493824005127, -0.2138226330280304, 0.15709200501441956, -0.13828310370445251, -0.6340182423591614},
	{-0.14988674223423004, 0.24940882623195648, -0.12631110846996307, 0.0829201266169548, 0.16610737144947052, 0.27709662914276123, -0.0833018496632576, -0.1360372006893158, 0.33147135376930237, 0.07461580634117126, 0.2624998688697815, -0.06527148932218552, 0.2750631272792816, 0.22911472618579865, 0.07217975705862045, -0.12074536830186844, -0.1289602667093277, 0.17298147082328796, 0.2567768394947052, 0.273679256439209, 0.06682188808917999, -0.014167831279337406, 0.20600296556949615, 0.13705205917358398, -0.24032126367092133, -0.13298802077770233, 0.09122568368911743, 0.3504244089126587, -0.05003681406378746, 0.3081316351890564, -0.24507735669612885, -0.15720103681087494},
	{-0.23000489175319672, -0.13825975358486176, 0.10673803836107254, -0.1296047866344452, 0.11716140806674957, 0.2187332957983017, 0.05578749626874924, -0.30606019496917725, -0.10194990783929825, 0.23784048855304718, -0.24742381274700165, 0.23241347074508667, 0.06758370995521545, -0.3577536344528198, 0.021426865831017494, 0.2856314480304718, 0.1428341269493103, -0.15446744859218597, -0.08340968191623688, 0.03339381888508797, -0.03340061381459236, -0.1639602780342102, -0.016790954396128654, 0.1335626095533371, -0.5079862475395203, -0.3228439688682556, 0.10687954723834991, 0.2175145000219345, 0.1488194614648819, -0.07659043371677399, 0.01475342083722353, -0.23952461779117584},
	{0.268634170293808, 0.051803190261125565, 0.08484137058258057, -0.0067839473485946655, 0.18268020451068878, 0.224625825881958, -0.010858021676540375, 0.12699900567531586, 0.1741405576467514, 0.5799160003662109, 0.05430230498313904, -0.07173790782690048, 0.0330076664686203, -0.39500245451927185, -0.06561125814914703, 0.12185313552618027, 0.30396324396133423, -0.3010379374027252, 0.03732558712363243, 0.09146034717559814, 0.061564020812511444, -0.12004245072603226, 0.10338886082172394, -0.008970649912953377, -0.7359898090362549, -0.16457915306091309, 0.027170024812221527, -0.049427349120378494, 0.09155859053134918, 0.2250947207212448, 0.12022450566291809, -0.1250603199005127},
	{-0.21420854330062866, 0.015947818756103516, -0.24771049618721008, -0.062113627791404724, 0.10116997361183167, -0.16952289640903473, -0.01233971118927002, 0.11836838722229004, 0.02207884192466736, 0.12645962834358215, -0.26692554354667664, -0.17560996115207672, -0.25057607889175415, -0.1976926177740097, -0.19938141107559204, 0.19272616505622864, 0.16879332065582275, -0.09259331226348877, -0.04917788505554199, 0.09677615761756897, -0.0473727285861969, -0.1375521868467331, -0.2804684638977051, -0.05170479416847229, 0.2166564166545868, 0.20433923602104187, 0.0858314037322998, -0.17839106917381287, 0.07779619097709656, -0.30505311489105225, 0.04570069909095764, -0.07006163895130157},
	{0.007585096172988415, -0.38637444376945496, 0.032334599643945694, -0.12262196093797684, -0.10546071082353592, -0.12458091974258423, 0.27397578954696655, 0.034669555723667145, -0.16511526703834534, 0.2730153501033783, -0.19999678432941437, 0.12381864339113235, -0.08816858381032944, -0.2140609174966812, 0.0904598981142044, -0.0626840591430664, 0.09584111720323563, 0.17461179196834564, -0.22321057319641113, 0.158674418926239, -0.0368993803858757, 0.18855471909046173, -0.02069014124572277, 0.2644815444946289, -0.15671321749687195, -0.04231620579957962, -0.18548928201198578, 0.32020044326782227, 0.14894522726535797, -0.24920326471328735, -0.16285987198352814, -0.21785761415958405},
	{0.1857554018497467, -0.30313387513160706, -0.10345278680324554, -0.05378647521138191, 0.29643815755844116, -0.12181846797466278, -0.05571157857775688, -0.06635706126689911, -0.14589716494083405, -0.14191864430904388, -0.3279257118701935, 0.1516239196062088, -0.0508057102560997, -0.15888382494449615, -0.06041065976023674, 0.1403970718383789, -0.10605704039335251, 0.06434161216020584, 0.2121044397354126, -0.15786322951316833, -0.09046023339033127, 0.07579520344734192, 0.22929221391677856, -0.20976433157920837, -0.2430131733417511, -0.19203956425189972, 0.09737776964902878, 0.2732865810394287, 0.17955809831619263, 0.2522754669189453, -0.11931997537612915, 0.23099897801876068},
	{-0.04119834303855896, -0.0501810684800148, -0.22777409851551056, 0.2241465449333191, 0.1180967167019844, -0.04437723010778427, 0.21076340973377228, -0.3422394394874573, 0.25611475110054016, 0.07830746471881866, -0.06650851666927338, -0.16958537697792053, -0.054593294858932495, 0.4564715325832367, -0.2685159146785736, 0.0945429801940918, 0.16102451086044312, 0.1188909113407135, 0.34415748715400696, -0.42465445399284363, 0.29095572233200073, 0.07401064783334732, -0.27893564105033875, 0.2604682147502899, -0.1090659350156784, 0.2434430718421936, 0.13914890587329865, -0.4162294268608093, 0.03483990952372551, -0.014419971965253353, -0.20920293033123016, -0.1564037799835205},
	{-0.08052396029233932, -0.182808056473732, 0.1060778796672821, -0.004141262732446194, -0.2871917188167572, 0.17181970179080963, 0.2252727746963501, -0.00656408816576004, -0.13659463822841644, 0.30351099371910095, -0.2865898311138153, 0.2807179391384125, 0.14933130145072937, -0.5156852006912231, -0.11020946502685547, 0.2652427852153778, -0.22278523445129395, -0.35706576704978943, -0.25774985551834106, 0.09211640059947968, 0.4364505708217621, -0.1961527317762375, 0.20547384023666382, 0.32059246301651, -0.8963723182678223, -0.21976880729198456, 0.05955839157104492, 0.3921554386615753, -0.21147771179676056, 0.386550635099411, -0.13409212231636047, -0.1434101015329361},
	{0.23977285623550415, -0.3973669707775116, -0.11593642830848694, 0.06101212278008461, 0.16824126243591309, 0.13121101260185242, -0.29216834902763367, -0.3266024589538574, -0.28185296058654785, 0.5809755921363831, -0.5008757710456848, -0.3036559820175171, 0.007517167367041111, -0.4541850686073303, 0.3111228346824646, -0.1071038693189621, 0.22874991595745087, -0.02337970957159996, -0.013223542831838131, -0.0001221646962221712, -0.2409626990556717, 0.145066037774086, -0.15682582557201385, 0.18896479904651642, 0.11443346738815308, -0.009042550809681416, -0.15436431765556335, 0.24477867782115936, 0.2945379316806793, 0.563583254814148, 0.30549857020378113, 0.00027751424931921065},
	{0.18274804949760437, -0.042404577136039734, -0.19739854335784912, -0.09205280244350433, 0.08129370212554932, -0.029073331505060196, -0.06707609444856644, -0.27911344170570374, 0.07375882565975189, -0.29764649271965027, -0.003946634475141764, 0.07888077199459076, 0.12974941730499268, 0.03155806288123131, 0.1820032149553299, -0.12677603960037231, 0.10534685105085373, -0.1782393604516983, -0.04325081780552864, -0.1211954727768898, -0.24812084436416626, 0.2914254069328308, -0.2481468915939331, 0.25796303153038025, -0.40429413318634033, 0.15404574573040009, -0.1111498475074768, 0.04545077309012413, -0.1612766981124878, -0.10077725350856781, 0.16595017910003662, 0.28086912631988525},
	{0.16655339300632477, -0.41630133986473083, -0.18266449868679047, 0.2985056936740875, 0.26166191697120667, 0.14046739041805267, -0.2113150656223297, 0.09600438177585602, 0.20245642960071564, 0.5692141056060791, -0.2891749143600464, 0.23279635608196259, -0.2803950905799866, -0.11650827527046204, -0.3104499578475952, -0.05401425436139107, -0.21410717070102692, -0.22918164730072021, -0.04908193647861481, 0.28798267245292664, -0.04444678872823715, 0.27276474237442017, 0.1604708582162857, -0.04726994410157204, -0.471495121717453, 0.11562267690896988, 0.3317900002002716, 0.06524981558322906, -0.05098908022046089, 0.13946907222270966, 0.07461603730916977, 0.0711974948644638},
	{-0.27224165201187134, -0.49070701003074646, 0.1322496086359024, 0.15195272862911224, -0.14894844591617584, 0.14280839264392853, -0.20994628965854645, -0.14467348158359528, -0.027102436870336533, 0.2511119246482849, 0.09472644329071045, 0.19613182544708252, 0.1424350142478943, -0.5399600863456726, -0.22832415997982025, -0.17117545008659363, 0.056364480406045914, -0.061197198927402496, 0.04472735896706581, 0.057513996958732605, 0.31024232506752014, -0.12594327330589294, 0.12410257011651993, -0.031856719404459, -0.6962302327156067, -0.18878594040870667, 0.3982820510864258, 0.2960449457168579, -0.5435771346092224, 0.09164031594991684, -0.26443666219711304, 0.17849105596542358},
	{0.1260434240102768, 0.0951821357011795, -0.1585332155227661, 0.12583152949810028, -0.08166887611150742, 0.20127327740192413, 0.10471755266189575, -0.12495020031929016, 0.23432405292987823, -0.17220917344093323, 0.23986658453941345, -0.2503185570240021, -0.20308004319667816, 0.1978559046983719, 0.2299792319536209, 0.13655929267406464, -0.2850540280342102, 0.24518971145153046, 0.16527685523033142, -0.3697844445705414, -0.22697453200817108, 0.14048027992248535, -0.10805370658636093, 0.22665296494960785, 0.6100862622261047, 0.015548501163721085, -0.16636402904987335, -0.1560865193605423, -0.10572866350412369, -0.29542773962020874, 0.0928673967719078, 0.11438996344804764},
	{0.09952309727668762, -0.13553233444690704, -0.22548842430114746, -0.12871380150318146, -0.30520007014274597, 0.030952125787734985, 0.08925950527191162, 0.03294292092323303, 0.03337320685386658, -0.09680061042308807, -0.2756337821483612, -0.2243124544620514, -0.2706592381000519, -0.2738754153251648, -0.19966202974319458, 0.07144317030906677, -0.06927140057086945, -0.20651772618293762, -0.0941128134727478, 0.2312924563884735, 0.11749434471130371, -0.13808545470237732, 0.15112707018852234, -0.0701352208852768, 0.14473295211791992, -0.12108312547206879, 0.24356946349143982, 0.24791422486305237, 0.05752241611480713, 0.29576483368873596, -0.14485588669776917, 0.08796265721321106},
	{0.13528692722320557, 0.1057349145412445, 0.31521356105804443, 0.08299513161182404, -0.05604955181479454, 0.2728373408317566, 0.0379655621945858, 0.19220519065856934, -0.26365262269973755, 0.6472275257110596, 0.1276378631591797, -0.20406034588813782, 0.307365745306015, -0.12069421261548996, 0.16792909801006317, -0.038409795612096786, -0.11980560421943665, -0.19252872467041016, -0.11084289848804474, 0.38155582547187805, 0.3218652009963989, -0.1948041319847107, 0.24921371042728424, 0.13297463953495026, -0.8394444584846497, -0.3258388340473175, 0.3657090961933136, 0.09092371165752411, 0.15722639858722687, 0.027907609939575195, -0.22830691933631897, -0.12782911956310272},
	{0.03718126565217972, -0.2644428312778473, 0.06676644831895828, 0.2827230393886566, 0.14988937973976135, 0.02305360697209835, 0.2110883891582489, 0.34084227681159973, 0.24801819026470184, 0.30918705463409424, -0.08761166781187057, -0.1367838978767395, 0.028404925018548965, 0.023373842239379883, -0.01971288211643696, 0.2016030251979828, 0.09678874164819717, -0.08041847497224808, -0.045325614511966705, -0.07847609370946884, -0.09156033396720886, -0.09270907193422318, -0.23561838269233704, -0.2870371639728546, -0.8759070038795471, -0.24500539898872375, 0.20735366642475128, 0.18067286908626556, -0.24623152613639832, -0.28758832812309265, -0.024603741243481636, 0.10378524661064148},
	{-0.1394507735967636, -0.2580017149448395, 0.21420101821422577, -0.13649167120456696, 0.12788642942905426, 0.09846529364585876, 0.22409681975841522, -0.32415351271629333, 0.24049162864685059, 0.22530291974544525, -0.13386110961437225, -0.26728469133377075, 0.19072078168392181, -0.31335723400115967, 0.1772889345884323, 0.23536787927150726, 0.062445465475320816, 0.142446830868721, -0.3236333727836609, 0.2542700171470642, 0.47716405987739563, 0.09555055946111679, 0.11564259231090546, -0.1927141547203064, -0.7032021284103394, -0.33745983242988586, 0.4239021837711334, -0.07077787816524506, -0.09304739534854889, -0.2726658880710602, 0.20566828548908234, -0.15063558518886566},
	{0.215349018573761, 0.37806907296180725, 0.13267163932323456, -0.22407692670822144, 0.006891564466059208, 0.1473279893398285, -0.1479296237230301, -0.07883232086896896, -0.16782723367214203, 0.3546310365200043, 0.14473630487918854, -0.1408839076757431, 0.21228528022766113, -0.018817994743585587, -0.22504758834838867, -0.004356433637440205, -0.09654693305492401, -0.03521868214011192, 0.15793554484844208, 0.23876947164535522, 0.06377030164003372, -0.1780417263507843, 0.22178970277309418, -0.28074485063552856, 0.17754867672920227, 0.09556645154953003, -0.1254965215921402, -0.28042495250701904, 0.15408457815647125, 0.07682278752326965, -0.2104194015264511, 0.17629481852054596},
	{0.25275281071662903, -0.43090564012527466, 0.1706787347793579, 0.19098743796348572, 0.24296075105667114, 0.22814925014972687, -0.23559482395648956, -0.10365533828735352, 0.1699160933494568, 0.1690777689218521, 0.22201848030090332, -0.30792102217674255, -0.2883986830711365, -0.11409284919500351, 0.22196774184703827, -0.025630833581089973, -0.23479260504245758, -0.08869325369596481, -0.2658597230911255, -0.017034411430358887, 0.3402322232723236, 0.12085215002298355, 0.18732799589633942, 0.11099298298358917, -0.7283209562301636, -0.05415242537856102, -0.0442497581243515, -0.1939367800951004, 0.27428320050239563, 0.13623662292957306, -0.07593490928411484, 0.11633163690567017},
	{0.08563303202390671, -0.3546789884567261, 0.04839702323079109, 0.24120056629180908, 0.15695376694202423, 0.10814575850963593, -0.2306583970785141, 0.19742600619792938, -0.14907383918762207, 0.6828106641769409, 0.11386506259441376, 0.17791655659675598, -0.11096148937940598, -0.20694048702716827, -0.05205456539988518, -0.2071850746870041, 0.1725388914346695, -0.026613404974341393, 0.2900330126285553, 0.29461759328842163, 0.37682825326919556, -0.032232969999313354, 0.34790170192718506, -0.1215810775756836, -0.7255796790122986, -0.010304088704288006, -0.019522806629538536, 0.5073161721229553, -0.1788870245218277, 0.18452520668506622, 0.20325371623039246, 0.06419908255338669},
	{0.17609769105911255, -0.22545871138572693, 0.04759091138839722, 0.12093332409858704, -0.27777713537216187, -0.21291059255599976, -0.2664327323436737, -0.2706744968891144, 0.06619691848754883, -0.03516688942909241, -0.20247021317481995, -0.04147025942802429, 0.11713606119155884, -0.08416050672531128, 0.06410866975784302, 0.03834956884384155, -0.0013101398944854736, -0.10929486155509949, -0.194645494222641, 0.08365973830223083, -0.03399339318275452, -0.2620490491390228, -0.02222493290901184, 0.0870809555053711, -0.02430739998817444, 0.10449159145355225, -0.1504906415939331, 0.06843984127044678, 0.2624876797199249, -0.22035524249076843, -0.12267425656318665, -0.24640627205371857},
	{-0.2510528266429901, 0.10884584486484528, 0.1657906025648117, -0.14244389533996582, -0.2876895070075989, -0.1396937221288681, -0.18061880767345428, 0.13884921371936798, 0.19594500958919525, 0.13135945796966553, 0.21273644268512726, 0.09141172468662262, 0.22626616060733795, -0.9169846773147583, -0.11179081350564957, 0.2844836711883545, 0.03526786342263222, -0.20663520693778992, -0.12198154628276825, 0.13190330564975739, 0.5869317650794983, -0.33266958594322205, -0.09891466051340103, -0.6107410788536072, -0.08257054537534714, 0.19317379593849182, 0.5780242085456848, 0.09562698006629944, 0.2639511525630951, 0.13549235463142395, -0.09759911149740219, 0.5545576214790344},
	{0.26936912536621094, -0.20531752705574036, 0.26082274317741394, 0.30111759901046753, -0.1681104600429535, -0.08212091028690338, 0.10473862290382385, -0.3754318356513977, -0.11176231503486633, 0.5096231698989868, -0.06615347415208817, -0.120696522295475, 0.21529075503349304, -0.25084951519966125, 0.1997130662202835, -0.208977609872818, 0.18147437274456024, -0.3825587034225464, -0.25960540771484375, 0.2029401659965515, 0.38565683364868164, 0.08798260241746902, -0.09767719358205795, 0.015927094966173172, -0.7054522633552551, -0.1362440139055252, -0.19139006733894348, 0.3862047493457794, 0.13503623008728027, -0.12911993265151978, -0.1504903882741928, 0.00517225032672286},
	{0.4375053644180298, 0.013324271887540817, -0.29003027081489563, -0.11797981709241867, 0.08437003195285797, -0.05178513377904892, -0.29633912444114685, 0.007090991362929344, -0.11379626393318176, 0.522367000579834, 0.04621400684118271, -0.13603563606739044, -0.09975658357143402, -0.4448806345462799, 0.3166103959083557, 0.23601724207401276, -0.039021577686071396, 0.15471066534519196, 0.23096592724323273, 0.28645727038383484, 0.043270815163850784, -0.19667141139507294, 0.0162137933075428, 0.24224750697612762, -0.46338215470314026, -0.602138340473175, 0.44032180309295654, 0.14047202467918396, 0.43562737107276917, 0.3359203338623047, 0.24455028772354126, -0.045947544276714325},
	{-0.26703396439552307, -0.12535884976387024, 0.019565623253583908, 0.010864559561014175, 0.24633660912513733, 0.21182069182395935, 0.10546698421239853, -0.19247832894325256, 0.22514016926288605, 0.23578862845897675, 0.20806817710399628, 0.2378672957420349, 0.21174225211143494, -0.2916625440120697, 0.10366136580705643, -0.1060413122177124, 0.17103667557239532, -0.051558129489421844, 0.019190505146980286, 0.022716443985700607, 0.4801945090293884, -0.3228604793548584, -0.2748483121395111, -0.17149531841278076, -0.38423120975494385, -0.06975389271974564, 0.3985271751880646, 0.012272438034415245, 0.1797868013381958, 0.2562757730484009, -0.15831811726093292, -0.2958298325538635},
	{0.15783308446407318, -0.3358795940876007, 0.2477356642484665, -0.15145830810070038, 0.30971038341522217, -0.025909699499607086, 0.11210103332996368, 0.014471199363470078, -0.029447434470057487, 0.031497031450271606, 0.271035373210907, 0.20961838960647583, 0.15102258324623108, -0.5401552319526672, 0.2821359932422638, 0.3241574466228485, 0.2729165852069855, -0.08755086362361908, -0.144834965467453, -0.15103936195373535, 0.3085319399833679, 0.2626029849052429, -0.03851410001516342, 0.26920759677886963, -0.49362653493881226, 0.1481969803571701, 0.0960700660943985, 0.3558494448661804, 0.044056158512830734, -0.202243372797966, 0.10933521389961243, 0.28007569909095764},
	{-0.16053195297718048, 0.40482375025749207, 0.13431090116500854, 0.10375270992517471, 0.044628337025642395, -0.23777149617671967, 0.11943865567445755, 0.5008147358894348, -0.26610836386680603, -0.11888452619314194, -0.07184157520532608, -0.015948519110679626, -0.05294601246714592, 0.431897908449173, -0.10280679166316986, 0.50428307056427, 0.1360452026128769, 0.5006454586982727, 0.29101669788360596, -0.0005121062858961523, 0.4569362699985504, -0.18250347673892975, -0.22522889077663422, 0.02745775878429413, 0.6148790121078491, -0.41353315114974976, -0.1415991634130478, 0.12495739012956619, -0.33479049801826477, 0.3272821009159088, -0.1868087202310562, -0.17334139347076416},
	{0.15190906822681427, -0.2988824248313904, -0.33429357409477234, -0.2900245487689972, -0.22613807022571564, 0.22986771166324615, -0.0959782525897026, 0.052772365510463715, -0.0858079344034195, -0.13789795339107513, -0.03276467323303223, 0.22731365263462067, 0.06319945305585861, -0.19798746705055237, -0.07081175595521927, -0.17840245366096497, 0.08859565109014511, 0.14016985893249512, -0.10970490425825119, -0.17249396443367004, -0.17367245256900787, 0.20031429827213287, 0.20155449211597443, 0.1579376757144928, -0.011306618340313435, -0.21576416492462158, -0.28096482157707214, -0.2492177039384842, -0.22663472592830658, -0.04581486061215401, -0.28911086916923523, -0.11341167241334915},
	{0.02127549983561039, 0.005058796610683203, 0.13455387949943542, 0.08575410395860672, 0.17348235845565796, -0.2434317022562027, 0.14564985036849976, -0.12252558022737503, -0.22154267132282257, -0.08313696086406708, -0.2212393581867218, -0.1755855232477188, 0.1529025435447693, 0.17994357645511627, 0.07437685877084732, -0.2814914882183075, 0.23435111343860626, 0.09019103646278381, -0.2778507471084595, -0.10922438651323318, -0.2364135980606079, 0.03636123985052109, -0.22707296907901764, -0.24644936621189117, 0.20899125933647156, -0.07173948734998703, 0.018733978271484375, 0.17168880999088287, 0.03853461518883705, 0.22638854384422302, -0.23989857733249664, 0.22399558126926422},
	{-0.021404197439551353, 0.03991380333900452, 0.38206201791763306, -0.16169749200344086, -0.2823356091976166, 0.19522084295749664, 0.048398081213235855, 0.17704299092292786, -0.017187010496854782, 0.29577505588531494, -0.10537988692522049, 0.10819652676582336, -0.2569724917411804, -0.24273976683616638, 0.05084766820073128, 0.19838665425777435, -0.19062530994415283, -0.2982456386089325, -0.17965315282344818, -0.006007774267345667, 0.24756737053394318, 0.292530357837677, 0.060123540461063385, -0.07782278209924698, -0.37023624777793884, -0.35548925399780273, 0.1762586236000061, -0.17507879436016083, -0.16683164238929749, -0.05361827462911606, -0.2709345519542694, -0.28702715039253235},
	{-0.1501401960849762, 0.3407217562198639, 0.24088306725025177, 0.27527859807014465, 0.18347565829753876, 0.000705719692632556, -0.12551243603229523, -0.15460023283958435, 0.24975062906742096, -0.6345286965370178, -0.0026285434141755104, -0.2227356731891632, 0.24756556749343872, 0.1932036280632019, -0.39465972781181335, -0.21424467861652374, -0.025849459692835808, 0.15804064273834229, 0.17229536175727844, -0.04927448555827141, -0.5220442414283752, -0.036753956228494644, -0.1575881689786911, -0.22638867795467377, -0.29696106910705566, 0.05880019813776016, 0.3492944538593292, -0.2189762443304062, 0.15360477566719055, -0.11407043784856796, -0.10920055210590363, -0.17022670805454254},
};
const float bias_l2[] =
	{0.05584926903247833, 0.03419667109847069, -0.009446450509130955, 0.019313428550958633, 0.0, 0.0015898698475211859, 0.001483964268118143, -0.03135412558913231, 0.029631756246089935, 0.102837473154068, -0.015121234580874443, 0.011482998728752136, -0.0326312780380249, 8.614864782430232e-05, 0.0, 0.03661017119884491, -0.017026640474796295, -0.005274232476949692, 0.010272476822137833, -0.028102915734052658, 0.03742404282093048, 0.0, -0.004254406318068504, 0.09172918647527695, 0.08815641701221466, -0.0009630814893171191, 0.019061647355556488, 0.06023731082677841, -0.026162652298808098, -0.013630270957946777, 0.03329424187541008, 0.007449130527675152};

const std::vector<std::vector<float>> weights_l3{
	{0.29215672612190247, -0.11095909029245377, 0.27940526604652405, -0.20425249636173248, -0.16077876091003418, 0.19237196445465088, 0.09948378801345825, -0.13103337585926056, -0.044403888285160065, 0.3958592116832733, 0.2841947078704834, 0.09576012939214706, 0.27930954098701477, -0.3158995807170868, 0.1087530255317688, -0.07780294865369797, 0.01676415465772152, 0.2589941620826721, -0.106523796916008, -0.24811764061450958, 0.10407345741987228, -0.245083749294281, -0.6468935608863831, 0.16018691658973694, 0.20521841943264008, -0.02610129490494728, -0.05803367868065834, -0.20578619837760925, 0.18674400448799133, 0.09958867728710175, 0.27611222863197327, 0.0862138569355011},
	{0.5415368676185608, -0.04405193403363228, -0.01040717400610447, -0.010483600199222565, -0.0617123544216156, 0.19053468108177185, -0.034410249441862106, -0.375543475151062, 0.10652359575033188, 0.2786474823951721, -0.43827253580093384, 0.21133604645729065, 0.5792562961578369, -0.09178531914949417, 0.1390818953514099, 0.20024099946022034, 0.14066994190216064, -0.10523220151662827, 0.23221635818481445, -0.157627135515213, 0.17407307028770447, 0.0892869234085083, 0.6196786761283875, 0.6680687069892883, 0.6141016483306885, -0.15320470929145813, -0.03181901201605797, -0.3027365803718567, -0.2874807119369507, 0.09350061416625977, 0.1183101162314415, -0.23549458384513855},
	{-0.128429114818573, -0.087227463722229, 0.1641346961259842, -0.19812975823879242, -0.2328621745109558, -0.2843015789985657, 0.056472212076187134, -0.18447573482990265, -0.07712513208389282, -0.3078358471393585, -0.07612591236829758, -0.0711449533700943, 0.25583145022392273, 0.1709703654050827, 0.3132685124874115, -0.11637602746486664, 0.1668807566165924, 0.0017605256289243698, 0.2600404918193817, 0.07095533609390259, -0.22802844643592834, -0.31845173239707947, 0.2506166398525238, 0.1782734990119934, 0.06928452849388123, -0.002556044142693281, -0.10282398015260696, 0.07221727073192596, -0.20518910884857178, -0.3056488633155823, 0.12237637490034103, 0.20737327635288239},
	{0.1038663387298584, 0.05358567461371422, -0.24255935847759247, -0.22439207136631012, -0.12969444692134857, 0.0434684231877327, -0.15039487183094025, -0.2570434808731079, 0.3223380148410797, 0.2045060694217682, 0.121462881565094, -0.04848339408636093, 0.12728363275527954, 0.24793028831481934, -0.2546868920326233, 0.08553072810173035, 0.27807486057281494, 0.004987649153918028, 0.3915570378303528, -0.0481320396065712, -0.24649077653884888, 0.23786267638206482, 0.3922952711582184, 0.08266855031251907, 0.22490940988063812, 0.3461516499519348, 0.0626920610666275, -0.2531897723674774, -0.2196781039237976, 0.22275325655937195, 0.18196873366832733, 0.1586478054523468},
	{0.24542690813541412, 0.15749579668045044, 0.36460089683532715, 0.23577867448329926, -0.2791842520236969, 0.21485543251037598, -0.35197362303733826, -0.38787132501602173, 0.4118965268135071, 0.7555345892906189, -0.1253405213356018, 0.20651939511299133, 0.21272101998329163, -0.20030714571475983, 0.22660043835639954, 0.06965851038694382, 0.014486262574791908, 0.13092510402202606, 0.057656608521938324, 0.015222746878862381, 0.3051939010620117, 0.1286965012550354, 0.7028055787086487, 0.247892826795578, 0.2835990786552429, 0.3068469166755676, 0.22853821516036987, -0.7519069910049438, -0.10601943731307983, -0.14748506247997284, 0.21557945013046265, -0.1589404195547104},
	{-0.26593536138534546, -0.3130105435848236, 0.1542697250843048, -0.1368904560804367, 0.07494047284126282, 0.11654753237962723, 0.2513573467731476, -0.07197248935699463, 0.08715718984603882, 0.16857269406318665, 0.277455598115921, -0.023280497640371323, -0.15292471647262573, -0.2511175870895386, -0.31353968381881714, 0.022730080410838127, 0.2016284167766571, 0.3194412887096405, 0.1060129851102829, 0.2873535454273224, -0.11009763181209564, -0.24664950370788574, 0.17628909647464752, 0.11813172698020935, 0.10596264898777008, 0.07832233607769012, -0.12144674360752106, -0.3035316467285156, 0.15096434950828552, 0.08027693629264832, -0.05849292874336243, 0.2557722330093384},
	{-0.40992656350135803, 0.41122615337371826, 0.17580562829971313, 0.22996963560581207, -0.18122638761997223, 0.3337790369987488, -0.2605937719345093, 0.5660675168037415, -0.1661100685596466, -0.46618780493736267, 0.3112338185310364, -0.10963279753923416, -0.28705841302871704, 0.010913521982729435, 0.19718864560127258, 0.020009225234389305, -0.4045374095439911, -0.06836327910423279, -0.2931440472602844, -0.18458130955696106, 0.11821698397397995, -0.3429628014564514, -0.44175228476524353, -0.2237263321876526, -0.7366892099380493, -0.18952599167823792, 0.23569156229496002, 0.23875078558921814, 0.5130302309989929, -0.0005767241236753762, 0.04600543528795242, 0.6334049701690674},
	{0.5023007392883301, 0.12777084112167358, -0.12116670608520508, 0.37826403975486755, -0.1925584077835083, -0.013387657701969147, -0.28173667192459106, -0.5774457454681396, 0.16840440034866333, 0.3618718385696411, -0.26865968108177185, 0.10588647425174713, 0.06343988329172134, -0.4001900851726532, -0.05140230059623718, 0.3901244103908539, 0.32344791293144226, 0.44730526208877563, -0.06936419755220413, -0.13515157997608185, 0.27804917097091675, -0.1772448569536209, 0.7732398509979248, 0.39398208260536194, 0.06878182291984558, 0.12255317717790604, -0.2707533538341522, -0.7843652963638306, -0.35555312037467957, 0.037425726652145386, -0.18799014389514923, -0.6164301633834839},
	{0.043985169380903244, -0.10436376929283142, -0.011310338042676449, -0.25007641315460205, 0.2793116271495819, -0.06759560108184814, 0.01273928489536047, -0.1530522257089615, -0.16772840917110443, -0.16871203482151031, -0.04971124604344368, 0.2514475882053375, 0.26960113644599915, 0.1585204154253006, -0.348777711391449, 0.05131427198648453, -0.1583305299282074, -0.17480474710464478, 0.201302170753479, 0.13757547736167908, 0.08030915260314941, 0.016921699047088623, -0.3328048288822174, 0.13877463340759277, -0.03413690626621246, -0.07884875684976578, -0.055464111268520355, 0.1614905744791031, -0.21879951655864716, -0.08308005332946777, -0.10391779989004135, -0.09423597157001495},
	{-0.0945965051651001, -0.014457643032073975, 0.13081137835979462, -0.07422361522912979, -0.23691770434379578, 0.29877007007598877, -0.03961659222841263, 0.06452374160289764, -0.1967819631099701, 0.022497892379760742, 0.06362294405698776, -0.15223190188407898, -0.17916379868984222, 0.11241757869720459, 0.050702840089797974, 0.028836846351623535, -0.1150461807847023, -0.01823475956916809, 0.3142752945423126, 0.12809514999389648, 0.17580950260162354, 0.11717027425765991, 0.16175302863121033, -0.1431085616350174, -0.3234821856021881, -0.3421946167945862, -0.1983576864004135, 0.291771799325943, -0.050902582705020905, -0.0997346043586731, -0.33812034130096436, 0.0361286997795105},
	{-0.38736119866371155, 0.3358871340751648, 0.17221972346305847, -0.34170258045196533, 0.03556704521179199, 0.20462067425251007, 0.09950124472379684, -0.07706202566623688, -0.3389586806297302, 0.014756284654140472, -0.27368804812431335, -0.09352701157331467, -0.3298351764678955, 0.46921759843826294, 0.3415621817111969, -0.02131163515150547, -0.26540878415107727, -0.27143171429634094, 0.28358906507492065, -0.40371623635292053, 0.002959487959742546, 0.0682666003704071, -0.2294100821018219, -0.019182346761226654, -0.26982757449150085, -0.050170887261629105, -0.2556707561016083, 0.1452069878578186, -0.19256190955638885, 0.026136189699172974, 0.35664454102516174, 0.1381995528936386},
	{0.06662111729383469, -0.04337090253829956, 0.15797089040279388, -0.130831778049469, -0.1410529464483261, 0.24956455826759338, -0.10877559334039688, -0.30443739891052246, 0.29846295714378357, 0.7435981035232544, 0.10795260220766068, 0.07382683455944061, 0.03386404365301132, -0.3269762098789215, -0.34197160601615906, -0.13016296923160553, 0.07942938059568405, 0.3974848985671997, 0.055540211498737335, 0.2759734094142914, -0.12455224245786667, 0.30344346165657043, 0.7432066202163696, 0.5290381908416748, 0.4101065397262573, -0.07463666051626205, 0.3629570007324219, -0.5381953120231628, -0.27804967761039734, -0.2717539072036743, 0.32484742999076843, -0.5218856930732727},
	{-0.1987776756286621, 0.05229354277253151, -0.11873168498277664, -0.31003788113594055, 0.056385815143585205, 0.26298534870147705, -0.34263819456100464, 0.11568645387887955, -0.3022047281265259, 0.05591045320034027, -0.0840606614947319, 0.11909011751413345, 0.014472140930593014, -0.3096095323562622, -0.2454381287097931, -0.3500308692455292, 0.052133072167634964, -0.28793662786483765, -0.32817837595939636, -0.04059625416994095, 0.13637685775756836, 0.26000872254371643, -0.31776800751686096, -0.13415077328681946, -0.19299842417240143, -0.004653380252420902, 0.1824248880147934, 0.3165615499019623, 0.2787795662879944, 0.24160857498645782, 0.12233654409646988, -0.113423191010952},
	{-0.7517794966697693, 0.2638057470321655, -0.13149337470531464, 0.04836492985486984, -0.14359287917613983, 0.3157667815685272, 0.035298917442560196, -0.0035912985913455486, -0.21928130090236664, -0.47879263758659363, -0.029956350103020668, 0.126604825258255, -0.13829302787780762, -0.10075970739126205, -0.3280850648880005, 0.2382795214653015, -0.22902926802635193, 0.2740786671638489, 0.3603173792362213, -0.15563711524009705, 0.38212376832962036, -0.20129291713237762, -0.3739686906337738, 0.048846010118722916, -0.04159697890281677, 0.020632142201066017, -0.18926578760147095, 0.09364213794469833, 0.21254779398441315, 0.010833355598151684, -0.2989881634712219, 0.6075365543365479},
	{0.06980632245540619, 0.11491231620311737, 0.04605795443058014, 0.32045137882232666, 0.31519386172294617, 0.26444366574287415, -0.16498103737831116, -0.11159177869558334, -0.12757807970046997, 0.6049737334251404, 0.2639665901660919, 0.22760826349258423, 0.3882850706577301, -0.2511940002441406, 0.31839677691459656, -0.07341770827770233, -0.10426962375640869, 0.2023029774427414, 0.2143615186214447, -0.04239437356591225, 0.34296754002571106, -0.22910192608833313, 0.8799986839294434, 0.41193780303001404, 0.41066935658454895, -0.021059442311525345, -0.159806489944458, -0.6351429224014282, 0.24055270850658417, 0.07173588871955872, 0.20493671298027039, -0.44082072377204895},
	{0.26450228691101074, 0.28306907415390015, 0.14733871817588806, 0.1718122959136963, 0.0267295241355896, -0.19169944524765015, 0.1995234489440918, 0.10936065763235092, 0.09455711394548416, -0.1806962639093399, 0.21202398836612701, -0.24414680898189545, -0.13329638540744781, -0.08658874779939651, -0.11320415139198303, -0.30349892377853394, -0.3149493932723999, 0.2285558581352234, -0.3412310481071472, 0.16297949850559235, -0.27216410636901855, -0.28042471408843994, 0.08815182000398636, -0.20802994072437286, -0.06452110409736633, -0.16141057014465332, -0.07396840304136276, -0.21114403009414673, 0.3325138986110687, 0.058777544647455215, -0.2863534092903137, 0.2404194325208664},
};
const float bias_l3[] =
	{-0.014369015581905842, 0.04029661417007446, -0.0023630447685718536, 0.002594015095382929, 0.042258042842149734, -0.01956799067556858, 0.08831363916397095, 0.04368716850876808, -0.018146151676774025, -0.0002740387571975589, 0.14148539304733276, 0.027844376862049103, -0.014670503325760365, 0.0025968756526708603, 0.03497700393199921, -0.012457841075956821};

const std::vector<std::vector<float>> weights_l4{
	{-0.13087356090545654, 0.15370939671993256, 0.07098540663719177, 0.03213273361325264, 0.46663162112236023, -0.4383171498775482, -0.17132475972175598, 0.3406578600406647, -0.08650097250938416, 0.25673002004623413, 0.8054410815238953, 0.4120550751686096, -0.3171529471874237, -0.0836089700460434, 0.14739935100078583, 0.360568642616272},
	{0.4315110146999359, -0.38065260648727417, 0.3193995952606201, 0.47015678882598877, -0.2235017567873001, 0.11669985949993134, 0.07074720412492752, -0.07133519649505615, 0.33292093873023987, -0.07784627377986908, -0.48015761375427246, -0.29108476638793945, 0.4022764563560486, 0.07025790959596634, 0.10579678416252136, -0.38433125615119934},
	{0.0878772884607315, -0.397462397813797, -0.4472290277481079, -0.14805416762828827, 0.36578887701034546, 0.43779218196868896, -0.3835032880306244, -0.09584581851959229, 0.19526241719722748, 0.06658276915550232, -0.00023293495178222656, -0.44092658162117004, 0.08660052716732025, 0.3057076334953308, -0.35205456614494324, -0.032197143882513046},
	{-0.4962345361709595, -0.445536345243454, 0.06683385372161865, 0.4030517637729645, -0.18723604083061218, 0.04201445356011391, -0.017935317009687424, 0.13211342692375183, 0.17294199764728546, -0.3312957286834717, 0.2006966769695282, -0.11773257702589035, 0.386249303817749, -0.18221469223499298, 0.04381300136446953, -0.47896552085876465},
	{-0.16063228249549866, -0.2377835065126419, 0.49094030261039734, -0.27054154872894287, 0.08305159956216812, -0.06472525000572205, -0.05803314596414566, -0.39727598428726196, -0.1737426221370697, -0.3730059862136841, 0.8901673555374146, 0.3872367739677429, -0.47854533791542053, -0.07244424521923065, 0.26261964440345764, -0.4740349352359772},
	{-0.26590776443481445, 0.3339810371398926, 0.18332183361053467, 0.07920777797698975, -0.47693467140197754, -0.1914740800857544, -0.23698103427886963, -0.16637897491455078, -0.4882380962371826, -0.4037855863571167, 0.08278357982635498, -0.255326509475708, 0.3719543218612671, 0.22656381130218506, 0.3693208694458008, -0.42621397972106934},
	{0.41779670119285583, 0.3301287889480591, 0.4365420639514923, 0.04172268509864807, 0.506041407585144, 0.426026850938797, -0.6922471523284912, 0.5886352062225342, 0.18523703515529633, 0.2767438292503357, 0.9121750593185425, 0.4521110951900482, 0.423852801322937, -0.6294714212417603, 0.31558313965797424, 0.07585370540618896},
	{0.19883623719215393, 0.6844205260276794, 0.13106396794319153, 0.31928521394729614, 0.4384430944919586, 0.25414949655532837, -0.3754515051841736, 0.42506006360054016, -0.07988429814577103, -0.09309718012809753, 0.947749137878418, -0.1234215497970581, 0.37674787640571594, -0.4177531599998474, 0.15562719106674194, -0.46464335918426514},
};
const float bias_l4[] =
	{0.04031526669859886, -0.015365232713520527, -0.027400096878409386, -0.021469134837388992, 0.025224603712558746, 0.0, -0.020837485790252686, 0.03290068358182907};

const std::vector<std::vector<float>> weights_l5{
	{-0.2761511206626892, 0.6954169869422913, 0.4560401439666748, 0.6081110239028931, -0.2719850242137909, 0.2946508526802063, 0.5845916867256165, -0.5691856741905212},
	{0.08479129523038864, -0.2729327082633972, -0.45928916335105896, -0.5580998063087463, -0.25729385018348694, -0.10816633701324463, 0.0801471471786499, -0.7049350142478943},
	{-0.687957227230072, 0.3248009979724884, 0.6754739880561829, 0.5771283507347107, -0.6567259430885315, -0.4762558341026306, -0.1452207714319229, -0.3607948422431946},
	{0.20916716754436493, -0.6832414865493774, -0.08016836643218994, -0.4130571186542511, 0.05602391064167023, 0.09158462285995483, 0.3511044979095459, 0.1422158032655716},
};
const float bias_l5[] =
	{-0.032985981553792953, -0.012283279560506344, -0.006911033298820257, 0.04650048911571503};

const std::vector<std::vector<float>> weights_l6{
	{-0.27045831084251404, 1.2189584452926283e-08, 1.0442579621654756e-14, 0.6964651942253113},
	{-0.3922932744026184, -0.00948125496506691, -0.00010158139775739983, 0.47013604640960693},
};
const float bias_l6[] =
	{0.01140348520129919, 0.16725845634937286};

#endif